solver_type L2R_LR
nr_class 5
label 3 4 5 2 1
nr_feature 3339
bias 1.000000000000000
w
0.2201843708494561 0.02628821267398094 0.1061482367267310 -0.5407266494490067 -0.3061005070529694 
0.3479983459874037 -0.07828704942179164 -0.6040695929816997 0.3422971184131581 -0.01840428833440022 
-0.007668534293804447 -0.07192223455814997 -0.1963283225321542 0.3429088699353061 -0.03783235202170496 
-0.1561825643860812 -0.01374817725457310 0.1632258313933287 -0.01221601291906073 -0.003635613860058368 
-0.2433783233827092 0.3502791194981722 -0.1848932734805052 -0.08727318929353911 -0.1095762135951758 
-0.5766365806253878 0.8103619305838251 -0.3427440145291684 -0.09862454963962436 -0.02088015638108421 
0.1478771557279746 -0.01688769024106541 -0.09691799440218835 -0.004051282888682310 -0.003201042531028048 
-0.02042022903772572 -0.02132183705213796 -0.08424794394831536 -0.05910704720469760 0.1949172518783190 
0.7678256290626714 -0.1994792008358186 -0.3932870755551884 -0.02659031998906427 -0.003285409813137141 
-0.2135375163507630 -0.2126724220651567 0.8622102390982369 -0.2660557372282079 -0.1372493904324264 
-0.04546675986378729 0.3133451984404613 0.1727933087574070 -0.3037437943536417 -0.07027426948436300 
-0.008973878805179443 -0.03022288941094943 0.1602517567713647 -0.07729544005497804 -0.04569146070307489 
0.2019910366146785 -0.5431963489870261 0.08992836573771319 -0.5495581419146072 -0.1667269459232336 
-0.2773049478521406 -0.1070975701808156 -0.9057502422071522 -0.2901803904431599 1.253239472910458 
-0.01252032870033209 -0.2576257765753184 0.2262718004635083 -0.04350165966380057 -0.01022763912952689 
-0.2555938746836611 -0.4261754542590663 -0.5955430326380281 0.8409574331286693 -0.2651640909248864 
-0.06370496688127092 -0.1563263277932410 -0.1747388340263905 0.4756425014261358 -0.1195712307113932 
1.187285934210337 0.2046223910927994 -1.176462387231683 -0.2323641785466703 -0.1518241846190263 
-0.01097734951964450 -0.01168099759129725 -0.03281887215105184 0.07343821224438171 -0.01352669620835306 
0.3120355422864958 -0.05402815015262437 -0.1760880721049904 -0.01774594665863813 -0.004080287945103064 
-0.03320886010337158 -0.01484065363116375 0.09072860057956035 -0.04222730751064427 -0.03350091336014000 
-0.1137191239267887 -0.04572398887426665 0.1971864816693466 -0.04397486464072772 -0.04100812154381447 
0.05806173027246728 -0.009606884475311054 -0.01141936012951340 -0.01523126471179579 -0.001224566504339115 
-0.04172404812536217 0.2119828206014060 -0.002164789909451612 -0.07102150422015042 -0.09169385482336849 
0.06871264337743102 -0.2477491080439876 0.3081968254279709 -0.05496741990829730 -0.1051161724199964 
-0.1980754825485583 -0.2727741910342434 0.2606741579640264 0.3428673243243579 -0.2945002114558928 
-0.1383802899416675 0.2927913263837657 -0.08752229580298207 -0.1375083925886333 0.3603622506555013 
-0.1095365880959258 -0.2860501348180120 -0.8249239696302312 -0.06299663551652522 1.090574040963495 
0.008938031387129314 -0.02053432185762356 0.1989743435048787 -0.3552351976478217 -0.08440181080484285 
-0.1210964523270911 -0.2533112736566026 -0.1669135838992604 0.7015769757866086 -0.07399312186730597 
-0.1359151975423799 -0.2427263442764459 -0.7917714976379702 0.9909009813269240 -0.1029225387672286 
0.2581833972607890 -0.02071492620839330 -0.1756206551447133 -0.009463797311965394 -0.009213893692038844 
-0.09993269495796378 -0.02947539112685552 0.1963929776223445 -0.02940681449845780 -0.04756557882968192 
0.6085549648662728 -0.5343878700967621 0.3924274133724132 -0.6561528041620395 -0.5107861981263185 
-0.1005449251436022 -0.002916749902256570 -0.3263696006747955 -0.3407103007686759 0.4595359234676851 
-0.05250986444924154 -0.1773733327056250 -0.3769010925025347 0.7742496355579592 -0.3311840038495887 
-0.05848035347349807 -0.1150105315788704 -0.01118012563805869 0.3046173751397843 -0.01049348339233728 
-0.04934402639060222 -0.02366080737572957 0.08187275461300980 -0.04799340008102475 -0.05605707512942875 
-0.009630668582335144 -0.04741861437382311 0.1408641746398702 -0.08636856009760317 -0.008310248290666868 
-0.03094949089344358 -0.004136790058388597 -0.1037290799736116 0.1321208201538634 -0.01494164486330510 
-0.02152737606340487 -0.01041707443127001 -0.05266200593487450 0.1022147687393920 -0.007060375421409657 
-0.1540266372000890 0.4050377702015375 -0.1149349599510736 -0.008200205493084782 -0.003838386534456504 
-0.01796301424944889 -0.04436525061188302 0.03570013953897415 -0.008299795259412210 -0.01505033987828135 
-0.03919629983165940 -0.03939513752791395 0.08833181555048712 -0.01263695829552124 -0.01729607140603977 
-0.02131318973141994 -0.01332145871919108 0.02066726931666447 -0.01442333452859800 -0.01358746285424520 
-0.008906833061420403 -0.03490184766166306 0.1430189681735874 -0.07652426393784681 -0.01140427181700228 
0.2616086237604545 -0.01059470731656627 -0.2176835024280807 -0.01800276181201993 -0.009656210528944864 
-0.01295055843935673 -0.01473015757804342 0.05232058597432737 -0.02211950007217721 -0.04341445117020804 
-0.02288723030082346 -0.005941963646238473 0.1757476812071871 -0.1106781642731172 -0.05375683497948275 
-0.06665272822764431 -0.03137927486684294 0.2454361094393832 -0.1054760887460890 -0.02507238398597357 
-0.07805079894992666 -0.01568346073499152 0.2749653487834320 -0.01962987708518425 -0.03562357129699584 
-0.09180042595988248 -0.01181001732873234 0.3157772564640843 -0.07341922198469063 -0.04272593699908987 
-0.02036920257827358 -0.005333183796392961 0.01391486578230828 -0.01107222569313541 -0.002424768806265442 
-0.01484125122862546 -0.02692726490973973 -0.1093398359412963 0.3179751810515339 -0.08150666276068180 
0.2463134670949854 -0.04328900627752642 -0.1401185918301283 -0.02593349694713589 -0.003818462859838072 
-0.09079544949054398 -0.09049547089151753 -0.2646742662929898 0.3962641295637062 -0.08619277289933824 
-0.01625106944105518 -0.04116374585464152 0.08420438707160667 -0.02651459549994435 -0.02444063618968800 
-0.04762400692538513 -0.01612043593115070 0.04950169872469011 -0.005576241016239760 -0.005057779724895560 
-0.01804243438513448 -0.07399340543711129 0.1992418748988956 -0.03994068762486939 -0.03967556331270199 
-0.1908021697349230 1.258195506269700 -0.3697034187810423 -0.5624352417490670 -0.5275912565954926 
0.3752645938566329 -0.01709130065778691 -0.1812847126078913 -0.05630984533612815 -0.009429267116773152 
0.4838036731195772 -0.1466094657683819 0.04060813743099231 -0.06078441396572090 -0.009112558994622691 
-0.02597454330218422 0.2565035787352349 -0.1091448742409877 -0.1015217358550583 -0.01794466444476266 
-0.03243056781484920 -0.01040625188526991 0.09504472591806302 -0.06575571810319460 -0.04260317824176434 
-0.02868714869924187 -0.01497601009392432 0.09157009437229120 -0.05782026382976928 -0.04553084819499598 
-0.006267310091305162 0.1631196795519286 -0.04778449055574466 -0.05805300120713943 -0.01625207595118249 
-0.02573717037651956 -0.02524071016238022 -0.07656965043300284 0.2196719357174204 -0.01307027739530665 
0.3369801383506118 -0.1798028354841156 0.08517327303298441 -0.01502962154282911 -0.01468758932006278 
-0.03747741774345459 0.2032789847389273 -0.1965336987964597 -0.02425473792663925 -0.02110245951002195 
-0.1155325813374393 -0.08774347424122825 -0.1698512568920472 0.02074649834674185 0.5649046126702741 
-0.1077002697866630 0.3289199410267048 0.03700235320935703 -0.09132415402187538 -0.1701459081328180 
-0.03429719699298922 -0.01544625920614919 0.07064199109865187 -0.05696820417749158 -0.05190680576536687 
-0.09911111656677034 -0.01656724837034992 0.06615670018504574 -0.001783436694724205 -0.0008002704197962643 
-0.3183811689220450 -0.01325123807624894 0.4900120100411558 -0.1264582990761859 -0.009643807540943100 
-0.01144804229980507 -0.02901209413290678 -0.1273330096886337 0.1825803495844051 -0.02030799515271287 
-0.01821392530404057 -0.01370205463683556 0.1436422674364510 -0.1547576304504832 -0.01309690023088843 
-0.01388932600262855 -0.01604886237105609 0.2205400942143078 -0.2071744023169691 -0.01470072431324181 
-0.02624055589518264 -0.002638092610236773 -0.1861072966996883 0.2348654585941185 -0.05317384276879141 
-0.01326618444724990 -0.02669238524163018 -0.05512827738412902 -0.2392324166402960 0.4896753098311744 
-0.09232388020548254 -0.06959135258272811 -0.2979131798819404 0.3630242390790062 -0.1005160203985067 
-0.009035891123835545 -0.02589243138202215 0.1105319753824445 -0.05571025773452148 -0.06746229896347704 
-0.04068853207955941 -0.02690908259037839 0.1129939370486967 -0.03522344173384030 -0.01084183711662266 
-0.01801290236269415 -0.05237908358411374 0.2258448259387428 -0.1431883163419411 -0.02009615192434389 
-0.1152445741244006 -0.4028380901014667 -0.5831377073410380 -0.2528870006345945 1.274741687155463 
-0.3029159531165441 -0.1028869993598858 0.4689603555690655 -0.05490685365737955 -0.1346755191997665 
-0.006994291480756935 -0.01142717391273352 -0.09590797364940312 0.1592775753003748 -0.04543672225350968 
0.4378184969171167 -0.02562481908253929 -0.3781475670773907 -0.01586404993611210 -0.004439516966372181 
-0.02428975898018482 -0.03851160094004820 -0.1001290671420360 -0.1654117578354693 0.5446736103328810 
-0.03125197206988720 0.5174783221473245 -0.2268996882236007 -0.07004523322625113 -0.08713188128742629 
-0.005280275183810776 -0.008685220618687121 -0.1093323385080862 0.1060155111676529 -0.03010874465884596 
-0.03675796519278753 -0.006300449878838608 0.07452347481006263 -0.05454754319925419 -0.003626001791398621 
-0.09501175935086957 -0.01258264909433429 -0.09797282055757434 0.2423693317415073 -0.02813076009029647 
-0.01222522950524512 -0.01845670297697230 0.1311830376031740 -0.1151406251883907 -0.05265017588749272 
-0.009048500509093893 -0.03006133212355549 0.2063178774844525 -0.1380310646746691 -0.04367746950340748 
-0.009040235098406093 -0.01084734999057940 -0.1008456385141151 0.1176684957847710 -0.01323453809288673 
-0.05873606561175929 -0.1489855269333683 -0.1193674993908125 0.1166595854995840 0.2650832673907199 
-0.05613055751661811 -0.008149043046872730 0.3754462563976781 -0.1917772063027184 -0.05070583211257861 
-0.004555922740905081 -0.02445926513947838 0.2104746664099043 -0.3071767046275288 -0.004758558258877918 
-0.02018706422744479 -0.01462200679326983 -0.04842527874973357 -0.02412133328790934 -0.009917267177565825 
-0.05545445373517954 0.09869828617273017 0.02078096016745503 -0.06318478340621199 -0.02039608724564259 
-0.02194065097340260 -0.02689748972082606 0.1639166273642002 -0.06716483518712557 -0.05242893916866204 
-0.004365802185982579 -0.02639170057552648 -0.1481505056850458 0.1614768466643927 -0.04359174157557923 
-0.07610272071260261 0.0008926063584796715 -0.07148029894155096 0.1665181717791161 -0.04030141067733729 
-0.02599918531015481 -0.009557001503086221 0.3864812824323297 -0.3781268036622450 -0.02357988109398321 
-0.01067262127366530 -0.3409788512709271 0.09366955507226380 -0.007524227709070056 -0.009010679768675771 
-0.06665467912366600 -0.004233427105920539 0.09187880453959026 -0.02974435225704558 -0.04195309286682439 
-0.1690604306649706 -0.01025380096182095 0.09213154465519094 -0.001286136204657729 -0.001872599135790468 
-0.006067006471421813 -0.1413001216879978 0.3011796622368224 -0.02953442165597242 -0.05470892051051866 
-0.008575363588448268 0.4737153437309622 -0.3335977732415450 -0.09199708236906368 -0.01178530249929582 
-0.02713855415447707 -0.09709891909791135 0.3354926624090303 -0.1044178555104236 -0.09862329914446945 
-0.02448019962888112 0.2073415328857869 -0.2512074272855275 -0.003325510478722261 -0.002296030040205281 
-0.01991446316619133 -0.01638178399537387 0.1027750834476753 -0.06888747095249516 -0.04817437221863149 
-0.08218607277997107 -0.03388084513232725 0.3350576746068328 -0.03214103758565093 -0.001207333383225756 
-0.01473829963113491 -0.006832191015630318 0.02046031426364686 -0.02638168069550820 -0.02950846958935145 
-0.07063694956520747 0.7189840037218047 -0.2928172380663134 -0.1209489590416464 -0.04293248733088197 
-0.01742233704710804 -0.07053137796747654 -0.1380100869463591 -0.05641596959711895 0.3471563458702862 
-0.1113790334436557 0.07438152067797282 0.2285778944546485 -0.02163504274435432 -0.03182058120136625 
-0.005209489912025874 0.1198380969710327 -0.05082859162313479 -0.05121477290514358 -0.01006215338289616 
-0.01563572432719666 -0.06190159709679078 -0.09099552863860773 0.2270581404027836 -0.03199611380013183 
-0.02589879869311081 -0.03278801452606416 -0.1593425086208405 0.2414383712248291 -0.006915357010575745 
-0.01021270031558007 0.1026764884016532 -0.04110453265983891 -0.03616137722990744 -0.009088783522993102 
-0.03803487013331775 -0.2598300043253472 0.4038645337503852 -0.04215113829620273 -0.007806654872135659 
-0.03190237509987783 -0.09523684247049177 0.1789663962897530 -0.01028768092162002 -0.02332123599532573 
-0.04473553111516562 -0.06021271452526055 0.2526929175307155 -0.03896073338112776 -0.08693753322332716 
-0.01486453180676593 0.2292373098872964 -0.1369000591812985 -0.05195052454390298 -0.02552559867075835 
-0.08932616159881320 -0.01440314916526919 0.08301555691728893 -0.001932799821062634 -0.002131290624132312 
-0.05196353778434543 -0.06903743926442155 0.1555246846919508 -0.01917193122687725 -0.01178215448349552 
-0.02236214724393983 -0.1222761244135127 0.2463039663629434 -0.04551407154967883 -0.01469809614823425 
-0.06403320152576376 -0.03006280136353309 0.2602390646895867 -0.04841954494718957 -0.07573674730122146 
-0.005052854453849430 -0.02429975263806328 0.07336738655512687 -0.06154187840130767 -0.02674071465752656 
0.3274485489581965 -0.03318051199924080 -0.1100015846851622 -0.02214596214557437 -0.01228722237647489 
-0.01585053502384431 0.5041141627470883 -0.1962242040061176 -0.06428974754792251 -0.1800476369967912 
-0.04662054940086098 -0.2321965685144198 0.1000311029190867 0.3804945692565483 -0.1125885246928785 
0.2215455209226620 0.1059183714744519 0.07973735789990040 -0.1047081954704907 -0.1184838664985247 
-0.1188727013304977 -0.03026989721743512 0.1327489354793172 -0.01956058015484908 -0.02092501833645578 
-0.04526166406579527 0.2780022929086666 0.06882103174784066 -0.1501726769800758 -0.1918980034968160 
0.2858168106163406 -0.1198318304475533 -0.09208123905901494 -0.006066898058290705 -0.01465437324011816 
-0.008578987993289685 -0.04584823384380859 0.1008891931958372 -0.06691729386248486 -0.02035238295767841 
-0.009204058576634120 -0.06668308535365763 -0.1426121459747075 0.3151713744365282 -0.04708639438689353 
-0.1067793629784339 -0.01791852164867008 0.1148476895560319 -0.02100321135551647 -0.003149453841065892 
-0.04927883135315379 -0.02265806628622166 0.05881826644121207 -0.01693217784872577 -0.009038848360229718 
-0.01417957836058270 -0.04355027476538659 0.2160347026873078 -0.09676742795084535 -0.005756976004774369 
-0.006568948960328848 -0.01402579304715272 0.06737309239752495 -0.06251311426951263 -0.03860004172202924 
0.1154121598168978 -0.005868147321122960 -0.08464599064565830 -0.007875875039689404 -0.002419826841321179 
-0.02681895874471041 -0.02713593508606097 -0.2764946599218688 -0.04026501004403637 0.3888263365322912 
0.1535767414899581 -0.003237764683225883 -0.1804415124220353 -0.007836804392195194 -0.004396609393143785 
-0.02954929122532327 -0.02217844476324743 -0.2665366502193829 0.3408606545787317 -0.005850421117471590 
0.1431139078772022 -0.005927675489964681 -0.08461216854648007 -0.05068292988059269 -0.0007700372300317155 
-0.02929005904060320 0.3399672617199431 -0.1374967029342883 -0.1029413753871692 -0.02837124315043433 
-0.01814635597440763 -0.08681133079876929 -0.1863719099223305 0.1503412903597418 -0.006767954183877470 
-0.05732021362390494 -0.02450021232408741 0.2996211870191446 -0.1363941460146347 -0.008030463889826438 
-0.01757777285959280 0.1254060815346628 -0.3771692992083435 -0.2074875503616722 0.4648499719246739 
-0.003644819054619435 -0.03235485470142928 -0.1500342737218662 0.09377606108597368 -0.005091652304193150 
-0.03123054759087324 -0.02563870712034980 -0.02670521797914312 0.03182815786594264 -0.08510949304690618 
-0.03955030865067652 -0.01214987808220096 0.1446929889425517 -0.1086200064543267 -0.004344999006250753 
-0.01018959231336147 -0.01502013055394920 0.06239454767726806 -0.07891789616638671 -0.02614429008362101 
-0.01404763914405431 -0.005956925005629139 -0.08873625905271472 0.06205648286601411 -0.02304768567218775 
-0.1117562321424600 0.1421400681897986 0.1519385233995038 -0.05496749087671629 -0.01360275514920060 
-0.003259251852837437 -0.07851364513897780 0.3251120518750242 -0.4069869494176206 -0.02423482773136391 
0.1703880467567934 -0.02093294455084751 -0.1076732190132295 -0.004092903033556450 -0.001857327998378507 
0.08761095906189500 -0.002897720295257470 -0.1249396008141226 -0.006850696498861925 -0.004562547718044768 
-0.01947380206886282 -0.01977809657477107 0.08708103403218799 -0.03229024180251703 -0.03095421900624648 
-0.02489886895129219 -0.01473563806159515 0.02524147121411283 -0.01708539986466899 -0.01463648435820616 
-0.04305871723775423 -0.05458187799240003 0.07714763108791470 -0.0008283803548524919 -0.001644313705780975 
-0.01640567960563646 -0.02648404640560190 0.06948873925348727 -0.02380108319349423 -0.01703722995777928 
-0.02491387979073932 -0.02551450337767420 0.1220429413872908 -0.02839743437075769 -0.04921483599294320 
-0.03719669532524265 0.1925489249321295 -0.09317362168388112 -0.01563066085764272 -0.01996075885332845 
-0.1734594031829790 -0.03655035135888381 0.2234210164787087 -0.005776024187637762 -0.005522561311890132 
-0.02169665239547227 -0.05793547352753566 0.3664301482398090 -0.1253733685727403 -0.05000724973815499 
-0.05281504693758925 -0.01651904851311559 0.07410133272086387 -0.009307826034911454 -0.05539963507247479 
-0.02695189151976594 -0.03075445653464921 0.03845306520095126 -0.01021905787361505 -0.02257680356540430 
0.3562259438748475 -0.04901477697430642 -0.2048332097175256 -0.007854052839352338 -0.03330416898942233 
0.05606656765715738 -0.01860828507582368 0.1768155091763251 -0.04923443465328404 -0.01658831022698756 
-0.05621401235274316 -0.2199212215464042 0.5065464195515573 -0.09904283062972943 -0.1419809056345654 
-0.09414886689737900 0.07139457124716281 -0.01230931807200542 -0.001633293325750628 -0.0005882088414623137 
-0.01510015637869847 -0.03038466728006161 -0.08968569220969415 0.1394456470179288 -0.007777220420544659 
-0.1543076710360195 -0.02764006470298768 0.2703898790063045 -0.05090669092450164 -0.01186594336175591 
-0.01090617754546333 -0.02596533956428885 -0.1049493763824219 0.1450694315287107 -0.02320808818354151 
-0.06337977414552373 -0.02211741369437143 -0.1288915241407038 0.3465263567893463 -0.06358299347215098 
-0.01050764465680610 -0.02294223851201118 -0.1126977543235259 0.1216298019194520 -0.02031021700728177 
-0.1277761388268693 -0.02057477502199962 0.2088595581546407 -0.006907976645437807 -0.001202261574459829 
-0.02728263826609625 -0.03126710994194205 0.2589337015819688 -0.07195681602724449 -0.03923293582363002 
-0.01762657518843772 -0.02403563232404657 -0.01796225995046209 0.03583375047262373 -0.005177680686155324 
-0.02065588512654169 -0.1048239325303317 -0.1281743723839679 0.3986313978014921 -0.03683683557656913 
-0.006137822399296249 -0.01868949170753996 -0.1110846353768580 0.09971763134865913 -0.008129042635157084 
-0.06036849504046036 -0.004976232402248467 0.07636044576318227 -0.01510531188516082 -0.0007444287422951964 
-0.01829860708819583 -0.01804968775993740 0.04564668367247845 -0.03968800329443357 -0.02025040835967491 
-0.01725243746237266 -0.01010141813401193 0.2095274280158133 -0.1601554928012083 -0.03197645792149242 
-0.01829727695311804 -0.01659001927956133 0.02874112973397772 -0.02830768046956805 -0.01711873363439926 
-0.03120799520803446 -0.009487372851405624 0.02997113569246637 -0.009223198351111773 -0.004020796987093281 
-0.008904670759347637 -0.07326719982504534 0.1579935002806561 -0.07442576292957913 -0.005580203429355991 
-0.02179718739272915 -0.03487855103036393 0.1819695578505123 -0.1056601622823744 -0.01350449821012961 
-0.02614519993499496 -0.008568342200184861 0.09865393867022856 -0.06610406079746817 -0.02778035538732868 
-0.003140114932726959 -0.03788046807922701 -0.07148806938603332 0.05251105002139050 -0.002543732403889686 
-0.008376190544118523 -0.01745991279239360 -0.03841400120987780 0.04083541653793647 -0.004728362046878433 
-0.03593172745039858 -0.03605802497232311 -0.05415988371460268 0.2218280954237069 -0.003841692194066251 
-0.09118497966926058 -0.005580442014408274 -0.07551279858077872 0.2065696404469772 -0.005053931672223052 
-0.04496186787830116 -0.07563070088295003 0.1789802350489599 -0.05798639371969465 -0.02647935711536095 
-0.03211102124144152 -0.04746507918568323 0.1312561662440783 -0.07719577401262742 -0.01537882504138488 
-0.04606777076376868 -0.1032129909112786 0.1951168907049264 -0.04535226191082189 -0.002358843897273860 
-0.01130486847672824 -0.05994841779989134 0.1678601254189850 -0.08559075276423447 -0.02328927621335281 
-0.005499700738789153 -0.07809869160905858 0.2473318824502799 -0.1392293366647661 -0.009046596704098755 
-0.01430517406189503 -0.02794522941073422 0.06355778317980673 -0.02676386331702465 -0.01103903223457706 
-0.07796899154178370 0.1630866116607626 -0.08194266778177926 -0.001130312883382945 -0.0002557905405482416 
-0.01554121252912720 0.1807257237784213 0.01866881110506845 -0.03830330464187003 -0.1120794107058169 
-0.01287931936452189 -0.06421338662659452 0.07588175381872003 -0.01196011531311936 -0.02909260722733336 
-0.008829199306831330 -0.08870704437796009 0.1009939852827973 -0.004295148188897337 -0.01532007852064365 
-0.01952096200535131 -0.04005444170729108 0.05742264907645401 -0.01387445557959822 -0.05221647644500283 
-0.02109754543924119 -0.002398736958269290 0.03407312834974349 -0.006373020567987436 -0.001909660540724303 
-0.02547508647328257 -0.06303714844511034 0.1879805516332491 -0.004012850246206908 -0.001947098739769490 
-0.003541782075909675 0.1301738593328242 -0.2413252377824270 -0.003110132592883530 -0.008603524650322571 
-0.003747767695027999 -0.02561456256318687 0.06315916054556207 -0.03636406472140347 -0.008658356110162163 
-0.003147554461176557 0.03933750386604581 -0.2384115770113493 -0.001342073995500437 -0.004369714203935808 
-0.008630346435243690 0.1377329427240688 -0.1291918439298336 -0.005848937999581288 -0.01721999992212194 
-0.03195892620079689 -0.003194380777142348 -0.08952162926075348 0.1936120307736790 -0.03794490445428887 
-0.03261602933451498 -0.02380483732985716 -0.2951044086689907 0.4284299805288754 -0.1143892481849803 
-0.02428865662088926 -0.03215659139559575 0.1259066396360813 -0.1131893922827015 -0.06812687502940308 
-0.07394112370758289 -0.01303446631428115 0.1627017773314883 -0.01925631617252176 -0.02565067815004335 
0.1940696164488228 -0.008059821311734642 -0.1717128405814680 -0.007980491853101977 -0.001827245040688480 
-0.004060609463814712 -0.003207946238156728 -0.04089844362413615 0.02404203078149576 -0.002337284076990314 
0.2034756884947685 -0.006196365567280060 -0.1947413910433195 -0.006443046614639095 -0.003136174901465139 
-0.06472808656976313 -0.01504131866455259 0.1055082589225848 -0.01978138766987428 -0.04712596601827543 
-0.04725680135639390 -0.006809845199767685 0.08934084490002861 -0.008382480675055082 -0.003164121329030220 
-0.01271964999065403 -0.008157608355263815 0.05948430404343676 -0.04206437644120999 -0.04953690066523269 
-0.01574106643738675 0.1368966481676162 -0.1615176528356694 -0.04964554837998635 -0.008435296859490765 
-0.04567873893066576 -0.04381207252120589 0.1626627685208514 -0.005965704211897781 -0.01644034523185987 
-0.04200811161707808 -0.03915329487345377 0.3359680977728901 -0.1129330900843167 -0.01599555574370736 
0.2201843708494561 0.02628821267398094 0.1061482367267310 -0.5407266494490067 -0.3061005070529694 
0.03681616147383101 -0.03570964709632425 -0.2012402633522180 0.2026981036331559 -0.005352228855991515 
-0.007668534293804447 -0.07192223455814997 -0.1963283225321542 0.3429088699353061 -0.03783235202170496 
-0.1561825643860812 -0.01374817725457310 0.1632258313933287 -0.01221601291906073 -0.003635613860058368 
0.1335284457494069 0.1274836291073724 -0.3156232996021721 -0.1232507891212159 -0.1192091607147466 
-0.6763486000779613 1.010278902789429 -0.5329142104784254 -0.1117587889165631 -0.02632058781738709 
0.7933089146411718 -0.4956135316190321 -0.4289110749025384 -0.5774534373129603 -0.1761699962364370 
-0.1362455606181000 0.2010024455281851 -0.7540014060022846 -0.09405299700820702 0.5100536142350856 
0.4711680503695836 -0.1607352493105260 -0.1925981434519998 -0.01877945361779774 -0.001901892229292747 
-0.2396827162857579 -0.2212407642653415 0.9608641777684654 -0.3321597980256761 -0.1650297458197551 
-0.01187167137126268 -0.05615169947220233 0.1005254792743172 -0.02475177907277743 -0.03463930904472408 
-0.008973878805179443 -0.03022288941094943 0.1602517567713647 -0.07729544005497804 -0.04569146070307489 
-0.01871151806439965 -0.07351227853434049 0.2090641064364155 -0.09429339119259308 -0.01779608859788065 
-0.01252032870033209 -0.2576257765753184 0.2262718004635083 -0.04350165966380057 -0.01022763912952689 
-0.2216089682754442 -0.2816172513931628 -0.6322384096759974 0.7213795637378283 -0.2192901678258295 
-0.02784687969554660 0.03105458714352831 0.1765035251464015 -0.08723377520232906 -0.04024392452493932 
0.4458413442688842 -0.1102209053598851 -0.2872501677787794 -0.1043249645907436 -0.08040866927613076 
-0.03474174710737847 -0.05440612162288379 -0.1618657674783719 0.2089895940656646 -0.02683341952966547 
-0.03320886010337158 -0.01484065363116375 0.09072860057956035 -0.04222730751064427 -0.03350091336014000 
-0.03980167846210377 -0.008891906357730840 0.05013823239702624 -0.03117326549330124 -0.02645705409314498 
0.05806173027246728 -0.009606884475311054 -0.01141936012951340 -0.01523126471179579 -0.001224566504339115 
-0.04172404812536217 0.2119828206014060 -0.002164789909451612 -0.07102150422015042 -0.09169385482336849 
0.07291990085515744 -0.08266358522725605 0.01306322036831433 -0.08665451192997697 -0.06606759633138432 
-0.006774924623237700 -0.04725030990399621 0.2682155833220175 -0.1249671240638653 -0.03312860398306199 
-0.09660987274188891 -0.2840373145808458 0.1722970870314688 -0.3194490804008533 0.6368550811553871 
-0.005260878859557338 -0.007382553236964023 -0.1521087127538914 -0.01498839130102685 0.1205040379204189 
0.8417130180140018 -0.2668724629350139 -0.1305609783729373 -0.4050158135059547 -0.03489631011842417 
-0.05708060957481857 -0.1180208076950127 -0.2078752914275460 0.3940955139414594 -0.01490997049952903 
-0.06402953581206457 -0.2558112813116805 -0.7024708195887532 0.6134343579788266 0.1836236100318284 
-0.1419131185973289 -0.2196967664940241 -0.7506885207966835 0.9206070013924760 -0.1120824760083482 
0.2581833972607890 -0.02071492620839330 -0.1756206551447133 -0.009463797311965394 -0.009213893692038844 
-0.06245136250137823 -0.01855291277771089 0.2640388257963064 -0.1222683621376219 -0.004328904609843022 
-0.07481221308749021 -0.008597232287545256 0.1519681863911043 -0.01013375539443864 -0.02710284638004949 
0.6085549648662728 -0.5343878700967621 0.3924274133724132 -0.6561528041620395 -0.5107861981263185 
-0.002228906279443787 -0.01454139460508204 0.1687174324978862 -0.1637367347055419 -0.03877864304585745 
-0.7491419759833465 0.2275214706177496 0.4701119469912953 -0.1291682498407948 -0.07258165048464256 
-0.001743175378395645 -0.01127546156039465 0.1935289943658318 -0.1785014274091371 -0.05497460332865117 
-0.04169574355407661 -0.0003011043041771276 -0.3422346392831510 -0.08517573375307383 0.3130670571918430 
-0.4341252008070123 -0.04189964680229140 0.4806915511717546 -0.02470520738988546 -0.001946482784104107 
-0.02506472278246196 -0.1231479431456612 -0.2300385731570036 0.2621586441160163 -0.02554148312974857 
-0.005290562755975730 -0.04901898718621293 0.07223533384438240 -0.02822327908657337 -0.007385446969900525 
-0.01054022798678800 -0.005556800567222442 -0.01361710477616438 -0.001493349798800610 -0.001086174173641351 
-0.02484268678571253 -0.003760756215105851 0.03694683933691634 -0.02684346234311301 -0.03529010859101795 
-0.009630668582335144 -0.04741861437382311 0.1408641746398702 -0.08636856009760317 -0.008310248290666868 
-0.03427403302135702 -0.002402357842308024 0.1665384510024121 -0.04743300961084700 -0.06360832638629925 
-0.04004443119291912 -0.08853331667514648 -0.4221793402253982 0.4787712107586902 -0.03118135507909153 
-0.3134443213982553 -0.06809172519093820 0.3081663961803031 0.09097411288973432 -0.03451151206076915 
-0.01298079308956964 -0.02461820595839909 0.2258355065708366 -0.1185387439436795 -0.02266972404629863 
-0.1102622211655712 -0.03532262296068288 -0.1563073055008495 0.4530870359892606 -0.09182687352265917 
-0.03257547148433505 -0.08975594784569390 -0.2019896199021236 -0.04402864557055742 0.4405536047203245 
-0.02152737606340487 -0.01041707443127001 -0.05266200593487450 0.1022147687393920 -0.007060375421409657 
0.2746124236819446 0.1430747336480513 -0.3870767739233179 0.07426274438240195 -0.03562863888196402 
-0.03649250807390431 -0.05829766198233144 -0.0005813821812938220 -0.01742810116376108 -0.04854193704685168 
-0.01796301424944889 -0.04436525061188302 0.03570013953897415 -0.008299795259412210 -0.01505033987828135 
-0.03919629983165940 -0.03939513752791395 0.08833181555048712 -0.01263695829552124 -0.01729607140603977 
-0.02131318973141994 -0.01332145871919108 0.02066726931666447 -0.01442333452859800 -0.01358746285424520 
-0.01937718336976113 -0.004464851356400922 0.09841998744746427 -0.1175431519340709 -0.01056869628891069 
0.2616086237604545 -0.01059470731656627 -0.2176835024280807 -0.01800276181201993 -0.009656210528944864 
-0.01295055843935673 -0.01473015757804342 0.05232058597432737 -0.02211950007217721 -0.04341445117020804 
-0.02288723030082346 -0.005941963646238473 0.1757476812071871 -0.1106781642731172 -0.05375683497948275 
0.3517399770127070 -0.03242671989818616 -0.3176060920977136 -0.02383992712503488 -0.008840107812760990 
0.2387224436879029 -0.02492593725552836 -0.06996878669713685 -0.07972860054280018 -0.02052617990873489 
-0.07805079894992666 -0.01568346073499152 0.2749653487834320 -0.01962987708518425 -0.03562357129699584 
-0.09180042595988248 -0.01181001732873234 0.3157772564640843 -0.07341922198469063 -0.04272593699908987 
-0.02036920257827358 -0.005333183796392961 0.01391486578230828 -0.01107222569313541 -0.002424768806265442 
-0.01484125122862546 -0.02692726490973973 -0.1093398359412963 0.3179751810515339 -0.08150666276068180 
0.4167015138517788 -0.06422195082837392 -0.2477918108433577 -0.03002639998069234 -0.005675790858216579 
-0.1971669688400808 -0.1660437484798748 -0.6513237052276449 0.8213448515087265 -0.2097564789700327 
-0.01625106944105518 -0.04116374585464152 0.08420438707160667 -0.02651459549994435 -0.02444063618968800 
-0.04762400692538513 -0.01612043593115070 0.04950169872469011 -0.005576241016239760 -0.005057779724895560 
-0.01804243438513448 -0.07399340543711129 0.1992418748988956 -0.03994068762486939 -0.03967556331270199 
-0.04184563343825316 0.2250273415404431 -0.09514086789645668 -0.2448746233710017 -0.03387343892184099 
-0.01795279027433080 -0.05737934999824481 -0.2085079605149275 0.06779797947012145 0.1561127845298031 
0.3752645938566329 -0.01709130065778691 -0.1812847126078913 -0.05630984533612815 -0.009429267116773152 
0.4838036731195772 -0.1466094657683819 0.04060813743099231 -0.06078441396572090 -0.009112558994622691 
-0.02597454330218422 0.2565035787352349 -0.1091448742409877 -0.1015217358550583 -0.01794466444476266 
-0.03243056781484920 -0.01040625188526991 0.09504472591806302 -0.06575571810319460 -0.04260317824176434 
-0.02868714869924187 -0.01497601009392432 0.09157009437229120 -0.05782026382976928 -0.04553084819499598 
-0.1452134770006184 -0.2884800799289488 -0.04710014038992121 -0.2264301719463107 0.6352102040126218 
-0.006267310091305162 0.1631196795519286 -0.04778449055574466 -0.05805300120713943 -0.01625207595118249 
-0.02573717037651956 -0.02524071016238022 -0.07656965043300284 0.2196719357174204 -0.01307027739530665 
0.3369801383506118 -0.1798028354841156 0.08517327303298441 -0.01502962154282911 -0.01468758932006278 
0.4832250479430814 -0.04677170363649677 -0.4872849208733328 -0.05791090885213350 -0.02333268883305687 
-0.03747741774345459 0.2032789847389273 -0.1965336987964597 -0.02425473792663925 -0.02110245951002195 
-0.07735074538578775 -0.05046180373743253 -0.01667588883853650 0.07240568320330511 0.1726581057484099 
-0.02322963297744754 0.01658974736666858 -0.08580572341533703 0.1652834822625681 -0.07223350675466919 
-0.03429719699298922 -0.01544625920614919 0.07064199109865187 -0.05696820417749158 -0.05190680576536687 
-0.09911111656677034 -0.01656724837034992 0.06615670018504574 -0.001783436694724205 -0.0008002704197962643 
-0.006710030475189992 -0.1085439842912685 -0.07269615152758366 0.2144835317333354 -0.01019357101902832 
-0.02534214116834133 -0.1676328359804086 -0.1994811085914885 0.4393621432328836 -0.06548798965523746 
-0.1333884437987376 0.1889542641466724 0.1240874919293801 -0.05262204017500854 -0.01267739220273777 
-0.04926772840851533 -0.05954482056790699 0.2465454820097995 0.009088527556460902 -0.08529834425176844 
-0.05730581227708254 -0.02674648167032130 0.1136578590558693 0.09299793011181376 -0.04888958034874862 
-0.06547072666043446 -0.02051189983660325 0.2329831123364796 -0.1631401111255383 -0.01626102155991865 
-0.01388932600262855 -0.01604886237105609 0.2205400942143078 -0.2071744023169691 -0.01470072431324181 
-0.02624055589518264 -0.002638092610236773 -0.1861072966996883 0.2348654585941185 -0.05317384276879141 
-0.008717593222459465 -0.04519728913660714 0.1147159640333315 -0.03355835457455535 -0.005929721661083074 
-0.01488357042812496 0.4430091764470042 -0.1367962769533258 -0.1846986240882712 -0.01783887184175827 
-0.01326618444724990 -0.02669238524163018 -0.05512827738412902 -0.2392324166402960 0.4896753098311744 
-0.009035891123835545 -0.02589243138202215 0.1105319753824445 -0.05571025773452148 -0.06746229896347704 
-0.04068853207955941 -0.02690908259037839 0.1129939370486967 -0.03522344173384030 -0.01084183711662266 
-0.01801290236269415 -0.05237908358411374 0.2258448259387428 -0.1431883163419411 -0.02009615192434389 
-0.09637280891988262 -0.3208149102527780 -0.5002854281515748 -0.2130235118546557 1.152032559939522 
-0.2329854617891140 -0.01742370308744735 0.3256542780502899 -0.01304137615159648 -0.09734606495731679 
-0.02818978798471629 0.2671785600630174 -0.2938955437655789 0.3372871768126257 -0.1857784594894467 
-0.01435749628415715 0.3319669442537806 -0.1303927303188223 -0.08874139710938317 -0.1065722569812509 
-0.03818183595165159 -0.03728167050379572 -0.1531753680535107 -0.05165918485656326 0.3922465069218643 
-0.009195209910456137 -0.02447232247844614 0.2499321262839625 -0.1928637488727466 -0.06329596468719666 
-0.03514606531446547 -0.01388364472168830 -0.4038843829478638 0.09063156894444796 0.1760307860526180 
-0.006994291480756935 -0.01142717391273352 -0.09590797364940312 0.1592775753003748 -0.04543672225350968 
0.4378184969171167 -0.02562481908253929 -0.3781475670773907 -0.01586404993611210 -0.004439516966372181 
-0.001986712835187182 -0.07639322286306398 0.07498658625141252 -0.03044765901322475 -0.01386378076490578 
-0.02428975898018482 -0.03851160094004820 -0.1001290671420360 -0.1654117578354693 0.5446736103328810 
-0.03125197206988720 0.5174783221473245 -0.2268996882236007 -0.07004523322625113 -0.08713188128742629 
-0.01618645272927411 -0.03465056018297597 -0.2142817148905081 0.2510849426963636 -0.05331683284238747 
-0.06117328591485852 0.2446898798098483 0.1356770635136146 -0.2291899795156367 -0.1650335093168982 
-0.009836559263326610 -0.1148795835185595 -0.06483255428293973 0.2382884910004661 -0.009797742779129240 
-0.05077156042500360 -0.01472867640618777 0.08882675774003214 -0.03324027563678765 -0.01337396959422612 
-0.03675796519278753 -0.006300449878838608 0.07452347481006263 -0.05454754319925419 -0.003626001791398621 
-0.09501175935086957 -0.01258264909433429 -0.09797282055757434 0.2423693317415073 -0.02813076009029647 
-0.01222522950524512 -0.01845670297697230 0.1311830376031740 -0.1151406251883907 -0.05265017588749272 
-0.009048500509093893 -0.03006133212355549 0.2063178774844525 -0.1380310646746691 -0.04367746950340748 
-0.009040235098406093 -0.01084734999057940 -0.1008456385141151 0.1176684957847710 -0.01323453809288673 
-0.003076665485536899 -0.03656525240161986 -0.1738415515998907 0.2932334388339750 -0.03865445432722158 
-0.05613055751661811 -0.008149043046872730 0.3754462563976781 -0.1917772063027184 -0.05070583211257861 
-0.01357389840753868 -0.01338575388798101 0.03337117537204852 -0.007191360126465663 -0.003389046345850936 
-0.004555922740905081 -0.02445926513947838 0.2104746664099043 -0.3071767046275288 -0.004758558258877918 
-0.1167373894621481 -0.006714407995718508 0.1967177292931844 -0.02235572456449879 -0.004951848200075705 
-0.04055779249913437 -0.01015068242728124 -0.08522323753176818 0.1634389419050371 -0.004211951665647720 
-0.04989130117998507 -0.02982411478571109 0.1986418380447066 -0.05168383745502391 -0.01554386465080204 
-0.02194065097340260 -0.02689748972082606 0.1639166273642002 -0.06716483518712557 -0.05242893916866204 
-0.004365802185982579 -0.02639170057552648 -0.1481505056850458 0.1614768466643927 -0.04359174157557923 
-0.07610272071260261 0.0008926063584796715 -0.07148029894155096 0.1665181717791161 -0.04030141067733729 
-0.02599918531015481 -0.009557001503086221 0.3864812824323297 -0.3781268036622450 -0.02357988109398321 
-0.01421440334957498 -0.2108049919381029 -0.1476556827101632 -0.01063436030195359 -0.01761420441899834 
-0.06665467912366600 -0.004233427105920539 0.09187880453959026 -0.02974435225704558 -0.04195309286682439 
-0.1690604306649706 -0.01025380096182095 0.09213154465519094 -0.001286136204657729 -0.001872599135790468 
-0.006067006471421813 -0.1413001216879978 0.3011796622368224 -0.02953442165597242 -0.05470892051051866 
-0.008575363588448268 0.4737153437309622 -0.3335977732415450 -0.09199708236906368 -0.01178530249929582 
-0.01054857488078756 -0.04580615591477227 0.1095949767232047 -0.01999291250635387 -0.05044977094339471 
-0.05565940012622239 -0.1124202745317485 0.05447405220907823 -0.1765738533343910 0.3037377217179414 
-0.02448019962888112 0.2073415328857869 -0.2512074272855275 -0.003325510478722261 -0.002296030040205281 
-0.01991446316619133 -0.01638178399537387 0.1027750834476753 -0.06888747095249516 -0.04817437221863149 
-0.08218607277997107 -0.03388084513232725 0.3350576746068328 -0.03214103758565093 -0.001207333383225756 
-0.01473829963113491 -0.006832191015630318 0.02046031426364686 -0.02638168069550820 -0.02950846958935145 
-0.07063694956520747 0.7189840037218047 -0.2928172380663134 -0.1209489590416464 -0.04293248733088197 
-0.01742233704710804 -0.07053137796747654 -0.1380100869463591 -0.05641596959711895 0.3471563458702862 
-0.1673520321340488 0.7167161646938072 -0.3163154115359228 0.02258752828202332 -0.1759433917439671 
-0.01563572432719666 -0.06190159709679078 -0.09099552863860773 0.2270581404027836 -0.03199611380013183 
-0.02589879869311081 -0.03278801452606416 -0.1593425086208405 0.2414383712248291 -0.006915357010575745 
-0.01021270031558007 0.1026764884016532 -0.04110453265983891 -0.03616137722990744 -0.009088783522993102 
-0.03803487013331775 -0.2598300043253472 0.4038645337503852 -0.04215113829620273 -0.007806654872135659 
-0.03190237509987783 -0.09523684247049177 0.1789663962897530 -0.01028768092162002 -0.02332123599532573 
-0.04473553111516562 -0.06021271452526055 0.2526929175307155 -0.03896073338112776 -0.08693753322332716 
-0.03722667905070575 0.1069611854737837 0.1094039071816449 -0.09746459609358181 -0.04022369481899260 
-0.08932616159881320 -0.01440314916526919 0.08301555691728893 -0.001932799821062634 -0.002131290624132312 
-0.05196353778434543 -0.06903743926442155 0.1555246846919508 -0.01917193122687725 -0.01178215448349552 
-0.06403320152576376 -0.03006280136353309 0.2602390646895867 -0.04841954494718957 -0.07573674730122146 
-0.005052854453849430 -0.02429975263806328 0.07336738655512687 -0.06154187840130767 -0.02674071465752656 
0.3274485489581965 -0.03318051199924080 -0.1100015846851622 -0.02214596214557437 -0.01228722237647489 
-0.01585053502384431 0.5041141627470883 -0.1962242040061176 -0.06428974754792251 -0.1800476369967912 
-0.01131526465862619 -0.03504933571711047 -0.2652685348711723 -0.009650939758537726 0.2097779379323167 
-0.04662054940086098 -0.2321965685144198 0.1000311029190867 0.3804945692565483 -0.1125885246928785 
-0.01626613927114792 -0.04094177283218940 -0.1888966397632617 -0.02880426869333975 0.3028929065410700 
0.1530295287211350 0.1730844047305495 0.1845469601156889 -0.1149313922160156 -0.1285621045547914 
-0.1188727013304977 -0.03026989721743512 0.1327489354793172 -0.01956058015484908 -0.02092501833645578 
-0.007817673006242865 -0.06540871258552408 0.1123865878831609 -0.02451329119040005 -0.04746704444095626 
0.2858168106163406 -0.1198318304475533 -0.09208123905901494 -0.006066898058290705 -0.01465437324011816 
-0.008578987993289685 -0.04584823384380859 0.1008891931958372 -0.06691729386248486 -0.02035238295767841 
-0.009204058576634120 -0.06668308535365763 -0.1426121459747075 0.3151713744365282 -0.04708639438689353 
-0.1067793629784339 -0.01791852164867008 0.1148476895560319 -0.02100321135551647 -0.003149453841065892 
-0.04927883135315379 -0.02265806628622166 0.05881826644121207 -0.01693217784872577 -0.009038848360229718 
-0.01417957836058270 -0.04355027476538659 0.2160347026873078 -0.09676742795084535 -0.005756976004774369 
-0.006568948960328848 -0.01402579304715272 0.06737309239752495 -0.06251311426951263 -0.03860004172202924 
-0.006038613752293380 -0.02836223601071976 0.1898837270781402 -0.1069793312165834 -0.06319056710895575 
-0.02681895874471041 -0.02713593508606097 -0.2764946599218688 -0.04026501004403637 0.3888263365322912 
0.09371044454938380 -0.0006523283361784156 -0.09031767474463129 -0.004567399339989983 -0.001384211133060058 
-0.02954929122532327 -0.02217844476324743 -0.2665366502193829 0.3408606545787317 -0.005850421117471590 
0.1431139078772022 -0.005927675489964681 -0.08461216854648007 -0.05068292988059269 -0.0007700372300317155 
-0.02929005904060320 0.3399672617199431 -0.1374967029342883 -0.1029413753871692 -0.02837124315043433 
-0.01051594601738298 -0.01974807895636067 -0.1517612505813035 0.1235141333955813 -0.01383931653121643 
-0.08691720156019261 0.3171924046198516 -0.05577103680854531 -0.03728946389090228 -0.03946283380077707 
-0.01814635597440763 -0.08681133079876929 -0.1863719099223305 0.1503412903597418 -0.006767954183877470 
-0.01806796912976360 0.3876613587843417 -0.1803117305376648 -0.08200578682045710 -0.06593875973526012 
-0.05732021362390494 -0.02450021232408741 0.2996211870191446 -0.1363941460146347 -0.008030463889826438 
-0.01937602192978881 -0.04425035329015099 0.1367461744023446 -0.04365359896921869 -0.07849219932059963 
-0.01165872576630949 -0.09013775467522785 -0.1459102951186646 -0.09250508269323500 0.4707918282512408 
-0.03123054759087324 -0.02563870712034980 -0.02670521797914312 0.03182815786594264 -0.08510949304690618 
-0.03955030865067652 -0.01214987808220096 0.1446929889425517 -0.1086200064543267 -0.004344999006250753 
-0.01018959231336147 -0.01502013055394920 0.06239454767726806 -0.07891789616638671 -0.02614429008362101 
-0.003259251852837437 -0.07851364513897780 0.3251120518750242 -0.4069869494176206 -0.02423482773136391 
-0.01088464938589003 0.1720723133956375 -0.05506085840253736 -0.004652317142884402 -0.08417303212729420 
-0.05461641435120346 0.1981663005060226 -0.1679427709626782 -0.003728183101064502 -0.007323016067399826 
-0.01947380206886282 -0.01977809657477107 0.08708103403218799 -0.03229024180251703 -0.03095421900624648 
-0.02489886895129219 -0.01473563806159515 0.02524147121411283 -0.01708539986466899 -0.01463648435820616 
-0.04305871723775423 -0.05458187799240003 0.07714763108791470 -0.0008283803548524919 -0.001644313705780975 
-0.07513143129048855 -0.1501687652562347 0.5385503497966455 -0.1085045072400132 -0.06419455270149570 
-0.03719669532524265 0.1925489249321295 -0.09317362168388112 -0.01563066085764272 -0.01996075885332845 
-0.01724992551342776 0.1674291403763105 -0.2541574753440675 -0.02355763039292995 -0.06623610919702690 
-0.1734594031829790 -0.03655035135888381 0.2234210164787087 -0.005776024187637762 -0.005522561311890132 
-0.02169665239547227 -0.05793547352753566 0.3664301482398090 -0.1253733685727403 -0.05000724973815499 
-0.05281504693758925 -0.01651904851311559 0.07410133272086387 -0.009307826034911454 -0.05539963507247479 
-0.02093733058056039 0.1510402040839127 -0.09513109095528166 -0.008905256144449692 -0.03561940179235609 
-0.05145323112465562 -0.05065450769527292 0.08337898047704473 -0.03136899561152679 -0.04334377010381510 
-0.007556500545891798 -0.04697384413157820 0.1824162556817092 -0.03021254902140108 -0.08706881071637576 
0.3562259438748475 -0.04901477697430642 -0.2048332097175256 -0.007854052839352338 -0.03330416898942233 
0.05606656765715738 -0.01860828507582368 0.1768155091763251 -0.04923443465328404 -0.01658831022698756 
0.09655032523470328 -0.007907598797551318 -0.2451430080429179 -0.001765608723410555 -0.004965418977490119 
-0.05621401235274316 -0.2199212215464042 0.5065464195515573 -0.09904283062972943 -0.1419809056345654 
-0.05318979071752235 -0.06599154439265742 -0.08341545948244108 0.3328406542263576 -0.003108036422436753 
-0.01510015637869847 -0.03038466728006161 -0.08968569220969415 0.1394456470179288 -0.007777220420544659 
-0.1543076710360195 -0.02764006470298768 0.2703898790063045 -0.05090669092450164 -0.01186594336175591 
-0.06337977414552373 -0.02211741369437143 -0.1288915241407038 0.3465263567893463 -0.06358299347215098 
-0.01050764465680610 -0.02294223851201118 -0.1126977543235259 0.1216298019194520 -0.02031021700728177 
-0.1488736842661105 -0.02297351198026891 0.2429326865043842 -0.01328099721342524 -0.003111922115184132 
-0.02026683745633837 -0.02164415280845878 -0.1034676295305032 0.1771440726731607 -0.01828738327777369 
-0.06036849504046036 -0.004976232402248467 0.07636044576318227 -0.01510531188516082 -0.0007444287422951964 
-0.01829860708819583 -0.01804968775993740 0.04564668367247845 -0.03968800329443357 -0.02025040835967491 
-0.01725243746237266 -0.01010141813401193 0.2095274280158133 -0.1601554928012083 -0.03197645792149242 
-0.01829727695311804 -0.01659001927956133 0.02874112973397772 -0.02830768046956805 -0.01711873363439926 
-0.03120799520803446 -0.009487372851405624 0.02997113569246637 -0.009223198351111773 -0.004020796987093281 
-0.008904670759347637 -0.07326719982504534 0.1579935002806561 -0.07442576292957913 -0.005580203429355991 
-0.02179718739272915 -0.03487855103036393 0.1819695578505123 -0.1056601622823744 -0.01350449821012961 
-0.003140114932726959 -0.03788046807922701 -0.07148806938603332 0.05251105002139050 -0.002543732403889686 
-0.008376190544118523 -0.01745991279239360 -0.03841400120987780 0.04083541653793647 -0.004728362046878433 
-0.07391744546468496 -0.03683208251653580 0.1470482492723204 -0.01280159914742649 -0.01455106745066950 
-0.03593172745039858 -0.03605802497232311 -0.05415988371460268 0.2218280954237069 -0.003841692194066251 
-0.09118497966926058 -0.005580442014408274 -0.07551279858077872 0.2065696404469772 -0.005053931672223052 
-0.01785878563101856 -0.01849236768493957 0.09328164885569529 -0.03490494668835318 -0.01414190076296177 
-0.04464144387582488 -0.06093260054660134 0.1018474403076942 -0.03314751468361737 -0.07267920889463526 
-0.02246164945812655 -0.01495165568669073 0.06653089489677459 -0.01683167801238632 -0.04406162879174921 
-0.04606777076376868 -0.1032129909112786 0.1951168907049264 -0.04535226191082189 -0.002358843897273860 
-0.01130486847672824 -0.05994841779989134 0.1678601254189850 -0.08559075276423447 -0.02328927621335281 
-0.005499700738789153 -0.07809869160905858 0.2473318824502799 -0.1392293366647661 -0.009046596704098755 
-0.01430517406189503 -0.02794522941073422 0.06355778317980673 -0.02676386331702465 -0.01103903223457706 
-0.07796899154178370 0.1630866116607626 -0.08194266778177926 -0.001130312883382945 -0.0002557905405482416 
-0.01554121252912720 0.1807257237784213 0.01866881110506845 -0.03830330464187003 -0.1120794107058169 
-0.01658997927368951 -0.05129276318313908 0.2258976856858256 -0.08442494300406975 -0.04817352820107473 
-0.005919047093283314 0.2155438362098907 -0.2312590040896788 -0.1149824676684372 -0.005941856326566894 
-0.005425131506055883 -0.08020049957037872 0.05789217511569977 -0.009033119426996902 -0.01557244009377657 
-0.01599302019512344 -0.1243668050828064 0.1611873834874132 -0.001777809188656765 -0.0002581070042488759 
-0.01287931936452189 -0.06421338662659452 0.07588175381872003 -0.01196011531311936 -0.02909260722733336 
-0.007542015462768901 0.3380123169123138 -0.1558075661470122 -0.04836715778382228 -0.02752380390148361 
-0.003747767695027999 -0.02561456256318687 0.06315916054556207 -0.03636406472140347 -0.008658356110162163 
-0.008630346435243690 0.1377329427240688 -0.1291918439298336 -0.005848937999581288 -0.01721999992212194 
-0.03195892620079689 -0.003194380777142348 -0.08952162926075348 0.1936120307736790 -0.03794490445428887 
0.05986629694057426 -0.002585436347047468 -0.09012383767740398 -0.003269405052205211 -0.003012398260083727 
-0.03261602933451498 -0.02380483732985716 -0.2951044086689907 0.4284299805288754 -0.1143892481849803 
-0.02428865662088926 -0.03215659139559575 0.1259066396360813 -0.1131893922827015 -0.06812687502940308 
0.1940696164488228 -0.008059821311734642 -0.1717128405814680 -0.007980491853101977 -0.001827245040688480 
0.2034756884947685 -0.006196365567280060 -0.1947413910433195 -0.006443046614639095 -0.003136174901465139 
-0.06472808656976313 -0.01504131866455259 0.1055082589225848 -0.01978138766987428 -0.04712596601827543 
-0.01271964999065403 -0.008157608355263815 0.05948430404343676 -0.04206437644120999 -0.04953690066523269 
-0.04567873893066576 -0.04381207252120589 0.1626627685208514 -0.005965704211897781 -0.01644034523185987 
-0.04200811161707808 -0.03915329487345377 0.3359680977728901 -0.1129330900843167 -0.01599555574370736 
-0.02113505530180933 -0.02775787273443003 0.06355122886532420 -0.01434768925827390 -0.006360168172082271 
-0.04199526545993789 0.2072904528426168 -1.518327201637793 1.040669263893784 0.3360628455627819 
-0.1508326050774384 -0.1108853131321711 0.2562296712026116 -0.4505613252696302 -0.3017333251600133 
0.7743024891135434 -0.5828574955585742 -0.1915955620089599 -0.7676421420296545 -0.5908142233323584 
-0.6464961262527759 0.4156589484007182 -0.05295272666230681 -0.4010476454859032 -0.04710199936677518 
-0.3870041874645661 0.2740079854926975 -1.298576687079681 0.6301952865391632 0.6950701487084707 
0.2054135433952937 -0.2369216475374987 0.3654497972380195 -0.2227527910815781 -0.03297546870101534 
-0.2736092727695638 -0.1648417176515780 0.4891627610927490 -0.1352647033404661 -0.1734831003529589 
-0.4484971383482319 -0.8656114344847812 1.188848741288158 -0.3967317200428896 -0.1928958478471696 
-0.1196944034238192 -0.09676117340806592 0.08050943222146117 0.1315238924186871 -0.2173034312786400 
0.2249274816287602 -0.08266175164632983 -0.2769725626516855 -0.08627957225762868 0.1481351050716158 
-0.1389294362880285 -0.09414848979244374 0.2384905564074719 -0.09361685237309011 -0.1443557747841182 
-0.1636392684277122 -0.08795298375346856 0.3716888047283594 -0.1790290071741101 -0.1287403624013439 
-0.1360698524726212 -0.1209444551345200 0.4465508704783673 -0.2257009255306111 -0.2805246668773190 
-0.1519474521679188 -0.1027949306784374 0.3451310575945246 -0.1206171560604915 -0.1392934373870861 
-0.02310987889113515 0.1536156104186652 0.07612217920063662 -0.1197929423312752 -0.1368232080147869 
-0.02875500358680325 0.08563149149838864 0.01725549692787924 -0.03341854733484975 -0.08308644623331235 
-0.01271964999065403 -0.008157608355263815 0.05948430404343676 -0.04206437644120999 -0.04953690066523269 
-0.1273915049415850 0.09358475443746762 -0.2883928620561853 -0.1706801395079702 0.2699081297689408 
0.1839085098068574 -0.2942025044967537 0.09301216882757522 0.06514903260127103 -0.9274091815276235 
0.1839106416800839 -0.5170452901661062 0.07055773451877088 0.1661443241022596 -0.3053732185538166 
0.1371874072083761 0.05083953878200517 -0.01276738908662897 -0.4329333138835452 -0.1629546213115907 
0.4777449924680762 0.2619130465918803 -0.7000660030013878 -0.07319699404367266 -0.2547428479621890 
-0.1119539102220021 0.1608770886717999 -0.2323543941414656 0.4262248171722824 -0.3606261696915675 
-0.1791329108820292 -0.3162219666208529 0.4765767919009500 -0.06700674187299363 -0.04924365701724678 
0.004299878198630885 0.06501629753262853 -0.1047106992706352 0.4497859440507940 -0.2330115420581032 
0.2613990295520760 0.3945012941803934 -0.5325705458614473 -0.03278283993988813 -0.3048963761398907 
0.1590010359488897 -0.1114965307534799 0.2476121306156328 -0.2509249323133793 -0.3007886195573348 
-0.2722821235387550 0.03432752522798561 0.2889953195527943 0.07214384438758085 -0.1615394374698529 
-0.4169958007082520 -0.4311761740571511 0.7552509996277660 0.07071319734007249 -0.1372161375117587 
-0.2206824000190285 0.2279221187541920 0.09438431626454108 -0.1890721992720755 0.09798115011690192 
0.2069444815229744 0.1691369514611398 -0.3411294623180282 -0.2359576426821071 -0.01517008649679446 
0.07621703159261420 -0.08221275374118640 -0.4004021028755400 0.1875068719185147 0.1032167273653343 
-0.02679345939670079 -0.3276573283150204 0.2978706547932894 -0.1972619032252189 0.1149844883638869 
-0.04172404812536217 0.2119828206014060 -0.002164789909451612 -0.07102150422015042 -0.09169385482336849 
-0.04172404812536217 0.2119828206014060 -0.002164789909451612 -0.07102150422015042 -0.09169385482336849 
-0.1426253788317083 0.1444623068238793 0.1027494177339328 -0.1135730422489329 -0.03647125301110392 
-0.3422406287810586 -0.2053360180101967 0.4320075280699375 -0.04520097554619071 -0.2037762333297665 
-0.2562216253185062 -0.05024989773998993 0.03555232800828503 0.3504864018348827 -0.2214143026932168 
-0.1523814301935552 0.07457079921818682 0.3227915238662673 -0.2218864163723047 -0.2529589247066306 
-0.2656152023033863 0.1245695042106645 0.1829626588243559 -0.04752633578072177 -0.05957021324876340 
0.2836089908482302 -0.01863833256407391 -0.1652710502620534 -0.2064340139146639 -0.08564272533985558 
0.1975453322050218 0.001016898468823371 0.01422898352318361 -0.2206407201838028 -0.1305225353675427 
-0.03862742943239510 -0.01796524275116795 0.08715505841743124 -0.03148658949425667 -0.02089259665656763 
-0.1045666678425029 -0.01845055245604213 -0.1241317890137791 0.2956287273450493 -0.01960173910489245 
0.1890980460816449 -0.05992597491050237 -0.2051708387018438 -0.01317796109510353 -0.005340319294213912 
-0.1105765469593668 0.01417606802809163 0.4150163690702801 -0.05031619209106993 -0.1556927532959599 
-0.2039855433349767 -0.01380391104624196 0.2269053777162483 -0.01195518604566360 -0.01063452365657156 
-0.01542796191134591 -0.02421834334816646 0.07589121605175077 -0.005111197943319839 -0.07809424196760743 
-0.1188727013304977 -0.03026989721743512 0.1327489354793172 -0.01956058015484908 -0.02092501833645578 
0.02350424193059445 -0.001903723683416255 -0.01753920415116065 -0.01030281916445997 -0.0002850470067206515 
-0.1555983631824227 -0.5457416184839385 0.3734942292819943 -0.05743220682158163 0.4164677340660655 
1.056464423367107 -0.4556073938745665 -0.6407730821164834 0.3440765588445172 -0.05573871188248338 
-0.004904543643271331 0.1693170485301946 -0.4931107120395782 0.5410935957107815 -0.3007727097165615 
-0.2046753689757216 -0.03969767060645857 0.5458521152968733 -0.6331952158768770 -0.1567421979882596 
0.8192645477937346 -0.2776387514776891 -0.5366109221969295 -0.06806111784511910 -0.5985514888502688 
-0.05052086236235125 0.8154992548602734 -0.2402282928042470 0.03827385044946753 -0.1607833382704809 
-0.8791054017437553 0.4501630095186288 0.1406610659249113 0.4675370430972276 -0.6485451603090905 
1.257953992867755 0.1495000397057989 -0.7044822610546619 -0.8835509117905035 -0.6863968262659907 
-0.3973188161153013 -0.4303397470609760 0.6411879952147108 -0.1223574035278725 -0.08426662491542333 
-0.8665054105819479 0.6357453830525415 0.3145519532542250 -0.2837748898105440 -0.3288798840288494 
0.1146005669985465 -0.08992786283676264 -0.07944342480481749 0.1090621675812064 -0.2765577106295379 
-0.3367720928536366 0.5225247118560502 -0.1237642779384843 0.1383034096452007 -0.2503622957585168 
-0.3691376366426755 -0.1737821021547877 0.1116501438005514 0.0009142080360552795 0.5437611336135256 
-0.3466664172328609 0.3970567338244065 0.1709775078483710 0.05394408295057891 -0.1361249894733175 
-0.05033786143568207 -0.2894101141178591 0.08496717262379037 0.1259655001989492 0.06411237159933567 
-0.1197214797905008 -0.2871714383410348 0.2269729667944655 0.1303638773801310 0.06656037007068177 
-0.1381719049566250 -0.2451691877340624 0.3320913367495371 -0.1970748226733673 0.1662951847625087 
-0.5846373593622539 -0.1977914629931105 1.041367716836559 -0.3042103810407025 -0.04355626923244694 
0.6448572288079856 -0.1403935211735623 -0.7536243300230694 0.5767191375259946 -0.3017905446040763 
-0.1426253788317083 0.1444623068238793 0.1027494177339328 -0.1135730422489329 -0.03647125301110392 
-0.4119908621769129 -0.1612673168503321 0.3956574953983123 -0.2796306747687601 -0.04596058656444511 
-0.3073499162391744 -0.6054183192543185 0.6230880476144804 -0.08279784459531574 -0.05307418893612012 
-0.01653419080223372 -0.01631248344367066 0.1008740544941500 -0.2215872451184357 -0.08517016550266428 
-0.6561786767550657 -0.2594216097146001 0.4479381613749129 0.2704366194819453 -0.04363035190401968 
-0.01153664343652191 -0.004103803624833953 0.01091293482466074 -0.007123248836285639 -0.002259094031343755 
-0.1045666678425029 -0.01845055245604213 -0.1241317890137791 0.2956287273450493 -0.01960173910489245 
0.2676121652429835 -0.1069915007110442 -0.1557460387541146 0.006827827140532919 -0.05837292755328372 
-0.1368171028545494 0.01153797541785485 0.2289090723705918 0.1845492665030486 -0.2088665960647513 
-0.06670183741548034 -0.07586963028005186 0.1759849989555977 -0.04555361192238545 -0.04129062407284697 
-0.01542796191134591 -0.02421834334816646 0.07589121605175077 -0.005111197943319839 -0.07809424196760743 
-0.3708352032233953 -0.08954275779002752 0.3013881637498433 -0.01005230320137606 -0.01567688095927957 
-0.05281504693758925 -0.01651904851311559 0.07410133272086387 -0.009307826034911454 -0.05539963507247479 
0.1969385609226884 -0.04293101804768872 -0.09306128941893993 -0.01568007101919052 -0.004041889438990549 
-0.2170649124472201 -0.1936784670188876 0.3910782217528987 -0.2737428028138174 -0.2144571839813431 
-0.2275821076777179 0.6838600583804041 -0.3792842313039810 -0.5046481117948993 -0.1634345275789021 
-0.1489743038217181 0.1433947372801012 -0.08619780826846870 -0.01240918446316957 -0.007192849687154232 
-0.06361069953439720 -0.1050603985046978 0.4108243938306961 -0.4022847146816228 -0.1466477321775670 
0.7691769721186295 -0.7710961138901900 -0.01929904768217537 -0.6034428148252743 0.03795221125757788 
-0.1921471725186472 -0.05051284083364932 -0.2095663900966031 0.3459567922404036 -1.075892424722581 
-0.02959448983075536 0.3872330368778010 -0.8433421746823306 0.009087884399283036 0.6153421517501396 
-0.3379300790399634 -0.1986534733424283 -0.006542299126200945 0.3188553646402965 -0.4112009802751264 
0.05038109086760125 0.2400873440256061 0.1775139805971125 -0.5622771948387506 0.02846153514383295 
0.1719687713181143 0.08903207365090082 -0.2930722344934836 0.2340367261902511 -0.1087426281109468 
-0.3627578444495822 -0.4255766170322484 0.3872077683387340 -0.1299145925752138 0.2268280629864161 
-0.3580209160635438 -0.6368178254060640 0.6638741925897259 -0.4790405170058465 0.4674105650819674 
-0.4190184481668707 -0.4482352028679393 0.08452515728276805 0.7211895926442949 -0.3727002938091315 
-0.01625106944105518 -0.04116374585464152 0.08420438707160667 -0.02651459549994435 -0.02444063618968800 
-0.1372308177964830 -0.09114707794411916 0.2345750165729396 -0.1069830955177412 -0.1906853627467526 
-0.1281494028126411 0.2640564028166319 -0.02002869190765324 -0.05625192349443165 -0.02531747812855148 
-0.003655298619804139 0.3280031984223175 -0.1850383109247120 -0.04716824950998435 -0.02042065848160252 
0 0 0 0 0 
-0.02307326790991589 -0.1443355281912962 0.1347965979374019 -0.03188176745656040 -0.007689012258344251 
-0.02828275782194176 -0.02449743122026349 0.08396800631426710 -0.08309654036170398 -0.01775116564124041 
-0.03897784522787821 -0.2969633424778895 0.1976496284013241 -0.03405570187650303 -0.01467465656707991 
-0.4355938780508055 -0.03394970357225984 0.1650594104486553 0.4383954395831587 -0.008414200782996617 
-0.1766908903149005 -0.1152839424792418 -0.2249349901725561 0.6133668547801533 -0.04625652984690402 
0.4030693679722989 -0.2622854808820827 0.08198862785027605 -0.1522122845772305 -0.08903066031014792 
0 0 0 0 0 
-0.003076707468641474 -0.005754922490283163 -0.03234179637823823 0.02528466421552050 -0.006133937664775482 
0 0 0 0 0 
0 0 0 0 0 
-0.4148597854187779 0.06716926631712275 0.2760645323494388 -0.5713538700924864 0.2363482765394428 
0 0 0 0 0 
0 0 0 0 0 
0 0 0 0 0 
0 0 0 0 0 
0 0 0 0 0 
-0.1262982463258380 0.2598531674598206 0.1701916551481983 -0.1754307314393774 -0.1166392068787113 
0.1155556484630175 0.4418990772324357 -0.5841765419179554 -0.2480466865781365 0.5052353701847921 
-0.02042022903772572 -0.02132183705213796 -0.08424794394831536 -0.05910704720469760 0.1949172518783190 
0.2191316749961396 -0.04917559672728526 -0.2538642214112241 -0.06436639676384528 0.1883321687184077 
-0.02084555017644213 -0.08637458888315175 0.2607772360456819 -0.1020472191277555 -0.08033076974779896 
-0.01871151806439965 -0.07351227853434049 0.2090641064364155 -0.09429339119259308 -0.01779608859788065 
-0.01841622653648495 -0.09143103796503671 0.2357320257644822 -0.07287654706622328 -0.02529249331897213 
-0.005212888971580218 0.2061078239680688 -0.04417184471318120 -0.07554131468969550 -0.06774723220966869 
-0.08211163568580378 0.1294898988281861 0.5292201919352392 -0.2579013195026522 -0.3555962227417459 
-0.7144298065377035 -0.7811040311958507 -0.4290375755152028 1.196059776605128 -0.08515998934507070 
0.2066898706390062 -0.04083203265481906 0.2397360808945097 -0.2554187317559843 -0.1814549582348499 
-0.3957548415262726 -0.002841587828343209 0.5370906416862175 -0.09005126684253631 -0.04608924371366800 
-0.02784687969554660 0.03105458714352831 0.1765035251464015 -0.08723377520232906 -0.04024392452493932 
0.4358317840819295 -0.1020180419456033 -0.3031609808259781 -0.04631170894933685 -0.01830329773127796 
0 0 0 0 0 
0 0 0 0 0 
0 0 0 0 0 
0 0 0 0 0 
-0.1352469034759419 -0.1991584827857127 0.5735217830437432 -0.1720529941003988 -0.02993366075038659 
0 0 0 0 0 
-0.08078083755602507 -0.01456927720950262 0.2507948581423798 -0.1643459943421990 -0.04016805756152372 
0 0 0 0 0 
0 0 0 0 0 
-0.5899158603155891 -0.2449529955174758 0.6524623768203441 -0.05969007824974906 -0.1533133454573636 
-0.007103156370226055 -0.2155677716048140 0.3294335364256817 -0.04796866816711556 -0.1463980838437693 
0 0 0 0 0 
0 0 0 0 0 
0 0 0 0 0 
-0.04477447356708001 -0.09431829799431012 -0.02030595029730585 0.3064413687435812 -0.1568161543522471 
-0.006644898404002442 -0.02941190917067435 0.05787995269733166 -0.09536177466332225 -0.06361403743181081 
-0.4766603861489887 -0.1105489442415143 0.4574887908804730 0.2879726809106629 -0.1681225919849721 
-0.03980167846210377 -0.008891906357730840 0.05013823239702624 -0.03117326549330124 -0.02645705409314498 
0 0 0 0 0 
0 0 0 0 0 
0 0 0 0 0 
0 0 0 0 0 
0 0 0 0 0 
0 0 0 0 0 
0 0 0 0 0 
0 0 0 0 0 
0 0 0 0 0 
0 0 0 0 0 
0 0 0 0 0 
0 0 0 0 0 
0.09894269926492695 -0.003484175840890235 -0.1237284871625047 -0.002207884092380350 -0.001406855338142182 
0 0 0 0 0 
0 0 0 0 0 
0.1139666346566676 -0.001465144892555342 -0.09916642025757622 -0.005203210040714282 -0.001082603602715329 
0 0 0 0 0 
-0.5133712437086823 0.2107601305324121 0.4833728405104349 -0.08699534778437745 -0.09306430125810179 
-0.04172404812536217 0.2119828206014060 -0.002164789909451612 -0.07102150422015042 -0.09169385482336849 
-0.005260878859557338 -0.007382553236964023 -0.1521087127538914 -0.01498839130102685 0.1205040379204189 
-0.01902413725486929 -0.06378653275226613 -0.3058390573016043 -0.02479938555040937 0.5106563796811249 
-0.006774924623237700 -0.04725030990399621 0.2682155833220175 -0.1249671240638653 -0.03312860398306199 
0 0 0 0 0 
0 0 0 0 0 
0 0 0 0 0 
0 0 0 0 0 
0 0 0 0 0 
-0.01103908362831187 -0.06431633645661919 -0.1284796857018175 0.4479101383820410 -0.09765564130548965 
0 0 0 0 0 
0 0 0 0 0 
0 0 0 0 0 
0 0 0 0 0 
0 0 0 0 0 
0 0 0 0 0 
0 0 0 0 0 
0 0 0 0 0 
-0.09544023558896071 0.1952620675069207 0.1172225423382314 -0.1340960414623049 -0.1851238699725425 
0 0 0 0 0 
-0.08265094984724343 0.3027943727332484 0.1264602481284995 -0.1021482131941128 -0.1700654706299765 
-0.01881132040008342 -0.02820312998462489 -0.05721975008552752 -0.04948637270150481 0.1461995332304270 
0 0 0 0 0 
0 0 0 0 0 
0.1745540533589752 -0.03652645689354612 -0.2380377353729720 -0.05328795213611659 0.07957744364587044 
0 0 0 0 0 
-0.01818144661057920 -0.03291884131553866 -0.03431918758106312 -0.04031693573065835 0.08659697174990096 
0 0 0 0 0 
0 0 0 0 0 
0 0 0 0 0 
0 0 0 0 0 
0 0 0 0 0 
-0.1309680283771484 -0.1630804599013953 -0.4494645698917757 0.8622516726502577 -0.09880318097896176 
-0.02728263826609625 -0.03126710994194205 0.2589337015819688 -0.07195681602724449 -0.03923293582363002 
0 0 0 0 0 
-0.2900745439623544 -1.088116050868959 -0.2151284061561194 1.151870380569698 0.4420689843065931 
0.3923507917505131 -0.3310872694791268 0.1381209375679160 -0.4293444230307937 0.08055917197098292 
-0.4272666636748364 -0.4907759808492198 -0.2936088605491888 1.038024637461801 -0.3198405251900183 
0 0 0 0 0 
0 0 0 0 0 
0 0 0 0 0 
0 0 0 0 0 
0 0 0 0 0 
0.1376567030000497 -0.003072132469830866 -0.1711968962406414 -0.004616698146559347 -0.001268334151030619 
0 0 0 0 0 
0 0 0 0 0 
0 0 0 0 0 
0 0 0 0 0 
0 0 0 0 0 
0 0 0 0 0 
0.1271279892442196 -0.003391192469610531 -0.1215816633708447 -0.002723587257720662 -0.001747341252910863 
0 0 0 0 0 
0 0 0 0 0 
0 0 0 0 0 
-0.1734525002303645 -0.04457010448459659 0.2669002942091879 -0.4786118152782612 0.1918099641250685 
-0.006055697759237551 0.09343194816161199 0.1197771499901418 -0.2969964062310137 -0.06459900294850760 
-0.06704416155176604 -0.02468117227858153 0.1780748005785321 -0.2452141423186207 0.2143815828208724 
-0.07704111936693399 -0.02313862689262730 0.3206856188889905 -0.1738704900999805 -0.06588148942590695 
-0.006976647692803492 -0.01124082749386390 -0.1998891575820752 0.2196209959515974 -0.04738672361939373 
0 0 0 0 0 
-0.006976647692803492 -0.01124082749386390 -0.1998891575820752 0.2196209959515974 -0.04738672361939373 
-0.009630668582335144 -0.04741861437382311 0.1408641746398702 -0.08636856009760317 -0.008310248290666868 
-0.03427403302135702 -0.002402357842308024 0.1665384510024121 -0.04743300961084700 -0.06360832638629925 
-0.08457817913216843 -0.1081575161846724 0.4029676940474167 -0.1903616609369372 -0.1156803044115259 
-0.03427403302135702 -0.002402357842308024 0.1665384510024121 -0.04743300961084700 -0.06360832638629925 
-0.02484268678571253 -0.003760756215105851 0.03694683933691634 -0.02684346234311301 -0.03529010859101795 
0 0 0 0 0 
0 0 0 0 0 
0 0 0 0 0 
-0.004349061521031448 -0.01462745219228249 -0.1410193809264349 -0.1519537774000045 0.2792250245592681 
-0.006073635272853536 -0.007978121786767099 0.2113055568999125 -0.1789195664134758 -0.06387724477365189 
-0.01298079308956964 -0.02461820595839909 0.2258355065708366 -0.1185387439436795 -0.02266972404629863 
0 0 0 0 0 
0 0 0 0 0 
0 0 0 0 0 
0 0 0 0 0 
0 0 0 0 0 
-0.01295055843935673 -0.01473015757804342 0.05232058597432737 -0.02211950007217721 -0.04341445117020804 
-0.006550958110208252 -0.009628689458449016 -0.06684592381021338 -0.08907410039526217 0.1274277563423537 
-0.2029416313015571 -0.02835559925554591 0.2008364352600778 -0.1332463341714683 0.1202681457944898 
-0.02288723030082346 -0.005941963646238473 0.1757476812071871 -0.1106781642731172 -0.05375683497948275 
0 0 0 0 0 
0 0 0 0 0 
0 0 0 0 0 
0 0 0 0 0 
0 0 0 0 0 
0 0 0 0 0 
0 0 0 0 0 
-0.01484125122862546 -0.02692726490973973 -0.1093398359412963 0.3179751810515339 -0.08150666276068180 
-0.01484125122862546 -0.02692726490973973 -0.1093398359412963 0.3179751810515339 -0.08150666276068180 
0 0 0 0 0 
0 0 0 0 0 
0.09233345558967916 -0.007785712296031107 -0.09188008824057267 -0.003603832484916402 -0.0004592978743477587 
-0.07080921835967356 0.07600844418008502 0.2629581096104567 -0.04578182286983211 -0.1630451857700480 
-0.01647679579971690 -0.01544722487448733 0.2896228091692726 -0.007839344589474623 -0.1131912025878393 
-0.01642145969494822 -0.01167612910127873 0.07225599606273350 -0.003895660025183341 -0.03749794887683382 
0 0 0 0 0 
-0.5572810544656158 -0.2741794809845360 0.7528939015156544 0.05785702598894789 -0.3541874182223687 
-0.03726549684015315 -0.05363644315705805 0.1009357981602649 0.2909743565977406 -0.2525758479317087 
-0.008820357736282970 -0.08385586123641640 -0.1350033554419456 0.3276553863133917 -0.05295980398689988 
0 0 0 0 0 
0 0 0 0 0 
0.2230056645689874 -0.04000890884756382 -0.09878869493736929 -0.01305838924236378 -0.0007095244705981082 
0 0 0 0 0 
0 0 0 0 0 
0 0 0 0 0 
-0.08191751075157477 -0.1312775872229035 0.3329479606951923 -0.07203152414105350 -0.06917397922728553 
-0.01804243438513448 -0.07399340543711129 0.1992418748988956 -0.03994068762486939 -0.03967556331270199 
-0.02372161782754638 0.1710318596637734 -0.07693191517407345 -0.1746820656454045 -0.02443467210206615 
0 0 0 0 0 
-0.01876227422122520 -0.07587906595352800 -0.1424026713774298 0.3077755073420357 -0.04844984092431836 
-0.009805612982807979 -0.02721772781192933 -0.1069710713047396 -0.06816352922276443 0.2008859132004301 
-0.009805612982807979 -0.02721772781192933 -0.1069710713047396 -0.06816352922276443 0.2008859132004301 
0.4578291298173929 0.1098941129668531 -0.06853673680999543 -0.1623061498207792 -0.02705722343938535 
-0.02868714869924187 -0.01497601009392432 0.09157009437229120 -0.05782026382976928 -0.04553084819499598 
-0.02597454330218422 0.2565035787352349 -0.1091448742409877 -0.1015217358550583 -0.01794466444476266 
-0.009805612982807979 -0.02721772781192933 -0.1069710713047396 -0.06816352922276443 0.2008859132004301 
-0.03388434766804238 -0.05540233234869570 -0.1781065396431908 0.3556334444103063 -0.05784340606593361 
-0.03243056781484920 -0.01040625188526991 0.09504472591806302 -0.06575571810319460 -0.04260317824176434 
0 0 0 0 0 
0 0 0 0 0 
0 0 0 0 0 
0 0 0 0 0 
0 0 0 0 0 
-0.03858786840562547 0.1078341338178711 -0.04108070088606532 -0.005716375486330813 -0.0005635214691825868 
-0.001843992737001109 -0.4519275140102752 0.8121208892950931 -0.1390550941754470 -0.06063017308765685 
-0.6482926319690372 2.381223627090860 -1.082910380911401 -0.9044415892421677 -0.3911441743092776 
0 0 0 0 0 
0 0 0 0 0 
0 0 0 0 0 
0 0 0 0 0 
0 0 0 0 0 
-0.03560107572585858 -0.02163718726410843 -0.2160412605963246 -0.1017807926508393 0.3755517881109093 
0.2995027206071572 0.02347614925481175 -0.1113604257634753 -0.03928435946946836 -0.03579004883008473 
-0.01493845131787634 -0.1116292663845143 -0.004510056222985026 0.2086919343739796 -0.06337612151309528 
-0.006710030475189992 -0.1085439842912685 -0.07269615152758366 0.2144835317333354 -0.01019357101902832 
0 0 0 0 0 
0 0 0 0 0 
0 0 0 0 0 
0 0 0 0 0 
0 0 0 0 0 
0 0 0 0 0 
0 0 0 0 0 
0.1181904444285872 -0.01451040728073630 -0.08545058230561993 -0.002419020680440429 -0.002112266306029365 
0 0 0 0 0 
0 0 0 0 0 
0 0 0 0 0 
-0.006579866947116132 -0.09175377002688060 -0.05707843721405874 0.1315866358908479 -0.01703814873091910 
-0.01812401561070678 0.05399548187666977 -0.01820895272238322 -0.07019255772559724 -0.009438766819774843 
0 0 0 0 0 
-0.07624862600748103 0.2449804964628964 -0.1957938024328019 -0.001382732399356760 -0.006397653120936992 
0.06388204386709413 -0.006384767485348413 -0.05029388147786137 -0.005945679722153423 -0.001303745588045076 
0 0 0 0 0 
0 0 0 0 0 
0 0 0 0 0 
0 0 0 0 0 
0 0 0 0 0 
-0.03108208004015874 0.5321856982231886 -0.1803311898263384 -0.2587031381369171 -0.03375294525625184 
-0.06529919444373274 -0.02185091718240385 0.1388354100718125 -0.04235116857525650 -0.03868058091958650 
-0.01693864007609168 -0.04828904507236292 -0.1265075065333127 0.4088684933169463 -0.1132016249059810 
-0.08678987885490104 -0.03416404191578133 0.2781933301211034 -0.1104264386588554 -0.05405348987065871 
-0.01388932600262855 -0.01604886237105609 0.2205400942143078 -0.2071744023169691 -0.01470072431324181 
-0.01326618444724990 -0.02669238524163018 -0.05512827738412902 -0.2392324166402960 0.4896753098311744 
-0.01288593210289441 -0.006552565966003370 -0.1999271576799998 0.2332378532873445 -0.05418517860866271 
-0.009035891123835545 -0.02589243138202215 0.1105319753824445 -0.05571025773452148 -0.06746229896347704 
-0.3147437465981918 -0.1033519931734105 0.4835089042003925 -0.06566302668640190 -0.05060876172371570 
0 0 0 0 0 
0 0 0 0 0 
0 0 0 0 0 
-0.6190054349920319 -0.1033358816610012 0.4377187049345707 -0.1977165434308765 0.4263815747271468 
-0.04237536012760253 -0.06446676012210038 -0.3497538979747376 -0.08204225732445178 0.4930069923045283 
0 0 0 0 0 
-0.2466388927684298 -0.05678141973267886 0.2376494236100071 -0.04363156149293949 0.04387458820674167 
-0.2466388927684298 -0.05678141973267886 0.2376494236100071 -0.04363156149293949 0.04387458820674167 
0 0 0 0 0 
-0.02730187542507592 0.2870553549790960 -0.06768653545872626 -0.06252961104909306 -0.003791549718471899 
0 0 0 0 0 
0 0 0 0 0 
0 0 0 0 0 
0 0 0 0 0 
-0.01096607461467240 0.07263004198045891 -0.04975074891781597 -0.02108449133160997 -0.004410577744481331 
0 0 0 0 0 
-0.03719669532524265 0.1925489249321295 -0.09317362168388112 -0.01563066085764272 -0.01996075885332845 
0 0 0 0 0 
0 0 0 0 0 
0 0 0 0 0 
0 0 0 0 0 
0 0 0 0 0 
0 0 0 0 0 
0 0 0 0 0 
0 0 0 0 0 
0 0 0 0 0 
0 0 0 0 0 
0 0 0 0 0 
0 0 0 0 0 
0 0 0 0 0 
0 0 0 0 0 
0 0 0 0 0 
0.01306710773212701 -0.003929725928403095 -0.01667609549117806 -0.001266525489087338 -0.001058007450903510 
0 0 0 0 0 
-0.01252627936646444 0.1815343241862727 -0.08665188440915494 -0.05994716771117759 -0.03920398350648311 
-0.3291545909710345 0.1074947102470709 0.2423181233049816 -0.08538015488871445 0.07240275311706525 
-0.01332324774592036 -0.06865588696440040 -0.05199502881449350 -0.02132141118563199 0.1167655490639820 
0 0 0 0 0 
0 0 0 0 0 
-0.05780235186492486 0.3163694029996602 -0.2745510447669709 -0.1091420984792612 0.2167147301257382 
-0.1591705541951602 -0.05757415423038234 0.1320432300105182 -0.1904064954402762 0.2384766514644183 
0 0 0 0 0 
0 0 0 0 0 
0 0 0 0 0 
-0.03844212219309697 -0.1683742871288500 -0.05473739992336207 -0.1317338749833832 0.3005699542741488 
-0.005052854453849430 -0.02429975263806328 0.07336738655512687 -0.06154187840130767 -0.02674071465752656 
-0.008618860136484482 -0.09158966354249834 -0.1445449358334167 0.1488633545360451 -0.01446821506323617 
-0.009195209910456137 -0.02447232247844614 0.2499321262839625 -0.1928637488727466 -0.06329596468719666 
-0.007566561928309502 -0.01589123198698755 0.2461187476388159 -0.1375657071375289 -0.1011030226422410 
0.1173857565358262 -0.05737388801804718 -0.1532939119190812 -0.07131074140146354 0.2121012625497065 
-0.01435482484614542 -0.05494590331133348 -0.05479217021022162 -0.06554534609156132 0.2137601407631019 
-0.01806796912976360 0.3876613587843417 -0.1803117305376648 -0.08200578682045710 -0.06593875973526012 
0 0 0 0 0 
0 0 0 0 0 
0 0 0 0 0 
-0.007299479521602263 -0.02562362468287921 0.1078838603077124 -0.02127084062067857 -0.05362649742834312 
0 0 0 0 0 
0 0 0 0 0 
0 0 0 0 0 
0 0 0 0 0 
-0.01461713061564790 -0.007833962827859062 -0.04466512266616782 -0.2012045247561991 0.1901536816403028 
-0.02441311266031120 -0.06588950189022424 0.05950104855942783 0.1528163072846752 -0.1203135617905484 
0 0 0 0 0 
-0.009420784637150474 -0.007062668115465915 -0.2624294928508987 0.1092952544004411 -0.008779120569721270 
0 0 0 0 0 
-0.02020415892039487 -0.01338111121957415 -0.06722165083476926 0.1015855425193022 -0.02800418492953859 
0 0 0 0 0 
0 0 0 0 0 
0 0 0 0 0 
0 0 0 0 0 
0 0 0 0 0 
-0.005280275183810776 -0.008685220618687121 -0.1093323385080862 0.1060155111676529 -0.03010874465884596 
-0.02139734153677398 -0.08986856585675951 -0.1455076663631952 -0.06852771110585937 0.2547779823528293 
-0.01584352032503312 0.3568313169326549 -0.1816675929773554 -0.1825342131625232 -0.08160757453855147 
-0.09736608488111773 -0.1359087098035859 0.09851767826715505 0.1505006721644242 -0.02679771416475398 
-0.009836559263326610 -0.1148795835185595 -0.06483255428293973 0.2382884910004661 -0.009797742779129240 
-0.03675796519278753 -0.006300449878838608 0.07452347481006263 -0.05454754319925419 -0.003626001791398621 
-0.09736608488111773 -0.1359087098035859 0.09851767826715505 0.1505006721644242 -0.02679771416475398 
-0.009048500509093893 -0.03006133212355549 0.2063178774844525 -0.1380310646746691 -0.04367746950340748 
-0.01222522950524512 -0.01845670297697230 0.1311830376031740 -0.1151406251883907 -0.05265017588749272 
-0.07733704415059878 -0.08255931447595197 0.4454505465797402 -0.2129118322227379 -0.09750789104452905 
-0.06068648025752320 -0.03260830818635111 0.5859209228075823 -0.4989539109302472 -0.05546439037145653 
-0.003076665485536899 -0.03656525240161986 -0.1738415515998907 0.2932334388339750 -0.03865445432722158 
-0.07733704415059878 -0.08255931447595197 0.4454505465797402 -0.2129118322227379 -0.09750789104452905 
-0.1972513896250167 -0.1098370712068395 0.6338850714692241 -0.2276347420290568 -0.1063758238705902 
0 0 0 0 0 
-0.09044909367911944 -0.03997479721299232 0.1134186005129384 0.1117551044500132 -0.01975581631644975 
0.3987555292797347 -0.05081635713604688 -0.03804241883721837 -0.4528395487912443 0.1312468846875086 
0 0 0 0 0 
0 0 0 0 0 
-0.002639375147755866 -0.04110149067374256 -0.08471571021671187 0.1801172684165121 -0.06320214814368526 
0 0 0 0 0 
-0.004365802185982579 -0.02639170057552648 -0.1481505056850458 0.1614768466643927 -0.04359174157557923 
0 0 0 0 0 
0 0 0 0 0 
-0.004365802185982579 -0.02639170057552648 -0.1481505056850458 0.1614768466643927 -0.04359174157557923 
-0.004365802185982579 -0.02639170057552648 -0.1481505056850458 0.1614768466643927 -0.04359174157557923 
-0.004365802185982579 -0.02639170057552648 -0.1481505056850458 0.1614768466643927 -0.04359174157557923 
0 0 0 0 0 
0 0 0 0 0 
-0.006067006471421813 -0.1413001216879978 0.3011796622368224 -0.02953442165597242 -0.05470892051051866 
0 0 0 0 0 
0 0 0 0 0 
-0.005029706889950740 -0.01430773753913524 -0.03472511855270528 0.02601879534493679 -0.004681281551040650 
0 0 0 0 0 
-0.2494680257526551 -0.01179646954695753 0.1878403343377430 -0.003398346380745674 -0.006643555765256604 
-0.02512048187047357 -0.02087815883931026 0.04442479123124023 -0.01927305910401916 -0.02046273244963242 
-0.02246164945812655 -0.01495165568669073 0.06653089489677459 -0.01683167801238632 -0.04406162879174921 
-0.008575363588448268 0.4737153437309622 -0.3335977732415450 -0.09199708236906368 -0.01178530249929582 
0.5697099609685705 -0.009407167683126697 -0.5496320415346247 -0.01205218943574067 -0.02518313680407118 
-0.01054857488078756 -0.04580615591477227 0.1095949767232047 -0.01999291250635387 -0.05044977094339471 
-0.01726681941402257 -0.03290268901538700 -0.3827513142381784 -0.03187239115855930 0.4519363846782443 
0 0 0 0 0 
0 0 0 0 0 
0 0 0 0 0 
0 0 0 0 0 
0 0 0 0 0 
0 0 0 0 0 
0 0 0 0 0 
-0.002053690573184188 -0.002393418808448713 -0.1214343115104827 -0.07326673629559148 0.1252854791444518 
-0.01991446316619133 -0.01638178399537387 0.1027750834476753 -0.06888747095249516 -0.04817437221863149 
-0.01250807597349772 -0.01773470073794185 0.1169350875810573 -0.08730065745129340 -0.01059500949727640 
-0.01473829963113491 -0.006832191015630318 0.02046031426364686 -0.02638168069550820 -0.02950846958935145 
-0.002053690573184188 -0.002393418808448713 -0.1214343115104827 -0.07326673629559148 0.1252854791444518 
0 0 0 0 0 
0 0 0 0 0 
0.04033631288196014 -0.2278288203439555 0.2614034115086394 -0.1008084393531400 -0.1469463246120555 
0 0 0 0 0 
0 0 0 0 0 
0 0 0 0 0 
-0.04448408625709591 0.4356559447209681 -0.2000448531301732 -0.06901181484025748 -0.02773288159428021 
0 0 0 0 0 
-0.01742233704710804 -0.07053137796747654 -0.1380100869463591 -0.05641596959711895 0.3471563458702862 
-0.04200811161707808 -0.03915329487345377 0.3359680977728901 -0.1129330900843167 -0.01599555574370736 
0 0 0 0 0 
0 0 0 0 0 
0 0 0 0 0 
0 0 0 0 0 
0 0 0 0 0 
0 0 0 0 0 
-0.01563572432719666 -0.06190159709679078 -0.09099552863860773 0.2270581404027836 -0.03199611380013183 
-0.02589879869311081 -0.03278801452606416 -0.1593425086208405 0.2414383712248291 -0.006915357010575745 
-0.04473553111516562 -0.06021271452526055 0.2526929175307155 -0.03896073338112776 -0.08693753322332716 
-0.04707344106227566 -0.04148541658144541 0.03877156482745783 0.03376594614964860 -0.03586758731972348 
0 0 0 0 0 
-0.05196353778434543 -0.06903743926442155 0.1555246846919508 -0.01917193122687725 -0.01178215448349552 
0 0 0 0 0 
0 0 0 0 0 
0 0 0 0 0 
0 0 0 0 0 
0.2828128465226516 -0.05129046796922217 -0.1748232637946598 -0.02642324779700952 -0.02065994406657291 
-0.07497004874980732 -0.03776483774963368 0.3040668832242373 -0.06455456423772285 -0.2261549109924672 
-0.01542796191134591 -0.02421834334816646 0.07589121605175077 -0.005111197943319839 -0.07809424196760743 
0 0 0 0 0 
0 0 0 0 0 
0 0 0 0 0 
0 0 0 0 0 
0 0 0 0 0 
0 0 0 0 0 
0 0 0 0 0 
0 0 0 0 0 
0 0 0 0 0 
0 0 0 0 0 
0 0 0 0 0 
0 0 0 0 0 
0 0 0 0 0 
0 0 0 0 0 
-0.1166986679789936 0.2923603901239972 -0.08458565653657917 -0.01902209457245447 -0.02726690125745730 
0 0 0 0 0 
-0.03507661070641908 -0.07582752362693704 0.3139268970676217 -0.02398738697736320 -0.003747791212880491 
-0.009485446318158780 -0.1808845235197182 0.2933271148183204 -0.03102413539039948 -0.003247492263139377 
0 0 0 0 0 
0 0 0 0 0 
0 0 0 0 0 
0 0 0 0 0 
-0.007372551019850333 -0.06469128675668592 0.1841514732413071 -0.04447098048388924 -0.008893456708939854 
-0.03066379771711989 -0.01496000421399704 -0.5678210092128962 -0.009172035552002895 0.5994702677803547 
0 0 0 0 0 
0 0 0 0 0 
0 0 0 0 0 
0 0 0 0 0 
-0.3688887830430855 -0.001376435262003176 0.4028825774380268 -0.04768753223351709 -0.005496615114072641 
0 0 0 0 0 
0 0 0 0 0 
0 0 0 0 0 
-0.1626301038703788 0.04055510709498486 0.04903336424734378 -0.02515276520191194 -0.01378544925709500 
-0.01271404526414676 -0.01191384150496634 0.05381476569513854 -0.009707554462995358 -0.07467135230537648 
-0.01507556587780502 -0.04245097289682095 0.09442292650598827 -0.003118026263519614 -0.07542484567805100 
-0.02212067946191757 -0.09208486950838740 0.1767341636654115 -0.01423798566625856 -0.01423649329599184 
-0.08468513436523241 -0.01805629281444727 0.06327171060293754 -0.001768327197920062 -0.004899383480177910 
-0.03087881700246449 -0.03272394866328436 0.2381059867226574 -0.1427044581291311 -0.02990407229095085 
-0.03087881700246449 -0.03272394866328436 0.2381059867226574 -0.1427044581291311 -0.02990407229095085 
-0.01147580186996832 -0.002660956111683763 0.08848399842095675 -0.04836147850921246 -0.04061646375767506 
-0.4890457571542292 -0.05427691100148280 0.5902558742135977 -0.1985914188487423 -0.07577672196743973 
0 0 0 0 0 
0 0 0 0 0 
0 0 0 0 0 
0 0 0 0 0 
-0.009221518799168280 -0.009221111147634943 -0.008728892410229954 0.01650594903841715 -0.005364679309451613 
0 0 0 0 0 
-0.008120799448743207 -0.04822151681304753 0.3317038521497293 -0.1727794301702367 -0.05296798356641171 
-0.1760209092496561 -0.002516021370829903 0.2397824649061895 -0.03224093247875446 -0.02910091010170858 
0 0 0 0 0 
0 0 0 0 0 
0 0 0 0 0 
0 0 0 0 0 
0 0 0 0 0 
-0.003202690693547655 -0.05894084283256773 -0.09181197604122811 -0.06160355612599631 0.1630591263968460 
-0.003202690693547655 -0.05894084283256773 -0.09181197604122811 -0.06160355612599631 0.1630591263968460 
-0.008291181659571201 0.1282190137511829 -0.08129566719235200 -0.04340845211141154 -0.008857385241573913 
0 0 0 0 0 
-0.007373872346260552 0.1557336815507707 -0.07232072666752336 -0.02321729499297686 -0.07737275830206498 
0 0 0 0 0 
-0.01131526465862619 -0.03504933571711047 -0.2652685348711723 -0.009650939758537726 0.2097779379323167 
-0.01131526465862619 -0.03504933571711047 -0.2652685348711723 -0.009650939758537726 0.2097779379323167 
0 0 0 0 0 
-0.2545667753949991 -0.2826778848344374 0.05341516696909674 0.3462303125591570 0.1838658364068086 
-0.01626613927114792 -0.04094177283218940 -0.1888966397632617 -0.02880426869333975 0.3028929065410700 
-0.03214034805012855 -0.08198273504223581 -0.3675741832143921 0.5290690682690479 -0.06701827992358572 
-0.01448020135073244 -0.1502138334721840 0.4676052861334788 -0.1485744990124996 -0.04557024476929281 
0.05636730146954953 -0.01653298219034782 -0.03341160010633163 -0.003130580909228010 -0.0006624912496458625 
0 0 0 0 0 
0 0 0 0 0 
0 0 0 0 0 
0 0 0 0 0 
0.1146175922828816 -0.0002306403815159972 -0.1565438964421569 -0.003014472093262293 -0.0006767102673245362 
0 0 0 0 0 
0 0 0 0 0 
0 0 0 0 0 
0 0 0 0 0 
-0.01940162025921671 -0.04126748185973544 0.2201153343211787 -0.09432960722735598 -0.04490349241547403 
0 0 0 0 0 
-0.3845897335468446 -0.07599392033895756 0.4452805152117277 -0.03800854002080762 -0.05340404242893795 
-0.1188727013304977 -0.03026989721743512 0.1327489354793172 -0.01956058015484908 -0.02092501833645578 
0.1146567801512095 -0.1408230856533363 -0.01728242768130561 -0.06735994020710985 -0.1057552465345358 
0 0 0 0 0 
0 0 0 0 0 
0 0 0 0 0 
0.1074220385383225 -0.1274416348498289 0.09098871407922314 -0.03745829083106846 -0.09598096577094768 
-0.08887933452796329 0.2755210010180582 0.1187627082418730 -0.1956660810491122 -0.1834671151972771 
0 0 0 0 0 
0.2529491660021616 -0.1978366556869576 0.1347145937729036 -0.1861735842034770 -0.1031336312271997 
-0.004649467505638166 -0.02983160582720090 0.3960402068292556 -0.1374556239311348 -0.1381865997467284 
-0.008578987993289685 -0.04584823384380859 0.1008891931958372 -0.06691729386248486 -0.02035238295767841 
0 0 0 0 0 
0 0 0 0 0 
-0.1102890275771050 -0.1781087114983370 0.2638451629773411 0.1162376051925570 -0.1038947592830934 
-0.006568948960328848 -0.01402579304715272 0.06737309239752495 -0.06251311426951263 -0.03860004172202924 
-0.07002735867406534 -0.08023413409876097 0.3422260615260448 -0.1762127200690838 -0.05339586608703333 
-0.07923141725069946 -0.1469172194524186 0.1996139155513373 0.1389586543674445 -0.1004822604739269 
0 0 0 0 0 
0 0 0 0 0 
0.1154121598168978 -0.005868147321122960 -0.08464599064565830 -0.007875875039689404 -0.002419826841321179 
0 0 0 0 0 
0 0 0 0 0 
-0.006038613752293380 -0.02836223601071976 0.1898837270781402 -0.1069793312165834 -0.06319056710895575 
0 0 0 0 0 
0.05219067220341428 -0.0006670390531104608 -0.07495696922104630 -0.003583178297633277 -0.0004776304370385765 
0 0 0 0 0 
0 0 0 0 0 
-0.01231784402479352 -0.2287520386564034 0.5638863316093342 -0.08630530308931117 -0.04588414620946629 
-0.01640125166223972 -0.004444548498919697 -0.3209440681038950 0.3342248844196913 -0.1042082079915288 
-0.01387851584712828 -0.01796322796419092 0.1619694643510118 -0.07353277076914334 -0.09692826542749186 
0 0 0 0 0 
0 0 0 0 0 
0 0 0 0 0 
-0.1057357084503002 0.06562868721765383 -0.08042133839696168 0.05462083173345688 -0.02483937131787588 
0 0 0 0 0 
0 0 0 0 0 
0 0 0 0 0 
0 0 0 0 0 
-0.2072892453867398 -0.06590393784817132 0.1120684410945074 0.4285206614148009 -0.09928364693723615 
0 0 0 0 0 
-0.009346116771089841 -0.08918349398965841 -0.2563740696497481 -0.07269957892773693 0.5063456419268414 
-0.01125136303879291 -0.01666307403722258 0.1626346831334806 -0.06838069168056711 -0.1365485811298585 
-0.2409623968637079 -0.1108612900798648 0.1529713866840228 -0.1604198217871518 0.3633623750048498 
-0.02929005904060320 0.3399672617199431 -0.1374967029342883 -0.1029413753871692 -0.02837124315043433 
-0.01051594601738298 -0.01974807895636067 -0.1517612505813035 0.1235141333955813 -0.01383931653121643 
0 0 0 0 0 
0 0 0 0 0 
0 0 0 0 0 
-0.01643885239084613 -0.02467671340969469 -0.2000540923508320 0.2878933235162947 -0.01387572500795215 
-0.01558732012204867 -0.006951987164724736 -0.1419131199725791 0.1870723839245962 -0.04879861791334302 
0.1188844617427680 -0.1775148641105649 0.07924037624144996 -0.1651091995084077 0.3601151563104998 
-0.01558732012204867 -0.006951987164724736 -0.1419131199725791 0.1870723839245962 -0.04879861791334302 
-0.01318799032758988 -0.03788626828616245 -0.08728161111987427 0.07012628605856573 -0.003310386382472828 
-0.004543906783065633 -0.1085988329880244 -0.07762770269926643 0.3549558279380792 -0.1436459100188033 
-0.05732021362390494 -0.02450021232408741 0.2996211870191446 -0.1363941460146347 -0.008030463889826438 
-0.05730749430849422 0.5671801324478387 0.0004709505924072391 0.02397557636053346 -0.2323706165377711 
0.08419680241572199 0.6910936456267238 -0.1700640723531993 -0.2651493500185629 -0.08716890546476362 
0 0 0 0 0 
0 0 0 0 0 
0 0 0 0 0 
0 0 0 0 0 
0 0 0 0 0 
0 0 0 0 0 
0 0 0 0 0 
0 0 0 0 0 
-0.005499700738789153 -0.07809869160905858 0.2473318824502799 -0.1392293366647661 -0.009046596704098755 
0 0 0 0 0 
-0.03103474769609830 -0.1343881079653788 -0.009164120716320045 -0.1361586816624537 0.3922996289306412 
-0.08461526760953067 -0.08516357045792924 0.03034804491881039 -0.06193368366879706 -0.1206904344409711 
-0.03123054759087324 -0.02563870712034980 -0.02670521797914312 0.03182815786594264 -0.08510949304690618 
-0.07078085624154976 -0.03778858520255077 0.1179877709634086 -0.07679184858838396 -0.08945449205315693 
0 0 0 0 0 
-0.06039906964409397 -0.1345398774552018 0.6449933462372063 -0.4582262571932724 -0.03051456681316470 
-0.003259251852837437 -0.07851364513897780 0.3251120518750242 -0.4069869494176206 -0.02423482773136391 
0 0 0 0 0 
0 0 0 0 0 
0 0 0 0 0 
0 0 0 0 0 
0.1469829200750376 0.001033714406741156 -0.1078886927355658 -0.02383243043559922 -0.0009927473743348264 
0 0 0 0 0 
-0.01773399917422266 -0.2853063004179122 -0.04725155551398352 -0.1128718725732037 0.2686111391094949 
-0.004624424989939985 0.1499605723333639 -0.07876397365460647 -0.05067579385823778 -0.04891883467747389 
0 0 0 0 0 
0 0 0 0 0 
0 0 0 0 0 
0 0 0 0 0 
0 0 0 0 0 
0 0 0 0 0 
0 0 0 0 0 
0 0 0 0 0 
0 0 0 0 0 
0 0 0 0 0 
-0.005621629756773898 0.1503881841459623 -0.06407791200789946 -0.03591080062956963 -0.01521351231241910 
0 0 0 0 0 
0 0 0 0 0 
0 0 0 0 0 
-0.02228092571623547 -0.01681749769265158 -0.03467405878722416 0.1103700392557958 -0.01197333524774742 
-0.02228092571623547 -0.01681749769265158 -0.03467405878722416 0.1103700392557958 -0.01197333524774742 
0 0 0 0 0 
0 0 0 0 0 
0 0 0 0 0 
-0.01947380206886282 -0.01977809657477107 0.08708103403218799 -0.03229024180251703 -0.03095421900624648 
0 0 0 0 0 
-0.04532976558982541 -0.1121414371228066 0.3173446564909699 -0.04665576635311352 -0.08342593477834677 
0.04629139966551923 -0.05489627007853357 0.06659207982665542 -0.05904921406311385 -0.07081461366876725 
-0.02489886895129219 -0.01473563806159515 0.02524147121411283 -0.01708539986466899 -0.01463648435820616 
0 0 0 0 0 
0 0 0 0 0 
-0.01725243746237266 -0.01010141813401193 0.2095274280158133 -0.1601554928012083 -0.03197645792149242 
0 0 0 0 0 
0 0 0 0 0 
0 0 0 0 0 
0.07690703987487539 -0.003368509847994588 -0.1176728850093608 -0.001057656883641259 -0.0004558922625856477 
0 0 0 0 0 
-0.03719669532524265 0.1925489249321295 -0.09317362168388112 -0.01563066085764272 -0.01996075885332845 
0 0 0 0 0 
-0.03818725609398815 0.3184693444602232 -0.3492885662993492 -0.03246288653737964 -0.1018555109893830 
-0.02381809752885279 -0.1777822360455961 -0.1808361424986184 -0.04776090025723544 0.3401544309955754 
-0.02169665239547227 -0.05793547352753566 0.3664301482398090 -0.1253733685727403 -0.05000724973815499 
-0.5391344643578001 -0.09712333814616331 0.7341248695017522 -0.1778952066385747 -0.05756441808330080 
0.6271412681488495 -0.04656381048381408 -0.5033068648241005 -0.004255704289970656 -0.01324830520698426 
0 0 0 0 0 
0 0 0 0 0 
-0.008516215266380247 -0.01958101232699117 -0.04379441811214285 -0.007499416754619813 0.02766664538233799 
0 0 0 0 0 
0 0 0 0 0 
-0.008516215266380247 -0.01958101232699117 -0.04379441811214285 -0.007499416754619813 0.02766664538233799 
0 0 0 0 0 
0 0 0 0 0 
0 0 0 0 0 
0.06378767922906825 -0.02436550104445074 -0.02144507813133059 -0.002687715075897208 -0.0006421300461767404 
-0.05281504693758925 -0.01651904851311559 0.07410133272086387 -0.009307826034911454 -0.05539963507247479 
0 0 0 0 0 
0 0 0 0 0 
0 0 0 0 0 
0 0 0 0 0 
-0.004248492275907099 -0.3160605429008387 0.2021071199059844 -0.1340295704436780 0.06580922388603681 
0 0 0 0 0 
0.4524954701412446 -0.3721522057529011 -0.1072539957996495 -0.1452037165503109 0.02985062223126266 
0 0 0 0 0 
-0.007556500545891798 -0.04697384413157820 0.1824162556817092 -0.03021254902140108 -0.08706881071637576 
-0.02695189151976594 -0.03075445653464921 0.03845306520095126 -0.01021905787361505 -0.02257680356540430 
-0.007481710614052312 0.1946191882446204 -0.03561082195078241 -0.03772649118459711 -0.05363951390593161 
0.4818829139957260 -0.1073744699620578 0.1678074944999647 -0.1967489428946337 -0.2519178618730785 
0.05606656765715738 -0.01860828507582368 0.1768155091763251 -0.04923443465328404 -0.01658831022698756 
0.05606656765715738 -0.01860828507582368 0.1768155091763251 -0.04923443465328404 -0.01658831022698756 
0 0 0 0 0 
-0.009042019589053296 -0.04364443305724219 0.2018612582159463 -0.07443813521191922 -0.04762544460492514 
0 0 0 0 0 
0 0 0 0 0 
0 0 0 0 0 
0 0 0 0 0 
0 0 0 0 0 
-0.05318979071752235 -0.06599154439265742 -0.08341545948244108 0.3328406542263576 -0.003108036422436753 
-0.01103717430200607 -0.02601984520505544 0.1487264156102582 -0.04094068516922449 -0.04057686596311944 
-0.1694078274147180 -0.05802473198304930 0.1807041867966103 0.08853895609342713 -0.01964316378230057 
-0.01510015637869847 -0.03038466728006161 -0.08968569220969415 0.1394456470179288 -0.007777220420544659 
0 0 0 0 0 
0 0 0 0 0 
0 0 0 0 0 
0 0 0 0 0 
0 0 0 0 0 
0 0 0 0 0 
-0.02457514856816857 -0.0002132877557714175 -0.1506734123940566 -0.2081015574047550 0.2100771926621414 
-0.02026683745633837 -0.02164415280845878 -0.1034676295305032 0.1771440726731607 -0.01828738327777369 
0.2168277128782519 -0.02688845266300761 -0.4169221341097949 -0.08353563993796671 0.1882156960231206 
0 0 0 0 0 
0 0 0 0 0 
0.07324444729735950 -0.01052669473394941 -0.05374906935254777 -0.005078170661539223 -0.0009445851758783931 
0.03346528033206044 -0.005413196365221070 -0.02911514222035922 -0.01185823111599257 -0.0007042229889313309 
0 0 0 0 0 
0 0 0 0 0 
0 0 0 0 0 
-0.02065588512654169 -0.1048239325303317 -0.1281743723839679 0.3986313978014921 -0.03683683557656913 
-0.02179718739272915 -0.03487855103036393 0.1819695578505123 -0.1056601622823744 -0.01350449821012961 
-0.01829860708819583 -0.01804968775993740 0.04564668367247845 -0.03968800329443357 -0.02025040835967491 
-0.1589030899423191 -0.1670712545789559 0.6421613649375123 -0.3500408398166997 -0.1048337199601583 
0 0 0 0 0 
0 0 0 0 0 
0 0 0 0 0 
-0.08106166152172042 0.3409297136035822 0.006376120358712134 -0.1711527898587121 -0.1360000707563208 
-0.3104923648513197 0.3369997121459835 0.2392698415233895 -0.1745537208288779 -0.1374240195823449 
0 0 0 0 0 
-0.01625141579289187 -0.005112080717806224 -0.05602995794412837 0.05511760611510849 -0.01792275768043598 
-0.09118497966926058 -0.005580442014408274 -0.07551279858077872 0.2065696404469772 -0.005053931672223052 
0 0 0 0 0 
0.02114404790728029 -0.07889074912628781 0.03485418855225853 -0.08290773549979119 -0.09759486338681793 
-0.02450133960488968 -0.01990005116062372 0.04492591527609345 -0.02114993773791174 -0.02076696653841080 
-0.1169452507378102 -0.07609387617898264 0.2274771316918397 -0.07998071955556255 -0.09652715269822423 
0 0 0 0 0 
0.05372050365094951 -0.001861719754924407 -0.03132467112589894 -0.01811024153978598 -0.0002611059846322537 
0 0 0 0 0 
0 0 0 0 0 
0 0 0 0 0 
0 0 0 0 0 
0 0 0 0 0 
0 0 0 0 0 
0 0 0 0 0 
0 0 0 0 0 
0 0 0 0 0 
0 0 0 0 0 
0 0 0 0 0 
0 0 0 0 0 
0 0 0 0 0 
0 0 0 0 0 
0 0 0 0 0 
0 0 0 0 0 
0 0 0 0 0 
0 0 0 0 0 
0 0 0 0 0 
-0.1556236442972104 -0.03082527162190004 0.1015167293640108 -0.01274219099817197 -0.01230521272334480 
-0.1496556173517371 -0.001444811158319611 0.07936937203607035 -0.004008433225104398 -0.006327924543027890 
0 0 0 0 0 
0 0 0 0 0 
0 0 0 0 0 
0 0 0 0 0 
0 0 0 0 0 
0 0 0 0 0 
0 0 0 0 0 
0 0 0 0 0 
0 0 0 0 0 
0 0 0 0 0 
0 0 0 0 0 
0 0 0 0 0 
0 0 0 0 0 
-0.1814317883007036 -0.005786581889216391 0.05220086298526300 -0.001335313112334869 -0.008408502446498078 
-0.01554121252912720 0.1807257237784213 0.01866881110506845 -0.03830330464187003 -0.1120794107058169 
-0.006207543415216160 -0.2069728579721623 0.4298021826234876 -0.05407921873552465 -0.02301346088451862 
-0.005919047093283314 0.2155438362098907 -0.2312590040896788 -0.1149824676684372 -0.005941856326566894 
-0.006207543415216160 -0.2069728579721623 0.4298021826234876 -0.05407921873552465 -0.02301346088451862 
-0.01287931936452189 -0.06421338662659452 0.07588175381872003 -0.01196011531311936 -0.02909260722733336 
-0.01952096200535131 -0.04005444170729108 0.05742264907645401 -0.01387445557959822 -0.05221647644500283 
0 0 0 0 0 
-0.01952096200535131 -0.04005444170729108 0.05742264907645401 -0.01387445557959822 -0.05221647644500283 
0 0 0 0 0 
0 0 0 0 0 
0 0 0 0 0 
0 0 0 0 0 
0 0 0 0 0 
0 0 0 0 0 
0 0 0 0 0 
0 0 0 0 0 
0 0 0 0 0 
-0.007542015462768901 0.3380123169123138 -0.1558075661470122 -0.04836715778382228 -0.02752380390148361 
0 0 0 0 0 
0 0 0 0 0 
0 0 0 0 0 
-0.007542015462768901 0.3380123169123138 -0.1558075661470122 -0.04836715778382228 -0.02752380390148361 
0 0 0 0 0 
-0.003541782075909675 0.1301738593328242 -0.2413252377824270 -0.003110132592883530 -0.008603524650322571 
0 0 0 0 0 
0 0 0 0 0 
0 0 0 0 0 
0 0 0 0 0 
-0.003147554461176557 0.03933750386604581 -0.2384115770113493 -0.001342073995500437 -0.004369714203935808 
0 0 0 0 0 
0 0 0 0 0 
0 0 0 0 0 
0 0 0 0 0 
0 0 0 0 0 
-0.1086372009386623 -0.02003401126143181 0.2485709270452522 -0.03293862892359439 -0.005334286200616119 
-0.005552804971683445 -0.02527291797808364 0.07717127007556741 -0.04348425783484525 -0.007596662237955291 
0 0 0 0 0 
0 0 0 0 0 
0.08203373069397780 0.0003243732846330424 -0.1270109396312215 -0.003058305213871372 -0.001024796340257676 
0 0 0 0 0 
0 0 0 0 0 
0 0 0 0 0 
0 0 0 0 0 
0 0 0 0 0 
0 0 0 0 0 
0 0 0 0 0 
-0.2210296974946936 -0.1743666337617812 -0.03089483964438058 0.08754623321860541 0.1860538985435997 
-0.1495458556848067 -0.1633346081692844 -0.1862275707271482 0.1257639801311607 0.1924329514673074 
0.1940696164488228 -0.008059821311734642 -0.1717128405814680 -0.007980491853101977 -0.001827245040688480 
0 0 0 0 0 
-0.004060609463814712 -0.003207946238156728 -0.04089844362413615 0.02404203078149576 -0.002337284076990314 
0 0 0 0 0 
0.1773228251866569 0.2771316934335566 -0.2875137759794598 -0.05838019081602799 -0.01833578063806690 
0 0 0 0 0 
0 0 0 0 0 
0 0 0 0 0 
0 0 0 0 0 
-0.003721207958902416 -0.01094821859406096 -0.1805814800811919 -0.1633776543499702 0.3756332277092784 
-0.01780410079526024 -0.009427267152165648 -0.2479540286402330 0.2401323850118076 -0.02519481477804132 
-0.06259563607589855 -0.03730081031746313 0.3484720395289901 -0.2089545211130483 -0.07533473701648306 
-0.01271964999065403 -0.008157608355263815 0.05948430404343676 -0.04206437644120999 -0.04953690066523269 
0 0 0 0 0 
0 0 0 0 0 
0 0 0 0 0 
-0.05192917750455211 0.02312991256513217 0.08879240653659738 -0.03984893026169919 -0.03353240570106194 
0 0 0 0 0 
-0.004088762149711434 0.0003461052491675622 -0.01314237767806355 0.07209150880885269 -0.06529977941709615 
0 0 0 0 0 
0 0 0 0 0 
0 0 0 0 0 
0 0 0 0 0 
0 0 0 0 0 
0 0 0 0 0 
0 0 0 0 0 
0 0 0 0 0 
0 0 0 0 0 
0 0 0 0 0 
