solver_type L2R_LR
nr_class 5
label 4 3 5 1 2
nr_feature 3331
bias 1.000000000000000
w
0.7111256370366805 -0.4468755367406839 -0.3195902732354455 -0.01843362935413605 -0.07112203033676277 
-0.6642690240418956 0.3957939489380682 -0.08425119418665158 -0.1437158778050550 -0.5153909503551104 
-0.04304500686863708 -0.04182913689257459 0.3610174873158894 -0.01066160387546437 -0.1026548079697938 
0.3625160753439923 -0.1966758450676113 -0.009592278091107402 0.06488599906379966 0.03483507440364816 
-0.04164035179906294 0.2102102408740003 -0.1738618876929395 -0.003618725911729487 -0.01896658145778396 
-0.7356490089198124 -0.4225741728603291 -1.018538175032237 1.656789980236623 -0.1800424746459388 
-0.07654858942605076 0.4845317978420128 -0.02013569420448080 -0.2901582069019607 -0.7125424243156001 
0.04159275641643183 -0.003617284761637164 -0.1602799539929794 -0.008406379058196823 -0.002255439159807505 
0.1364119077569885 1.270069779938443 -1.335665466719401 -0.1343459989599842 -0.1968617271118246 
1.074663552080914 -0.1854242717819428 -0.3958683712538483 -0.5055999818538606 -0.3915134800128733 
0.06619743707937796 -0.007126908043852779 -0.05335737208498204 -0.005801869832220026 -0.03534129214063436 
0.6425402707398568 -0.1238639707576979 -0.08818765529705205 -0.2043289728780083 -0.3339919863559741 
0.2666300499256715 -0.1269462809451936 -0.1213417118224044 -0.005983870898239774 -0.01000062231541467 
-0.08891805608596237 -0.01502649247067148 0.08199273909414424 -0.02274072286968727 -0.01308884204491064 
-0.5406949174915984 0.5467786603811733 0.4025856619207135 -0.5333022866582313 -0.6508425632852879 
-0.02003912644246410 -0.1183569695550641 0.2656684706228772 -0.07895848654709965 -0.2873143879571876 
0.09267620515553768 -0.01381027220748240 -0.04868462428834426 -0.009916064292215879 -0.02101291734007114 
-0.1187468633077599 -0.1345309470065069 0.06967195248805454 0.4195014930489451 0.001598743334211745 
-0.5021290051350100 -0.2003807344592634 -0.6249494872379503 -0.2628096267785720 0.9982132397302587 
-0.03999705392376143 -0.06358746313480104 -0.1808911160969135 -0.02336273403000647 0.2254085398176401 
-0.005715507400612141 -0.03470157940391433 -0.1305027963657898 -0.02981189832582835 0.1980198576916271 
-0.005418408154649066 -0.02949946237997918 -0.2451495160596017 -0.02190455710963839 0.2624748939833589 
-0.4913487711348875 -0.1708247045094706 -1.019876449027929 1.538475845316088 -0.2610070121787239 
-0.2673222669047409 0.04539337530016949 0.3991552185229699 -0.09167577894321809 -0.08154124984101200 
-0.1967537205583088 -0.09778199437388341 -0.3675281645450315 0.3493509515315645 0.1338500438372654 
-0.02519067983584640 -0.03026644167322629 0.2016125219216531 -0.01262318491468909 -0.05871475279283311 
0.2544546577217179 -0.1483119771693959 -0.03737795050828313 -0.0006727479909814345 -0.004378738865774158 
-0.05482218602776359 -0.01420047598022913 0.1000906417566846 -0.01391574442650184 -0.01146484831216084 
-0.006194421316528358 -0.1198505519892316 0.1834610961588164 -0.0008672891176430775 -0.01002949536642320 
-0.2056656744809539 -0.01116893018468333 0.1540006708711077 -0.02122264167526545 -0.02009518703927077 
-0.04498940280198462 -0.01886717831740107 0.1526222414134859 -0.06472793343055890 -0.02077046438224523 
-0.01325392722765516 -0.05328203800503750 0.05334177725423904 -0.001512455334816810 -0.002053431588356824 
-0.01119510336669634 -0.04005110933115631 0.1872166813706928 -0.02252484663977391 -0.05475059716386108 
-0.006560657713634521 -0.02672179358273895 0.1770887662804578 -0.09027334970361900 -0.05384039334247665 
-0.04292772748971603 -0.01188423677089390 0.06655440684009087 -0.03327940249325000 -0.03392997125293114 
-0.002072586804575362 -0.04802326819964024 0.04352774991011393 -0.0005094008392873327 -0.003137326899029018 
-0.01477854471871754 -0.07618202293583900 0.1066052136786729 -0.001984372926245000 -0.001355787253630630 
-0.01438885931146533 -0.1323368703271469 0.3121036217421912 -0.003433630684074145 -0.06590841260738219 
-0.003596010857396797 -0.05075918846298758 0.2084237429158500 -0.08142049582825187 -0.09147549149995249 
-0.06238544830842946 -0.005462890360918438 0.2468018382105871 -0.02366326296147871 -0.1174412559026719 
-0.03196414108689615 -0.008502932394227510 0.1289051038992656 -0.05369305323198988 -0.03502123112964427 
0.1641875112000397 -0.04388146422039056 -0.2212541089001636 -0.03872089442217769 0.1044218519844217 
-0.07940417406281879 0.1742347301021113 -0.01509204994471796 -0.03748295938410676 -0.02544650841223550 
0.2325561348042861 -0.01464429080164808 -0.1620819726170834 -0.1100892174144508 -0.07926155628293106 
0.2990404909446234 -0.006890733082261775 -0.2146188321714114 -0.04983214259644689 -0.02968921386514426 
-0.03894627142392357 0.02055126146082191 0.03481033610609203 -0.003731377424369514 -0.02146046993674239 
0.06789127683647882 -0.006055352415668625 -0.1420310305073754 -0.01821196131057850 -0.005970835037431153 
-0.05573356492797284 0.08537890758678292 0.04110326942571639 -0.02095585953191677 -0.009867996662414249 
-0.01924436366126493 -0.02326160369419423 0.1014731207307367 -0.01705766357382827 -0.05497031007592037 
-0.1099901577771649 -0.2960810879890162 0.4463487820421215 -0.1276219678954582 -0.05028355694905199 
-0.02216217755124019 0.1469388823886926 -0.06801652987248331 -0.003170865592229684 -0.01399847371724321 
-0.1875440345922718 -0.1351021965483676 -0.6598464519675641 -0.1032259489345707 0.8484403052831687 
-0.4876481224758367 -0.03274197224283838 -0.1381406095046847 0.1487068571319155 0.4424558651451669 
-0.009239731098754167 -0.005282518057587392 -0.1322143351505532 -0.05453484420344188 0.1736335111773343 
-0.02673703522720487 0.3790204643267107 -0.2683625408311236 -0.004751742914652731 -0.02238324345583235 
-0.02780322591766999 -0.02668067978864475 -0.08619142048624530 0.4727584767705698 -0.1608865300061423 
0.5857164542335438 -0.02010524774672711 -0.2412191079796297 -0.1405140152760098 -0.07423409694981319 
0.1711763958134889 -0.09877054260882251 -0.2932984065046543 -0.2157750466565458 0.5077923665518851 
-0.02895107905498974 -0.05176707268744391 -0.1994847229522098 -0.05809036162878748 0.1862930540330213 
-0.01131581980522200 -0.005513137588085509 -0.08961245445430550 -0.03590758738561567 0.08622422602893198 
-0.004860451070045014 -0.06415406319848432 0.07351173514113472 -0.002837175279407924 -0.04539983386058809 
-0.04523406913502481 -0.08525448997453403 -0.02722133320613623 -0.02528345644607554 0.1847272059222163 
-0.03054820478993732 -0.01094317786819214 0.1302315375331460 -0.06094498589797043 -0.09021767331131113 
-0.04004587932949891 -0.008687478126397733 0.1637725066914180 -0.03322846573318360 -0.09031067495449546 
-0.01175984939324360 -0.008535345592033406 -0.1385316608550800 -0.006712426986162048 0.1091203802710310 
-0.1994728335280782 -0.03971775537226432 -0.1483939661915440 0.2624280149307138 0.1316252432321269 
-0.01389284657497365 -0.06370590381968703 0.3663189262265777 -0.03659734934417361 -0.1619869466749201 
-0.02239870153994471 -0.003927599775989374 0.1796233785375605 -0.004136155014485484 -0.3210202421398614 
-0.1122041074259748 0.03094588952146395 0.03487424061164342 -0.02852325444180928 -0.03610280489414153 
-0.04000768252606619 0.4397150532833046 -0.5870513567517610 -0.006693581950001892 0.2011741566655029 
0.1259770719480529 -0.04510758679362921 -0.04308852134049955 -0.01656390651920405 -0.07600837043244832 
-0.02627355196825400 -0.01908504154886393 0.1691120361353212 -0.06431703837502060 -0.07236982515225560 
-0.06121418410189656 -0.001202918576467877 -0.1431051325627328 -0.04855677306033618 0.1766863429556434 
-0.0003261946311470913 -0.08877017214982773 -0.09963024049993233 -0.02146138172928333 0.2123753724074967 
-0.01214214474567142 -0.03612005834222369 0.4182490698750082 -0.01180341209045567 -0.4131375079453198 
-0.2431556212556827 -0.01412059782233400 0.05832219445062749 -0.01181921025652259 -0.006773893398681023 
-0.004737756130314209 -0.07535089198539376 0.09652893915383613 -0.03013796295096730 -0.04131353290475166 
-0.01776973838698138 -0.1352231028132516 0.1238906400279796 -0.002519259734436787 -0.001524141252713453 
-0.1600632438880100 -0.004393052974286183 0.2722733897439767 -0.03587774680313635 -0.03274056026834151 
0.4888373951226293 -0.006886547559912016 -0.3716641206607592 -0.02134671073351701 -0.07281573002119011 
-0.1096632027108363 -0.02379733766704697 0.3068860562117841 -0.09208597840192113 -0.1199890019131823 
0.1497271052252026 -0.01250827931428781 -0.2332854761178065 -0.002549971185771690 -0.003877645381666249 
-0.03744373007955835 -0.01521986267041935 0.1257223833851267 -0.05399006923997429 -0.06501532141855446 
-0.04185516023511774 -0.08546971843181672 0.4352313512717974 -0.001085668146973191 -0.04491273503845817 
-0.01183434043819422 -0.007220851316174776 0.02173273706593844 -0.03508827508345352 -0.02557568158637694 
0.7064276539913196 -0.04703174144146115 -0.3320139174159905 -0.03994730135694864 -0.1533704435553442 
-0.09008124233348667 -0.01105708410488774 -0.1658605304930718 0.3119204602963812 -0.03780417574713027 
0.4192295872366368 -0.1485188749128412 -0.1146045167078061 -0.03960913205016556 -0.02782406837511228 
0.1305197935924584 -0.003227085467271001 -0.07434859844938495 -0.01273779372734461 -0.04550364960369908 
-0.06531665393337803 -0.01421227411648304 -0.09149212077027677 -0.03710026105207216 0.2319584344977415 
-0.02053493500432196 -0.03692858098401066 -0.1961008721070416 -0.003377376272612620 0.2531264882748470 
-0.03160458344643081 0.2571941780329061 -0.1622556368022348 -0.003158670788455888 -0.01834448947771884 
-0.09516032291761574 -0.1358822758001849 0.5859633090024804 -0.06072877494835501 -0.1434332564325707 
0.1073460015542602 -0.01228021451396925 -0.04514845242632151 -0.008422612694720218 -0.03341403228270654 
-0.2887434975510925 -0.03529262981791111 0.3532258476972047 -0.006071656202880241 -0.04969196690110840 
-0.07871064845683684 -0.02037193325215277 0.1714660227651111 -0.03509888681738044 -0.01396315262591030 
-0.08571201797798796 -0.03251670979996572 0.2203001683107003 -0.08432831423014665 -0.03017842054267958 
0.2520221559285886 -0.01590798353484976 -0.1371150549886246 -0.02999801823513670 -0.05677870120177904 
-0.009755071178531784 -0.05144630159128234 0.06615969294443250 -0.002165535615150553 -0.003448366177597807 
-0.04707072797113514 -0.03940867948519315 0.1203638327692150 -0.01631056170935221 -0.02599905452493434 
-0.1040173207360514 -0.01918604196447857 0.2111732911979279 -0.02744300629151259 -0.04212598264820638 
-0.02867893086727692 -0.05571319818610118 0.2097969199680951 -0.07284138673546992 -0.04247064560280175 
-0.01742116982459521 -0.003866014089900721 0.07758573297403850 -0.02423134043545274 -0.07830278412434742 
-0.03650704338148090 0.2681309199297122 -0.08872616348820982 -0.01665244801719477 -0.01589490945649413 
0.3998990798661136 -0.03280152781141388 -0.2626383897566481 -0.09214317741399276 -0.09256184921655632 
-0.2327619590154944 -0.04929953549756459 0.1150375559001104 -0.09699758658831957 0.3532532651168381 
0.1882571442884981 0.2751692622126185 0.009307679170976914 -0.1011373657659285 -0.1126218509807021 
-0.05821166348055069 -0.08193734174169763 0.1647798102510453 -0.02921458048964819 -0.01564585486307724 
0.2630883727533472 -0.04952815959239642 0.1037139646338519 -0.2019249988075299 -0.1503226616038824 
-0.1424602703164338 0.3238524244755522 -0.08558057369424588 -0.008993829747103652 -0.007287843423056258 
-0.07222460548920688 -0.003316383454993572 0.09082153907292309 -0.03446619308885912 -0.03910969449990220 
-0.07357191237285685 -0.01172532123039522 -0.1409555835749795 -0.03474900870337253 0.3105249047726621 
-0.02837140181038685 -0.04715691107523267 0.06361389555634182 -0.008428866633599860 -0.01505827160521261 
-0.03489877967738461 -0.01715660676098000 0.1885954221947591 -0.008443663798434790 -0.04878684465889954 
-0.01313362037077164 -0.01098194470167096 0.07571754700861469 -0.02186818258608599 -0.06840912141208360 
-0.004736284242394332 0.1509541029506356 -0.1343925124085202 -0.001494098056650714 -0.006329657980196199 
-0.02851833646375814 -0.04261054724830551 -0.2536447346239820 0.4054321831942944 -0.03105185726002538 
-0.003402665601473000 0.1378025281204647 -0.1683849332976359 -0.003425258547045040 -0.006350122740093514 
-0.009376620682223533 -0.03285930860334232 -0.2946846218710274 -0.006643536049830322 0.3261762033221265 
-0.002595588918703699 0.2465081268302392 -0.1676980160802086 -0.0008548140340355372 -0.05393344823200383 
0.3700301839450724 -0.02790665209092171 -0.1485281799672663 -0.02774950658232328 -0.1061550550959181 
-0.06176148790920497 -0.006453578627522055 -0.1317947290066572 -0.01964606322129725 0.1988186548505179 
-0.09481744996902682 -0.02553532076504559 -0.1601542203501901 -0.01172050157217973 0.1897924523446927 
-0.02813715077036827 -0.08295653860081979 0.2852742164237626 -0.007296185999615209 -0.09728222132482096 
0.05545662494289643 -0.01203203342233592 -0.3641205603583944 0.5158457110325946 -0.1445207877187676 
-0.03724619452168745 -0.005060737915684194 -0.1462432024586068 -0.01117533925252888 0.1553890167899858 
-0.03051612384211885 -0.03074411288719212 -0.03856550172472862 -0.08871693020185174 0.05581249994688690 
-0.08762738183740150 -0.03900002952623340 0.5946580574506655 -0.01293544763164191 -0.2278239642928160 
-0.01723400595413724 -0.007091539113104723 0.06344831252736889 -0.03480224520799360 -0.09217815510088631 
-0.006321469227020969 -0.01762621463270423 -0.07718343424068598 -0.02739766902900302 0.05277850538609905 
0.1757758620858018 -0.1359914837405327 0.1343635277782326 -0.01740066393336048 -0.03303168666815275 
-0.1064012679635576 -0.002240365441001831 0.3742209907826161 -0.03035330972427406 -0.3999170773947771 
-0.05223054907412194 0.1788138573669224 -0.07843117538876966 -0.0006522106332450405 -0.008803439796002444 
-0.06115159320215992 -0.06819235642786378 -0.1760999570307121 -0.05247074317100323 0.3097898257838153 
-0.002229230892814983 0.1149606431234575 -0.1670950586925410 -0.003867288204498989 -0.008073896884817385 
-0.03187682780614082 -0.01373752480686792 0.07793940107711683 -0.03709869354733781 -0.02554343779318827 
-0.02029959799658212 -0.01940333275723451 0.03110895839733317 -0.01897933367519132 -0.02299183661817069 
-0.06045416529614037 -0.04014493385908702 0.1096240001565688 -0.001683549676140759 -0.001685200050325426 
-0.04463967586371168 -0.01288898816622628 0.08275970327248879 -0.01737272141299864 -0.01857638562996374 
-0.03333204974350479 -0.02884399225593257 0.1093525925950347 -0.01991083646530459 -0.02513985386248087 
0.2430600534014175 -0.03369867059270015 -0.1331817973324211 -0.03272569067944355 -0.01110719030963443 
-0.02591563984235096 -0.1177080780188076 0.1870156667083605 -0.006368225221520254 -0.006064639590456151 
-0.05323615635068462 -0.01927201264306488 0.3136167230638642 -0.04752374920914572 -0.1045604338067140 
-0.01311804274041855 -0.05186256365974236 0.06172054826649111 -0.04805691442780641 -0.009101264433994892 
-0.03536685727928710 -0.01525587331471065 0.03967555316583057 -0.02101768583347890 -0.01267770723754407 
-0.05426793000066515 0.3321656788299616 -0.1995344588394799 -0.03043020876344851 -0.006495225853360510 
-0.04426274020350667 0.08813393625221166 0.1460139754814649 -0.004944388629872652 -0.04760957963219718 
-0.1888462701444808 -0.06074096373767802 0.4971616062631849 -0.1649309583706964 -0.09852340131168988 
-0.08601084009771294 -0.03047548054283432 -0.1021890248776946 -0.003359061539804721 0.3439945255351886 
-0.01797167625541132 -0.01290295059378241 -0.1245230738476378 -0.01056041897320577 0.1316775866965284 
-0.03593092148393248 -0.1067701041802735 0.2266703983624694 -0.01179852203521100 -0.05152135296376137 
-0.03118689225255882 -0.01269779889567316 -0.08890964946932359 -0.02365311087232794 0.1581560612646569 
-0.02269122277384517 -0.06582210570227490 -0.1294058026185272 -0.06051042506002959 0.3396253985996128 
-0.02748073571860281 -0.005874604875105556 -0.1156567244410605 -0.02279010977697188 0.1020560167456589 
-0.01505146670842794 -0.1045011575040280 0.1710620458320160 -0.001121517443003979 -0.007968123057648638 
-0.01848273952485834 -0.03319173756853225 0.2266565271603963 -0.01668845912740844 -0.09228014755172613 
-0.02626581670120941 -0.05743977776824041 -0.4304788651782821 0.6841876844601774 -0.3302736181787396 
-0.01934598016410409 -0.02304134021721062 -0.01955870916340454 -0.007545660168755428 0.03237110864960233 
-0.1023599671075985 -0.01773824452261740 -0.1416547442237204 -0.04570037660060521 0.4102645286615337 
-0.01847560107908762 -0.005960764628399158 -0.1212700614707948 -0.01254388215917561 0.1024644456947431 
-0.003846592192563504 -0.08286092438854435 0.1091693862874841 -5.668674997564237e-05 -0.01997074986283421 
-0.01948096052663308 -0.01601809474624772 0.05881905296231685 -0.02578865015468630 -0.04931424282984074 
-0.01329108149256271 -0.01477744086403337 0.1881612611437490 -0.02397022396388895 -0.1598418272349706 
-0.01859311605198925 -0.01550903685189534 0.04030969193743547 -0.02393673361624586 -0.03811436974100366 
-0.02835651445010346 -0.006497284017429991 0.02545116230328878 -0.005407594726362717 -0.01986271001713721 
-0.07713897133941643 -0.007904376042366545 0.1537677750387955 -0.004474370297884089 -0.07833314042110288 
-0.03403457778418132 -0.01969990992242056 0.1769574812600997 -0.01368906960068639 -0.1099842702344153 
-0.01042158203283888 -0.03247483758745889 0.1085327862997348 -0.02801916558273615 -0.06736263108624170 
-0.03980767230843534 -0.001556356455980544 -0.1331820063756637 -0.003572730633988378 0.07966237684460730 
-0.01484086232808956 -0.005750669796748799 -0.07596540019483837 -0.007146075311174103 0.05397678988051562 
-0.04239285876016240 -0.07278052395810611 0.1520647714362378 -0.01237812383228456 -0.01454657792918406 
-0.04248410276574116 -0.04129959005029125 -0.02898023986152311 -0.02065824947845976 0.2948431249642282 
-0.1239454750071798 -0.02289997947903309 -0.1450044950736330 -0.03903151765490759 0.3356017892871324 
-0.02243458286234533 -0.09539947793040615 -0.02575741851022607 -0.001726262233542647 0.1880915568713189 
-0.07451945212650479 -0.03523153989273520 0.1484363238681227 -0.03139317233119637 -0.05570693823735350 
-0.04751272411663243 -0.06114456843105339 0.1588807691132087 -0.01325068612708834 -0.04568681211613498 
-0.02821173511796168 -0.01708360632278043 0.05152707011715622 -0.02210141583865553 -0.01865348176245575 
-0.02639972956134968 -0.01291599261861016 0.04336474216012928 -0.02291069246945111 -0.02167972093423922 
-0.1029678766791897 -0.02782506013834911 0.1686560842994130 -0.002263119958230815 -0.04862519380684992 
-0.09275513351004054 -0.006458388841703593 0.2044347886008493 -0.03951006513826076 -0.06868755061291532 
-0.08185516072943368 -0.006922127419437865 0.2949038100048554 -0.02122966260198773 -0.1233983147054688 
-0.02780768265975782 -0.01096787872487427 0.04889840220804179 -0.01075026234350053 -0.02839062712452927 
0.1602904710714256 -0.06099553855729713 -0.07144327490803120 -0.0002674695103675654 -0.001155626685831095 
0.1570720275264033 -0.01397444214960409 -0.01158617970417211 -0.09735385481752555 -0.03080478824942541 
-0.05822468068609369 -0.01307304744681734 0.08173405509521156 -0.03387380809829144 -0.01386657137104558 
-0.1194372586651675 -0.01291333148150815 0.1121414666674788 -0.007380120987634342 -0.005743217748358937 
-0.06224369148122972 -0.01139158200905025 0.06787342826164085 -0.04967939915036768 -0.01692878258161787 
-0.003001128128510213 -0.02631063562652315 0.04099488906835681 -0.001519125911234296 -0.01233238166647714 
-0.09002735738103546 -0.02977218281021046 0.1788499494340703 7.062102963125599e-05 -0.001913622415922250 
0.1274352557992653 -0.004606176567073979 -0.2357481661833885 -0.01022508030463554 -0.003110987462351207 
-0.03288661958240168 -0.004426571381722496 0.06376535363326635 -0.004201015848409078 -0.03611816622308756 
0.04268187243724363 -0.002790835784250688 -0.2010697791370266 -0.006591891392658782 -0.001395019211820190 
0.1672189330153475 -0.007172401067563366 -0.1268884814498249 -0.02131827845967762 -0.005779345299461196 
-0.002331512406457857 -0.04158393231192612 -0.1237806785357195 -0.01068127536112210 0.1296270449257742 
-0.01406342653611127 -0.04021529832406542 -0.3171137503924075 -0.09057710001977255 0.4173104039845966 
-0.04320754529866417 -0.01618295527506318 0.1476943330819586 -0.06997795107508646 -0.1193695903723872 
-0.01247530145696719 -0.06062956129771431 0.1384950405434650 -0.01431500743068193 -0.02521807705997399 
-0.008113132309867098 0.2017734355049576 -0.1668564561718981 -0.001650939005752021 -0.005812059310037472 
-0.003884998411853802 0.1781206488749454 -0.1868422550064328 -0.003384134645023985 -0.006709866287127274 
-0.01757863444504285 -0.05836042639789613 0.1136872139216640 -0.04409747786392851 -0.02337327752429647 
-0.008955634110554181 -0.08915980305134630 0.1836459545022955 -0.005149496476309311 -0.01037302759855066 
-0.01068683970350891 -0.01615995817209083 0.09406803273448147 -0.06204448174984412 -0.05223031465276273 
0.1883206539336913 -0.01729617560554852 -0.1575477460484664 -0.01520205331762529 -0.04522663164383949 
-0.05723538960841293 -0.1019648953206554 0.2396627119464264 -0.01126116909620590 -0.006347780760359145 
-0.03797651466062323 -0.03688440138839515 0.2602738723154154 -0.01135234088548936 -0.1007950930865613 
0.4685894589959835 -0.02748749407699970 -0.2037747125732599 -0.08775052119940341 -0.01889163130250194 
-0.02276301461159878 -0.04484494355661198 -0.1071148034362384 -0.01365202707035954 0.2612026733011322 
0.1453263939271524 0.5232040175273986 -0.2303802205322656 -0.03179121788681070 -0.02090364781169367 
0.1578617593494993 -0.02818710441414798 -0.03836559549253063 -0.01573314278572030 -0.06325742319944601 
0.07266614200007780 -0.01670278234043167 -0.03262302510666416 -0.01959947762992405 -0.01753656401209727 
0.3049689392614360 -0.05554793337234085 0.04871563017204169 -0.08645399802326993 -0.008065917024237448 
-0.2086868123405610 -0.02469480294919244 0.3580747776420516 -0.007743869627353655 -0.05070313621821111 
-0.01653444682060909 0.3610019207471200 -0.2191712430468095 -0.02581087909251783 -0.01357581519909621 
0.1580226852794710 -0.006339087799306426 -0.03524803028097241 -0.07032234243597954 -0.03851155512169812 
-0.05625749205180599 -0.02726636642374189 -0.1575611579924691 0.4028921584468209 -0.1096166813591373 
-0.01259616029864081 -0.08553071801451450 0.3700325869097748 -0.06662720579879892 -0.04451277899448002 
0.1966716864036709 -0.04028273584299226 0.1040012196836873 -0.04118616245926871 -0.09236381125906220 
-0.08612740342052641 -0.01283259979210855 0.08425962904468381 -0.01423941807495014 -0.01134984532875907 
-0.2605317904167342 -0.01652885723383821 0.2678577580092633 -0.007473944471904370 -0.006623281557915727 
-0.007951576689175687 -0.01526045009808646 0.02936143168506968 -0.02892090269598460 -0.03318136787023127 
-0.01026405833093060 -0.1057228131908351 0.08180589546382709 -0.002333856921287912 -0.004033965000485982 
-0.06013283922781023 -0.02025262401428235 0.08590722928482226 -0.006878967844097997 -0.001766899655447220 
-0.2603075648189623 -0.008770788840160127 0.2210638004473196 -0.02061557499992787 -0.005872221110545639 
-0.1353204573648407 -0.05203090082267491 0.1674769169161950 -0.007294438362641767 -0.002405660770946807 
-0.03384990549261509 -0.02003535523207074 0.1395278549544657 -0.04943277837548236 -0.02903460759353940 
-0.02419181466414438 -0.03284020005379681 0.07658926488859052 -0.01358354344355885 -0.008887608288426307 
-0.03636587958520468 -0.01170749847553798 0.07014486617943311 -0.02013991591185605 -0.01426706916444082 
-0.04497163143900911 -0.03152926900140633 0.1325046424157589 -0.03091290490998739 -0.02031995532038491 
-0.03208956877139888 -0.03807138112962398 0.09497109457854710 -0.001389800756903796 -0.004542570167662275 
-0.06178077384134200 -0.07507500666619311 0.2262012150186317 -0.1250664059284187 -0.02603363405040191 
-0.03462728629162381 -0.07513552719254529 0.2406321032123540 -0.007745892882661224 -0.08225069193950366 
-0.03721710007415996 -0.01158116094318015 0.1731227776660665 -0.005403554531527344 -0.08000314873980749 
0.08320926098076237 -0.003668402997506193 -0.1580436372606343 -0.04464677040932173 -0.004949523005339946 
0.9206514944653972 -0.5488677593865813 -0.5504526818271844 -0.02414770785572722 -0.08353391956180636 
-0.5598956963450593 0.7683078620724798 -0.5221871927736939 -0.1487234654867712 -0.5391050997612354 
-0.04304500686863708 -0.04182913689257459 0.3610174873158894 -0.01066160387546437 -0.1026548079697938 
-0.4673443555490963 -0.1605728341418949 0.4802285377164845 0.2832154611753092 -0.08840770166893719 
-0.1434957773347142 -0.1193443214710213 -0.5798299201280515 0.5525590783245049 0.1604190207228196 
-0.07654858942605076 0.4845317978420128 -0.02013569420448080 -0.2901582069019607 -0.7125424243156001 
0.3301140382554815 0.006513614413886697 -0.6016124326204126 -0.1201982575203964 -0.07406610314028589 
-0.08130573968779317 0.2572479062973482 -0.3228390153213590 -0.02669990194395445 -0.04825708481427082 
0.05688636091037373 -0.06173906060851542 0.1646147965242840 -0.1135491867038024 -0.05124243828234042 
0.9834224289288456 -0.2258629588956173 -0.3864985012550998 -0.2835398369424880 -0.03143243118873434 
-0.5349084806451486 -0.2554191492342383 -0.1878791511353148 0.7820278354469272 -0.2860412826391464 
0.2118817366463933 -0.03102027390876876 -0.1130962405109866 -0.005505611632884560 -0.008573560384941442 
0.2704167516546829 -0.01010133887340867 -0.2494620526706214 -0.03982808504404781 -0.05493503305596349 
-0.08891805608596237 -0.01502649247067148 0.08199273909414424 -0.02274072286968727 -0.01308884204491064 
-0.5406949174915984 0.5467786603811733 0.4025856619207135 -0.5333022866582313 -0.6508425632852879 
0.2405116043729864 -0.6122927100280710 0.3696149168682293 -0.08138098909042008 -0.1296210147842524 
0.09267620515553768 -0.01381027220748240 -0.04868462428834426 -0.009916064292215879 -0.02101291734007114 
0.2344623043863680 -0.01535754671750915 -0.1400803021661314 -0.1260056904079491 -0.08201451101509558 
-0.07764302874561049 -0.08130934410950234 0.2566587809664048 -0.01291012639434357 0.03994137921463221 
-0.04202304236470957 -0.02755393118170722 -0.03647486304435717 0.01843134739684686 -0.02656518475894523 
-0.2927730545227256 -0.2214776153402767 -0.7087380473988512 -0.2336713954018699 0.9266531679712673 
-0.005715507400612141 -0.03470157940391433 -0.1305027963657898 -0.02981189832582835 0.1980198576916271 
-0.09785916861656378 -0.03859646689573898 -0.3035705100350001 -0.04541991916713538 0.3212144568845756 
-0.005418408154649066 -0.02949946237997918 -0.2451495160596017 -0.02190455710963839 0.2624748939833589 
-0.09352484448513973 -0.02325440720906768 -0.4456538834965077 0.4106349106556704 -0.04333662614803571 
-0.02836268436399261 -0.03220601590118397 0.06510115801869772 -0.005901630419308703 -0.01801927924561980 
-0.03185050612851181 -0.5281026885325132 0.5424992188626352 -0.0004691228890113101 -0.02656587154426230 
-0.008766366720135572 -0.02584762621013030 0.1982169390586010 -0.1346053460904582 -0.03423800417474519 
-0.02519067983584640 -0.03026644167322629 0.2016125219216531 -0.01262318491468909 -0.05871475279283311 
0.2544546577217179 -0.1483119771693959 -0.03737795050828313 -0.0006727479909814345 -0.004378738865774158 
-0.05482218602776359 -0.01420047598022913 0.1000906417566846 -0.01391574442650184 -0.01146484831216084 
-0.2056656744809539 -0.01116893018468333 0.1540006708711077 -0.02122264167526545 -0.02009518703927077 
-0.04498940280198462 -0.01886717831740107 0.1526222414134859 -0.06472793343055890 -0.02077046438224523 
-0.01325392722765516 -0.05328203800503750 0.05334177725423904 -0.001512455334816810 -0.002053431588356824 
-0.01119510336669634 -0.04005110933115631 0.1872166813706928 -0.02252484663977391 -0.05475059716386108 
-0.006560657713634521 -0.02672179358273895 0.1770887662804578 -0.09027334970361900 -0.05384039334247665 
-0.04292772748971603 -0.01188423677089390 0.06655440684009087 -0.03327940249325000 -0.03392997125293114 
-0.002072586804575362 -0.04802326819964024 0.04352774991011393 -0.0005094008392873327 -0.003137326899029018 
-0.01477854471871754 -0.07618202293583900 0.1066052136786729 -0.001984372926245000 -0.001355787253630630 
-0.01438885931146533 -0.1323368703271469 0.3121036217421912 -0.003433630684074145 -0.06590841260738219 
-0.003596010857396797 -0.05075918846298758 0.2084237429158500 -0.08142049582825187 -0.09147549149995249 
-0.06238544830842946 -0.005462890360918438 0.2468018382105871 -0.02366326296147871 -0.1174412559026719 
-0.03196414108689615 -0.008502932394227510 0.1289051038992656 -0.05369305323198988 -0.03502123112964427 
-0.2824073701200996 0.8410433085852349 -0.3041037998359630 -0.01122634981239970 -0.1868438091112310 
-0.07208685511417179 -0.04862707472490264 -0.4379935772578096 -0.09588807201269245 0.5474549982876834 
0.2053320225979785 0.1999684962913215 0.1733283273343730 -0.1000759789593274 -0.1376749836719535 
0.2990404909446234 -0.006890733082261775 -0.2146188321714114 -0.04983214259644689 -0.02968921386514426 
-0.03894627142392357 0.02055126146082191 0.03481033610609203 -0.003731377424369514 -0.02146046993674239 
-0.06645461918014109 0.1756674246318703 -0.3214671936158464 0.2727392316414831 -0.04341290215257183 
0.2222109397781003 -0.03546968781955334 -0.1003742820347614 -0.03340992242925779 -0.02572274231866509 
0.06789127683647882 -0.006055352415668625 -0.1420310305073754 -0.01821196131057850 -0.005970835037431153 
-0.1004587395330808 0.6413810232989645 -0.5747681100280501 -0.08016350618058980 -0.1104080696899547 
-0.2961196558309848 -0.1224554923915904 -0.4605336577245091 1.048773333725061 -0.1886937480388718 
-0.01985637333287512 -0.2158410442114004 0.3160404742547466 -0.07969583154132565 -0.01191729370825215 
-0.07439272662536213 0.3257527397556150 -0.1464477052612530 -0.003823076225474724 -0.02280191351324565 
0.1303378212406292 -0.02205995600579723 -0.2873718645871826 -0.09828730616084760 0.3685952834341735 
-0.04110383456214937 -0.05322160289700456 -0.1869868284783503 0.4324116194432887 -0.03834263588042046 
-0.1688247305161681 -0.1116363729024410 -0.5804411401438750 -0.09584899267537586 0.7287843407887593 
-0.04489066300974743 -0.3796599989721698 0.3509015102608461 -0.02150690233044666 0.1160446237677264 
-0.02153470412369217 -0.008875887842267598 0.2421436486847124 -0.1304155695240242 -0.1308558595273237 
-0.04180072560518552 -0.01027671379973431 -0.09914853011920094 0.3401413646607674 -0.1940311662366018 
-0.03147281391825459 -0.03486630970447847 -0.4133631185916095 0.1735642734118477 0.1304075486545105 
-0.009239731098754167 -0.005282518057587392 -0.1322143351505532 -0.05453484420344188 0.1736335111773343 
-0.02673703522720487 0.3790204643267107 -0.2683625408311236 -0.004751742914652731 -0.02238324345583235 
-0.07941551041342655 -0.0005818007196335612 0.04787318129342940 -0.02308799553232840 -0.02477712213480399 
-0.02780322591766999 -0.02668067978864475 -0.08619142048624530 0.4727584767705698 -0.1608865300061423 
0.5857164542335438 -0.02010524774672711 -0.2412191079796297 -0.1405140152760098 -0.07423409694981319 
-0.5594820667826029 -0.06712851573701885 -0.6322583376111527 0.4954369329965919 0.6547649250773679 
-0.02185737946707919 -0.02577221554815065 0.1335754994363767 -0.08126783562427624 0.01033853198727809 
-0.09642414148417063 -0.1375856437480119 -0.4527681142236079 -0.1379587738287937 0.5488613852029357 
-0.04250271205778083 -0.01821093648375867 -0.1785221039236291 -0.05956069825794361 0.2443802872935889 
0.2716795249046015 -0.08746515932607704 0.06826077491363522 -0.1291201309069460 -0.2345365409624990 
-0.1452225544015325 -0.009298183502818491 -0.08789195509735294 -0.005114499528883263 0.2631309030687415 
-0.03982062522561927 -0.05287423662680373 0.1365033896543823 -0.01423481251120025 -0.05355852162646538 
-0.004860451070045014 -0.06415406319848432 0.07351173514113472 -0.002837175279407924 -0.04539983386058809 
-0.04523406913502481 -0.08525448997453403 -0.02722133320613623 -0.02528345644607554 0.1847272059222163 
0.1026354663298785 0.2529140745757982 -0.3120902765196270 -0.05029648529856703 0.01582359096126968 
-0.03054820478993732 -0.01094317786819214 0.1302315375331460 -0.06094498589797043 -0.09021767331131113 
-0.04004587932949891 -0.008687478126397733 0.1637725066914180 -0.03322846573318360 -0.09031067495449546 
-0.01175984939324360 -0.008535345592033406 -0.1385316608550800 -0.006712426986162048 0.1091203802710310 
-0.03150747481585742 -0.004498046612756411 -0.1855308966543307 -0.03576322885809243 0.2841115177285784 
-0.01389284657497365 -0.06370590381968703 0.3663189262265777 -0.03659734934417361 -0.1619869466749201 
-0.02981772141812970 0.3334358949856973 -0.1409905161734854 -0.03070010943742779 -0.02242172671336908 
-0.02239870153994471 -0.003927599775989374 0.1796233785375605 -0.004136155014485484 -0.3210202421398614 
-0.005939545688381284 -0.09832519501514336 0.2038078253403260 -0.004541044360467061 -0.02571201444873744 
-0.009368538671208490 -0.02674735784756416 -0.1509350003035465 -0.002515479207298310 0.2397428598738992 
-0.02880047220138551 -0.03904137118415686 0.1795284159398214 -0.01132808728296810 -0.06502354313787796 
-0.02627355196825400 -0.01908504154886393 0.1691120361353212 -0.06431703837502060 -0.07236982515225560 
-0.06121418410189656 -0.001202918576467877 -0.1431051325627328 -0.04855677306033618 0.1766863429556434 
-0.0003261946311470913 -0.08877017214982773 -0.09963024049993233 -0.02146138172928333 0.2123753724074967 
-0.01214214474567142 -0.03612005834222369 0.4182490698750082 -0.01180341209045567 -0.4131375079453198 
-0.1157203654564173 -0.01872677438940798 -0.1774259717327610 -0.02204429056115813 -0.009884880861032230 
-0.004737756130314209 -0.07535089198539376 0.09652893915383613 -0.03013796295096730 -0.04131353290475166 
-0.01776973838698138 -0.1352231028132516 0.1238906400279796 -0.002519259734436787 -0.001524141252713453 
-0.1600632438880100 -0.004393052974286183 0.2722733897439767 -0.03587774680313635 -0.03274056026834151 
0.4888373951226293 -0.006886547559912016 -0.3716641206607592 -0.02134671073351701 -0.07281573002119011 
-0.04558784669820406 -0.009312986322541133 0.07836136922356257 -0.05770095468217809 -0.01396405053300687 
-0.1679653587122207 -0.03521970875950791 0.03713693046278664 0.2981912437888062 -0.1524862744964515 
0.1497271052252026 -0.01250827931428781 -0.2332854761178065 -0.002549971185771690 -0.003877645381666249 
-0.03744373007955835 -0.01521986267041935 0.1257223833851267 -0.05399006923997429 -0.06501532141855446 
-0.04185516023511774 -0.08546971843181672 0.4352313512717974 -0.001085668146973191 -0.04491273503845817 
-0.01183434043819422 -0.007220851316174776 0.02173273706593844 -0.03508827508345352 -0.02557568158637694 
0.7064276539913196 -0.04703174144146115 -0.3320139174159905 -0.03994730135694864 -0.1533704435553442 
-0.01462582513537157 0.04139251840612201 -0.009141491002683886 -2.698407912700402e-05 -0.03446663721579444 
-0.07218863938951765 0.2406544721478847 -0.1407013799242425 -0.05411720434621316 -0.05023399666264399 
-0.09008124233348667 -0.01105708410488774 -0.1658605304930718 0.3119204602963812 -0.03780417574713027 
-0.06531665393337803 -0.01421227411648304 -0.09149212077027677 -0.03710026105207216 0.2319584344977415 
-0.02053493500432196 -0.03692858098401066 -0.1961008721070416 -0.003377376272612620 0.2531264882748470 
-0.03160458344643081 0.2571941780329061 -0.1622556368022348 -0.003158670788455888 -0.01834448947771884 
-0.01601331871948613 0.4250698927247467 -0.4269748654455307 -0.004151118663576579 -0.004102065992601953 
-0.1055819049504546 -0.1683571133876439 0.6944960953022152 -0.08874794053109114 -0.2107958875188124 
0.1073460015542602 -0.01228021451396925 -0.04514845242632151 -0.008422612694720218 -0.03341403228270654 
-0.4240639549159332 -0.08732353064058603 0.5207027646133998 -0.01336609456552201 -0.05209762767205520 
-0.07871064845683684 -0.02037193325215277 0.1714660227651111 -0.03509888681738044 -0.01396315262591030 
-0.08571201797798796 -0.03251670979996572 0.2203001683107003 -0.08432831423014665 -0.03017842054267958 
0.1480048351925372 -0.03509402549932832 0.07405823620930324 -0.05744102452664931 -0.09890468384998542 
-0.009755071178531784 -0.05144630159128234 0.06615969294443250 -0.002165535615150553 -0.003448366177597807 
-0.04707072797113514 -0.03940867948519315 0.1203638327692150 -0.01631056170935221 -0.02599905452493434 
-0.02867893086727692 -0.05571319818610118 0.2097969199680951 -0.07284138673546992 -0.04247064560280175 
-0.01742116982459521 -0.003866014089900721 0.07758573297403850 -0.02423134043545274 -0.07830278412434742 
-0.03650704338148090 0.2681309199297122 -0.08872616348820982 -0.01665244801719477 -0.01589490945649413 
0.3998990798661136 -0.03280152781141388 -0.2626383897566481 -0.09214317741399276 -0.09256184921655632 
-0.04883873436359471 -0.02265258510736981 -0.2839473309239260 0.2245290813458339 -0.01330883827866853 
-0.2327619590154944 -0.04929953549756459 0.1150375559001104 -0.09699758658831957 0.3532532651168381 
-0.05821166348055069 -0.08193734174169763 0.1647798102510453 -0.02921458048964819 -0.01564585486307724 
-0.09969120547308225 -0.006883589540411064 0.1505991605388761 -0.03256011405204776 -0.03154772699095181 
-0.1424602703164338 0.3238524244755522 -0.08558057369424588 -0.008993829747103652 -0.007287843423056258 
-0.07222460548920688 -0.003316383454993572 0.09082153907292309 -0.03446619308885912 -0.03910969449990220 
-0.07357191237285685 -0.01172532123039522 -0.1409555835749795 -0.03474900870337253 0.3105249047726621 
-0.02837140181038685 -0.04715691107523267 0.06361389555634182 -0.008428866633599860 -0.01505827160521261 
-0.03489877967738461 -0.01715660676098000 0.1885954221947591 -0.008443663798434790 -0.04878684465889954 
-0.01313362037077164 -0.01098194470167096 0.07571754700861469 -0.02186818258608599 -0.06840912141208360 
0.3062692793072700 -0.03189445039616452 0.1221424110579399 -0.1212737260443727 -0.2471681583628265 
-0.02851833646375814 -0.04261054724830551 -0.2536447346239820 0.4054321831942944 -0.03105185726002538 
-0.0009805895537713604 0.04558699746660075 -0.05508031036115947 -0.0009355474468936626 -0.002814086769600510 
-0.009376620682223533 -0.03285930860334232 -0.2946846218710274 -0.006643536049830322 0.3261762033221265 
-0.002595588918703699 0.2465081268302392 -0.1676980160802086 -0.0008548140340355372 -0.05393344823200383 
0.3700301839450724 -0.02790665209092171 -0.1485281799672663 -0.02774950658232328 -0.1061550550959181 
-0.06176148790920497 -0.006453578627522055 -0.1317947290066572 -0.01964606322129725 0.1988186548505179 
0.1731486134641237 -0.09458349128595617 0.08254783605643488 -0.02489244330101990 -0.07114815785191876 
-0.09481744996902682 -0.02553532076504559 -0.1601542203501901 -0.01172050157217973 0.1897924523446927 
0.3960872390788489 -0.01854117973559761 -0.1944988395495831 -0.05829938077609191 -0.06426856160321727 
-0.02813715077036827 -0.08295653860081979 0.2852742164237626 -0.007296185999615209 -0.09728222132482096 
-0.03330766085241939 -0.02410339031638775 0.1476136436445590 -0.1110655039793902 -0.05450637300971328 
-0.1345058846769973 -0.008376918635476262 -0.1474963308130585 0.5236869410712715 -0.07113176993807732 
-0.05596549859779113 -0.02852656156161078 -0.2256485142822958 -0.01855229551172376 0.2750449812843953 
-0.03051612384211885 -0.03074411288719212 -0.03856550172472862 -0.08871693020185174 0.05581249994688690 
-0.01138792833038718 -0.02346515969376748 0.1321883890064328 -0.006784082553980710 -0.1076585770530791 
-0.01723400595413724 -0.007091539113104723 0.06344831252736889 -0.03480224520799360 -0.09217815510088631 
-0.04206934542257098 -0.07129258735783528 0.2849918188633132 -0.009830644945719598 -0.02846026020831098 
-0.1064012679635576 -0.002240365441001831 0.3742209907826161 -0.03035330972427406 -0.3999170773947771 
0.1370878792811216 -0.01062924808679606 -0.03348868664815447 -0.06084377415547910 -0.006891023512435075 
0.2178452075083728 -0.06469889638269738 -0.1506282910850806 -0.007570018987640878 -0.004571426459841764 
-0.03187682780614082 -0.01373752480686792 0.07793940107711683 -0.03709869354733781 -0.02554343779318827 
-0.02029959799658212 -0.01940333275723451 0.03110895839733317 -0.01897933367519132 -0.02299183661817069 
-0.06045416529614037 -0.04014493385908702 0.1096240001565688 -0.001683549676140759 -0.001685200050325426 
-0.1818859660271194 -0.08097040714341648 0.5067651591570793 -0.04098122291465969 -0.1196353441486362 
0.2430600534014175 -0.03369867059270015 -0.1331817973324211 -0.03272569067944355 -0.01110719030963443 
0.1535795232288650 -0.01590526229126455 -0.2192542429668294 -0.04415108223303397 -0.02170412095795269 
-0.02591563984235096 -0.1177080780188076 0.1870156667083605 -0.006368225221520254 -0.006064639590456151 
-0.05323615635068462 -0.01927201264306488 0.3136167230638642 -0.04752374920914572 -0.1045604338067140 
-0.01311804274041855 -0.05186256365974236 0.06172054826649111 -0.04805691442780641 -0.009101264433994892 
0.1352671259158641 -0.01719918871664966 -0.09146283297688365 -0.02451590935332483 -0.01184609795215053 
-0.06176658684063677 -0.02817186593332081 0.08304029532595986 -0.04392837830293001 -0.03435742817178328 
-0.05286553645516820 -0.002462219801442770 0.1702584231170135 -0.1454614804104772 -0.01566779971314780 
-0.05426793000066515 0.3321656788299616 -0.1995344588394799 -0.03043020876344851 -0.006495225853360510 
-0.04426274020350667 0.08813393625221166 0.1460139754814649 -0.004944388629872652 -0.04760957963219718 
-0.01005149804428521 0.1413221388219006 -0.2482916536624529 -0.004380005835788767 -0.001751727399543954 
-0.1888462701444808 -0.06074096373767802 0.4971616062631849 -0.1649309583706964 -0.09852340131168988 
0.05931555382943943 0.4927285369845643 -0.3325692454099602 -0.03515027942661542 0.3230908777234949 
-0.01797167625541132 -0.01290295059378241 -0.1245230738476378 -0.01056041897320577 0.1316775866965284 
-0.03593092148393248 -0.1067701041802735 0.2266703983624694 -0.01179852203521100 -0.05152135296376137 
-0.02269122277384517 -0.06582210570227490 -0.1294058026185272 -0.06051042506002959 0.3396253985996128 
-0.02748073571860281 -0.005874604875105556 -0.1156567244410605 -0.02279010977697188 0.1020560167456589 
-0.01805259483693815 -0.1308117931305512 0.2120569349003728 -0.002640643354238275 -0.02030050472412578 
-0.04245523588413702 -0.02016703306834581 -0.08814902803271724 -0.01679850713651717 0.1898611096530178 
-0.02305193184298603 0.2106614369229626 -0.01283094879057310 -0.01180282474684284 -0.1007937328104670 
-0.03782158124319172 -0.02900210484560978 -0.1408287706341994 -0.02008954232793104 0.1348355543443454 
-0.003846592192563504 -0.08286092438854435 0.1091693862874841 -5.668674997564237e-05 -0.01997074986283421 
-0.01948096052663308 -0.01601809474624772 0.05881905296231685 -0.02578865015468630 -0.04931424282984074 
-0.01329108149256271 -0.01477744086403337 0.1881612611437490 -0.02397022396388895 -0.1598418272349706 
-0.01859311605198925 -0.01550903685189534 0.04030969193743547 -0.02393673361624586 -0.03811436974100366 
-0.02835651445010346 -0.006497284017429991 0.02545116230328878 -0.005407594726362717 -0.01986271001713721 
-0.07713897133941643 -0.007904376042366545 0.1537677750387955 -0.004474370297884089 -0.07833314042110288 
-0.03403457778418132 -0.01969990992242056 0.1769574812600997 -0.01368906960068639 -0.1099842702344153 
-0.03980767230843534 -0.001556356455980544 -0.1331820063756637 -0.003572730633988378 0.07966237684460730 
-0.01484086232808956 -0.005750669796748799 -0.07596540019483837 -0.007146075311174103 0.05397678988051562 
-0.04239285876016240 -0.07278052395810611 0.1520647714362378 -0.01237812383228456 -0.01454657792918406 
-0.04248410276574116 -0.04129959005029125 -0.02898023986152311 -0.02065824947845976 0.2948431249642282 
-0.09447311458579101 -0.02073255908020856 -0.3214239840084810 -0.01325700262465060 0.4305934004719103 
-0.02243458286234533 -0.09539947793040615 -0.02575741851022607 -0.001726262233542647 0.1880915568713189 
-0.02492741257246825 -0.01508296413251077 0.08684433569000780 -0.01935328551221089 -0.03354630752145920 
-0.09045542659919140 -0.02847518833183068 0.1194004983787971 -0.07178081498902321 -0.03558226434407362 
-0.02329707310151164 -0.01207235438311030 0.05391393201681065 -0.02898183409252107 -0.02294380107636667 
-0.1029678766791897 -0.02782506013834911 0.1686560842994130 -0.002263119958230815 -0.04862519380684992 
-0.09275513351004054 -0.006458388841703593 0.2044347886008493 -0.03951006513826076 -0.06868755061291532 
-0.08185516072943368 -0.006922127419437865 0.2949038100048554 -0.02122966260198773 -0.1233983147054688 
-0.02780768265975782 -0.01096787872487427 0.04889840220804179 -0.01075026234350053 -0.02839062712452927 
0.1602904710714256 -0.06099553855729713 -0.07144327490803120 -0.0002674695103675654 -0.001155626685831095 
0.1570720275264033 -0.01397444214960409 -0.01158617970417211 -0.09735385481752555 -0.03080478824942541 
-0.06407535601263219 -0.01448435134450583 0.2285246869882215 -0.03438502371974306 -0.1060249513801754 
0.1899625096198937 -0.003655114786859662 -0.2166242295453359 -0.007841230038676851 -0.07338901778069029 
-0.05772144322436550 -0.007118260879538753 0.06649529532668350 -0.02182686619452875 -0.01005357859905336 
-0.1507499637382935 -0.01134956930977840 0.1296815984855860 -0.0001052362866640392 -0.001582090031855099 
-0.05822468068609369 -0.01307304744681734 0.08173405509521156 -0.03387380809829144 -0.01386657137104558 
0.3740089666839244 -0.005410208217948894 -0.2231182415476126 -0.01582609348011752 -0.05315465907468176 
-0.03288661958240168 -0.004426571381722496 0.06376535363326635 -0.004201015848409078 -0.03611816622308756 
0.1672189330153475 -0.007172401067563366 -0.1268884814498249 -0.02131827845967762 -0.005779345299461196 
-0.002331512406457857 -0.04158393231192612 -0.1237806785357195 -0.01068127536112210 0.1296270449257742 
-0.002422076047701640 0.09221553065386393 -0.1133046229364765 -0.002489711100151378 -0.003536035970493004 
-0.04320754529866417 -0.01618295527506318 0.1476943330819586 -0.06997795107508646 -0.1193695903723872 
-0.008113132309867098 0.2017734355049576 -0.1668564561718981 -0.001650939005752021 -0.005812059310037472 
-0.003884998411853802 0.1781206488749454 -0.1868422550064328 -0.003384134645023985 -0.006709866287127274 
-0.01757863444504285 -0.05836042639789613 0.1136872139216640 -0.04409747786392851 -0.02337327752429647 
-0.02127106444263542 -0.02096079835102695 -0.1719829561625719 -0.02955331867308748 0.2465302792782144 
-0.02947236042138876 -0.002167420398824526 0.1764194889348480 -0.02577451503025699 -0.09499161118477790 
-0.008955634110554181 -0.08915980305134630 0.1836459545022955 -0.005149496476309311 -0.01037302759855066 
-0.01068683970350891 -0.01615995817209083 0.09406803273448147 -0.06204448174984412 -0.05223031465276273 
-0.05723538960841293 -0.1019648953206554 0.2396627119464264 -0.01126116909620590 -0.006347780760359145 
-0.03797651466062323 -0.03688440138839515 0.2602738723154154 -0.01135234088548936 -0.1007950930865613 
-0.02085584629652262 -0.01503107716177694 0.04309300888799089 -0.005049223415101611 -0.01529544216487025 
0.4685894589959835 -0.02748749407699970 -0.2037747125732599 -0.08775052119940341 -0.01889163130250194 
-0.07623945350701432 -0.01553486983246593 0.4624696684442327 -0.006151365077661202 -0.1201653872397368 
0.4019826300088730 -0.02257231213848061 -0.07884996664838897 -0.08304088569378170 -0.2020684574353667 
-0.02431390948397251 -0.02889633670822235 -0.2856521726661592 0.4671056717614539 -0.1570713519131484 
-0.02276301461159878 -0.04484494355661198 -0.1071148034362384 -0.01365202707035954 0.2612026733011322 
0.1578617593494993 -0.02818710441414798 -0.03836559549253063 -0.01573314278572030 -0.06325742319944601 
0.05236878371021506 -0.005972798291063429 -0.03510528533873394 -0.02732504455862978 -0.008418601192880832 
0.3049689392614360 -0.05554793337234085 0.04871563017204169 -0.08645399802326993 -0.008065917024237448 
-0.1514938359194821 -0.003894115358048809 0.2064679540989875 -0.007081046239573161 -0.02424584530794402 
-0.2086868123405610 -0.02469480294919244 0.3580747776420516 -0.007743869627353655 -0.05070313621821111 
-0.09621306369330827 -0.01205105428529331 0.07935806893377033 -0.01960220424555345 -0.008639063045860129 
0.1580226852794710 -0.006339087799306426 -0.03524803028097241 -0.07032234243597954 -0.03851155512169812 
-0.05625749205180599 -0.02726636642374189 -0.1575611579924691 0.4028921584468209 -0.1096166813591373 
-0.01259616029864081 -0.08553071801451450 0.3700325869097748 -0.06662720579879892 -0.04451277899448002 
0.1966716864036709 -0.04028273584299226 0.1040012196836873 -0.04118616245926871 -0.09236381125906220 
-0.08612740342052641 -0.01283259979210855 0.08425962904468381 -0.01423941807495014 -0.01134984532875907 
-0.2605317904167342 -0.01652885723383821 0.2678577580092633 -0.007473944471904370 -0.006623281557915727 
-0.007951576689175687 -0.01526045009808646 0.02936143168506968 -0.02892090269598460 -0.03318136787023127 
-0.01026405833093060 -0.1057228131908351 0.08180589546382709 -0.002333856921287912 -0.004033965000485982 
-0.06013283922781023 -0.02025262401428235 0.08590722928482226 -0.006878967844097997 -0.001766899655447220 
-0.2603075648189623 -0.008770788840160127 0.2210638004473196 -0.02061557499992787 -0.005872221110545639 
-0.03384990549261509 -0.02003535523207074 0.1395278549544657 -0.04943277837548236 -0.02903460759353940 
-0.02419181466414438 -0.03284020005379681 0.07658926488859052 -0.01358354344355885 -0.008887608288426307 
-0.03636587958520468 -0.01170749847553798 0.07014486617943311 -0.02013991591185605 -0.01426706916444082 
-0.07959891773063292 -0.1066647961939516 0.3731367456281129 -0.03865879779264862 -0.1025706472598886 
-0.03208956877139888 -0.03807138112962398 0.09497109457854710 -0.001389800756903796 -0.004542570167662275 
-0.06178077384134200 -0.07507500666619311 0.2262012150186317 -0.1250664059284187 -0.02603363405040191 
-0.03721710007415996 -0.01158116094318015 0.1731227776660665 -0.005403554531527344 -0.08000314873980749 
0.08320926098076237 -0.003668402997506193 -0.1580436372606343 -0.04464677040932173 -0.004949523005339946 
-0.04145900751486405 0.2811862170712841 -0.1661127117006957 -0.01305923042027110 -0.003918800607203815 
0.5028555330129211 -0.7581817570200963 -0.1654138032064321 -0.09934139381925343 -0.2573090333037906 
-0.5481380346787500 0.7240205471713307 -0.1070729901949897 -0.6478231668474036 -0.8942363894647294 
0.1331747913480677 0.1559375412273322 -1.365537182534656 0.3063376025672253 0.8136856410820327 
0.4654981438551251 -0.4201779378960139 -0.9504433142987148 0.6600267690537801 0.06171148673793835 
-0.9250548679010503 -0.6967313083512973 1.319190189686331 -0.2284581588056227 -0.2323311671221582 
-0.2470685706562367 -0.1263511867238903 0.3700694862404725 -0.1364358921652496 -0.08511468791897588 
-0.1396098238380984 0.06149747686767258 0.1365571659829129 -0.2957114023395300 -0.4171643132423290 
-0.1585943362114224 0.2118946592333431 -0.3174228695336577 0.1655841599473890 -0.1161626487970732 
-0.005418408154649066 -0.02949946237997918 -0.2451495160596017 -0.02190455710963839 0.2624748939833589 
-0.07111224490620711 -0.04499092496234485 0.1224010464470711 -0.1988630600520374 0.1476100152618382 
-0.1768116966912915 -0.1851847821598735 0.3727275863781468 -0.1410035652846401 -0.1202815240763778 
-0.09833009447559048 -0.06014679659261018 0.1926117569423310 -0.1004882282677886 -0.06082325858133642 
0.1065396744911843 -0.02157242595498820 0.09674285088499153 -0.1217887600534496 -0.09710869682374620 
-0.08054107126145074 -0.1467843658301072 0.2919502081707117 -0.1081092489131873 -0.07855338180009370 
0.03557592044278188 -0.02408277825706072 0.05913632756199243 -0.05707602340537260 -0.04339382494310234 
-0.07519785000592027 -0.05168478155139339 0.2418372675988051 -0.1639840716881572 -0.1155645438270836 
-0.07567536426442310 -0.1367325478914710 0.3843099496721910 -0.02399019931555443 -0.1790426400339777 
-0.01068683970350891 -0.01615995817209083 0.09406803273448147 -0.06204448174984412 -0.05223031465276273 
-0.3955765730531539 0.2480248934884231 0.1266873092420463 -1.005006910974679 -0.01082966388756623 
0.1710263770793891 0.07973225512590126 -0.3893698824666560 -0.07561119839414072 0.2295060723549319 
0.5616574842382526 0.007756186893637311 -0.2321931787391985 -0.3750368313044697 -0.1994788352170777 
-0.1546836425331235 -0.1471638597345292 0.4304680406668975 -0.3475464697554776 -0.1895070798416127 
-0.6331537755178985 -0.002861021791707887 0.3378859927043193 -0.4028986423133271 0.3171154354351185 
-0.01565571256979028 -0.2185800341003305 0.01501670605275743 -0.04236514330170937 0.2718379714021373 
-0.06643432153497861 -0.01925244472181280 -0.2970379960856954 0.05657988239866087 -0.03544833148738381 
0.08277790487226513 -0.06685230396386019 0.1664194132318803 -0.4069616641704343 0.1734727213648372 
0.4257524678776792 0.2921110123199580 -0.3172857196994081 -0.3837833245645516 -0.1339250844608366 
0.09947047375075815 -0.4266237162849760 0.3538185951880955 -0.2614731375767360 0.1109472219035608 
-0.1014448542102094 0.02149398312070638 0.1548513698513118 -0.01671087602644120 -0.2476897518791885 
0.05283407894881212 0.09778834858683910 -0.05021883984982132 -0.08678200163426122 -0.1767654907155081 
0.1719664528640676 -0.2002030298399882 0.1827257253124217 -0.03953143126937156 -0.1124652923500565 
0.1449686256181102 -0.1135634142874870 0.002130858451688799 -0.1555264211163680 -0.1191133992030384 
-0.2149035238745699 -0.2664662943443490 0.2163249736242393 -0.1522844181686501 0.2133826063585740 
0.03363791323270871 -0.2277612952294547 0.2345590250390201 -0.02009366457968610 -0.03620558301934749 
-0.3649232880801461 -0.4739288696248026 0.7678855335824190 -0.1053636306030991 -0.07674111194573342 
0.1042667745107952 -0.2205648770648847 0.1155725980215217 0.06183564171150478 -0.1105086437353767 
-0.003011189676670311 0.6124317582092046 -0.6470847167364050 -0.2136477686603820 -0.2373272810568111 
0.09565111517000995 -0.2115397228979854 0.1685488025297439 -0.1206094629853025 0.1213900547621063 
0.2900220619472879 -0.1434579142375868 -0.1169843603716686 -0.1340299069463048 -0.03925762106598734 
0.09531035247505779 0.06099745451495815 0.04512828998394156 -0.1685702254098064 -0.4027951698083840 
-0.1495443314652339 -0.1912695572926913 0.3929778939810851 0.07530829335976352 -0.1354001721961433 
-0.2329283142729284 0.2906799651666192 0.1269257001827606 -0.02690294357903121 -0.04662880603009786 
-0.01415706668612961 -0.2791598777463620 0.3741644383538704 -0.02703731876226933 -0.06556374483687323 
-0.008088851050900256 -0.06951670275653558 -0.2553537778424706 -0.002638544573463573 0.3127882187682500 
-0.03160458344643081 0.2571941780329061 -0.1622556368022348 -0.003158670788455888 -0.01834448947771884 
-0.04693782954565548 -0.008894525720723544 0.07285778059911444 -0.06288431153232259 -0.003421968469578944 
-0.05821166348055069 -0.08193734174169763 0.1647798102510453 -0.02921458048964819 -0.01564585486307724 
-0.002666402682439542 0.02232335147960011 -0.01991147288543213 9.723731930942544e-05 -0.005665058996798422 
-0.07041578139569409 -0.03472250280222432 0.04617432799224071 -0.09934996681951327 0.1537386973491036 
0.4963157249925749 -0.3078781672577764 -0.1007037088175271 -0.3723434528527462 -0.2193766990195496 
-0.07041578139569409 -0.03472250280222432 0.04617432799224071 -0.09934996681951327 0.1537386973491036 
0.003566856099513592 0.8998612173386424 -0.6777313105810393 -0.6047529431282175 -0.7963703825406003 
-0.02937192377961857 0.3980647860855269 -0.5881758031608066 -0.3543930916151333 0.3797489571464952 
0.6996061807892247 -0.9842998465347379 -0.08038301153501612 -0.3501447487227125 0.2876300295363559 
-0.09198890810713630 -0.3476836400660200 0.3171800557534743 0.1493623433058917 0.003067447099747734 
0.3500320044732023 -0.3204214322674556 -0.01838445217667937 -0.2947989103656245 0.3079636902879619 
-0.04741732027159365 -0.1120624978988346 0.2478138064027084 0.01293848951539113 -0.2366330177760113 
-0.2122832343374369 0.5548462397739715 -0.5366755459227067 -0.3665075571115751 0.3665065775605337 
-0.1156344418385059 0.1920262379728136 -0.09004229534945893 -0.07659409175535607 -0.1122795440126782 
-0.3313753720066526 -0.5786576907300423 0.5527929958464393 -0.06403325175403925 0.2448064399114238 
0.1719664528640676 -0.2002030298399882 0.1827257253124217 -0.03953143126937156 -0.1124652923500565 
-0.1465118474515439 -0.1348149185904430 0.1249616684764651 -0.04097069461149730 -0.2188916178174679 
-0.6036757794868883 -0.4127738350863091 0.6416970329615621 -0.04342295117551204 -0.03603275888901437 
-0.1881635022469073 -0.07972165592252240 0.2279729164053192 -0.08503705537244383 -0.03353995180766461 
-0.3000345679503336 -0.3389894634944264 0.4917957026402021 -0.09593373119988889 -0.3120813601601776 
-0.1068014953022470 0.7761718595014631 -0.6390748724177884 -0.4894696703158402 -0.1630466065376050 
0.7085925703347830 0.007069851346844177 -0.2831100036496944 -0.3715810977246148 0.2628012772665076 
-0.1575072544104228 -0.2035370898761443 0.7012681604600889 0.001516365632581108 -0.2017842898785910 
0.04376587535171846 -0.5104022637851698 0.6176397429724337 -0.01544813571788224 -0.1769340996356335 
-0.3936489109402593 -0.3207392198581309 0.6173155514182186 -0.07384114951598107 -0.07220586977961697 
0.4550385253623364 -0.2784752953382282 0.3158423042250063 -0.2094615265255844 -0.2473591024688985 
-0.4385485379014690 1.036438492580141 -0.5753734903391597 -0.01411443966695475 -0.0009456333830080658 
0.4630491559347801 -0.4403856853289977 0.07567735323699956 -0.1714125042840758 0.04351993169221983 
-0.008936065732005753 0.3241352799040038 -0.1382812610979963 -0.04200954338228333 -0.04692709345603148 
-0.008088851050900256 -0.06951670275653558 -0.2553537778424706 -0.002638544573463573 0.3127882187682500 
-0.05890506840932936 -0.04662953080136792 0.1420965698351534 -0.05139883679280573 -0.05157473611131128 
-0.04693782954565548 -0.008894525720723544 0.07285778059911444 -0.06288431153232259 -0.003421968469578944 
-0.1225890220016459 -0.3949242121546386 0.3678494425381739 -0.007344185515952235 -0.01153445070493970 
0.09273006090937765 -0.1085298280066202 0.04884468547338910 -0.1153349451888981 0.01396675245910650 
-0.03295589815208819 0.1422916650441265 -0.08668041796091504 -0.0009801166770718158 -0.01130510088253493 
0.3299534001132213 -0.2145861911475008 -0.2041428321432809 0.02441960220854942 -0.5100662362842864 
-0.1250931256274041 -0.2847222463544556 -0.08784376994227674 -1.274526348843231 0.4640591253183479 
-0.003957081377533624 0.1423853893224108 -0.4391482541694353 0.4439728605137993 -0.1285682938278572 
-0.1318317464086067 0.2890803476900414 -0.3470347247017833 -0.01738803236989995 0.2909203583479077 
-0.7517075103150745 0.8576329665350076 0.03125582012268539 -0.1516509258933829 -0.5992617958312682 
-0.09493661438892184 -0.2584028487791147 0.4394579339265091 -0.1910943417825373 -0.2837413548500797 
-0.5222967816229965 -0.08351755376544147 0.2903783940932490 0.6785730375815262 -0.4921522071420477 
-0.4118043868566391 -0.4129732394586217 -0.09868086960647274 -0.3298706612262262 0.8706103476001906 
-0.3466282827941089 -0.3292953953994189 0.5840720403260207 0.2735378463905576 -0.6243935666231598 
0.3772671655441607 -0.7818308505451370 0.4175325134957961 -0.2088463212327088 -0.4333358063161316 
0.4367443399921970 -0.1243055206674373 0.1832454506576213 -0.08217293355634131 -0.3855786740003034 
-0.2015948284687073 -0.2067551984857016 -0.1749766629309495 -0.2989784881299138 0.4231382239547749 
0.1497271052252026 -0.01250827931428781 -0.2332854761178065 -0.002549971185771690 -0.003877645381666249 
-0.07243679261330468 -0.1451321688738795 0.1697326294625079 -0.1384990007227595 -0.05158686248679160 
0 0 0 0 0 
0 0 0 0 0 
0 0 0 0 0 
-0.1626167239667167 -0.5799107728404682 0.5423461836372375 0.3869556661192120 -0.3310337959074388 
-0.04382488349007676 -0.05413171796470767 -0.3001823336071530 0.4648276298606112 -0.07871299489798098 
-0.04080363287729025 -0.01504948511104108 0.1671092290386280 -0.02318839468816952 -0.07777719801792363 
-0.04561478412878284 -0.01417603937157222 0.2516531879356609 -0.03252154863421072 -0.09675077004442949 
0 0 0 0 0 
-0.01668646198716843 -0.009814338575215669 0.09710339014973594 -0.05247844366511518 -0.1019925504016484 
0 0 0 0 0 
0 0 0 0 0 
0 0 0 0 0 
0 0 0 0 0 
0 0 0 0 0 
0 0 0 0 0 
-0.006986910879710366 0.1133189610013650 -0.1041134752586132 -0.002485144520419060 -0.001926604245161337 
0 0 0 0 0 
0 0 0 0 0 
0 0 0 0 0 
0 0 0 0 0 
0 0 0 0 0 
-0.009572021597436454 0.1507055865008760 -0.1477590402131848 -0.004086976907780942 -0.003831358503162146 
0 0 0 0 0 
0 0 0 0 0 
-0.04940582077848065 -0.1789153590154026 0.1815301080885257 0.1272302758449513 -0.02842399085131102 
-0.02297835433162583 -0.01833560599096392 -0.09187110212000124 0.1334345122620278 -0.02117633283202889 
0 0 0 0 0 
0 0 0 0 0 
0 0 0 0 0 
-0.002111434289975847 0.07289812932843992 -0.09649246527386375 -0.0008412492465765534 -0.002545240898472044 
0 0 0 0 0 
-0.03184552842204301 0.1134695439337119 -0.07300311557014050 -0.0009628545734585725 -0.004561291795726013 
0 0 0 0 0 
0 0 0 0 0 
-0.04315042906386750 0.2807612766531059 -0.1721331043954935 -0.02322758954201311 -0.02795973821024901 
-0.07032278839401589 -0.04950501697658528 0.3135282763891850 -0.1854182038713760 -0.06051067385463502 
-0.01543618992236263 0.2584217302886353 -0.2203939494993480 -0.003806878563892676 -0.007274120964084681 
0 0 0 0 0 
0 0 0 0 0 
0 0 0 0 0 
0 0 0 0 0 
0 0 0 0 0 
0 0 0 0 0 
0 0 0 0 0 
0 0 0 0 0 
0 0 0 0 0 
-0.4869234759333661 -0.2120350169242682 0.9338069460603151 -0.2321286955875301 0.1514214287296157 
0 0 0 0 0 
0 0 0 0 0 
1.978948340649180 -0.8352337710025916 -0.8102889378912522 -0.1547174438747591 -1.001257277459383 
0.1108466290664176 -0.01703038388606004 0.2424319117516499 -0.2804659700154557 -0.1725321984024318 
0.06619743707937796 -0.007126908043852779 -0.05335737208498204 -0.005801869832220026 -0.03534129214063436 
0 0 0 0 0 
-0.1161737461992355 -0.4039969949150258 0.1280723884214819 0.2969460515870355 0.1920526141185181 
-0.1588810695695139 -0.03925157934369565 -0.1304811748392276 0.3704211341761211 -0.1705077732650541 
-0.02603929425078561 -0.02090439158240613 -0.3165541039732725 -0.02109582459438114 0.4286448716964941 
0.2118817366463933 -0.03102027390876876 -0.1130962405109866 -0.005505611632884560 -0.008573560384941442 
0 0 0 0 0 
-0.1348574936917745 -0.06417842644251970 0.6505568778885635 -0.1078849914823590 -0.1802680528139196 
0 0 0 0 0 
0 0 0 0 0 
0.09267620515553768 -0.01381027220748240 -0.04868462428834426 -0.009916064292215879 -0.02101291734007114 
0 0 0 0 0 
-0.2528741651354039 0.02803145712734494 0.1758943896518587 0.1039550536849264 -0.1406271980148970 
-0.3161104397174632 0.5483895086631455 -0.2264652837298277 0.07051509726533216 -0.1516849132644303 
0 0 0 0 0 
0 0 0 0 0 
0.3156023230452902 -0.6219006654266689 0.3197731568672391 -0.2123924724838537 -0.1828286293365230 
-0.1262702671471518 -0.03264417397069282 0.06289829569595326 -0.01384318432227188 -0.1035816821398429 
0.5522424188633033 -0.1519633698766610 -0.2012654408431659 -0.1852839046127543 -0.05172674295534913 
-0.6379099488301690 -0.4187368973540823 -0.8431586629694539 0.1032870744219090 1.285324613501407 
-0.05851728911275100 0.1110295924814814 0.3166304121325189 -0.1639107301507191 -0.2501200481158518 
0.1104585749129989 -0.007968115808904132 -0.2849968901293442 -0.02165438623165547 0.05384776670377723 
0 0 0 0 0 
-0.1716601794652211 -0.3808180686376205 0.4646478664098390 -0.1484987614838842 -0.04476644331560022 
0 0 0 0 0 
-0.1689076243988597 -0.003835794543410394 0.4165985909220036 -0.1454086928035317 -0.03299116019480877 
0 0 0 0 0 
-0.03196414108689615 -0.008502932394227510 0.1289051038992656 -0.05369305323198988 -0.03502123112964427 
0 0 0 0 0 
-0.01302674405676677 -0.007733953994053371 -0.02865338561385800 0.08178009592656478 -0.05667097437463584 
-0.01541092382663765 0.1325996653229845 -0.1987325326984524 0.08055822781560708 -0.06087825956913017 
0 0 0 0 0 
0 0 0 0 0 
-0.02976781312424936 -0.004093967923491483 -0.09413184297730527 0.1518015781712286 -0.02939817982300260 
0 0 0 0 0 
-0.02519067983584640 -0.03026644167322629 0.2016125219216531 -0.01262318491468909 -0.05871475279283311 
-0.2522233616171714 -0.2146465671126471 0.5870537886971159 -0.1753166487439475 0.05320051136848988 
-0.008766366720135572 -0.02584762621013030 0.1982169390586010 -0.1346053460904582 -0.03423800417474519 
-0.01124875768834991 -0.02968570895196202 -0.03331828318434509 -0.004826734227147854 0.06859590376508425 
-0.01124875768834991 -0.02968570895196202 -0.03331828318434509 -0.004826734227147854 0.06859590376508425 
0 0 0 0 0 
-0.01243467085085044 -0.2515821149112480 0.2119862822816867 -0.02524347187561202 0.05375094715067747 
-0.0006994019625864755 -0.1980869377077121 0.3602658934833732 -0.1454481418631159 -0.1122442905004527 
-0.006560657713634521 -0.02672179358273895 0.1770887662804578 -0.09027334970361900 -0.05384039334247665 
-0.04292772748971603 -0.01188423677089390 0.06655440684009087 -0.03327940249325000 -0.03392997125293114 
0.2049662725183674 -0.1869180075230288 0.2062652226122656 -0.1242255001878504 -0.09214910346118195 
-0.08345072834835493 -0.1824202857261445 0.3661009926206518 -0.06341211491531176 -0.01386508983527379 
-0.04498940280198462 -0.01886717831740107 0.1526222414134859 -0.06472793343055890 -0.02077046438224523 
0 0 0 0 0 
0.0006068486979624731 0.1056851107767871 -0.1426469190184796 -0.0003188958338835932 -0.003596071932489352 
0 0 0 0 0 
0 0 0 0 0 
0.02956910184843603 0.2368622406326114 -0.07739025027130010 0.3185755156554821 -0.2188060672920496 
0 0 0 0 0 
0 0 0 0 0 
0 0 0 0 0 
0 0 0 0 0 
-0.01477854471871754 -0.07618202293583900 0.1066052136786729 -0.001984372926245000 -0.001355787253630630 
-0.06238544830842946 -0.005462890360918438 0.2468018382105871 -0.02366326296147871 -0.1174412559026719 
-0.003596010857396797 -0.05075918846298758 0.2084237429158500 -0.08142049582825187 -0.09147549149995249 
-0.04856173371954306 -0.2938291313785430 0.3451418864928481 -0.05682171406760023 -0.04162684893528938 
-0.01798487016886213 -0.1830960587901345 0.5205273646580413 -0.08485412651232599 -0.1573839041073347 
0 0 0 0 0 
-0.06819152086873967 -0.05599483830692170 -0.09906128025611928 0.2019433652867183 -0.07684749471124820 
0 0 0 0 0 
0 0 0 0 0 
0 0 0 0 0 
0.4704720109226934 0.07240328918480714 -0.6179766222796803 0.4513146367473790 -0.2648900358694433 
0.5421081821263128 -0.03543514140863418 -0.1579400966471888 -0.1041300344404690 -0.05870909926476196 
0.2313095058481846 0.5721550969555648 -0.1864170793914175 -0.3098696315020328 -0.2163732899916590 
-0.03060859403044595 -0.3121171090768464 0.3658525271139276 -0.03020275147889770 -0.03258215389927175 
-0.04110710265192729 -0.1977983012659444 0.2470506445992123 -0.01727083760587272 -0.07084766119332395 
-0.01746612485505747 0.3325129494411274 -0.1074038988587726 -0.01040250513871721 -0.06859424396206151 
-0.08093318594853999 -0.2301117290445828 0.4131525204916868 -0.01837518546184473 -0.02970159525196582 
0 0 0 0 0 
0 0 0 0 0 
0 0 0 0 0 
0 0 0 0 0 
-0.3928843033182494 -0.5422308901919018 0.6880746287881802 -0.3358895775817489 0.1824817388194880 
-0.01528960930237826 -0.06599101750634317 -0.09522655119099568 -0.2690566977944976 0.4017309793097856 
0 0 0 0 0 
-0.05890090306154673 -0.03057484744071999 0.3698110140657238 -0.01749801738866910 -0.1198633243117920 
-0.1923633629931198 -0.03927016639749720 0.2098982949880158 -0.05037087031425330 0.2324783949764120 
-0.1003072484187034 -0.003195055396729876 -0.2337241758371249 -0.02462668847635477 0.3889003380648208 
0 0 0 0 0 
0 0 0 0 0 
-0.01827732449947583 0.1716452748866317 -0.1445340013243282 -0.002695173580490768 -0.004920993446842208 
-0.04707072797113514 -0.03940867948519315 0.1203638327692150 -0.01631056170935221 -0.02599905452493434 
0 0 0 0 0 
0 0 0 0 0 
0.2990404909446234 -0.006890733082261775 -0.2146188321714114 -0.04983214259644689 -0.02968921386514426 
0.2990404909446234 -0.006890733082261775 -0.2146188321714114 -0.04983214259644689 -0.02968921386514426 
0 0 0 0 0 
-0.04004587932949891 -0.008687478126397733 0.1637725066914180 -0.03322846573318360 -0.09031067495449546 
-0.03054820478993732 -0.01094317786819214 0.1302315375331460 -0.06094498589797043 -0.09021767331131113 
0.1828220791199904 -0.01001976628883553 -0.1222007236370457 -0.02685623828716287 -0.03530355249041951 
0.1384891818429977 -0.3098426430710498 0.2168018490913597 0.06840358608715977 -0.06155556936336127 
-0.03352154129992122 -0.01509369696443521 -0.06332274623528693 0.09790000840211316 -0.02132638956801474 
0 0 0 0 0 
0 0 0 0 0 
0 0 0 0 0 
0.2530223967131580 -0.03298274995468065 -0.2377687463426882 0.07204953257897792 -0.07631160066989275 
0 0 0 0 0 
-0.08787249678530984 -0.002985732552290079 0.3848764192120470 -0.01983379715182606 -0.2511519778511656 
0.1709780291731994 0.1604545077856793 -0.2074872349260940 -0.06444240985611878 -0.04128061650056987 
0.1709780291731994 0.1604545077856793 -0.2074872349260940 -0.06444240985611878 -0.04128061650056987 
0 0 0 0 0 
0.2222109397781003 -0.03546968781955334 -0.1003742820347614 -0.03340992242925779 -0.02572274231866509 
0 0 0 0 0 
0 0 0 0 0 
0 0 0 0 0 
0 0 0 0 0 
0 0 0 0 0 
0 0 0 0 0 
0 0 0 0 0 
0 0 0 0 0 
0 0 0 0 0 
0 0 0 0 0 
0 0 0 0 0 
0 0 0 0 0 
-0.01599872887502295 -0.02206609427465159 -0.07862069598076128 0.1648347843821426 -0.05757682450200741 
-0.001760513847912010 0.01066581340061499 -0.02005006010342767 -0.0008891544004037775 -0.0009473061108556095 
0 0 0 0 0 
0 0 0 0 0 
-0.1843213182552520 -0.03021221503882707 0.1554740252584194 -0.07731800248120849 0.1597496020752521 
0 0 0 0 0 
0 0 0 0 0 
-0.1499757142313999 -0.08702078376827885 0.1869712811847361 -0.07348972172149316 0.1782706670964664 
0 0 0 0 0 
0 0 0 0 0 
0 0 0 0 0 
0 0 0 0 0 
0 0 0 0 0 
-0.02230748377144917 -0.3277981597179095 0.4439432857803193 -0.009286908158975201 -0.03410427151698680 
0 0 0 0 0 
0 0 0 0 0 
0 0 0 0 0 
-0.01924436366126493 -0.02326160369419423 0.1014731207307367 -0.01705766357382827 -0.05497031007592037 
0 0 0 0 0 
-0.003336913972516287 0.06257990282406561 -0.08187957167619397 -0.0004391168678583601 -0.001918406825261599 
-0.02706179007823020 -0.1021244806809785 0.3840974500450644 -0.1283582656672893 -0.02581867229570828 
-0.02584351295305284 -0.01088439104618561 0.2664747381740484 -0.08198381882114382 -0.004682723904156850 
-0.01626390963837159 -0.01257159790205486 0.07846250321903799 -0.03758051628966726 -0.003473993791382435 
0 0 0 0 0 
-0.02078710351433617 -0.003968278028387314 -0.2007221153841416 -0.1405460931604609 0.4166733266406866 
0 0 0 0 0 
0 0 0 0 0 
-0.03464768689644508 0.1588865696891745 -0.1114492675747231 -0.0004350907757490714 -0.003947250162524855 
0 0 0 0 0 
0 0 0 0 0 
0 0 0 0 0 
0 0 0 0 0 
0 0 0 0 0 
0 0 0 0 0 
-0.05645827678723851 0.2549172318132545 -0.3803373004315507 0.1544696269386109 -0.08245821987474990 
0 0 0 0 0 
-0.04899936559125379 -0.02588660224282135 -0.06790505033544189 0.1588639357050719 -0.07153471053741350 
0 0 0 0 0 
0 0 0 0 0 
0 0 0 0 0 
0 0 0 0 0 
-0.03824472152206734 -0.2295535117682180 0.2171363916416221 0.03616171234308715 -0.04254634478307765 
-0.03824472152206734 -0.2295535117682180 0.2171363916416221 0.03616171234308715 -0.04254634478307765 
0 0 0 0 0 
-0.2264725456007405 0.5738904510563441 -0.1710472090532257 0.04421998034372163 -0.2717168803866115 
0 0 0 0 0 
0 0 0 0 0 
0 0 0 0 0 
0 0 0 0 0 
0 0 0 0 0 
0 0 0 0 0 
0 0 0 0 0 
0 0 0 0 0 
0 0 0 0 0 
0 0 0 0 0 
0 0 0 0 0 
0 0 0 0 0 
-0.001760513847912010 0.01066581340061499 -0.02005006010342767 -0.0008891544004037775 -0.0009473061108556095 
0 0 0 0 0 
0 0 0 0 0 
0 0 0 0 0 
0.2156812550994112 -0.07041480005663682 -0.2650092181976123 0.2683737103032188 -0.07804957928783680 
0 0 0 0 0 
0 0 0 0 0 
0 0 0 0 0 
-0.01742116982459521 -0.003866014089900721 0.07758573297403850 -0.02423134043545274 -0.07830278412434742 
0 0 0 0 0 
-0.08669638991966257 -0.009036204163724650 -0.1719575520854488 -0.04157001418894291 0.2221578615288266 
-0.02153470412369217 -0.008875887842267598 0.2421436486847124 -0.1304155695240242 -0.1308558595273237 
-0.02654340161348566 -0.007754889908678521 0.1747472575060765 -0.05424700325746291 -0.09178778640215529 
-0.6703733795884298 -0.1023052350376103 -0.4860748206629886 0.6227969226131994 1.069213571398324 
-0.03623024214086345 0.2132602211253027 -0.2022260171687920 0.2332626879208006 -0.07657569935543782 
-0.02367017888824403 -0.01130383593720327 -0.08876815450779316 0.2337622784419577 -0.06272060832640483 
0 0 0 0 0 
0 0 0 0 0 
0 0 0 0 0 
-0.03687207761323610 -0.003874491809538801 0.08384824781837302 -0.04780497559867940 -0.02113893022589988 
0 0 0 0 0 
0 0 0 0 0 
0 0 0 0 0 
0 0 0 0 0 
-0.1061525456406314 0.3784386636070771 -0.2204893595376942 -0.02783973844698113 -0.04716036559063633 
-0.008706498573962345 -0.01353825082929766 -0.07759334792593334 0.2179837873676683 -0.1940724576474386 
-0.07210801725096583 -0.02020476482931256 0.02846385317151572 -0.1790432287489942 0.1903578000853823 
0 0 0 0 0 
-0.01389445652189026 -0.01350468296469758 -0.1747147670426271 -0.007475907897093844 0.07672264966972576 
0 0 0 0 0 
-0.01597942365712123 -0.02032288008421720 -0.06356180225128504 -0.01800946079716382 0.07504167998055546 
0 0 0 0 0 
0 0 0 0 0 
0 0 0 0 0 
0 0 0 0 0 
0 0 0 0 0 
-0.01131581980522200 -0.005513137588085509 -0.08961245445430550 -0.03590758738561567 0.08622422602893198 
-0.09831263563534247 -0.01678270670833437 -0.1669520900827478 0.2510764420519974 -0.04331024179722100 
0.4009812899907806 -0.03507255380248970 -0.2127857669103193 -0.09560736899742854 -0.1907458982371675 
-0.1452225544015325 -0.009298183502818491 -0.08789195509735294 -0.005114499528883263 0.2631309030687415 
-0.004860451070045014 -0.06415406319848432 0.07351173514113472 -0.002837175279407924 -0.04539983386058809 
-0.1899036306971968 -0.1263264833281065 0.1221231696981641 -0.02218648731949144 0.1641725475816880 
0.3625788868395639 -0.01112720098767067 -0.1604117644312291 -0.1334657771340513 -0.1724823843056336 
-0.05740665261369373 -0.05181882714885688 0.3449440128223255 0.1937535710144404 -0.2003881032149909 
-0.4198643862096884 -0.3061233389981182 -0.1912836195328611 -0.2564107943296554 0.6411677698525513 
-0.08108229752829639 -0.09969757596985547 0.4385921349831318 -0.08138596356166149 -0.2077415826004759 
-0.03629154811491835 -0.06763350359567642 0.5459423047641382 -0.04073350435865910 -0.4830071888147814 
-0.03150747481585742 -0.004498046612756411 -0.1855308966543307 -0.03576322885809243 0.2841115177285784 
-0.08108229752829639 -0.09969757596985547 0.4385921349831318 -0.08138596356166149 -0.2077415826004759 
-0.09833507901206062 -0.1996736063283461 0.6239153171235108 -0.09305670417291262 -0.2234481021676034 
-0.2406355766885068 0.3715194482559153 0.1037284082960604 -0.1188422137624229 -0.1303066687380824 
-0.03593655255731366 -0.3250773110754920 0.3401362203523450 0.2702837688397000 -0.5562722578279171 
0 0 0 0 0 
0 0 0 0 0 
-0.03816901087259400 -0.06578872903172100 0.02859341563627485 -0.01384356649026641 0.1747193167360213 
-0.05663768497805817 0.4109303983248121 0.01635085281312293 0.1411387512242625 -0.4804941387179172 
0 0 0 0 0 
0 0 0 0 0 
-0.04833773678690318 -0.001231778729868370 -0.1176552939410595 -0.1072723762103515 0.2184711598365711 
0 0 0 0 0 
-0.06121418410189656 -0.001202918576467877 -0.1431051325627328 -0.04855677306033618 0.1766863429556434 
0 0 0 0 0 
0 0 0 0 0 
-0.06121418410189656 -0.001202918576467877 -0.1431051325627328 -0.04855677306033618 0.1766863429556434 
-0.06121418410189656 -0.001202918576467877 -0.1431051325627328 -0.04855677306033618 0.1766863429556434 
-0.06121418410189656 -0.001202918576467877 -0.1431051325627328 -0.04855677306033618 0.1766863429556434 
0 0 0 0 0 
-0.1600632438880100 -0.004393052974286183 0.2722733897439767 -0.03587774680313635 -0.03274056026834151 
0 0 0 0 0 
0 0 0 0 0 
-0.01520469964065559 -0.004731534534475819 -0.06457099064804088 -0.01101444925721506 0.07050064682468876 
0 0 0 0 0 
-0.01371559092036276 -0.2486698480939598 0.1972619748444873 -0.004937435550053852 -0.002985720670281273 
0 0 0 0 0 
-0.02821173511796168 -0.01708360632278043 0.05152707011715622 -0.02210141583865553 -0.01865348176245575 
-0.02329707310151164 -0.01207235438311030 0.05391393201681065 -0.02898183409252107 -0.02294380107636667 
0.4888373951226293 -0.006886547559912016 -0.3716641206607592 -0.02134671073351701 -0.07281573002119011 
-0.01166367663160314 0.5629352856991615 -0.5280893280655510 -0.01927741118544722 -0.01532802628560606 
-0.04558784669820406 -0.009312986322541133 0.07836136922356257 -0.05770095468217809 -0.01396405053300687 
-0.04427727449205690 -0.01151054771029127 -0.3916337592663177 0.4464120487695467 -0.02698449792252895 
0 0 0 0 0 
0 0 0 0 0 
0 0 0 0 0 
0 0 0 0 0 
0 0 0 0 0 
0 0 0 0 0 
0 0 0 0 0 
-0.003638568781251010 -0.003331705010721908 -0.2027427352988582 0.2016337713159180 -0.09516884266182059 
-0.03744373007955835 -0.01521986267041935 0.1257223833851267 -0.05399006923997429 -0.06501532141855446 
-0.003808698506757295 -0.008293944702517287 0.1770034246899615 -0.03573656055812340 -0.1461530836129731 
-0.01183434043819422 -0.007220851316174776 0.02173273706593844 -0.03508827508345352 -0.02557568158637694 
-0.003638568781251010 -0.003331705010721908 -0.2027427352988582 0.2016337713159180 -0.09516884266182059 
0 0 0 0 0 
0 0 0 0 0 
0 0 0 0 0 
-0.1888462701444808 -0.06074096373767802 0.4971616062631849 -0.1649309583706964 -0.09852340131168988 
-0.1988977681887660 0.08058117508422260 0.2488699526007320 -0.1693109642064851 -0.1002751287112338 
0 0 0 0 0 
0 0 0 0 0 
0 0 0 0 0 
0.3984527859984372 -0.03439790358171643 -0.1947534218472838 -0.02576644811769274 -0.06635069717641466 
0 0 0 0 0 
-0.09008124233348667 -0.01105708410488774 -0.1658605304930718 0.3119204602963812 -0.03780417574713027 
0 0 0 0 0 
0 0 0 0 0 
0.1305197935924584 -0.003227085467271001 -0.07434859844938495 -0.01273779372734461 -0.04550364960369908 
0 0 0 0 0 
0 0 0 0 0 
0 0 0 0 0 
0 0 0 0 0 
0 0 0 0 0 
-0.06531665393337803 -0.01421227411648304 -0.09149212077027677 -0.03710026105207216 0.2319584344977415 
-0.02053493500432196 -0.03692858098401066 -0.1961008721070416 -0.003377376272612620 0.2531264882748470 
-0.08571201797798796 -0.03251670979996572 0.2203001683107003 -0.08432831423014665 -0.03017842054267958 
-0.03614990172297300 -0.03995568336766934 0.04756666556267534 -0.04997027115994922 0.05834449088764667 
0 0 0 0 0 
0 0 0 0 0 
0 0 0 0 0 
0 0 0 0 0 
0 0 0 0 0 
-0.04693782954565548 -0.008894525720723544 0.07285778059911444 -0.06288431153232259 -0.003421968469578944 
0 0 0 0 0 
0 0 0 0 0 
0 0 0 0 0 
0 0 0 0 0 
0 0 0 0 0 
0 0 0 0 0 
0 0 0 0 0 
0 0 0 0 0 
0 0 0 0 0 
0 0 0 0 0 
0 0 0 0 0 
0 0 0 0 0 
0 0 0 0 0 
0 0 0 0 0 
0.2367545747483799 -0.1032866253197933 -0.02202417156903767 -0.02731333071560762 -0.01113321981958703 
0 0 0 0 0 
-0.1957230101892302 -0.03428344898005271 0.3730908729002623 -0.04177318509649158 -0.1173127444197652 
0.3344747363521566 -0.05943454495468954 -0.07451062194775257 -0.06323922699659137 -0.07853163029511927 
-0.04522326338395323 -0.07235713577299234 0.3822530997270721 -0.005052692567672471 -0.03027312188312689 
-0.1525362190668193 -0.006953119501556776 0.2538445862666969 -0.003713244728496863 -0.02025791109437123 
0 0 0 0 0 
0 0 0 0 0 
0 0 0 0 0 
-0.07509858171184354 -0.006138796288153987 0.1651789955532868 -0.01517793538805154 -0.02163249896124736 
-0.02619724261151866 -0.02038263553087712 -0.5706000634163741 0.6280004059931862 -0.005824770494274016 
0 0 0 0 0 
0 0 0 0 0 
0 0 0 0 0 
0 0 0 0 0 
-0.001310099582202587 -0.3371498049917970 0.3448911000599727 -0.002495276651311186 -0.07098261818548850 
0 0 0 0 0 
0 0 0 0 0 
0 0 0 0 0 
0.1096769245847903 -0.2113269759286451 0.05717041189447760 -0.03701479118846769 -0.01520501770577108 
-0.01824350451410850 -0.01741286859975783 0.06954191021135755 -0.07919445582018596 -0.004633491287539709 
-0.09319702188887857 -0.01026526888558504 0.09705432487868222 -0.03358203115096863 -0.002930303812616195 
-0.08319677099745486 -0.03434015739626935 0.1853014911436617 -0.01268167783847016 -0.01222568468648142 
-0.02394758207575096 -0.1288072623109012 0.1279536281969421 -0.01015469764768061 -0.001455045649532259 
-0.03856016550682555 -0.02347365951280428 0.1734513657158177 -0.03092081877901704 -0.08736479367169517 
-0.03856016550682555 -0.02347365951280428 0.1734513657158177 -0.03092081877901704 -0.08736479367169517 
-0.004694954656747567 -0.01575989026742128 0.09948193800063981 -0.04775270407143765 -0.03309572322653254 
-0.07035446557580244 -0.5500516927642571 0.6565949077840947 -0.08879228502645319 -0.1277067955043407 
0 0 0 0 0 
0 0 0 0 0 
0 0 0 0 0 
0 0 0 0 0 
-0.006931128176113775 -0.005811935381932243 -0.01120754776369083 -0.008280148411980544 0.01006837510251072 
0 0 0 0 0 
-0.05369669577630572 -0.004007801707015908 0.2807713145704652 -0.05416190887939248 -0.1470841736865828 
-0.002273788704149049 -0.1958253168622427 0.2174350396636555 -0.01854832791693163 -0.03557851372777210 
0 0 0 0 0 
0 0 0 0 0 
0 0 0 0 0 
0 0 0 0 0 
0 0 0 0 0 
0 0 0 0 0 
-0.05670025431208704 -0.01876253614269066 -0.1445777568386623 0.1759070398508938 -0.06154691390685933 
-0.04351145425116395 -0.001550668406968436 -0.06727448591936660 0.1154942527805698 -0.04513010442436087 
0.1715867893596448 -0.007148910542777141 -0.1064326927786940 -0.02318099350563387 -0.01976740121640292 
0 0 0 0 0 
0.09500972753200387 -0.005949866568476089 -0.05137523052488818 -0.03330141935098106 -0.02487795257117016 
0 0 0 0 0 
-0.03405493021018008 -0.008766539639933381 -0.1525729072236805 0.1589180997846499 -0.01062259332775539 
-0.03405493021018008 -0.008766539639933381 -0.1525729072236805 0.1589180997846499 -0.01062259332775539 
0 0 0 0 0 
-0.2556921758198714 -0.1888989108649342 0.02706751650987581 0.2003495208877986 0.3208359369132153 
-0.01522170857524019 -0.02025677097336232 -0.2143542407245138 0.3037717190683441 -0.02785502797066706 
-0.06504285888839521 -0.03392533899554043 -0.3745198587231634 -0.06079427308080048 0.4787853365537725 
-0.1677191001270991 -0.01537419650202416 0.4895574146232738 -0.03620331350751909 -0.1255320714369344 
0 0 0 0 0 
0 0 0 0 0 
-0.0006533895938223453 0.1293204404811289 -0.1545090704362019 -0.0004829102873752459 -0.002883137790788365 
0 0 0 0 0 
0 0 0 0 0 
0 0 0 0 0 
0 0 0 0 0 
-0.02108698206791023 -0.01605902973749684 0.1465515647726790 -0.03926325675775634 -0.09418146314076040 
0 0 0 0 0 
-0.09489176923197680 -0.3436195278524802 0.4595232056456311 -0.06251590987988767 -0.03486548511466395 
-0.05821166348055069 -0.08193734174169763 0.1647798102510453 -0.02921458048964819 -0.01564585486307724 
-0.1734093361583943 0.1573480398798769 -0.05586327405401627 -0.06883797771490784 -0.06480101013023880 
0 0 0 0 0 
0 0 0 0 0 
0 0 0 0 0 
-0.04376332050264545 -0.003598092989305586 -0.09237247039030387 -0.2209068023967896 0.3865683631408154 
-0.003295595088956693 0.2535108276564659 -0.2762025230243660 -0.001610558483283072 -0.01028294942617953 
-0.05628981048330697 -0.4354072871453232 0.3868100829419242 -0.2239179444444136 0.3793059124105017 
-0.1537187394116980 0.1266728914791299 0.05763672398747944 -0.06220947959388009 -0.04260446109412905 
0.2817901857590051 -0.08407505626168321 0.1564073890495907 -0.1922971434581240 -0.1563631040051298 
0 0 0 0 0 
-0.2578924211043048 0.3043530857454954 0.1529352984606358 -0.1134379739110492 -0.1657671282953456 
-0.01586889618828427 -0.0006611604410088692 0.3753900511734781 -0.1535691481518811 -0.1281874549658006 
-0.07222460548920688 -0.003316383454993572 0.09082153907292309 -0.03446619308885912 -0.03910969449990220 
0 0 0 0 0 
0 0 0 0 0 
-0.01313362037077164 -0.01098194470167096 0.07571754700861469 -0.02186818258608599 -0.06840912141208360 
-0.07640380185854309 -0.07529546253788362 0.3279268647597156 -0.03874071301812063 -0.1322542376761957 
0 0 0 0 0 
0 0 0 0 0 
-0.004736284242394332 0.1509541029506356 -0.1343925124085202 -0.001494098056650714 -0.006329657980196199 
0 0 0 0 0 
0 0 0 0 0 
0 0 0 0 0 
0.0009141351893704264 -0.4728209241087428 0.4496050313619094 -0.001334940618376935 -0.01520187260106127 
0 0 0 0 0 
0 0 0 0 0 
0.0001226841884447195 0.06485636064354883 -0.08153293539102464 -0.0004118972903428676 -0.003084316068274845 
0 0 0 0 0 
-0.2854441671156693 -0.01023546782724083 0.6135539747225883 -0.03071454374669452 -0.08915739964350541 
-0.004308062235586371 -0.02448032103834908 -0.3417272218161644 -0.1006016598228706 0.3197413093417667 
0 0 0 0 0 
0 0 0 0 0 
0 0 0 0 0 
0.04828597170652796 -0.1112583621366816 -0.07489754162810619 -0.02516708725267485 0.04944488996467571 
0 0 0 0 0 
0 0 0 0 0 
-0.1231896885796464 -0.1194963676631701 0.4759132575732888 -0.1440535039035049 -0.1149243910786357 
0 0 0 0 0 
0 0 0 0 0 
-0.1496525889375553 -0.009193554511345455 -0.1112872528309237 -0.02929431976620209 0.4553532781656802 
0 0 0 0 0 
-0.1490083612080356 -0.2245591560078277 0.09685233264590350 -0.03088612453594616 0.4399309660819252 
0 0 0 0 0 
-0.1071081074739955 -0.007045708486639885 -0.2864074833882246 0.6574737978146497 -0.09373084693412413 
-0.01532333563489969 -0.008402574800842840 0.1031890159084223 -0.08030595346948463 -0.09385404600328316 
-0.1259736365153747 -0.1711509509603523 0.01881903201154431 0.5708465922115179 -0.2093916109562392 
0.3700301839450724 -0.02790665209092171 -0.1485281799672663 -0.02774950658232328 -0.1061550550959181 
-0.06176148790920497 -0.006453578627522055 -0.1317947290066572 -0.01964606322129725 0.1988186548505179 
0 0 0 0 0 
0 0 0 0 0 
0 0 0 0 0 
-0.04004294764732894 -0.01899436252063741 -0.1653921854918744 -0.006223001581456177 0.2584184756137561 
-0.01434608368974661 -0.01204959882381291 -0.1860109358288257 -0.01511704219694922 0.1516239835440187 
-0.2128559579159646 0.1831547117474758 0.08969310164946095 0.3819804547249762 -0.1578752408991303 
-0.01434608368974661 -0.01204959882381291 -0.1860109358288257 -0.01511704219694922 0.1516239835440187 
-0.03003219514863044 -0.01823178516349827 -0.08140331557407587 -0.005271729924331154 0.08407077654842920 
-0.03025738924126776 -0.004033107358481076 -0.1506394678542968 -0.2159615241569488 0.3773051517363587 
-0.02813715077036827 -0.08295653860081979 0.2852742164237626 -0.007296185999615209 -0.09728222132482096 
0.6903624531668977 0.1446474363614525 -0.2122119612672496 -0.2934044186191205 0.1014880405608430 
0.5958956115013800 -0.0008193241294237267 -0.2186037672418363 0.05419638348513566 -0.2272377731762547 
0 0 0 0 0 
0 0 0 0 0 
0 0 0 0 0 
0 0 0 0 0 
0 0 0 0 0 
0 0 0 0 0 
0 0 0 0 0 
0 0 0 0 0 
0 0 0 0 0 
-0.08185516072943368 -0.006922127419437865 0.2949038100048554 -0.02122966260198773 -0.1233983147054688 
0 0 0 0 0 
-0.1678135455294167 -0.03248030895186401 0.0001173128315004775 0.4126214370918813 -0.1256381429477906 
-0.09638425264833073 -0.06636154960974852 0.01082799735046639 -0.1414785972163550 0.01136478458290722 
-0.03051612384211885 -0.03074411288719212 -0.03856550172472862 -0.08871693020185174 0.05581249994688690 
-0.04190405217250603 -0.05420927258095960 0.09362288728170429 -0.09550101275583245 -0.05184607710619225 
0 0 0 0 0 
-0.1484706133861286 -0.07353295279883710 0.6592128096459293 -0.04018395466999366 -0.4283773376030881 
-0.1064012679635576 -0.002240365441001831 0.3742209907826161 -0.03035330972427406 -0.3999170773947771 
0 0 0 0 0 
0 0 0 0 0 
0 0 0 0 0 
0 0 0 0 0 
0.0007074380575913426 0.1138586883525981 -0.1038765198871362 -0.0003916673973776080 -0.01728813217297699 
0 0 0 0 0 
-0.1933407517440822 -0.01483381247203640 -0.08204354661425786 0.2289817076197267 -0.08121306098354045 
0.09716833105819407 -0.002846635205616240 -0.05388388811921319 -0.04213674810748263 -0.05145444224108717 
0 0 0 0 0 
0 0 0 0 0 
0 0 0 0 0 
0 0 0 0 0 
0 0 0 0 0 
0 0 0 0 0 
0 0 0 0 0 
0 0 0 0 0 
0 0 0 0 0 
0 0 0 0 0 
0.1282945451060549 -0.02091408571909703 -0.05818071879291845 -0.01114742470428930 -0.05629275590097186 
0 0 0 0 0 
0 0 0 0 0 
0 0 0 0 0 
-0.01665996974369568 -0.03630455938213528 -0.02988081241651809 -0.008096254032559074 0.08912939967454184 
-0.01665996974369568 -0.03630455938213528 -0.02988081241651809 -0.008096254032559074 0.08912939967454184 
0 0 0 0 0 
0 0 0 0 0 
0 0 0 0 0 
-0.03187682780614082 -0.01373752480686792 0.07793940107711683 -0.03709869354733781 -0.02554343779318827 
0 0 0 0 0 
-0.1293017650861791 -0.05239260552358735 0.2810465418239544 -0.03351276190951743 -0.04379064272533145 
-0.08020095650003144 0.07322766270129863 0.02501723717498250 -0.04115084608280221 -0.05179013637726199 
-0.02029959799658212 -0.01940333275723451 0.03110895839733317 -0.01897933367519132 -0.02299183661817069 
0 0 0 0 0 
0 0 0 0 0 
-0.01329108149256271 -0.01477744086403337 0.1881612611437490 -0.02397022396388895 -0.1598418272349706 
0 0 0 0 0 
0 0 0 0 0 
0 0 0 0 0 
-0.001280289484009646 0.01813502767463116 -0.06174293715152346 -0.0004005427794815662 -0.0004355653586233729 
0 0 0 0 0 
0.2430600534014175 -0.03369867059270015 -0.1331817973324211 -0.03272569067944355 -0.01110719030963443 
0.2430600534014175 -0.03369867059270015 -0.1331817973324211 -0.03272569067944355 -0.01110719030963443 
0 0 0 0 0 
0.2888466491447291 -0.03310445100791421 -0.3107170759437131 -0.06866699158635879 -0.03355021891010322 
-0.1644814494151099 -0.01984118343379461 -0.1578272359848549 0.3259397553094870 -0.05277159976173764 
-0.05323615635068462 -0.01927201264306488 0.3136167230638642 -0.04752374920914572 -0.1045604338067140 
-0.07640018346201170 -0.5182440640401600 0.6989889400064410 -0.06454718321583959 -0.1542705701565360 
-0.03427592834559767 0.6341087096146012 -0.5499104574272212 -0.01468902956259315 -0.005295546702677398 
0 0 0 0 0 
0 0 0 0 0 
-0.01478359412799644 -0.005873726927582179 -0.04151421975786115 0.02617292584067834 -0.005336141746180987 
0 0 0 0 0 
0 0 0 0 0 
-0.01478359412799644 -0.005873726927582179 -0.04151421975786115 0.02617292584067834 -0.005336141746180987 
0 0 0 0 0 
0 0 0 0 0 
0 0 0 0 0 
-0.01742352718599641 0.07762076757588253 -0.04641900999744383 -0.0005353471623231010 -0.0009972834692893600 
-0.01311804274041855 -0.05186256365974236 0.06172054826649111 -0.04805691442780641 -0.009101264433994892 
0 0 0 0 0 
0 0 0 0 0 
0 0 0 0 0 
0 0 0 0 0 
0 0 0 0 0 
0 0 0 0 0 
0 0 0 0 0 
-0.05286553645516820 -0.002462219801442770 0.1702584231170135 -0.1454614804104772 -0.01566779971314780 
-0.03536685727928710 -0.01525587331471065 0.03967555316583057 -0.02101768583347890 -0.01267770723754407 
-0.04426274020350667 0.08813393625221166 0.1460139754814649 -0.004944388629872652 -0.04760957963219718 
-0.04426274020350667 0.08813393625221166 0.1460139754814649 -0.004944388629872652 -0.04760957963219718 
0 0 0 0 0 
-0.06180023780871215 -0.003702962337743844 0.1907641666321324 -0.07450041959562897 -0.05374739251060919 
0 0 0 0 0 
0 0 0 0 0 
0 0 0 0 0 
0 0 0 0 0 
0 0 0 0 0 
-0.08601084009771294 -0.03047548054283432 -0.1021890248776946 -0.003359061539804721 0.3439945255351886 
-0.02843406972443082 -0.01133911504509885 0.1304448987031412 -0.02969526369760385 -0.03844130305385914 
-0.05390259773934380 -0.1196730547740560 0.1021473245148316 -0.02235894100841677 0.08015623373276701 
-0.01797167625541132 -0.01290295059378241 -0.1245230738476378 -0.01056041897320577 0.1316775866965284 
0 0 0 0 0 
0 0 0 0 0 
0 0 0 0 0 
0 0 0 0 0 
0 0 0 0 0 
0 0 0 0 0 
-0.1674080876898378 -0.1372742132142010 -0.6736013145043070 -0.1102095645320116 1.133477489118314 
-0.01848273952485834 -0.03319173756853225 0.2266565271603963 -0.01668845912740844 -0.09228014755172613 
-0.001951907217236902 -0.02854344106001805 -0.1448266925121229 0.2170820126987235 -0.1732022662655912 
-0.04245523588413702 -0.02016703306834581 -0.08814902803271724 -0.01679850713651717 0.1898611096530178 
-0.05356120838228776 0.1459347026575056 -0.2521988260170652 0.1959694003218549 -0.06609960131829434 
0 0 0 0 0 
0 0 0 0 0 
-0.01100200001629848 0.07462420479100274 -0.05741630746121063 -0.001073091032202069 -0.001931542903886136 
-0.006336665287643399 0.03560374024495901 -0.04009185423448001 -0.0003858320472806623 -0.003105249587707025 
0 0 0 0 0 
0 0 0 0 0 
0 0 0 0 0 
-0.1023599671075985 -0.01773824452261740 -0.1416547442237204 -0.04570037660060521 0.4102645286615337 
-0.03403457778418132 -0.01969990992242056 0.1769574812600997 -0.01368906960068639 -0.1099842702344153 
-0.01948096052663308 -0.01601809474624772 0.05881905296231685 -0.02578865015468630 -0.04931424282984074 
-0.1758015219726397 -0.1791872902851182 0.6556283204965037 -0.1066901319705927 -0.3711425428858253 
0 0 0 0 0 
0 0 0 0 0 
0 0 0 0 0 
0.3814813912320874 -0.07719146672127214 0.005808228510714606 -0.1597370294060763 -0.1248153770141780 
0.3817734610528754 -0.2698934608642414 0.1792763063888794 -0.1606803272487368 -0.1290993697401737 
0 0 0 0 0 
-0.006509313825118361 -0.01611183750297002 -0.06927085038423646 -0.01539207284430402 0.06037942215731692 
-0.02243458286234533 -0.09539947793040615 -0.02575741851022607 -0.001726262233542647 0.1880915568713189 
0 0 0 0 0 
-0.1505337613113685 0.04140672748518944 0.1057288888057687 -0.08256162953233269 -0.1153421353639625 
-0.02639972956134968 -0.01291599261861016 0.04336474216012928 -0.02291069246945111 -0.02167972093423922 
-0.1484656296821249 -0.09402358190416850 0.2940130262009850 -0.08153882008683760 -0.1131071338856427 
0 0 0 0 0 
-0.002352973322471291 0.09837108894054446 -0.09919688132070967 -0.0001101023285221736 -0.008788870876594017 
0 0 0 0 0 
0 0 0 0 0 
0 0 0 0 0 
0 0 0 0 0 
0 0 0 0 0 
0 0 0 0 0 
0 0 0 0 0 
0 0 0 0 0 
0 0 0 0 0 
0 0 0 0 0 
0 0 0 0 0 
-0.04579303637685487 -0.01520615809930353 0.1951714539283661 -0.06251048217331336 -0.05406500506124061 
-0.02848222226577040 -0.02213757340454124 0.2612503784219856 -0.1961071601030795 -0.01714713631854345 
-0.1236273514926117 -0.1454445264235669 0.7122685463100148 -0.2611645300425362 -0.07469753268455792 
0 0 0 0 0 
0 0 0 0 0 
0 0 0 0 0 
0 0 0 0 0 
0 0 0 0 0 
-0.03031868982583542 -0.1582971637774680 0.09481995359704874 -0.01112233439417582 -0.01200535031499005 
-0.001582496568321480 -0.1531796651790205 0.07632097430692476 -0.004131670990291953 -0.005140161763965995 
0 0 0 0 0 
0 0 0 0 0 
0 0 0 0 0 
0 0 0 0 0 
0 0 0 0 0 
0 0 0 0 0 
0 0 0 0 0 
0 0 0 0 0 
0 0 0 0 0 
0 0 0 0 0 
0 0 0 0 0 
0 0 0 0 0 
0 0 0 0 0 
-0.006914810222150943 -0.1604501952041504 0.05804023254037569 -0.007271712779049403 -0.001561820551243574 
0.1570720275264033 -0.01397444214960409 -0.01158617970417211 -0.09735385481752555 -0.03080478824942541 
-0.2668973109332007 -0.008270062327648004 0.5081999235593180 -0.03702189831301943 -0.03736569715197079 
0.1899625096198937 -0.003655114786859662 -0.2166242295453359 -0.007841230038676851 -0.07338901778069029 
-0.2668973109332007 -0.008270062327648004 0.5081999235593180 -0.03702189831301943 -0.03736569715197079 
-0.05822468068609369 -0.01307304744681734 0.08173405509521156 -0.03387380809829144 -0.01386657137104558 
-0.06224369148122972 -0.01139158200905025 0.06787342826164085 -0.04967939915036768 -0.01692878258161787 
0 0 0 0 0 
-0.06224369148122972 -0.01139158200905025 0.06787342826164085 -0.04967939915036768 -0.01692878258161787 
0 0 0 0 0 
0 0 0 0 0 
0 0 0 0 0 
0 0 0 0 0 
0 0 0 0 0 
0 0 0 0 0 
0 0 0 0 0 
0 0 0 0 0 
0.3740089666839244 -0.005410208217948894 -0.2231182415476126 -0.01582609348011752 -0.05315465907468176 
0 0 0 0 0 
0 0 0 0 0 
0 0 0 0 0 
0.3740089666839244 -0.005410208217948894 -0.2231182415476126 -0.01582609348011752 -0.05315465907468176 
0 0 0 0 0 
0 0 0 0 0 
0 0 0 0 0 
0 0 0 0 0 
0.04268187243724363 -0.002790835784250688 -0.2010697791370266 -0.006591891392658782 -0.001395019211820190 
0 0 0 0 0 
0 0 0 0 0 
0 0 0 0 0 
-0.03374717451574439 -0.03724726023024853 -0.2164402045733258 -0.05499682106242510 0.3456405031046406 
0.2102305430597144 -0.03415990270521141 -0.07347088083126457 -0.04305818734435008 -0.07167602439232684 
0 0 0 0 0 
0 0 0 0 0 
0 0 0 0 0 
0 0 0 0 0 
-0.01979616406499831 -0.08304132907905734 0.2319313900935887 -0.01090972289894759 -0.02719885495402659 
-0.03564128628820137 -0.003145236299406982 0.09807978828508021 -0.004689760022139201 -0.06758364832631626 
0 0 0 0 0 
0 0 0 0 0 
0.0005275232517268484 0.08253061293237172 -0.1494572802268585 -0.0007048311980578780 -0.002404037021285612 
0 0 0 0 0 
0 0 0 0 0 
0 0 0 0 0 
0 0 0 0 0 
0 0 0 0 0 
0 0 0 0 0 
0 0 0 0 0 
0 0 0 0 0 
0 0 0 0 0 
-0.1271696048081185 -0.08943889028732800 -0.1696442844267820 0.1469792620880174 0.1020221627934196 
-0.1175809594371390 -0.1341696488902026 -0.2137741201221305 0.1521358298744060 0.1264367578618870 
-0.006157511409456442 -0.003735807260744531 -0.05365671473205702 -0.001248899646769172 0.02296684950511522 
0 0 0 0 0 
0.3040898695810286 0.1654868110152007 -0.3241027505751395 -0.01756498788427989 -0.09372961266605684 
0 0 0 0 0 
0 0 0 0 0 
0 0 0 0 0 
0 0 0 0 0 
-0.006729981741317347 -0.001693127889360431 -0.04280722066577501 -0.008909357968053285 0.02834939883598443 
-0.01525732399169987 -0.002521823891055785 -0.2738957876252774 0.3943883679182303 -0.1022433798344465 
-0.02127106444263542 -0.02096079835102695 -0.1719829561625719 -0.02955331867308748 0.2465302792782144 
-0.04911483423545186 -0.1074871816222617 0.4541334761716250 -0.09296849325641042 -0.1575949534360913 
-0.01068683970350891 -0.01615995817209083 0.09406803273448147 -0.06204448174984412 -0.05223031465276273 
0 0 0 0 0 
0 0 0 0 0 
0 0 0 0 0 
0 0 0 0 0 
0 0 0 0 0 
0.008471605030594409 -0.1055802768697856 0.1610536371735590 -0.04318818055218134 -0.02439678168589861 
0 0 0 0 0 
0.0001463949404212066 -0.003959063338424397 -0.03923628495444135 -0.07479597921133206 0.08526734401613256 
0 0 0 0 0 
0 0 0 0 0 
0 0 0 0 0 
0 0 0 0 0 
0 0 0 0 0 
0 0 0 0 0 
0 0 0 0 0 
0 0 0 0 0 
0 0 0 0 0 
0 0 0 0 0 
0 0 0 0 0 
0 0 0 0 0 
0 0 0 0 0 
0 0 0 0 0 
0.4685894589959835 -0.02748749407699970 -0.2037747125732599 -0.08775052119940341 -0.01889163130250194 
-0.07623945350701432 -0.01553486983246593 0.4624696684442327 -0.006151365077661202 -0.1201653872397368 
0.2373513505076029 -0.01822620042487620 -0.04366662465295548 -0.01343317365608582 -0.1262231719511376 
-0.01071678930538872 -0.01078656925639812 -0.1241943987216961 0.2346731359400956 -0.1014383269920315 
0 0 0 0 0 
-0.01454386749576229 0.1177570236982561 -0.2301551789802112 0.05973319504630550 -0.01866761181070561 
0 0 0 0 0 
0.3031881532766517 0.4950169131132507 -0.2687458160247963 -0.04752436067253100 -0.08416107101113969 
0.07266614200007780 -0.01670278234043167 -0.03262302510666416 -0.01959947762992405 -0.01753656401209727 
0 0 0 0 0 
0.07266614200007780 -0.01670278234043167 -0.03262302510666416 -0.01959947762992405 -0.01753656401209727 
0 0 0 0 0 
0 0 0 0 0 
0 0 0 0 0 
0 0 0 0 0 
0 0 0 0 0 
-0.1231896885796464 -0.1194963676631701 0.4759132575732888 -0.1440535039035049 -0.1149243910786357 
0 0 0 0 0 
0 0 0 0 0 
0 0 0 0 0 
0.09628212692087498 -0.08024273632153330 0.4067904078140933 -0.09419786765062357 -0.05876905324244856 
-0.1514247726919153 -0.09618790596487540 0.6926164308468511 -0.1208811181357502 -0.09165396159625270 
-0.01964408666189173 -0.01123956962143848 -0.2553673832393232 0.3876910239160445 -0.06837722521514121 
0 0 0 0 0 
0 0 0 0 0 
0 0 0 0 0 
0 0 0 0 0 
0.07263458610841513 0.2418657485095571 -0.04194784441047630 0.2401317311195246 -0.2062168306744116 
0.1580226852794710 -0.006339087799306426 -0.03524803028097241 -0.07032234243597954 -0.03851155512169812 
-0.05625749205180599 -0.02726636642374189 -0.1575611579924691 0.4028921584468209 -0.1096166813591373 
0.1444012745020902 -0.2029213576006382 -0.01189825864178737 0.1571533370677663 -0.1391731784830844 
0 0 0 0 0 
-0.2866928722926042 -0.1940420750816438 0.4153284925886749 -0.05925890321096017 -0.06234773364562363 
0.1966716864036709 -0.04028273584299226 0.1040012196836873 -0.04118616245926871 -0.09236381125906220 
-0.01612124914271131 -0.07954847305064852 0.1124587966775282 -0.03630947128974439 -0.05244154753459202 
