solver_type L2R_LR
nr_class 5
label 3 4 5 2 1
nr_feature 3578
bias 1.000000000000000
w
0.4055215208804552 0.004284413555424676 -0.04879616210120654 -0.5359777537203605 -0.3499303936642978 
-0.6870076344570840 0.8239023141097989 -0.3785397401366167 -0.04441201133058158 -0.01300210871613129 
0.3522133492665313 -0.5676125779218600 -0.07662176220649670 -0.4641899622325175 -0.1416282052973101 
-0.02721811114862195 -0.07609886863684479 0.3945366890438717 -0.1107007284575177 -0.01065750186917321 
-0.1435873939543692 0.3715000315751403 -0.04732663868256030 -0.1229009346117743 0.1233643497189432 
0.3516744804574490 -0.08378808118581559 -0.5813924457850687 0.3442318251724265 -0.01656827989332594 
-0.004553027779322878 -0.09440248497326022 -0.2138328110726796 0.3503964462471716 -0.03597380539699412 
-0.1461455941774106 -0.01382024959949964 0.1585561771928093 -0.009615722049788672 -0.003471944975480298 
-0.2575812634922872 0.5232450811867584 -0.3359037913752896 -0.07176357976056201 -0.1148904045930239 
0.1657568515618568 -0.01605995074507929 -0.1063509516730102 -0.004610581363484686 -0.002661523699846563 
-0.02979043266938830 -0.04020572057579661 -0.1026364953772547 -0.02622453649708245 0.2540234540989460 
0.9180656151483098 -0.1525233321261965 -0.4789796303476644 -0.03350055186476571 -0.002837268183897671 
-0.2269554563511217 -0.1710343516356911 0.7446510652212839 -0.2210071497746428 -0.06962367182410790 
-0.03522393268884742 0.3317437982793416 0.09725723343737956 -0.2661430938563762 -0.09289355500906046 
-0.008111709169759100 -0.05556118697383502 0.1600360218443335 -0.06821847473846078 -0.04327722162899256 
-0.3653075144849097 0.02474830460740892 -1.165456841805936 -0.4133354487177325 1.437103230781935 
-0.008827875094790875 -0.2742731291119785 0.2281979995091802 -0.03684796814284686 -0.01394746460557113 
-0.2823551052004217 -0.5751162165984111 -0.7130503992665068 1.054961056864135 -0.2938529937328087 
-0.04764597871739521 -0.05152837087779556 -0.1368956225658828 0.4724522620169406 -0.1818417678823473 
1.272242544413418 0.1511368645945521 -1.261453397912733 -0.2015403025050839 -0.1197242139749381 
-0.01147311151457072 -0.01339445137544204 -0.04686392573979603 0.06781670879028573 -0.008065317614128160 
0.2904723399111445 -0.05469187870926705 -0.2258999625049592 -0.03018333074716783 -0.007612277031387688 
-0.03965525764363845 -0.02322010193932304 0.09117740151612999 -0.01641593877009380 -0.03115418172308077 
-0.09305727542131377 -0.04224094234556849 0.1760555178879911 -0.03801202693932756 -0.03458818018880088 
0.07160669189352467 -0.01083332236772615 -0.01155265457038338 -0.02128061825626386 -0.0005760650598017265 
-0.05256294531761327 0.2074987870059658 0.01514797594611770 -0.05145902794963141 -0.1010038089495116 
0.1168887936418901 -0.3640723021660309 0.2879596205225873 -0.07446505338442892 -0.1031810923544085 
-0.1873070255894761 0.01425344490191466 0.2908268831354254 0.1649841591248034 -0.4176112568531408 
-0.1588455541255021 -0.3327193640495038 -0.7535985627229439 0.1316006898100309 0.8925112297305308 
-0.005797899538365421 0.04251514258621079 -0.1626074514940991 -0.001479517270460755 -0.006898166361257726 
-0.1501530105784528 1.274663053006872 -0.7847723877818800 -0.6514456173718771 -0.3456242326256201 
-0.005856190051416783 0.07185025900531275 -0.06223966006439179 -0.02889168661368601 -0.006219746877017141 
-0.09486802100610253 0.3799769749622434 -0.06454191069848593 -0.06241876757494327 -0.2305886279547243 
-0.1127457849905499 0.2718748009554852 -0.1513692609501056 -0.006217076212542607 -0.004917449350174056 
-0.01340011468305682 -0.09632014921963172 0.08513606588221690 -0.01354216714193493 -0.01644312481715910 
0.5460702955920154 -0.5748214969696986 0.3716241271636390 -0.6344480945882407 -0.5972135639511147 
-0.05658386044537540 -0.01984974529334627 0.2728031685290800 -0.3911643942201067 -0.07392360646755060 
-0.01417692823600772 0.07825113614233467 -0.04943549676447916 -0.01388879041558583 -0.01330168717595183 
-0.1393375555095698 -0.1142263783221538 -0.007310051571187408 -0.2039785048821001 0.6834895651857316 
-0.04748089108634142 -0.03566933764766908 -0.1637770414808470 0.2079722423530118 -0.02796018935513710 
-0.03177142595267913 -0.004085950700666690 -0.1306230496818331 0.2271901810874887 -0.04435369253119764 
-0.03243276417168645 -0.003405040709223696 -0.2625100355231066 0.3050198700260933 -0.02749350952981030 
-0.1578551685948891 -0.5084995808533831 -0.9588720961836195 -0.2908492408288069 1.606540751303055 
-0.02441285747043307 -0.02724838632035247 0.2456242447048503 -0.1087478486571805 -0.01239113210575624 
-0.09020394565593752 0.2464840020702770 -0.1308027781730076 -0.003725326257964330 -0.0006853231748757243 
-0.01530526321108318 -0.03740948632379764 0.06622307122867015 -0.005232480371791193 -0.01313754869181526 
-0.3880592049321280 -0.02513304220588386 0.5992451756844114 -0.1272054041300933 -0.006541638979754625 
-0.01316548600406840 -0.1847652632067612 0.1277429991914833 -0.01181269969935682 -0.01819508055473772 
-0.01623490885123441 -0.04855796913464457 0.1493715068126774 -0.02310906083114406 -0.05084146255883062 
-0.06890511477516481 -0.01127745740839403 0.05792432754811785 -0.0008589683101126680 -0.001561232228039066 
-0.05115794427797519 -0.01865156531724279 0.1814837189453166 -0.02224895135154831 -0.01701298257310498 
-0.03083715179470862 -0.004074648324346323 0.1741626718278407 -0.05432254442942699 -0.08766339093681677 
-0.01166361955504263 -0.02828571358762444 0.05513817450387890 -0.02685402437183613 -0.03520345608413283 
-0.07730590140217960 -0.02927831578683646 0.1476363974061662 -0.04860485679710529 -0.01206602224692412 
-0.08753609657545446 -0.01154649963274928 0.07781572899253897 -0.0008472690806768313 -0.001297423712847971 
-0.1236156655557834 -0.01330481254590706 0.3196224813362448 -0.05723870950386822 -0.003451580632304912 
-0.04949127749932694 -0.002379865115253177 0.2018910096677716 -0.08338942566863237 -0.09933610331261720 
-0.004083587248604990 -0.05744625239470791 0.2298186904747426 -0.1443382821382313 -0.01818209638544120 
-0.007417949227527086 -0.02427147430890312 0.1140162473755615 -0.05979155018689743 -0.03717524929185963 
-0.05396095265001730 0.1782690535204495 -0.2318012565711805 0.1746390441810804 -0.06798690628758240 
0.1540866884056659 0.02834463652735031 -0.05640438793273614 -0.02128074113780483 -0.04398586206144557 
-0.1067638381704733 -0.2867427023936041 -0.3767991046728274 0.8774450046314408 -0.07063315317456309 
-0.1340699269301850 -0.2801882947580526 -0.7773719243585778 0.9926119787630188 -0.08736132829490943 
0.2991411719214317 -0.06491916357443103 -0.1292721738398597 -0.01803221142388554 -0.02075209800501907 
-0.09808342062929316 -0.03362830623286012 0.2150169228990801 -0.02724949559372753 -0.05371627844800584 
-0.1226936909515785 -0.01217895480116089 -0.4190507597132677 -0.2451607406889613 0.5750826216286392 
-0.01020429037676086 0.3053467096061108 -0.2228491586814705 -0.04598374979520292 -0.02944658830806027 
-0.009458909877862482 -0.03951384246232442 0.07318530761534688 -0.02090147201989667 -0.003342203252188157 
-0.01959744544415309 0.07568087562908535 -0.1303198360557561 -0.004021570111787337 -0.01760444752757164 
-0.01642118909476033 -0.01363395587520874 0.1142082196720634 -0.04868261600675600 -0.04770848087271831 
-0.05316017791052866 -0.5151931464540100 -0.3217938575395513 0.6563102262306129 0.05021924505809546 
-0.007450903705529023 -0.04316392846033452 0.06409966077006406 -0.01188439142159832 -0.007159859987841403 
-0.04962807613121927 -0.02528680369083379 0.07412435732216169 -0.04274369786698166 -0.05866090504719451 
-0.006237604406816487 -0.03960108133885957 0.1305271088811650 -0.08494596414920694 -0.01178583652478248 
-0.03863595314986154 -0.007734986629138208 -0.1137173240731153 0.1245452403601779 -0.009205052849115752 
-0.02168714998746602 -0.006614613407800083 -0.09798142719447876 0.1263350249189188 -0.005099803881130937 
-0.1764816390320440 0.4154287356894690 -0.07995108426873937 -0.008338966845660477 -0.002528824863693116 
-0.01570662696402862 -0.05722942016768211 0.05930326300748775 -0.01130812458607203 -0.01775539867547146 
-0.03436153232774057 -0.08633554736124091 0.1310810361302803 -0.01284295320334546 -0.01354117077430599 
-0.02471019869250835 -0.02063420885730947 0.03838632841490146 -0.01478554277371192 -0.01974598590233067 
-0.003740786351222393 -0.03420459537925080 0.08494168499442337 -0.05796360488174409 -0.01201958909746901 
0.2956659694839633 -0.01996849529925633 -0.1442598078143401 -0.02053532899584989 -0.01114100422209571 
-0.01545354802766052 -0.01460664451361900 0.06619652218349306 -0.02093741315627432 -0.05774704902151127 
-0.02910561099142171 -0.006162621698060800 0.1503099107570111 -0.1009280260616810 -0.03430696994398413 
-0.1197263449608391 -0.05561133345723331 0.3405121651595127 -0.1169590795771316 -0.02340969923596261 
-0.1105000999457365 -0.02743704490137562 0.2822005962790696 -0.02112264923578310 -0.02302576546368645 
-0.1030152617637082 -0.01072453265650518 0.3000593406026940 -0.08221056984009295 -0.02005731463148908 
-0.01767781163924029 -0.005851529766442233 0.01923630446299371 -0.01193524306725257 -0.003380432687101637 
-0.01421139092228418 -0.05921534794988298 -0.1197886885446912 0.3779282193523610 -0.04097299567046973 
0.3202765405775712 -0.04184082602032631 -0.2011850355965248 -0.01446191573710832 -0.002762808290262964 
-0.08751562203312777 -0.08738038813554254 -0.2622677064110182 0.3558692632051473 -0.1094387724652137 
-0.01442445288861289 -0.01915215707977646 0.04350470520484363 -0.02651980556640703 -0.02064077921962119 
-0.04185639962220367 -0.01314646682452434 0.05571683966816553 -0.007408955344401961 -0.006206604081025836 
-0.01799175251862437 -0.06656686617965970 0.1639797222838956 -0.04380912223214715 -0.02462461406669242 
0.4282853782092121 -0.02668544881514160 -0.1851920032454761 -0.04001991929544304 -0.007687429406854954 
0.4391382897358989 -0.1706152342501965 0.04755843309756050 -0.03338132896143479 -0.008251937984678740 
-0.02926273930532639 0.2327742428308445 -0.09833520365837568 -0.09998020996678608 -0.02484582221252890 
-0.03337586142976021 -0.01086263417310739 0.1064106754150223 -0.06459196369361621 -0.05622035277728329 
-0.02829806269251924 -0.01842987875194967 0.1131730211882749 -0.05702709773406065 -0.06454766776935093 
-0.006101232727380908 0.1586136043573775 -0.04638147018927805 -0.06569622529457574 -0.01894977188795217 
-0.02262582155577606 -0.03335677138091943 -0.1130803540345882 0.2419763612791301 -0.01627853965737231 
0.2554474752856262 -0.1256672213874459 0.07210458575064736 -0.009502174124232172 -0.01387685393551905 
-0.02059160549196346 0.09510239345566832 -0.07183653556873405 -0.03136644440709468 -0.02312398486869643 
-0.04779082413506560 -0.01427973563975366 0.07646630643391877 -0.05285139137677982 -0.06474268188845601 
-0.07393980050507554 -0.01641745645989939 0.08862361408469105 -0.003008158245559397 -0.0007141633745666037 
-0.01152913974140919 -0.05387780851006863 -0.1101083785688236 0.1702580039634760 -0.02699992096198122 
-0.01840814387650527 -0.008043071200659443 0.1250681082750983 -0.1815645245698908 -0.01082201604026950 
-0.01431294543113571 -0.01740656658068992 0.2434702963327186 -0.2493458941380879 -0.008394628290177538 
-0.04179973411604876 -0.001638645293654963 -0.2248659655655684 0.3021279838743565 -0.06471140197400864 
-0.01602885945285024 -0.05231372395112258 -0.04434776511800292 -0.2347780748910000 0.6083573709986656 
-0.08384815167959832 -0.05251880584771046 -0.2286513905706211 0.2566037661425735 -0.06359604804622795 
-0.007262636093098674 -0.02893481871832540 0.07305701195892335 -0.04845818226893391 -0.04963896900774333 
-0.01403951359068975 -0.04733360947645102 0.2154853511127629 -0.1613675525633767 -0.01947354282252571 
-0.2423967231471811 -0.1084931784680379 0.3877676837597396 -0.04278053739056412 -0.1162476140257368 
-0.004715150481770337 -0.009733112934760521 -0.1090495483318208 0.1424194004347951 -0.03923421868483830 
0.4214992677329157 -0.02379253684216132 -0.3368271883860350 -0.01774125870080781 -0.004184139515905419 
-0.02410548748381790 -0.02384499915125329 -0.09120005625862322 -0.1334664899532143 0.4710766679482324 
-0.02191904916534942 0.6335082368402981 -0.2386521019814838 -0.06432526910884928 -0.1569965117136745 
-0.006633108519699093 -0.008843858166434397 -0.1169937171364933 0.1376587409580160 -0.03578472510198079 
-0.03691198485004812 -0.006251688726886021 0.05477212394590103 -0.04422347851582699 -0.001998746004653880 
-0.08989919285987802 -0.01583493581295231 -0.1153755921831464 0.2339394515018526 -0.02395204889640084 
-0.01423143032144142 -0.01703490345648567 0.1528149943764051 -0.1205594080165495 -0.06488219489236723 
-0.01085146882389002 -0.02512383332728788 0.1767746051164132 -0.1155801533170020 -0.04073438407786597 
-0.008066147065501867 -0.01222930545057716 -0.1176232014839897 0.09598242903898399 -0.006300096879555493 
-0.05450468458136870 -0.1841969108603638 -0.09419790293692254 0.1333257805531100 0.2399259737038970 
-0.06147462067366406 -0.01531335786754576 0.3903547557509364 -0.2146653796755786 -0.02786430046310153 
-0.003465845156513276 -0.02817054568761996 0.1669002954796929 -0.3000925369439405 -0.002612584582674285 
0.0002175047076258428 -0.08731381032750306 0.01965457817142605 -0.02474103899367566 -0.02676847577685186 
-0.04340539863182505 -0.01715277843757740 0.1483811497003220 -0.05155047204975209 -0.009347764204171598 
-0.02759533781439370 -0.02386629907254982 0.1740938816943798 -0.06411594190160592 -0.05854970253120795 
-0.002393894903330321 -0.05317596374904782 -0.1362401624277212 0.1631387771729346 -0.05077160152551973 
-0.1086785701345581 0.0003290764161689953 -0.1181902011705456 0.2016517164203716 -0.02494238541184368 
-0.04505595527693725 -0.008812988889758039 0.4024430319294593 -0.4023131403784082 -0.01174765937842569 
-0.02174310434008756 -0.2472248366225262 0.08162084864733594 -0.004188630451037533 -0.007818166083576501 
-0.08454818385547391 -0.002810376955702330 0.07544083357741924 -0.01993437390425470 -0.03289790719472847 
-0.1289795476853040 -0.01443943531428332 0.09597671385787170 -0.0008689567548896817 -0.001357603832584130 
-0.003433444988022867 -0.1811385538263151 0.2816527165044687 -0.02790293310990241 -0.04320805864633481 
-0.005105506772337459 0.4852468622798772 -0.3570719382261184 -0.07491042083126626 -0.02520020200864751 
-0.02078085321415927 -0.1027041639795214 0.2751870402689455 -0.07654320043883565 -0.08617052478614352 
-0.01837528955827174 0.1923899315947250 -0.2693807789470843 -0.001748213235587582 -0.002303707796101025 
-0.01796595239609194 -0.02013259847683790 0.1020254917752279 -0.05227380156772062 -0.06491056965304118 
-0.1138484272303898 -0.02346113199566401 0.3418452807718860 -0.02017651762874442 -0.0008043504501353375 
-0.01473368439141533 -0.006918406401183946 0.01644744464280063 -0.01487999957451936 -0.03385698377603649 
-0.06758317583267366 0.6600190833480353 -0.2492145805315255 -0.1144887082910760 -0.04023149581461868 
-0.01172740421099114 -0.07368627677201739 -0.1728375021192372 -0.05079104294889127 0.3491651905986525 
-0.1421056755081285 0.3615568921555721 -0.08396225330921040 -0.02563925297246527 -0.03201638279181320 
-0.003613669473519139 0.1094611641718446 -0.04472978905067661 -0.05638564264929498 -0.01262034302028452 
-0.01186718314913100 -0.06986836485711179 -0.08972028447263299 0.2320648007174007 -0.03542435628088994 
-0.03082741690463626 -0.02799942366036970 -0.1896636852618965 0.2642717139226988 -0.004409011418567853 
-0.01019853266473412 0.09508318146142572 -0.06372832150846988 -0.01804569519135118 -0.009400591406393552 
-0.05640237662532069 -0.2642903214911444 0.3486187615537768 -0.01880697620707315 -0.005433910450535782 
-0.02252995526209563 -0.08422175301648385 0.1510373471284970 -0.006921664846400692 -0.03535328565199089 
-0.03749515351770250 -0.06117055259216884 0.2073975196099752 -0.02907278947938513 -0.07238920474885871 
-0.01358268183528813 0.2275494596876941 -0.1179652988097396 -0.05367234434531328 -0.03399462637628806 
-0.08591723766154388 -0.01028209310140078 0.09170765535094662 -0.002110999439527061 -0.001554478997542878 
-0.05719511771239925 -0.04990343780983825 0.1368961994458023 -0.01929045791075877 -0.01181910792293245 
-0.01723417265838505 -0.1166363323336062 0.2316179148460932 -0.04849714679091825 -0.02471070935395574 
-0.06791578150639706 -0.02675070513167810 0.2504176094386990 -0.03441141211890150 -0.07951367574406278 
-0.004891669230245453 -0.01629648071929699 0.05691748303712470 -0.06407363865392844 -0.01399547886468868 
0.3484463962980399 -0.03471997651848913 -0.1065190411908840 -0.01866900668103366 -0.01261606306342188 
-0.02351165047084883 0.3644639701578144 -0.2696847249460475 -0.07859104230103474 -0.1047227481900820 
-0.03936641280189527 -0.2398787117150489 0.05720495149602230 0.3967265119730350 -0.09591208960339010 
0.05256725808111026 -0.08563541680705927 0.1342841256763257 -0.02621830837202446 -0.08279512923694580 
-0.1026733726749483 -0.04753326327147559 0.1936380623735181 -0.02350508068665318 -0.02587899703989108 
-0.007365756894185504 -0.05310605963991270 0.09871089966887546 -0.03144230143328017 -0.04256360942623146 
0.2888164373066904 -0.1138974606335139 -0.1368796441108479 -0.003803102688668467 -0.008881188279458795 
-0.004516089783737146 -0.06536628650698904 0.09203482158977777 -0.05389820880279894 -0.02503027863917247 
-0.008046756233815370 -0.06213403567656004 -0.1645771562583781 0.3019819361668324 -0.03892650448069481 
-0.04140440267669485 -0.01852782787805909 0.05247536456451610 -0.01324943202758146 -0.008413284708766176 
-0.01183947270432585 -0.04327499207695196 0.1784467646515297 -0.07850344987049707 -0.004727782320619473 
-0.01218666059867261 -0.01586558290004651 0.08629786709054560 -0.02845815215570005 -0.04835363906999114 
0.1617582172636509 -0.003322274905638387 -0.1423034396875976 -0.007697464180279309 -0.001383171388570985 
-0.02468838171681129 -0.02812025618136280 -0.2864766948053034 -0.02611686684495104 0.4006106975150894 
0.1318711031006665 -0.003656511718857348 -0.1623706425367384 -0.004092766597569158 -0.003606505655081183 
-0.03038459748302198 0.2422055416962123 -0.1171236563686947 -0.01427397333533411 -0.03283015955384308 
-0.1505719344507641 -0.02901931907872293 0.1931870878925884 -0.003175994802330544 -0.006304905364825212 
-0.02145775723513472 -0.04308895789037914 0.3077030112665915 -0.1234310409180906 -0.03574252640748072 
-0.04877608806249739 -0.01366792693503252 0.04869037762379361 -0.007996802780918176 -0.03187415966806493 
-0.02291255606203281 -0.02881774618756312 0.03630182817207068 -0.009959568840244949 -0.02282066461670860 
0.3671045792028545 -0.04000569340122552 -0.2092691686187780 -0.006292337477995408 -0.03311314313285856 
0.09754373275191844 -0.03229974968450657 0.1299427516901264 -0.02130848372574376 -0.01062703066314023 
-0.04749453851048803 -0.2551177928320907 0.5113999668195748 -0.1057207799570636 -0.1335856088439502 
-0.01839047584272483 -0.1071741870605487 -0.1273472993783452 0.4223226802958701 -0.04481484365190862 
-0.004410853806679156 -0.02070234099300062 -0.1153340281177430 0.1074223391148349 -0.01261100129827867 
-0.05900876094053680 -0.008115647581287619 0.08310487642998363 -0.007809951317472101 -0.0007254767285328967 
-0.01680543465788793 -0.01615897115417004 0.04187054804965242 -0.03841815203431799 -0.02261442131392437 
-0.01723681151498475 -0.008542456538448586 0.1808427446088944 -0.1515464980795615 -0.02500369105496909 
-0.01709290488821968 -0.01602252485979751 0.03185377590010546 -0.02950532132396673 -0.02088681844650412 
-0.01651818434561067 -0.01518449072402955 0.03462905000955462 -0.01453387749963549 -0.003742520696136475 
-0.01228014306612441 -0.06278082246388372 0.1552802268566098 -0.06218433945904618 -0.003142314053264309 
-0.01625746883662472 -0.03548048697069765 0.1640745918790892 -0.1060319442142923 -0.01299861902661920 
-0.03689568397520863 -0.01005814650964508 0.1200129303435587 -0.07758178068110974 -0.01440702813714465 
-0.001102939402333261 -0.03605065371484107 -0.1501771561954970 0.07472286421913128 -0.003028498692525740 
-0.006125886954629667 -0.01500816459997340 -0.06736569237362902 0.04921278075222651 -0.003867907687534361 
-0.02597673648232636 -0.03524520563622709 -0.03255726385049902 0.2097838368307460 -0.01392821210478033 
-0.08305235952298883 -0.01633625403865410 -0.07793551511499323 0.2759911754087274 -0.003599343757163010 
-0.04904490508978047 -0.05734855609083920 0.1715919714411140 -0.05567023400925190 -0.02773728421619677 
-0.01992437605171695 -0.05453888218985122 0.1176994650665233 -0.06843527328387350 -0.01339729881659126 
-0.03770403704233633 -0.09619464718360360 0.1651678383500646 -0.03612261039059898 -0.001585073960360239 
-0.006635720985718061 -0.08339423129369910 0.1659928160733743 -0.08881178072941319 -0.03091712922937866 
-0.003904237331152733 -0.1187685068905079 0.2852216923592533 -0.1356462081468504 -0.01681810179002418 
-0.01070943617813661 -0.02257182400220039 0.04219181937558611 -0.02528204315557690 -0.009715410276823527 
-0.08142584127343414 0.1660123417698582 -0.06370694608788721 -0.0009285120851863073 -0.0002220245156839055 
-0.01354888539675700 0.1852390823628214 -0.04471984717208708 -0.03180239431635383 -0.08084153897938375 
-0.001613076764802203 0.1718202137913335 -0.2376629395954020 -0.08060693360104594 -0.006221009071147863 
-0.01383343824604053 -0.06046566121456590 0.07758732321685323 -0.01075184355019733 -0.03016491225631915 
-0.01043682226289769 -0.1167818281039112 0.1282871021087669 -0.003886556170218287 -0.01190063779531631 
-0.01831070978033479 -0.04649934934735454 0.05972834493785145 -0.01284690372777722 -0.05093923644342876 
-0.03261049124690960 -0.002380228633975466 0.04057060994099016 -0.003553131422948066 -0.002266682658622552 
-0.02045160200237091 -0.08838240786713734 0.2339795146228801 -0.003110063001114123 -0.001243812512248602 
-0.004159813357150440 0.1373452115166396 -0.2557478918222957 -0.001932403881020241 -0.008007509794438315 
-0.006010592701946580 -0.03791735017816564 0.07595733779426211 -0.01452360596324702 -0.009700978972635950 
-0.004644981575666847 0.04286790184627466 -0.1999382331005740 -0.0009484656587248785 -0.005649489754111599 
-0.01043313632890520 0.1666819043738184 -0.1561181361882337 -0.003291051737368930 -0.01553831548220215 
-0.04897778409831909 -0.002171662035638220 -0.08952419020844826 0.1551289832683024 -0.02025968046046977 
-0.04406455930377413 -0.01013939646009568 -0.3455084753328068 0.4092799166171999 -0.09167605574471611 
-0.01325632464090047 -0.04523502806222612 0.1534125898001858 -0.1817255759179788 -0.05065574561741334 
-0.06581178592543581 -0.008118971790654790 0.1490207830640766 -0.01336735363270941 -0.02449190090722494 
0.2078344484404379 -0.006527675945514002 -0.1740593673486814 -0.006509831579712941 -0.001575048536146278 
0.2437492205869362 -0.002934744197579147 -0.2653129125365102 -0.008789623538063750 -0.001541348154178817 
-0.06215066295681843 -0.01373360151963254 0.09653025369250041 -0.01586119179809163 -0.03876058274802924 
-0.04800380512356525 -0.004766347865804130 0.09772501110506936 -0.01368561203028901 -0.003088227385603664 
-0.01609397705536707 -0.007570760622205287 0.07582411421070435 -0.04093653232059880 -0.05309809392571169 
-0.01828089600387269 0.1817439941170778 -0.1427529140085838 -0.04015011756075965 -0.02072063712085038 
-0.05156843593013822 -0.07275940704091413 0.1725538670315122 -0.002300961256940530 -0.01688999791868363 
-0.03883512155824421 -0.02636337822448034 0.2228512288961342 -0.08660018527135299 -0.007959499291503386 
-0.02173805577136729 0.4727401620023214 -0.2109255448280362 -0.01623826700012207 -0.09944732282945323 
-0.01745707875283486 -0.05781146722771262 0.5337714699156044 -0.1811835155360180 -0.004427574156659993 
-0.04191260441035653 -0.02142504969918170 -0.1593363346626839 0.3309535112222116 -0.01067355218431675 
0.3729015242702664 0.1941910465021749 -0.2062436428552274 -0.01034503970437401 -0.02408354769851251 
-0.01957928354866814 0.1661453620216772 -0.05346492725746261 -0.05596521692023928 -0.01548624583507657 
-0.01611806049651169 0.05577148448226354 -0.03126461031008486 -0.006702494702968961 -0.03447215583386487 
-0.05526979698047006 0.2843555322321289 0.07379319469284186 -0.01721064560101535 -0.05411191240196976 
-0.02133764107918420 -0.2074303178816513 0.3484094685183732 -0.03875263743099965 -0.009056819699976933 
0.3599101109606214 -0.01313025440290474 -0.2185572320620956 -0.004496139389054422 -0.03933949310859518 
-0.004774286593037245 0.1511134182523065 -0.03819475621742063 -0.03840458889330792 -0.05718530672983940 
-0.02392388554138277 -0.05108094743792534 -0.1162082241718832 -0.1181527504752967 0.3611411331166389 
-0.09095743006844768 -0.008196776511524090 0.3707592608048839 -0.04438053459578151 -0.05677338702125792 
-0.03295319931259130 0.1908063080147106 0.08145374431338996 -0.08145254542309283 -0.04234460216759856 
-0.01997514467571853 -0.07487212688380594 0.08228751232560068 -0.008876159156794421 -0.01500964729852244 
-0.02441990075892447 -0.2347225969088327 0.2676031484741881 -0.004393698951547282 -0.004745984364685921 
-0.01442275140149830 -0.005966896134123949 0.02445561641700317 -0.03312077395269303 -0.02686771302895774 
-0.09742106836415701 -0.01096523906408274 0.06843882922440350 -0.002322055362782775 -0.001996412224927788 
-0.04570318014330689 -0.04706203287500556 0.1074747969163476 -0.0009973290480184238 -0.005907197985408740 
-0.006520787036885876 -0.2714155810229105 0.2118581502740397 -0.005149520238451274 -0.02021069413409017 
-0.05950740586559566 -0.1373291104956604 0.1808165502035846 -0.001451778631715685 -0.006045219595318462 
-0.01817071412533534 -0.03567820469193873 0.1451320882560984 -0.03059436136975801 -0.04852990891159190 
-0.02647815880492844 -0.02476845247199133 0.06528903145526407 -0.008706842680666570 -0.008373440827865139 
-0.01016570826562299 -0.03965497109630178 0.05352245763173977 -0.007349396331840266 -0.01399230651524301 
-0.03163383059190322 -0.04838319049655972 0.1275243854571872 -0.02230354321154155 -0.02778347021205513 
-0.08637552409931416 -0.03319252800658967 0.1052118906326915 -0.0005617500248673342 -0.002138469733875497 
-0.05674514768527045 -0.05902116392589498 0.2184805266956886 -0.02302844970197769 -0.1246724731981414 
-0.08554183923079915 -0.06793759620038654 0.2948771237605623 -0.04683817613051022 -0.01037093265519256 
-0.008511268648420257 -0.02984162025485649 0.1541741870231602 -0.07413367387949740 -0.006748286699421327 
-0.003787097571894286 0.07147338081075814 -0.1229519892844707 -0.007560208855563113 -0.02539031242536349 
0.4055215208804552 0.004284413555424676 -0.04879616210120654 -0.5359777537203605 -0.3499303936642978 
-0.7708158595379553 0.8948945821822330 -0.3907054674461097 -0.04599188148452154 -0.01339070292089605 
0.9823936773714739 -0.5267744793969972 -0.6680747639719605 -0.5061851942157962 -0.1530509884303977 
-0.02721811114862195 -0.07609886863684479 0.3945366890438717 -0.1107007284575177 -0.01065750186917321 
-0.1260475079713337 -0.3858000215267696 0.3335800463405961 0.1450010095885130 0.2365039493979477 
0.04415139407852123 -0.03889543242328607 -0.1858854906335330 0.1802301984956635 -0.005122238002944764 
-0.004553027779322878 -0.09440248497326022 -0.2138328110726796 0.3503964462471716 -0.03597380539699412 
-0.1461455941774106 -0.01382024959949964 0.1585561771928093 -0.009615722049788672 -0.003471944975480298 
0.02479167590252207 0.3061048883381662 -0.5403923882140397 -0.08439524329249015 -0.1310700201010388 
-0.1268177599451710 0.3746015380117204 -0.8349831688636636 0.06432737946047536 0.4746143370716561 
0.5100340722740953 -0.1077262378721522 -0.2181530322506211 -0.02257815993192044 -0.001856514608340585 
-0.2638511403263303 -0.1810924981453362 0.8646639955648426 -0.2985889304557525 -0.08403069996125255 
-0.009525566410734059 -0.05418215892401143 0.08026563237736134 -0.01982842093032898 -0.04186359444718459 
-0.008111709169759100 -0.05556118697383502 0.1600360218443335 -0.06821847473846078 -0.04327722162899256 
-0.01490986161244810 -0.07229414182061035 0.2084094460227504 -0.1006787935769837 -0.01793004454550094 
-0.008827875094790875 -0.2742731291119785 0.2281979995091802 -0.03684796814284686 -0.01394746460557113 
-0.2794195660470785 -0.3354063241801413 -0.8650338465363113 1.036614320174488 -0.2723467291378661 
-0.03011299168314865 0.06606576034332118 0.08802899586163741 -0.06592168180637725 -0.03303491469639098 
0.3597194125849862 -0.1462231437595118 -0.1908019536831142 -0.09208368707469121 -0.06703649668347758 
-0.01588396532124988 -0.03409679236844265 -0.1621979538575390 0.1752390479051206 -0.02067631891240683 
-0.03965525764363845 -0.02322010193932304 0.09117740151612999 -0.01641593877009380 -0.03115418172308077 
-0.03151313994891415 -0.007392817261949456 0.04383954830578028 -0.02746943323713895 -0.02427457073309957 
0.07160669189352467 -0.01083332236772615 -0.01155265457038338 -0.02128061825626386 -0.0005760650598017265 
-0.05256294531761327 0.2074987870059658 0.01514797594611770 -0.05145902794963141 -0.1010038089495116 
0.06728985515355723 -0.08499310130233692 0.006640285807279319 -0.07916233929130767 -0.05400632099353266 
-0.007337827456831779 -0.02214817331635537 0.1730205742877480 -0.1120270446245579 -0.03495245931190080 
-0.02462848964055254 -0.07624898471600687 -0.5493360782711520 -0.09909173139442458 0.5581614450246433 
0.4533387832713076 -0.06330601022019394 -0.4389684963903193 -0.04774347638310143 -0.01889556369416521 
-0.03992502311641948 0.3244048566553472 -0.1750726503552975 -0.1844680602078996 -0.1075675861166821 
-0.1834630382858832 0.8001751770499268 -0.3568003284746238 0.01878193141716842 -0.2341788299801045 
-0.2062818388105195 -0.3112874563073589 -0.2279294199097101 -0.4564284500367634 0.8401639850541087 
-0.02893755990967871 0.2008825328830510 -0.1392035336406124 -0.004637206058602654 -0.004528855145409295 
-0.02814050161377212 0.1379731741728000 -0.1914333283922572 0.1914101672765271 -0.1307323523710082 
-0.01340011468305682 -0.09632014921963172 0.08513606588221690 -0.01354216714193493 -0.01644312481715910 
0.5460702955920154 -0.5748214969696986 0.3716241271636390 -0.6344480945882407 -0.5972135639511147 
-0.6798848851264119 0.2344637423783981 0.4008593960646397 -0.1047961030349550 -0.07404061581657374 
-0.02027816096338863 0.2368647404997121 -0.09581696695375720 -0.07958501571016156 -0.03225145906390400 
-0.005714458715033106 0.1186841214818194 -0.1025898344693609 -0.05213978691952109 -0.03612172954945959 
-0.09135406990942137 -0.08601845213977712 0.2625061436463581 -0.1744366077691020 0.2018587610755351 
-0.03014015857564338 -0.05791295204916323 -0.01681841945602063 -0.02844174638093773 0.05494458308250587 
-0.03177142595267913 -0.004085950700666690 -0.1306230496818331 0.2271901810874887 -0.04435369253119764 
-0.03946898975039664 -0.09902813003412976 -0.3482523539589090 0.3710746353025945 -0.02676803724507610 
-0.03243276417168645 -0.003405040709223696 -0.2625100355231066 0.3050198700260933 -0.02749350952981030 
-0.03221832481114269 -0.01343914789843517 0.04344242255096857 -0.008503896867029180 -0.006721946191216657 
-0.5724912887467570 -0.03863213495392127 0.6090797131908995 -0.04582114044724859 -0.002960829091768323 
-0.02567804317819800 -0.006516771993078107 0.2322680965601761 -0.07126508526813284 -0.1038500110085403 
-0.02441285747043307 -0.02724838632035247 0.2456242447048503 -0.1087478486571805 -0.01239113210575624 
-0.09020394565593752 0.2464840020702770 -0.1308027781730076 -0.003725326257964330 -0.0006853231748757243 
-0.01530526321108318 -0.03740948632379764 0.06622307122867015 -0.005232480371791193 -0.01313754869181526 
-0.01316548600406840 -0.1847652632067612 0.1277429991914833 -0.01181269969935682 -0.01819508055473772 
-0.01623490885123441 -0.04855796913464457 0.1493715068126774 -0.02310906083114406 -0.05084146255883062 
-0.06890511477516481 -0.01127745740839403 0.05792432754811785 -0.0008589683101126680 -0.001561232228039066 
-0.05115794427797519 -0.01865156531724279 0.1814837189453166 -0.02224895135154831 -0.01701298257310498 
-0.03083715179470862 -0.004074648324346323 0.1741626718278407 -0.05432254442942699 -0.08766339093681677 
-0.01166361955504263 -0.02828571358762444 0.05513817450387890 -0.02685402437183613 -0.03520345608413283 
-0.04304744817658514 -0.001738111158748861 0.03276827889203735 -0.003283750501100653 -0.0003775977223817458 
-0.08753609657545446 -0.01154649963274928 0.07781572899253897 -0.0008472690806768313 -0.001297423712847971 
-0.1236156655557834 -0.01330481254590706 0.3196224813362448 -0.05723870950386822 -0.003451580632304912 
-0.04949127749932694 -0.002379865115253177 0.2018910096677716 -0.08338942566863237 -0.09933610331261720 
-0.004083587248604990 -0.05744625239470791 0.2298186904747426 -0.1443382821382313 -0.01818209638544120 
-0.007417949227527086 -0.02427147430890312 0.1140162473755615 -0.05979155018689743 -0.03717524929185963 
0.7878087324439488 -0.2953532771135582 -0.02019129997552386 -0.4361878281518699 -0.01686109935555441 
-0.04829378249566544 -0.09459451355621183 -0.4720237280189795 0.5988172629457433 -0.1043867291547661 
-0.03109548334552329 -0.06282430617575328 0.3211509878026522 -0.04040842432734208 -0.09685499794803626 
-0.05184746904138975 -0.1310928793897963 -0.3350909082764956 0.5312603451641708 -0.02725570257772829 
-0.09650198298424054 -0.6312239679463200 -0.6951902683991891 0.7217559535226689 0.5289940801655013 
-0.1575772810125425 -0.2940289121315163 -0.6995100503832833 0.8996879017142929 -0.1059894947575787 
0.4862676594291255 -0.05246315449393330 -0.3144011739042718 -0.01243050353333508 -0.01588849565086740 
-0.03526871849735844 -0.01802694687648928 0.08458964949953570 -0.09300216184094963 -0.005108793142467471 
-0.07735788983573569 -0.009877952077249107 0.1771867464126687 -0.009088961611308831 -0.03580145634680525 
-0.01668766307204273 0.3854934375418469 -0.02449626996126009 -0.2349821208642378 -0.1152883996089436 
-0.001116050332651104 -0.04421665208166702 0.2188325460250825 -0.1722206086434728 -0.04913778029061154 
-0.07718620062615940 -0.01052127403558589 -0.5754764743148880 -0.2006363567051297 0.6239848150627207 
-0.01020429037676086 0.3053467096061108 -0.2228491586814705 -0.04598374979520292 -0.02944658830806027 
-0.009458909877862482 -0.03951384246232442 0.07318530761534688 -0.02090147201989667 -0.003342203252188157 
0.1445115813181529 0.01910616233052937 -0.3287556798866040 -0.03095081273625463 0.2851542683505542 
-0.04973172945812598 0.2627241706165656 -0.1052860038850078 -0.01489830214746313 -0.05527623287753242 
0.4086879327650591 0.04899542681394375 -0.3155118393012323 -0.04404148940723038 -0.02529187693442659 
-0.007450903705529023 -0.04316392846033452 0.06409966077006406 -0.01188439142159832 -0.007159859987841403 
-0.01457760523590774 -0.003669930486574493 -0.01101972943859304 -0.001116732678549994 -0.0009756617431891562 
-0.03142325312034676 -0.002318447695812441 0.03415493772362519 -0.02225841976375892 -0.03926734163013917 
-0.006237604406816487 -0.03960108133885957 0.1305271088811650 -0.08494596414920694 -0.01178583652478248 
-0.04550749032541909 -0.001657680765575003 0.1564257146016204 -0.04452438398383164 -0.04890219343408152 
-0.02665773880891322 -0.04777217776574323 -0.3016875766172334 0.3877273213723796 -0.01757680734842771 
-0.2300016618951835 -0.06634510698167925 0.2260049639354231 0.05547185469269740 -0.02741303433215877 
-0.01094744048928805 -0.1763511000318091 0.3364587597478664 -0.1447556562599345 -0.02269841670500368 
-0.1031400330799614 -0.05750052435003458 -0.1698124519255043 0.4667991578027946 -0.09203403870575538 
-0.03264615709853220 -0.07953513267009389 -0.2880752167026183 0.006817730285172832 0.4241682885264337 
-0.02168714998746602 -0.006614613407800083 -0.09798142719447876 0.1263350249189188 -0.005099803881130937 
0.3378723362076144 0.4255882418694891 -0.6827526308862472 0.03826130630963878 -0.04813922166400356 
-0.03899963609930879 -0.06773702711970755 0.1642159635205563 -0.04035251519749585 -0.1379114313225342 
-0.01570662696402862 -0.05722942016768211 0.05930326300748775 -0.01130812458607203 -0.01775539867547146 
-0.03436153232774057 -0.08633554736124091 0.1310810361302803 -0.01284295320334546 -0.01354117077430599 
-0.02471019869250835 -0.02063420885730947 0.03838632841490146 -0.01478554277371192 -0.01974598590233067 
-0.02200280321596483 -0.006034345139726789 0.08984680146985104 -0.09883663058230382 -0.01065505321110158 
0.2956659694839633 -0.01996849529925633 -0.1442598078143401 -0.02053532899584989 -0.01114100422209571 
-0.01545354802766052 -0.01460664451361900 0.06619652218349306 -0.02093741315627432 -0.05774704902151127 
-0.02910561099142171 -0.006162621698060800 0.1503099107570111 -0.1009280260616810 -0.03430696994398413 
0.3380499670280622 -0.03629707455360300 -0.2617757264098089 -0.01798293287783874 -0.009499598576382315 
0.2276512643014851 -0.04653830602992522 -0.05629259650681805 -0.07424964857876662 -0.02010981534292328 
-0.1105000999457365 -0.02743704490137562 0.2822005962790696 -0.02112264923578310 -0.02302576546368645 
-0.1030152617637082 -0.01072453265650518 0.3000593406026940 -0.08221056984009295 -0.02005731463148908 
-0.01767781163924029 -0.005851529766442233 0.01923630446299371 -0.01193524306725257 -0.003380432687101637 
-0.01421139092228418 -0.05921534794988298 -0.1197886885446912 0.3779282193523610 -0.04097299567046973 
0.3202765405775712 -0.04184082602032631 -0.2011850355965248 -0.01446191573710832 -0.002762808290262964 
-0.1713637737127261 -0.1398991939832530 -0.4909190969816393 0.6124730293477209 -0.1730348205114417 
-0.01442445288861289 -0.01915215707977646 0.04350470520484363 -0.02651980556640703 -0.02064077921962119 
-0.04185639962220367 -0.01314646682452434 0.05571683966816553 -0.007408955344401961 -0.006206604081025836 
-0.01799175251862437 -0.06656686617965970 0.1639797222838956 -0.04380912223214715 -0.02462461406669242 
-0.03667867053148796 0.1882340007334067 -0.1045906591303638 -0.1857382043112727 -0.02617732391427435 
-0.01416987863594486 -0.08035348886955783 -0.2092104578834436 0.04225047084312719 0.1666891602214319 
0.4391382897358989 -0.1706152342501965 0.04755843309756050 -0.03338132896143479 -0.008251937984678740 
-0.02926273930532639 0.2327742428308445 -0.09833520365837568 -0.09998020996678608 -0.02484582221252890 
-0.03337586142976021 -0.01086263417310739 0.1064106754150223 -0.06459196369361621 -0.05622035277728329 
-0.02829806269251924 -0.01842987875194967 0.1131730211882749 -0.05702709773406065 -0.06454766776935093 
-0.02262582155577606 -0.03335677138091943 -0.1130803540345882 0.2419763612791301 -0.01627853965737231 
0.2554474752856262 -0.1256672213874459 0.07210458575064736 -0.009502174124232172 -0.01387685393551905 
-0.02059160549196346 0.09510239345566832 -0.07183653556873405 -0.03136644440709468 -0.02312398486869643 
-0.04779082413506560 -0.01427973563975366 0.07646630643391877 -0.05285139137677982 -0.06474268188845601 
-0.07393980050507554 -0.01641745645989939 0.08862361408469105 -0.003008158245559397 -0.0007141633745666037 
-0.002204686423507636 -0.1299817291387130 -0.09841162409478825 0.2004032634701379 -0.006911914109001452 
-0.01753298703424656 -0.1175941312211167 -0.2249246184275202 0.5383739438233178 -0.1488068531859563 
-0.06563165412396030 0.2551781255672557 -0.1627466864377270 -0.001706576145696948 -0.006012183865592325 
-0.05271168270557586 -0.02566809386509475 0.05670342769845648 0.1457813959971321 -0.03646553648783335 
-0.06641194900007051 -0.01280941906646357 0.2227931193801676 -0.1952501366001798 -0.01391024342587316 
-0.01431294543113571 -0.01740656658068992 0.2434702963327186 -0.2493458941380879 -0.008394628290177538 
-0.04179973411604876 -0.001638645293654963 -0.2248659655655684 0.3021279838743565 -0.06471140197400864 
0.06065393361189023 -0.05387012168135232 0.1359781635692874 -0.05363182293121031 -0.004280637468596411 
-0.01078850466566527 0.4582200990239634 -0.1914178449627322 -0.1456358793490636 -0.03309991601637494 
-0.01602885945285024 -0.05231372395112258 -0.04434776511800292 -0.2347780748910000 0.6083573709986656 
-0.007262636093098674 -0.02893481871832540 0.07305701195892335 -0.04845818226893391 -0.04963896900774333 
-0.03425845322559446 -0.02754020462808760 0.1148681185141289 -0.04532110629600464 -0.01168842452454238 
-0.01403951359068975 -0.04733360947645102 0.2154853511127629 -0.1613675525633767 -0.01947354282252571 
-0.1079580409940825 -0.3431797679908171 -0.4466099076542157 -0.1683296098333881 1.036553750933438 
-0.1855647379640577 -0.01632471066485467 0.2717697781748071 -0.009595019301672798 -0.08110301959515144 
-0.01138475165683490 0.1859482580097620 -0.1262413396752101 -0.02585994958767656 -0.02471350034470518 
-0.04798348560014844 -0.02820792618237663 -0.2698161952175455 -0.02954189711299806 0.4816308041101964 
-0.009933496356155580 -0.01221995400240906 0.2472089213227142 -0.1584501370492941 -0.1406170737061423 
-0.01278921996934839 -0.01363699541588738 -0.2692632027629289 0.2812113340784428 -0.03208246994325793 
-0.004715150481770337 -0.009733112934760521 -0.1090495483318208 0.1424194004347951 -0.03923421868483830 
0.4214992677329157 -0.02379253684216132 -0.3368271883860350 -0.01774125870080781 -0.004184139515905419 
-0.002009996882773227 -0.08306672041152995 0.06856501062065293 -0.02436057284931749 -0.01423806124290136 
-0.02410548748381790 -0.02384499915125329 -0.09120005625862322 -0.1334664899532143 0.4710766679482324 
-0.02191904916534942 0.6335082368402981 -0.2386521019814838 -0.06432526910884928 -0.1569965117136745 
-0.006633108519699093 -0.008843858166434397 -0.1169937171364933 0.1376587409580160 -0.03578472510198079 
-0.02927507801219602 0.3166963067238265 -0.1322762979867756 -0.1819489777250636 -0.08433399439914119 
-0.007135225487321479 -0.1486194401004507 -0.09797260550734169 0.2793500236416683 -0.002603668424237972 
-0.08069714249543816 -0.02123919762827024 0.1452074062924500 -0.04483433519691436 -0.009243114810561620 
-0.03691198485004812 -0.006251688726886021 0.05477212394590103 -0.04422347851582699 -0.001998746004653880 
-0.08989919285987802 -0.01583493581295231 -0.1153755921831464 0.2339394515018526 -0.02395204889640084 
-0.01423143032144142 -0.01703490345648567 0.1528149943764051 -0.1205594080165495 -0.06488219489236723 
-0.01085146882389002 -0.02512383332728788 0.1767746051164132 -0.1155801533170020 -0.04073438407786597 
-0.008066147065501867 -0.01222930545057716 -0.1176232014839897 0.09598242903898399 -0.006300096879555493 
-0.005450660616577985 -0.03168485652432612 -0.1484202568057552 0.2685568364920333 -0.03538604951247304 
-0.06147462067366406 -0.01531335786754576 0.3903547557509364 -0.2146653796755786 -0.02786430046310153 
0.3398847174891404 -0.02589762154751221 -0.1499982221471772 -0.01039604324880050 -0.04386794899343088 
-0.003465845156513276 -0.02817054568761996 0.1669002954796929 -0.3000925369439405 -0.002612584582674285 
-0.09950388292871750 -0.005349819933263419 0.2017317929089136 -0.01623290152621653 -0.004439973469998522 
-0.03052688064913443 -0.008595574208926515 -0.1337312287417267 0.1819845595546017 -0.001946443313998857 
-0.04340539863182505 -0.01715277843757740 0.1483811497003220 -0.05155047204975209 -0.009347764204171598 
-0.02759533781439370 -0.02386629907254982 0.1740938816943798 -0.06411594190160592 -0.05854970253120795 
-0.002393894903330321 -0.05317596374904782 -0.1362401624277212 0.1631387771729346 -0.05077160152551973 
-0.1086785701345581 0.0003290764161689953 -0.1181902011705456 0.2016517164203716 -0.02494238541184368 
-0.04505595527693725 -0.008812988889758039 0.4024430319294593 -0.4023131403784082 -0.01174765937842569 
-0.02590291769723800 -0.1098796251058866 -0.1741270431749597 -0.006121034332057773 -0.01582567587801481 
-0.08454818385547391 -0.002810376955702330 0.07544083357741924 -0.01993437390425470 -0.03289790719472847 
-0.1289795476853040 -0.01443943531428332 0.09597671385787170 -0.0008689567548896817 -0.001357603832584130 
-0.003433444988022867 -0.1811385538263151 0.2816527165044687 -0.02790293310990241 -0.04320805864633481 
-0.005105506772337459 0.4852468622798772 -0.3570719382261184 -0.07491042083126626 -0.02520020200864751 
-0.007673446279092600 -0.03991647472793570 0.06559549998642757 -0.01350125896480499 -0.05182761863375750 
-0.04905402396479072 -0.1525120543360377 0.05422235386883272 -0.1352310559389234 0.2753120232163701 
-0.01837528955827174 0.1923899315947250 -0.2693807789470843 -0.001748213235587582 -0.002303707796101025 
-0.01796595239609194 -0.02013259847683790 0.1020254917752279 -0.05227380156772062 -0.06491056965304118 
-0.1138484272303898 -0.02346113199566401 0.3418452807718860 -0.02017651762874442 -0.0008043504501353375 
-0.01473368439141533 -0.006918406401183946 0.01644744464280063 -0.01487999957451936 -0.03385698377603649 
-0.06758317583267366 0.6600190833480353 -0.2492145805315255 -0.1144887082910760 -0.04023149581461868 
-0.01172740421099114 -0.07368627677201739 -0.1728375021192372 -0.05079104294889127 0.3491651905986525 
-0.01186718314913100 -0.06986836485711179 -0.08972028447263299 0.2320648007174007 -0.03542435628088994 
-0.03082741690463626 -0.02799942366036970 -0.1896636852618965 0.2642717139226988 -0.004409011418567853 
-0.01019853266473412 0.09508318146142572 -0.06372832150846988 -0.01804569519135118 -0.009400591406393552 
-0.1159097824909164 -0.4016194319868048 0.5294353117573614 -0.02025875483878883 -0.01147913004585425 
-0.02252995526209563 -0.08422175301648385 0.1510373471284970 -0.006921664846400692 -0.03535328565199089 
-0.03749515351770250 -0.06117055259216884 0.2073975196099752 -0.02907278947938513 -0.07238920474885871 
-0.03081685449367318 0.1109131273540878 0.1136526160363536 -0.1021694911362315 -0.05870533573024380 
-0.08591723766154388 -0.01028209310140078 0.09170765535094662 -0.002110999439527061 -0.001554478997542878 
-0.05719511771239925 -0.04990343780983825 0.1368961994458023 -0.01929045791075877 -0.01181910792293245 
-0.06791578150639706 -0.02675070513167810 0.2504176094386990 -0.03441141211890150 -0.07951367574406278 
-0.004891669230245453 -0.01629648071929699 0.05691748303712470 -0.06407363865392844 -0.01399547886468868 
0.3484463962980399 -0.03471997651848913 -0.1065190411908840 -0.01866900668103366 -0.01261606306342188 
-0.02351165047084883 0.3644639701578144 -0.2696847249460475 -0.07859104230103474 -0.1047227481900820 
-0.02588442131617411 -0.04784785251880940 -0.2966879704477735 -0.01221888206348127 0.2438810306486846 
-0.03936641280189527 -0.2398787117150489 0.05720495149602230 0.3967265119730350 -0.09591208960339010 
-0.1026733726749483 -0.04753326327147559 0.1936380623735181 -0.02350508068665318 -0.02587899703989108 
-0.007365756894185504 -0.05310605963991270 0.09871089966887546 -0.03144230143328017 -0.04256360942623146 
0.2888164373066904 -0.1138974606335139 -0.1368796441108479 -0.003803102688668467 -0.008881188279458795 
-0.004516089783737146 -0.06536628650698904 0.09203482158977777 -0.05389820880279894 -0.02503027863917247 
-0.008046756233815370 -0.06213403567656004 -0.1645771562583781 0.3019819361668324 -0.03892650448069481 
-0.04140440267669485 -0.01852782787805909 0.05247536456451610 -0.01324943202758146 -0.008413284708766176 
-0.01183947270432585 -0.04327499207695196 0.1784467646515297 -0.07850344987049707 -0.004727782320619473 
-0.01218666059867261 -0.01586558290004651 0.08629786709054560 -0.02845815215570005 -0.04835363906999114 
-0.01724057399994336 0.2235517302686911 0.08473096571440618 -0.2543392492193866 -0.1219598856492948 
-0.02468838171681129 -0.02812025618136280 -0.2864766948053034 -0.02611686684495104 0.4006106975150894 
0.06442852421475172 -0.001339397303437534 -0.06106687218865511 -0.001318794049012889 -0.001475550377928679 
-0.03038459748302198 0.2422055416962123 -0.1171236563686947 -0.01427397333533411 -0.03283015955384308 
-0.01561200560466136 0.1334571259628884 -0.1741548594505620 -0.01999658373997239 -0.05376068401360352 
-0.1505719344507641 -0.02901931907872293 0.1931870878925884 -0.003175994802330544 -0.006304905364825212 
-0.02145775723513472 -0.04308895789037914 0.3077030112665915 -0.1234310409180906 -0.03574252640748072 
-0.04877608806249739 -0.01366792693503252 0.04869037762379361 -0.007996802780918176 -0.03187415966806493 
-0.01757634779527123 0.1339982155383429 -0.07395407616880305 -0.007863711757483243 -0.02471092970798415 
-0.1599807547261341 0.2309587662953975 0.05258802660517773 -0.02019128356906644 -0.02793370703169569 
-0.04111737907290532 -0.05178610218258446 0.07627124777060718 -0.03044484694346768 -0.04221422803376394 
-0.003859772349077582 -0.04818675346016909 0.1747056589561286 -0.02499283860005292 -0.09473008012719084 
0.3671045792028545 -0.04000569340122552 -0.2092691686187780 -0.006292337477995408 -0.03311314313285856 
0.09754373275191844 -0.03229974968450657 0.1299427516901264 -0.02130848372574376 -0.01062703066314023 
0.1144362095525465 -0.006104266981875494 -0.2634339764957689 -0.001187436589211457 -0.004352764549301728 
-0.04749453851048803 -0.2551177928320907 0.5113999668195748 -0.1057207799570636 -0.1335856088439502 
-0.05900876094053680 -0.008115647581287619 0.08310487642998363 -0.007809951317472101 -0.0007254767285328967 
-0.01680543465788793 -0.01615897115417004 0.04187054804965242 -0.03841815203431799 -0.02261442131392437 
-0.01723681151498475 -0.008542456538448586 0.1808427446088944 -0.1515464980795615 -0.02500369105496909 
-0.01709290488821968 -0.01602252485979751 0.03185377590010546 -0.02950532132396673 -0.02088681844650412 
-0.01651818434561067 -0.01518449072402955 0.03462905000955462 -0.01453387749963549 -0.003742520696136475 
-0.01228014306612441 -0.06278082246388372 0.1552802268566098 -0.06218433945904618 -0.003142314053264309 
-0.01625746883662472 -0.03548048697069765 0.1640745918790892 -0.1060319442142923 -0.01299861902661920 
-0.001102939402333261 -0.03605065371484107 -0.1501771561954970 0.07472286421913128 -0.003028498692525740 
-0.006125886954629667 -0.01500816459997340 -0.06736569237362902 0.04921278075222651 -0.003867907687534361 
-0.06154413547239962 -0.03484812508361903 0.1322159695822108 -0.01054259370218861 -0.01031360945570132 
-0.02597673648232636 -0.03524520563622709 -0.03255726385049902 0.2097838368307460 -0.01392821210478033 
-0.08305235952298883 -0.01633625403865410 -0.07793551511499323 0.2759911754087274 -0.003599343757163010 
-0.02114765067176733 -0.01648558258256829 0.08989248330306991 -0.03159328389103209 -0.01440948318442204 
-0.03903624057389225 -0.07024970350296554 0.09755852142426290 -0.03100743771019592 -0.06885405854462934 
-0.01581139810861350 -0.01746242177374825 0.06592590883618770 -0.02062552930880071 -0.03789689464332022 
-0.03770403704233633 -0.09619464718360360 0.1651678383500646 -0.03612261039059898 -0.001585073960360239 
-0.006635720985718061 -0.08339423129369910 0.1659928160733743 -0.08881178072941319 -0.03091712922937866 
-0.003904237331152733 -0.1187685068905079 0.2852216923592533 -0.1356462081468504 -0.01681810179002418 
-0.01070943617813661 -0.02257182400220039 0.04219181937558611 -0.02528204315557690 -0.009715410276823527 
-0.02726744987533549 -0.1136346969976947 0.2678385997027002 -0.01091933267976948 -0.009211643033060738 
-0.08142584127343414 0.1660123417698582 -0.06370694608788721 -0.0009285120851863073 -0.0002220245156839055 
-0.01354888539675700 0.1852390823628214 -0.04471984717208708 -0.03180239431635383 -0.08084153897938375 
-0.01310740693506667 -0.06278768925158570 0.2095915402825180 -0.06304194147403067 -0.03434290615238603 
-0.001613076764802203 0.1718202137913335 -0.2376629395954020 -0.08060693360104594 -0.006221009071147863 
-0.004432127234253397 -0.04255015384872573 0.04614288393782209 -0.008524334336531160 -0.01816838293552299 
-0.01219291936829032 -0.1149122028848476 0.1168986478998974 -0.0004961443076530677 -0.0002341889867176151 
-0.01383343824604053 -0.06046566121456590 0.07758732321685323 -0.01075184355019733 -0.03016491225631915 
-0.03261049124690960 -0.002380228633975466 0.04057060994099016 -0.003553131422948066 -0.002266682658622552 
-0.005335749421017586 0.3341661089482481 -0.2251880913902891 -0.03638536139998019 -0.01417469455772288 
-0.006010592701946580 -0.03791735017816564 0.07595733779426211 -0.01452360596324702 -0.009700978972635950 
-0.01043313632890520 0.1666819043738184 -0.1561181361882337 -0.003291051737368930 -0.01553831548220215 
-0.04897778409831909 -0.002171662035638220 -0.08952419020844826 0.1551289832683024 -0.02025968046046977 
0.06744257888591475 -0.002317114415419814 -0.1013037703480833 -0.002773972548556269 -0.002130955277152504 
-0.01325632464090047 -0.04523502806222612 0.1534125898001858 -0.1817255759179788 -0.05065574561741334 
0.2078344484404379 -0.006527675945514002 -0.1740593673486814 -0.006509831579712941 -0.001575048536146278 
0.2437492205869362 -0.002934744197579147 -0.2653129125365102 -0.008789623538063750 -0.001541348154178817 
-0.06215066295681843 -0.01373360151963254 0.09653025369250041 -0.01586119179809163 -0.03876058274802924 
-0.01609397705536707 -0.007570760622205287 0.07582411421070435 -0.04093653232059880 -0.05309809392571169 
-0.05156843593013822 -0.07275940704091413 0.1725538670315122 -0.002300961256940530 -0.01688999791868363 
-0.03883512155824421 -0.02636337822448034 0.2228512288961342 -0.08660018527135299 -0.007959499291503386 
-0.02108140654504856 -0.01561068437771353 0.04784040305822394 -0.01626768043956445 -0.005359970510962598 
-0.02173805577136729 0.4727401620023214 -0.2109255448280362 -0.01623826700012207 -0.09944732282945323 
-0.01745707875283486 -0.05781146722771262 0.5337714699156044 -0.1811835155360180 -0.004427574156659993 
-0.04191260441035653 -0.02142504969918170 -0.1593363346626839 0.3309535112222116 -0.01067355218431675 
0.3729015242702664 0.1941910465021749 -0.2062436428552274 -0.01034503970437401 -0.02408354769851251 
-0.01957928354866814 0.1661453620216772 -0.05346492725746261 -0.05596521692023928 -0.01548624583507657 
-0.05526979698047006 0.2843555322321289 0.07379319469284186 -0.01721064560101535 -0.05411191240196976 
-0.02133764107918420 -0.2074303178816513 0.3484094685183732 -0.03875263743099965 -0.009056819699976933 
-0.01471482191620317 -0.07585972341236413 0.08135676175828142 -0.007320700878247679 -0.01797573775755161 
-0.004774286593037245 0.1511134182523065 -0.03819475621742063 -0.03840458889330792 -0.05718530672983940 
-0.02392388554138277 -0.05108094743792534 -0.1162082241718832 -0.1181527504752967 0.3611411331166389 
-0.09095743006844768 -0.008196776511524090 0.3707592608048839 -0.04438053459578151 -0.05677338702125792 
-0.03295319931259130 0.1908063080147106 0.08145374431338996 -0.08145254542309283 -0.04234460216759856 
-0.01997514467571853 -0.07487212688380594 0.08228751232560068 -0.008876159156794421 -0.01500964729852244 
-0.02441990075892447 -0.2347225969088327 0.2676031484741881 -0.004393698951547282 -0.004745984364685921 
-0.01442275140149830 -0.005966896134123949 0.02445561641700317 -0.03312077395269303 -0.02686771302895774 
-0.09742106836415701 -0.01096523906408274 0.06843882922440350 -0.002322055362782775 -0.001996412224927788 
-0.04570318014330689 -0.04706203287500556 0.1074747969163476 -0.0009973290480184238 -0.005907197985408740 
-0.006520787036885876 -0.2714155810229105 0.2118581502740397 -0.005149520238451274 -0.02021069413409017 
-0.01817071412533534 -0.03567820469193873 0.1451320882560984 -0.03059436136975801 -0.04852990891159190 
-0.02647815880492844 -0.02476845247199133 0.06528903145526407 -0.008706842680666570 -0.008373440827865139 
-0.01016570826562299 -0.03965497109630178 0.05352245763173977 -0.007349396331840266 -0.01399230651524301 
-0.1171756698227024 -0.1163207866969463 0.4224015092177495 -0.06914171934205178 -0.03815440286724769 
-0.08637552409931416 -0.03319252800658967 0.1052118906326915 -0.0005617500248673342 -0.002138469733875497 
-0.05674514768527045 -0.05902116392589498 0.2184805266956886 -0.02302844970197769 -0.1246724731981414 
-0.008511268648420257 -0.02984162025485649 0.1541741870231602 -0.07413367387949740 -0.006748286699421327 
-0.003787097571894286 0.07147338081075814 -0.1229519892844707 -0.007560208855563113 -0.02539031242536349 
-0.06910739173987120 0.2809713532214355 -1.519115603204655 0.9182427500996369 0.5229624871382376 
-0.2415302855420863 -0.01470478882096170 0.3754287002159990 -0.4374761038420946 -0.3173372500017271 
0.5192715052375350 -0.5521378712438150 -0.05286001704074531 -0.9221694853076214 -0.6135719321279632 
-0.4258118566146824 0.3713932408534581 -0.05490158374252890 -0.5055873289559980 -0.1109001079747482 
-0.5227665830892260 0.4644688263419373 -0.9470710146942436 0.3434662026263715 0.4825330929906651 
0.4592574347028902 -0.1504509332242694 -0.06865586372693758 -0.08243314372756058 -0.01728745982901944 
-0.2892751494995663 -0.2248717845020545 0.6089325608386743 -0.1351337317203948 -0.2164381965216048 
-0.6152701785310414 -0.9306546759283203 1.318257436123274 -0.3027538591896701 -0.2121408667020371 
-0.06455935073428039 -0.05515008402770555 0.05483109146976504 0.08489099128055483 -0.2143380859091580 
-0.1874560109548475 -0.2525446814225998 0.4758682753352364 -0.1291775502585419 -0.1652233762599987 
0.4026477417229143 -0.1820902581344557 -0.4538136821136861 -0.1172070738793600 0.2243874155491151 
-0.03243276417168645 -0.003405040709223696 -0.2625100355231066 0.3050198700260933 -0.02749350952981030 
-0.1118620700140223 -0.08669676981599017 0.2344905919431023 -0.07119807964757309 -0.1400319017853610 
-0.1825350882742977 -0.08304398482962755 0.3394052119566239 -0.1453840398348475 -0.1124784554101784 
-0.1244467378520785 -0.08080120553886809 0.3536155345419799 -0.1809467528998822 -0.2458211117691426 
-0.01423143032144142 -0.01703490345648567 0.1528149943764051 -0.1205594080165495 -0.06488219489236723 
-0.02494210468945673 0.08089215589843014 0.02475682350007241 -0.03930601319076341 -0.06727453913421560 
-0.01609397705536707 -0.007570760622205287 0.07582411421070435 -0.04093653232059880 -0.05309809392571169 
0.2338113498835091 -0.3674159620809439 -0.003836855349397397 -0.08795791249310779 -0.8298612507539377 
-0.1761224534215328 0.2550602582535739 -0.2294570008887531 -0.1262792020831229 0.04300319695066397 
0.1630164260628579 -0.6520513538125126 0.3398381311152470 0.1356437882146787 -0.4851098467947430 
0.1094937943038300 0.04578586127076947 -0.03406817403192487 -0.3906463834196885 -0.1757466292380919 
0.4707651930224461 0.1133063859368413 -0.5531367848120154 -0.09098693760198706 -0.3043873302592768 
-0.3206499862517083 0.1206095204780101 -0.1400054228535300 0.4664239530673758 -0.1503227074940063 
-0.08980112095672005 -0.3782108312675748 0.4667033041320150 -0.07208462879806316 -0.04710186605416022 
-0.1693522138724696 0.1128939249301180 0.2579574410263023 0.2156631155586031 -0.3722109477873559 
0.1269771927538987 0.4002306337425699 -0.3104234326907486 -0.1510936379011273 -0.3728228144346493 
0.06281945734164180 -0.2434553745785668 0.4255235616420456 -0.5655510875176553 -0.3636296839006014 
-0.2579469965580519 -0.1039741452029209 0.3332083981095433 0.04049536958946831 -0.1525336420209795 
0.1820266728905004 0.2120181213684784 -0.4628792008714832 -0.1338370446873644 0.1095731989293614 
-0.3872426494959175 -0.4152135230887316 0.6729651517737222 0.09624704006336834 -0.1329991316562614 
-0.1900955057191379 0.1585640139945521 0.1075077768024312 -0.2008048497360922 0.1137717403819118 
0.05011798882076783 0.3323689595487214 -0.2609188813412211 -0.1028218901150785 -0.1160407889579022 
0.06034808664270559 -0.2818855653771712 0.1103586967522043 -0.1591695213235895 0.2015755828090692 
-0.5764877558964500 0.01069367911481159 0.4638333978307582 0.08616500119588404 -0.2491243351470848 
0.09300747838204712 0.2093422492056835 -0.1386528999874926 -0.1642290057707150 -0.06807435691513912 
-0.05256294531761327 0.2074987870059658 0.01514797594611770 -0.05145902794963141 -0.1010038089495116 
-0.05256294531761327 0.2074987870059658 0.01514797594611770 -0.05145902794963141 -0.1010038089495116 
-0.1518216542310511 0.09191699284391901 0.1021446645421675 -0.04730739524965805 -0.02322316900029151 
-0.1281341797777610 -0.1862980909832872 0.3949995117635448 -0.1697389485415305 -0.1705034131564259 
-0.3647418997586139 -0.1936517985015388 0.3554636557315823 0.1469816477711198 -0.1301580939469581 
-0.1925006921729275 0.05564753571547518 0.1870607205139897 -0.02929061363980485 -0.01995578882256041 
0.09725345626745094 0.2407802786179117 -0.2239037169508386 -0.03218469868072586 -0.1145022714429322 
-0.1035904812412407 -0.1555141037212175 0.3148580672317747 -0.1127577449393536 0.06372875225998365 
-0.2343505280577875 0.004179669113584033 0.2419722189110573 -0.03480241926159123 -0.04410386354219699 
-0.04681106064419704 -0.01899482755221759 0.1071141236023255 -0.03423419655342112 -0.01462759126441530 
-0.1204148406037568 -0.02309233293458381 -0.09909684970630091 0.2905043904020816 -0.01833784733175637 
0.2007232743097307 -0.07509543978250573 -0.1968126041457430 -0.007080873100442735 -0.005888455627915961 
-0.01107492280689709 -0.03866743053464566 0.06447028073537091 -0.004156430119415706 -0.05265733765063808 
-0.1026733726749483 -0.04753326327147559 0.1936380623735181 -0.02350508068665318 -0.02587899703989108 
0.02463578266226190 -0.002904954588786909 -0.02171872359578613 -0.008286250813056133 -9.113406490392429e-05 
-0.2217728973668970 -0.3830367427900593 0.3688098758966156 -0.01483357035153168 0.1525986026129326 
1.086793754263702 -0.5700406135173757 -0.5963832184980443 0.3210179470072229 -0.03104027096459990 
0.2412989782747128 -0.03362193213428330 -0.6436386041105475 0.5855386569178238 -0.4320474379126425 
-0.2524428174887364 -0.05245549454678570 0.5471258609157523 -0.6019429067683376 -0.1357025552391239 
0.7632492489009033 -0.05149872317609971 -0.7027341823726200 0.1032995528910744 -0.5643454572751612 
0.09462492798618863 0.5564852471045536 -0.08373973114646063 0.1859159643632181 -0.2443384230046482 
-1.008201899686864 0.5948638391185389 2.701508148474086e-05 0.4344164605908117 -0.3730261057614155 
1.110182859485480 0.01314343105470243 -0.6979254161758670 -0.8121988695840245 -0.6526144137008910 
-0.4576426569361094 -0.6078830410028930 0.8519411674057376 -0.1412242429851967 -0.1052675955667078 
-0.5245242498893561 0.7674692186724217 0.008271304923985380 -0.4395495965434856 -0.3880759788032188 
-0.09648838390089914 0.1653783472092464 -0.06503840141310567 0.1622008501799024 -0.3299524533234650 
0.05981251033974375 -0.06039117191332091 0.03476034374637058 -0.1660113745271470 0.07964738757160063 
0.008707540298796976 -0.05521266167611576 0.1316126201861652 -0.1629385287257865 0.08102950705150437 
-0.3117425130852533 0.4036170640728883 0.06459416513711395 0.09346166950548669 -0.2367119195229201 
-0.3510184053537898 -0.1062368953935994 -0.2182338741790223 0.1938016405552410 0.5767738541524280 
-0.3535559981120315 0.3559555792448519 0.2723085132373582 0.02610054825946493 -0.2075141625783090 
-0.1276036671119889 -0.2400509360331003 0.1901098223582722 -0.1533303476952684 0.2597022165702233 
0.5417432238820935 -0.1512103155475108 -0.4697875710168694 0.1971634942565929 -0.3506821886280219 
-0.05875389525662909 -0.05337383602745226 0.1511667930161907 -0.1897719207842832 -0.09486322921987811 
-0.4816853436546045 -0.3467086954138416 0.5342100681728034 -0.05594438707779959 -0.05347131275245149 
-0.6133460618589728 -0.009921327055421623 0.9380687158473215 -0.2618783145338483 -0.03504805958194151 
-0.1518216542310511 0.09191699284391901 0.1021446645421675 -0.04730739524965805 -0.02322316900029151 
-0.4336452873012077 -0.1623349899725912 0.3747007525401624 -0.2646360112551289 -0.03485975576148950 
-0.2914624654209428 -0.6556159192797445 0.6084660207732122 -0.003328927327437524 -0.04041010647249732 
-0.08215134742127275 -0.1848602030384702 0.2161139558316112 -0.03041512907964753 -0.06332693178374647 
-0.1545484475242295 -0.1640164878514754 0.3449303721742857 0.1407985190860563 -0.07987320495070697 
-0.01435133342878485 -0.008071285292753160 0.01811019736211291 -0.003335941385058778 -0.002994700104284367 
-0.1204148406037568 -0.02309233293458381 -0.09909684970630091 0.2905043904020816 -0.01833784733175637 
0.2929521387110655 -0.1002538700724049 -0.1611117673307648 0.003641122853847680 -0.05391755281102965 
-0.07192880210381458 -0.05682184421102220 0.1533436440886029 -0.03417045748527814 -0.04567609169896894 
-0.01107492280689709 -0.03866743053464566 0.06447028073537091 -0.004156430119415706 -0.05265733765063808 
-0.3539501875967568 -0.1191565739855182 0.3149521994159925 -0.005726201499160851 -0.01212861399359186 
0.1675811631574815 -0.03335937019255895 -0.1216240387495506 -0.006870861446354081 -0.001384210707893255 
-0.1593915421748395 -0.2191877839064434 0.3226681769986537 -0.2835887731853136 -0.2224398049504236 
-0.2170183468923544 0.5889273409098091 -0.3406119898936285 -0.5366433108685892 -0.1293262696519101 
-0.1526532822977513 0.1243423976887255 -0.07407292638955154 -0.01033587550054284 -0.007435987292710041 
-0.2288611271588964 0.2829748169251293 0.2459197731438848 -0.3852275113133118 -0.1428388957763538 
0.7760448902238908 -0.7697768704648432 0.08621560367270265 -0.7849757824929942 -0.1409873487190240 
-0.3603767760286790 -0.08070865804488010 -0.01256739638489338 0.4018707793699918 -1.250200626595958 
0.05380710939706419 -0.1607020945935601 -0.4329185877171350 -0.009554053391887281 0.6276381946937312 
-0.3578989984823286 0.08795300340828259 -0.07174684827125295 0.3913955231713517 -0.4215400261560924 
0.007621033679256054 0.1265304744986691 0.2930282513696148 -0.4864356361417959 -0.01987575474831872 
0.2592748579411776 0.1138666952742345 -0.1588444084413489 -0.07135091281682003 -0.1104585634989925 
-0.3583113735294518 -0.4460903636223654 0.1831284415191727 -0.09218631024562596 0.3813729127205006 
-0.2593540127914933 -0.6331951783335801 0.5611020389532150 -0.5559940660429136 0.5584979272835483 
-0.4294325398378189 -0.3699818263071370 -0.2193935116369916 0.9950880532107524 -0.3563333786866998 
-0.01442445288861289 -0.01915215707977646 0.04350470520484363 -0.02651980556640703 -0.02064077921962119 
-0.1001697365797431 -0.06923196231358057 0.2298862123386648 -0.1241916069446907 -0.09386568549670472 
-0.1381035938086422 0.2420520921485604 0.02449873121192557 -0.05882361536669643 -0.02641651490047886 
-0.003825601069162687 0.3100996260545599 -0.1708091213456072 -0.05023595310174117 -0.02128423540386985 
0 0 0 0 0 
-0.02699269356124649 -0.1658386085808828 0.1330541919007744 -0.01661664103206893 -0.005742519226388251 
-0.03060636303476563 -0.05637744440903829 0.08832440285009782 -0.07300228368136390 -0.01836286224667277 
-0.05114147373999869 -0.2796448209993479 0.1859564759143174 -0.01792528991496166 -0.01042664731605535 
-0.4168208177815186 -0.04997014192925183 0.1910834136652613 0.4791582855499639 -0.005716243759599265 
0 0 0 0 0 
0 0 0 0 0 
0 0 0 0 0 
-0.8429963808845331 -0.1665065469020045 0.6587912075736675 -0.2671701109809249 0.3348108980233304 
-0.03501461840202383 -0.04883690990939137 -0.3625108839031204 -0.05664261845892112 0.4749266993362715 
-0.009731943724974330 -0.03469903517094129 0.1199213835573842 -0.05066556616022909 -0.03076140956132749 
-0.005143187133172394 -0.05956466397820875 0.2454924349493149 -0.08578906987131898 -0.05757236054652719 
-0.1623813218830977 -0.1374747354319146 -0.2341775743109198 0.6205102404578977 -0.04436050008018312 
0.3979240099068082 -0.2846735971177045 0.1917797793864935 -0.1620483707021867 -0.1172864580677516 
0 0 0 0 0 
-0.0008372326930549895 -0.006509306835802435 -0.03587392428446219 0.01426645297866313 -0.004532622770095553 
0 0 0 0 0 
0 0 0 0 0 
-0.4959719431789277 -0.03974724074224222 0.4176117658978814 -0.5463216774405946 0.2558742408342204 
0 0 0 0 0 
0 0 0 0 0 
0 0 0 0 0 
0 0 0 0 0 
0 0 0 0 0 
-0.1235510956169290 0.2317096027301808 0.1986028437357962 -0.1735491140493382 -0.1321472560469833 
0.09978037057156974 0.3610902334506438 -0.5175908250983833 -0.2366722292216872 0.4239504555286539 
-0.02979043266938830 -0.04020572057579661 -0.1026364953772547 -0.02622453649708245 0.2540234540989460 
0.2736921884089116 -0.07146555510422467 -0.3233948778944610 -0.03407065792033526 0.2472004428395568 
-0.01763727558049316 -0.1097433458978465 0.2403016542216948 -0.08804689566878976 -0.08514081607617714 
-0.01490986161244810 -0.07229414182061035 0.2084094460227504 -0.1006787935769837 -0.01793004454550094 
-0.01962353596432295 -0.1017159765544903 0.2540475339199602 -0.07754086081963342 -0.01510174731397702 
-0.003771148458012466 0.2412128133452437 -0.06714835804264313 -0.05984290958707293 -0.08670875707101180 
-0.06500937959526469 0.1280424848113171 0.5210064149693509 -0.2275283571545653 -0.4281215411137730 
-0.5064048392952925 -0.6588913014002173 -0.8501593501030533 1.262273687822437 0.07911341193958595 
0.2743338957346334 -0.04472795181473990 0.09653493025081670 -0.2898524069526158 -0.2446647497033142 
-0.3378797375989182 0.02389583468622665 0.4076897677469162 -0.06922506560856409 -0.03796891523005835 
-0.03011299168314865 0.06606576034332118 0.08802899586163741 -0.06592168180637725 -0.03303491469639098 
0.4194892708501424 -0.1068592572536913 -0.2682621777653821 -0.04210183155012530 -0.01842220075880677 
0 0 0 0 0 
0 0 0 0 0 
0 0 0 0 0 
0 0 0 0 0 
-0.09520075122917487 -0.2133993839724716 0.5208363359669773 -0.1672812117698828 -0.03907446500089610 
0 0 0 0 0 
-0.08606197525680928 -0.01402584993724323 0.2200124459141906 -0.1471779336941725 -0.03984502278820627 
0 0 0 0 0 
0 0 0 0 0 
-0.2835062948519551 0.01715909876946323 0.1617321674980776 -0.02289975813869149 -0.1072144490230593 
-0.002172478107616014 0.04621936025367036 -0.04626322584620955 -0.005725050435349037 -0.1022697513940802 
0 0 0 0 0 
0 0 0 0 0 
0 0 0 0 0 
-0.03434232538907224 -0.08855461736674010 -0.04462758132218936 0.3517714264904155 -0.1967505465064223 
-0.01906275555359327 -0.03338227464066861 0.02854855961598075 -0.06726391511892194 -0.05766511790843237 
-0.4476663892844119 -0.1148569731156570 0.4491981795942371 0.3535619745667344 -0.2067584693916491 
-0.03151313994891415 -0.007392817261949456 0.04383954830578028 -0.02746943323713895 -0.02427457073309957 
0 0 0 0 0 
0 0 0 0 0 
0 0 0 0 0 
0 0 0 0 0 
0 0 0 0 0 
-0.04949127749932694 -0.002379865115253177 0.2018910096677716 -0.08338942566863237 -0.09933610331261720 
0 0 0 0 0 
0 0 0 0 0 
0 0 0 0 0 
0 0 0 0 0 
0 0 0 0 0 
0 0 0 0 0 
0 0 0 0 0 
0 0 0 0 0 
0 0 0 0 0 
0.1144778557851975 -0.005867041582316745 -0.1060125621477333 -0.002474925511400934 -0.002668097203356643 
0 0 0 0 0 
0 0 0 0 0 
-0.007684237638942049 -0.04043602057547906 -0.1048305179254647 -0.1177614386974332 0.2424168243169363 
0 0 0 0 0 
-0.02926273930532639 0.2327742428308445 -0.09833520365837568 -0.09998020996678608 -0.02484582221252890 
0.1982454810383352 -0.01896865648279624 -0.1821404143113081 -0.007265861120687084 -0.005411970116230263 
0 0 0 0 0 
0 0 0 0 0 
-0.1699527978212987 -0.04976466799531519 0.1632343179976720 -0.03063549925814900 0.1036708315219865 
-0.01637400745615765 -0.03092717152255874 -0.09046548324603725 -0.02222812878499555 0.1100498708026690 
0 0 0 0 0 
0 0 0 0 0 
0 0 0 0 0 
0.05768103683673108 -0.002063405992957922 -0.09667368810717551 -0.001798826254614082 -0.0007286992116639162 
0 0 0 0 0 
0.1014381485282788 -0.01830189887670899 -0.08146793586932378 -0.004806761682877713 -0.0008366588805819107 
0 0 0 0 0 
0 0 0 0 0 
0.2804994310584729 -0.04465119524195967 -0.1752930780248032 -0.02388675990697927 -0.02216433612182044 
-0.06644800457066229 -0.07040472560930316 0.3333903109118904 -0.03466409380467509 -0.1895684316947234 
0.2828052754583935 -0.01415164378768895 -0.2394172551591053 -0.008334492537399690 -0.003866927193702999 
0 0 0 0 0 
0 0 0 0 0 
0 0 0 0 0 
0 0 0 0 0 
0 0 0 0 0 
0 0 0 0 0 
0 0 0 0 0 
0 0 0 0 0 
0 0 0 0 0 
-0.1458702030097572 0.02935837695154511 0.2262410673501953 -0.09671459475858427 -0.1417472507505631 
0 0 0 0 0 
0 0 0 0 0 
0 0 0 0 0 
-0.1555618362309800 -0.07238459401883117 0.2776178621021953 0.02280409355140545 -0.05703553684741402 
0 0 0 0 0 
0 0 0 0 0 
0.1111840731839541 -0.0003811499463171816 -0.09851033705704215 -0.004966544010191962 -0.0007538652645430251 
0 0 0 0 0 
-0.05256294531761327 0.2074987870059658 0.01514797594611770 -0.05145902794963141 -0.1010038089495116 
-0.05256294531761327 0.2074987870059658 0.01514797594611770 -0.05145902794963141 -0.1010038089495116 
-0.004475555704997661 -0.006963777832419331 -0.1590562012333933 -0.01378382106253999 0.1373253951765201 
-0.02666113854558681 -0.04967961809678993 -0.2410671449541670 -0.03810648508814090 0.5005009275359643 
-0.001966400653448130 -0.08133659922759631 0.1951545845084651 -0.09273675191389345 -0.02200047438742555 
0 0 0 0 0 
0 0 0 0 0 
0 0 0 0 0 
0 0 0 0 0 
0 0 0 0 0 
0 0 0 0 0 
0 0 0 0 0 
0 0 0 0 0 
0 0 0 0 0 
0 0 0 0 0 
0 0 0 0 0 
0 0 0 0 0 
0 0 0 0 0 
-0.8078156062877794 0.1441770419616313 0.5729361693638618 -0.2161689260908038 -0.1626486162759267 
-0.02271223843773201 -0.2636920218450103 0.1703910940394835 -0.1569164101904907 0.07504481369090200 
-0.09101417183005336 0.4944438381396835 -0.3393778717020541 -0.01663240762532887 -0.2212950466255100 
-0.1525236943488625 -0.4781047928754536 1.013154258189384 0.1174516578568377 -0.2626909669762982 
0 0 0 0 0 
0 0 0 0 0 
-0.8189148188965847 2.195153662100831 -1.004498914890698 -1.021692103972218 -0.04860902716339595 
-0.01479514505127162 0.1164012330355867 0.1789884029408086 -0.1177900998330365 -0.3594274548048035 
-0.005856190051416783 0.07185025900531275 -0.06223966006439179 -0.02889168661368601 -0.006219746877017141 
0 0 0 0 0 
-0.4186054221555691 -0.1541073332766506 0.1188726409938772 0.3530559366211061 0.2132450505956064 
-0.001883836725896180 -0.1265209187447613 -0.05924561166594107 -0.08247093246188913 0.2291847778806835 
-0.01828261315070063 -0.02190699370243201 -0.3965624812019033 0.4499177611806614 -0.01334257682531339 
-0.02893755990967871 0.2008825328830510 -0.1392035336406124 -0.004637206058602654 -0.004528855145409295 
0 0 0 0 0 
-0.06139346840824107 -0.1295472662807149 0.5629255652864305 -0.1487140722622346 -0.1032931793453445 
0 0 0 0 0 
0 0 0 0 0 
-0.01417692823600772 0.07825113614233467 -0.04943549676447916 -0.01388879041558583 -0.01330168717595183 
0 0 0 0 0 
0.01717331123977273 -0.3486737639567193 0.1855738767881104 -0.1256825960222181 0.06326971750941304 
0.5500075601338740 -0.3956906136737413 -0.1908721972442351 -0.1379188373417503 0.02739695854083508 
0 0 0 0 0 
0 0 0 0 0 
-0.005807310388163386 0.1198559070800855 -0.2924533856830286 0.03851937060131459 -0.01923949167019518 
0 0 0 0 0 
0 0 0 0 0 
0 0 0 0 0 
-0.007417949227527086 -0.02427147430890312 0.1140162473755615 -0.05979155018689743 -0.03717524929185963 
0 0 0 0 0 
-0.007687340924992471 -0.04037445613251164 -0.02394180663446100 -0.02054920548207032 0.06277480319994680 
0.09240142031336851 -0.04192219124922413 -0.1399601198315901 -0.02592978780512058 0.06153359943968506 
0 0 0 0 0 
0 0 0 0 0 
-0.003082641875625646 -0.02205695920640119 -0.08909133372538265 -0.05810575895238372 0.1544730408740088 
0 0 0 0 0 
-0.02441285747043307 -0.02724838632035247 0.2456242447048503 -0.1087478486571805 -0.01239113210575624 
-0.2070535782925815 -0.2233146326674728 0.6233416885470042 0.001775379136584456 -0.1368086185449667 
-0.02567804317819800 -0.006516771993078107 0.2322680965601761 -0.07126508526813284 -0.1038500110085403 
-0.02198211619790239 -0.008980164658479629 -0.02999943930137170 0.06778782798818850 -0.006672105082796994 
-0.02198211619790239 -0.008980164658479629 -0.02999943930137170 0.06778782798818850 -0.006672105082796994 
0 0 0 0 0 
-0.2097339629653403 -0.01043765763972544 0.1518005234304408 0.05339606897515029 -0.02603547061481697 
-0.03083715179470862 -0.004074648324346323 0.1741626718278407 -0.05432254442942699 -0.08766339093681677 
-0.01166361955504263 -0.02828571358762444 0.05513817450387890 -0.02685402437183613 -0.03520345608413283 
-0.1327047170056888 0.2141236401583063 0.09849806815871197 -0.08490189505922745 -0.1235521701958253 
-0.01623490885123441 -0.04855796913464457 0.1493715068126774 -0.02310906083114406 -0.05084146255883062 
0 0 0 0 0 
0.09674676745723569 0.0002591759299053328 -0.1417793655469870 -0.002270295510678139 -0.0003116145451643250 
0 0 0 0 0 
0 0 0 0 0 
0.2361198069749566 0.02525086013255903 -0.02368772724730935 -0.2372359057465508 0.3080237227407888 
0 0 0 0 0 
0 0 0 0 0 
0 0 0 0 0 
0 0 0 0 0 
-0.08753609657545446 -0.01154649963274928 0.07781572899253897 -0.0008472690806768313 -0.001297423712847971 
-0.004083587248604990 -0.05744625239470791 0.2298186904747426 -0.1443382821382313 -0.01818209638544120 
-0.2605136475373724 -0.03652701826449474 0.2839120680193909 -0.06467646209326408 -0.04014245732555863 
-0.1731069430551103 -0.01568467766116024 0.5215134910040163 -0.1406281351725006 -0.1027876839449221 
0 0 0 0 0 
-0.05097569603938211 -0.1342330344870036 -0.07079402841434469 -0.07639035371013063 0.2278192936924782 
0 0 0 0 0 
0 0 0 0 0 
0 0 0 0 0 
-0.02856060109267065 0.4777429994987403 -0.1252425127829121 -0.05433361624573708 -0.1140140229050124 
0.5909564634515576 0.1337716225513772 -0.1111295352613987 -0.1935478401470598 -0.2969257680231676 
-0.2550625634358509 -0.03015067494124821 0.3184629903877165 -0.05296174364908816 -0.02057199329041675 
-0.1651485173672416 -0.03695410082650682 0.2187916521197023 -0.05416710307593976 -0.03499525558663970 
0.3459488205527920 -0.01476537085371072 -0.09842601335032661 -0.05215183665948971 -0.02911836122949137 
-0.2112702582776157 -0.07243891145062002 0.3951929098674458 -0.05502215567732631 -0.01527945469522295 
-0.01828360946569301 -0.01669228088096731 -0.08140143719306527 -0.02845585197941575 0.1290812589239651 
0 0 0 0 0 
0 0 0 0 0 
0.2455304514207037 -0.07813634139354617 -0.4026218578144327 -0.06467950839729780 0.1651727450084412 
0 0 0 0 0 
-0.02191649178637840 -0.07118160858479950 -0.09401868735671597 -0.05214305563056070 0.1721099586992566 
0 0 0 0 0 
0 0 0 0 0 
0 0 0 0 0 
0 0 0 0 0 
0 0 0 0 0 
0 0 0 0 0 
-0.5677150746131929 -0.3791774009588524 0.6990169165046126 0.2120562773777786 -0.3468617391947497 
-0.06642130976147984 -0.06947068311385246 -0.05887940826563169 0.4952173797035309 -0.2994827621119717 
-0.09376007345174628 -0.1525179290889780 -0.4944272429391794 0.8622138563863824 -0.03792925476204504 
0 0 0 0 0 
0 0 0 0 0 
0.002632590333594840 -0.9349082812346996 -0.3430107563280863 1.071185633398287 0.6596151718055736 
0.4269385016489554 -0.3221451528671199 0.1399622883461479 -0.4112016277559599 0.06781219024060586 
-0.2891673719553056 -0.2510279005690743 -0.5737133440245616 1.104979642442896 -0.1171613262298571 
0 0 0 0 0 
0 0 0 0 0 
0 0 0 0 0 
0 0 0 0 0 
0 0 0 0 0 
0.1172893939489703 -0.002325210101201433 -0.1582149720831434 -0.003674102397573334 -0.001038900100019879 
0 0 0 0 0 
0 0 0 0 0 
0 0 0 0 0 
0 0 0 0 0 
0 0 0 0 0 
0 0 0 0 0 
0.1224093162248194 -0.002592208966350026 -0.1279927854683240 -0.002545494155376805 -0.001503115526411582 
0 0 0 0 0 
0 0 0 0 0 
0 0 0 0 0 
-0.2027784984956961 0.09828012363612691 0.08091590261410474 -0.4867238989415364 0.2106582042399651 
-0.01058703250018461 0.2913582170700335 0.05030319366500918 -0.2745397871322549 -0.1557769135391679 
-0.09374169608066730 -0.03193052542351263 0.06956792304189340 -0.1599450634378014 0.2904690890736659 
-0.07784052210954276 -0.04945478037895108 0.3397326850975871 -0.1409377245629610 -0.08655666945153344 
0 0 0 0 0 
-0.02626591494438078 -0.05712869143616443 0.3572453793834092 -0.08308679061978043 -0.02727473861163913 
-0.07403933193705922 -0.2065052653702271 0.2496153698724479 0.2333129964779301 -0.05878242676734057 
-0.001999715130890459 -0.1156589357514308 -0.2490728435621837 0.3828610707661624 -0.02640014387767456 
0 0 0 0 0 
-0.05719511771239925 -0.04990343780983825 0.1368961994458023 -0.01929045791075877 -0.01181910792293245 
0 0 0 0 0 
0 0 0 0 0 
-0.01020429037676086 0.3053467096061108 -0.2228491586814705 -0.04598374979520292 -0.02944658830806027 
-0.01020429037676086 0.3053467096061108 -0.2228491586814705 -0.04598374979520292 -0.02944658830806027 
0 0 0 0 0 
-0.01085146882389002 -0.02512383332728788 0.1767746051164132 -0.1155801533170020 -0.04073438407786597 
-0.01423143032144142 -0.01703490345648567 0.1528149943764051 -0.1205594080165495 -0.06488219489236723 
-0.01138475165683490 0.1859482580097620 -0.1262413396752101 -0.02585994958767656 -0.02471350034470518 
-0.3736311674016923 0.1121738817569181 0.2700562034111738 -0.05087479597365353 0.1008114018166602 
-0.01301040674531079 -0.06751307720203854 -0.06946042262133095 -0.01942123755243971 0.1287419791318949 
0 0 0 0 0 
0 0 0 0 0 
0 0 0 0 0 
-0.01304991097366985 -0.07622991441268569 -0.06586101149907653 -0.01361131589454168 0.1236012915189512 
0 0 0 0 0 
-0.002018737031300211 -0.1071305472416084 0.3469860470016619 -0.1855651435699332 -0.02842931486738123 
0.1266380416829910 0.3026888785706809 -0.2456793548178159 -0.02683194662612859 -0.09152574419958949 
0.1266380416829910 0.3026888785706809 -0.2456793548178159 -0.02683194662612859 -0.09152574419958949 
0 0 0 0 0 
-0.04973172945812598 0.2627241706165656 -0.1052860038850078 -0.01489830214746313 -0.05527623287753242 
0 0 0 0 0 
0 0 0 0 0 
0 0 0 0 0 
0 0 0 0 0 
0 0 0 0 0 
0 0 0 0 0 
-0.005187109779622414 -0.01650705993562256 -0.1569924706099463 0.2262353383125437 -0.08845608281274642 
0 0 0 0 0 
0 0 0 0 0 
0 0 0 0 0 
0 0 0 0 0 
0 0 0 0 0 
-0.02496456974185170 -0.003814559084899346 -0.2419598849965646 0.3001902842548074 -0.06552630082146804 
0 0 0 0 0 
0 0 0 0 0 
-0.07053146141967229 -0.1706398301332509 0.1932912197461456 0.1600785485936385 -0.1037395310457354 
0 0 0 0 0 
0 0 0 0 0 
-0.07347729221350868 -0.1398024385316176 0.1526428400482132 0.1817709021130538 -0.1004212105800716 
0 0 0 0 0 
0 0 0 0 0 
0 0 0 0 0 
0 0 0 0 0 
0 0 0 0 0 
-0.3028697234451094 -0.02212047765283347 0.3911730424318254 -0.04623879969440727 -0.005772394637054838 
0 0 0 0 0 
0 0 0 0 0 
0 0 0 0 0 
-0.01642118909476033 -0.01363395587520874 0.1142082196720634 -0.04868261600675600 -0.04770848087271831 
-0.005187109779622414 -0.01650705993562256 -0.1569924706099463 0.2262353383125437 -0.08845608281274642 
-0.006237604406816487 -0.03960108133885957 0.1305271088811650 -0.08494596414920694 -0.01178583652478248 
-0.04550749032541909 -0.001657680765575003 0.1564257146016204 -0.04452438398383164 -0.04890219343408152 
-0.1051968567940191 -0.09041106874715603 0.3741876925378815 -0.1647298919969458 -0.1080908933200337 
-0.04550749032541909 -0.001657680765575003 0.1564257146016204 -0.04452438398383164 -0.04890219343408152 
-0.03142325312034676 -0.002318447695812441 0.03415493772362519 -0.02225841976375892 -0.03926734163013917 
0 0 0 0 0 
0 0 0 0 0 
0 0 0 0 0 
-0.003052175820695286 -0.01649377780449721 -0.1432067525069871 -0.1430620613000880 0.2377556980322194 
-0.004894879241045112 -0.01627859097231409 0.1996339419977739 -0.1594288739324198 -0.06273822214369809 
-0.008404062058180827 -0.01924216029533982 0.1852296100468575 -0.1278694278324014 -0.01638276087944018 
0 0 0 0 0 
0 0 0 0 0 
0 0 0 0 0 
0 0 0 0 0 
0 0 0 0 0 
-0.01545354802766052 -0.01460664451361900 0.06619652218349306 -0.02093741315627432 -0.05774704902151127 
-0.006174747137001434 -0.01191960770242951 -0.06457855208804697 -0.1061861073878264 0.1283787249718261 
-0.2384890138317486 -0.03545891164026893 0.2793756254285643 -0.1446193516329515 0.1189456539992237 
-0.02910561099142171 -0.006162621698060800 0.1503099107570111 -0.1009280260616810 -0.03430696994398413 
0 0 0 0 0 
0 0 0 0 0 
0 0 0 0 0 
0 0 0 0 0 
0 0 0 0 0 
0 0 0 0 0 
0 0 0 0 0 
-0.01421139092228418 -0.05921534794988298 -0.1197886885446912 0.3779282193523610 -0.04097299567046973 
-0.01421139092228418 -0.05921534794988298 -0.1197886885446912 0.3779282193523610 -0.04097299567046973 
0 0 0 0 0 
0 0 0 0 0 
0.08060696040707940 -0.003579942689988877 -0.09878478014167225 -0.002917644519692393 -0.0002927191522921796 
-0.05395495186526424 -0.02029635598617461 0.3241988922512802 -0.02883210844323943 -0.1648666317557394 
-0.01235208177840080 -0.01793483709163525 0.2887983003937726 -0.005416657977300421 -0.1187878752041079 
-0.01461123912826185 -0.01195801108028380 0.08567807803396843 -0.003709270166634563 -0.03880434621912721 
0 0 0 0 0 
-0.007276873213868321 -0.03261010763422160 -0.1371191917500184 0.4253491659217877 -0.1465470521846939 
0 0 0 0 0 
0 0 0 0 0 
0.1852314183382181 -0.02771502405063606 -0.1002256092832857 -0.009932147146972136 -0.0004400285579459487 
0 0 0 0 0 
0 0 0 0 0 
0 0 0 0 0 
-0.07427260502944091 -0.09886549008396049 0.2632012671569048 -0.07773788314295614 -0.05147199736733944 
-0.01799175251862437 -0.06656686617965970 0.1639797222838956 -0.04380912223214715 -0.02462461406669242 
-0.01651170222872243 0.1377211991699402 -0.08207436165314645 -0.1350194946033952 -0.01998202064517006 
0 0 0 0 0 
-0.01524332468657620 -0.03829135961204706 -0.1563894703709835 0.3763065026032670 -0.1028506079657384 
-0.007684237638942049 -0.04043602057547906 -0.1048305179254647 -0.1177614386974332 0.2424168243169363 
0.4098755504305726 0.06215900858064801 -0.05077677056081518 -0.1333615389282209 -0.03309776019720764 
-0.02829806269251924 -0.01842987875194967 0.1131730211882749 -0.05702709773406065 -0.06454766776935093 
-0.007684237638942049 -0.04043602057547906 -0.1048305179254647 -0.1177614386974332 0.2424168243169363 
-0.02911146255277887 -0.07327423967499820 -0.2174602939925671 0.4019882708196905 -0.09200620375287671 
-0.03337586142976021 -0.01086263417310739 0.1064106754150223 -0.06459196369361621 -0.05622035277728329 
0 0 0 0 0 
0 0 0 0 0 
0 0 0 0 0 
0 0 0 0 0 
0 0 0 0 0 
-0.04424573666743415 0.1121153144938248 -0.03361280773686558 -0.004639008266687249 -0.0004052547419892597 
-0.004774286593037245 0.1511134182523065 -0.03819475621742063 -0.03840458889330792 -0.05718530672983940 
0 0 0 0 0 
-0.04564520249194627 -0.04311851076970059 -0.2240723406617641 -0.03514556693934903 0.3466750463315447 
0.2348558697936628 -0.03056482793177760 0.0002680501819133079 -0.04086861853132685 -0.03700083880421547 
-0.01612225261276529 -0.1321754149445817 0.03765064777812155 0.2447083157110779 -0.09650330200518734 
-0.002204686423507636 -0.1299817291387130 -0.09841162409478825 0.2004032634701379 -0.006911914109001452 
-0.09173457513861916 -0.1136312366527428 0.4379437451741129 -0.1058689662621417 -0.1397942007254278 
0 0 0 0 0 
0 0 0 0 0 
0 0 0 0 0 
0 0 0 0 0 
0 0 0 0 0 
0 0 0 0 0 
0 0 0 0 0 
0 0 0 0 0 
-0.04592006789806438 -0.1018138303746197 -0.2197639399308488 0.5014949166177723 -0.1519598287565273 
-0.04511767865481732 0.2758465894963846 -0.09811523495539712 -0.1259742193387812 -0.03463353402865610 
0 0 0 0 0 
-0.06563165412396030 0.2551781255672557 -0.1627466864377270 -0.001706576145696948 -0.006012183865592325 
0.09251404768014004 -0.002975049781789270 -0.08870036471880387 -0.01022448065781697 -0.0007257670632840619 
0 0 0 0 0 
0 0 0 0 0 
0 0 0 0 0 
-0.03567131251700877 0.7395534218224645 -0.3010691362910888 -0.2568840275797993 -0.06040371605162705 
-0.09653056963807790 -0.02403198180056788 0.01108949400779855 -0.1531190884609653 0.1963890541123930 
-0.01660875698864756 -0.03741001359022839 -0.1511851173596903 0.4072351259653798 -0.09739218815110293 
-0.08324769092890773 -0.03277193904443234 0.2403804585713150 -0.1427590581441576 -0.03001574316457767 
-0.01431294543113571 -0.01740656658068992 0.2434702963327186 -0.2493458941380879 -0.008394628290177538 
-0.01602885945285024 -0.05231372395112258 -0.04434776511800292 -0.2347780748910000 0.6083573709986656 
-0.007262636093098674 -0.02893481871832540 0.07305701195892335 -0.04845818226893391 -0.04963896900774333 
-0.3089151208786953 -0.09385160850661231 0.4931710833242712 -0.09113764229278529 -0.05805266254098600 
0 0 0 0 0 
0 0 0 0 0 
0 0 0 0 0 
-0.1992981899507899 -0.05296886281571524 0.1809851520830392 -0.03578530047407043 0.06082491975210267 
-0.1992981899507899 -0.05296886281571524 0.1809851520830392 -0.03578530047407043 0.06082491975210267 
0 0 0 0 0 
-0.02224162971992725 0.3081524327539748 -0.1041133039985571 -0.04942218283516901 -0.002629313110899574 
0 0 0 0 0 
0 0 0 0 0 
0 0 0 0 0 
0 0 0 0 0 
-0.01728880027183722 0.05291278081895566 -0.02555139411133058 -0.006831725666274659 -0.01585279133367553 
0 0 0 0 0 
-0.03038459748302198 0.2422055416962123 -0.1171236563686947 -0.01427397333533411 -0.03283015955384308 
0 0 0 0 0 
0 0 0 0 0 
0 0 0 0 0 
0 0 0 0 0 
0 0 0 0 0 
0 0 0 0 0 
0 0 0 0 0 
0 0 0 0 0 
0 0 0 0 0 
0 0 0 0 0 
0 0 0 0 0 
0.01625350981063107 -0.002181936856616928 -0.02119245490878851 -0.001394389107840528 -0.0008646406648552817 
0 0 0 0 0 
0 0 0 0 0 
0 0 0 0 0 
-0.05135492799477635 0.02768016581466424 -0.2924307830717993 -0.06036156979627404 0.4547115097362110 
0 0 0 0 0 
0 0 0 0 0 
0 0 0 0 0 
-0.004891669230245453 -0.01629648071929699 0.05691748303712470 -0.06407363865392844 -0.01399547886468868 
-0.005567747811886663 -0.1182102342295609 -0.1452836866968855 0.1613129314079932 -0.02943074133983575 
-0.009933496356155580 -0.01221995400240906 0.2472089213227142 -0.1584501370492941 -0.1406170737061423 
-0.009211791151940960 -0.01515389323768173 0.1949964853221704 -0.09945340226031585 -0.09730571802568410 
0.1590285573440344 -0.06011110049038219 -0.1930035311500082 -0.06706575044359402 0.2831773724453319 
-0.01329830317357865 -0.05284371542676573 -0.07309672217048124 -0.06338243401636787 0.2841481740012242 
0 0 0 0 0 
0 0 0 0 0 
0 0 0 0 0 
-0.004604547889756065 -0.03500458173383355 0.08004610646089669 -0.02299837140638371 -0.03611710995220860 
0 0 0 0 0 
0 0 0 0 0 
0 0 0 0 0 
0 0 0 0 0 
-0.01444210483483309 -0.008406330339899359 -0.06591470142291889 -0.1984692517873306 0.2054276539729572 
-0.02845359526701958 -0.06849645605832735 0.06148952962971897 0.1451373317029426 -0.1702297430277145 
0 0 0 0 0 
-0.009509900447891150 -0.007665929846862431 -0.2944394065841466 0.1047907990841975 -0.004932425841362218 
0 0 0 0 0 
-0.02011909409159225 -0.01470613138126618 -0.05156870291000103 0.05672221838868950 -0.01143209286021464 
0 0 0 0 0 
0 0 0 0 0 
0 0 0 0 0 
0 0 0 0 0 
0 0 0 0 0 
-0.006633108519699093 -0.008843858166434397 -0.1169937171364933 0.1376587409580160 -0.03578472510198079 
-0.01265618215232084 -0.1047619231690829 -0.1640014217606740 -0.04808189658335389 0.2395624755923394 
-0.02927507801219602 0.3166963067238265 -0.1322762979867756 -0.1819489777250636 -0.08433399439914119 
-0.007135225487321479 -0.1486194401004507 -0.09797260550734169 0.2793500236416683 -0.002603668424237972 
-0.03691198485004812 -0.006251688726886021 0.05477212394590103 -0.04422347851582699 -0.001998746004653880 
-0.1247443528328078 -0.1761103264556070 0.1020069247310093 0.1902922099289270 -0.01384552923945347 
-0.09041651991823627 -0.08793612722409930 0.4773938043397924 -0.2521009839872317 -0.07039139044308457 
-0.06494046583017733 -0.04348390355516572 0.5572550512306292 -0.5147579166195190 -0.03047688504577581 
-0.005450660616577985 -0.03168485652432612 -0.1484202568057552 0.2685568364920333 -0.03538604951247304 
-0.09041651991823627 -0.08793612722409930 0.4773938043397924 -0.2521009839872317 -0.07039139044308457 
-0.1905410962507792 -0.1038986034936858 0.6658681407512362 -0.2587214505596335 -0.08294966444148792 
0 0 0 0 0 
-0.07393227928095947 -0.02574835264650391 0.01464992095859529 0.1304340875048496 -0.01129420751817046 
0.3814268790464171 -0.05296265129287701 0.05473075349545567 -0.4624199443762877 0.1387647309250740 
0 0 0 0 0 
0 0 0 0 0 
-0.001000864026629622 -0.04681521204534251 -0.09137086765721539 0.1732427708358188 -0.1044494717589232 
0 0 0 0 0 
-0.002393894903330321 -0.05317596374904782 -0.1362401624277212 0.1631387771729346 -0.05077160152551973 
0 0 0 0 0 
0 0 0 0 0 
-0.002393894903330321 -0.05317596374904782 -0.1362401624277212 0.1631387771729346 -0.05077160152551973 
-0.002393894903330321 -0.05317596374904782 -0.1362401624277212 0.1631387771729346 -0.05077160152551973 
-0.002393894903330321 -0.05317596374904782 -0.1362401624277212 0.1631387771729346 -0.05077160152551973 
0 0 0 0 0 
0 0 0 0 0 
-0.003433444988022867 -0.1811385538263151 0.2816527165044687 -0.02790293310990241 -0.04320805864633481 
0 0 0 0 0 
0 0 0 0 0 
-0.002846860983627420 -0.01229642742346065 -0.06690260109348750 0.04839066420223402 -0.006174048294230007 
0 0 0 0 0 
-0.2432710017291493 -0.01148590480403105 0.1957204620228529 -0.003937072465860544 -0.005022467248777298 
-0.02072553079355746 -0.02375035415561101 0.03783017648641144 -0.01816053398241870 -0.01791482210120058 
-0.01581139810861350 -0.01746242177374825 0.06592590883618770 -0.02062552930880071 -0.03789689464332022 
-0.005105506772337459 0.4852468622798772 -0.3570719382261184 -0.07491042083126626 -0.02520020200864751 
0.5835540180995193 -0.01269853774929276 -0.5793870587708267 -0.008032473112784590 -0.01820268581641394 
-0.007673446279092600 -0.03991647472793570 0.06559549998642757 -0.01350125896480499 -0.05182761863375750 
-0.01426915140604835 -0.04127284502277991 -0.3879985591178926 -0.02635494875984810 0.4426488836799455 
0 0 0 0 0 
0 0 0 0 0 
0 0 0 0 0 
0 0 0 0 0 
0 0 0 0 0 
0 0 0 0 0 
0 0 0 0 0 
-0.002601930036309439 -0.002830419743605110 -0.1242910054533372 -0.08269180749660543 0.1202865907726696 
-0.01796595239609194 -0.02013259847683790 0.1020254917752279 -0.05227380156772062 -0.06491056965304118 
-0.01047793780628775 -0.003300610138485205 0.1923527828910382 -0.1740805502125503 -0.02759106137131791 
-0.01473368439141533 -0.006918406401183946 0.01644744464280063 -0.01487999957451936 -0.03385698377603649 
-0.002601930036309439 -0.002830419743605110 -0.1242910054533372 -0.08269180749660543 0.1202865907726696 
0 0 0 0 0 
0 0 0 0 0 
0.06694167104205848 -0.2612220598139662 0.2479659903238058 -0.1069082165462751 -0.1379383733932519 
0 0 0 0 0 
0 0 0 0 0 
0 0 0 0 0 
-0.04901621368929052 0.4476379127779273 -0.2138676138839932 -0.05509997919056615 -0.02516677099992204 
0 0 0 0 0 
-0.01172740421099114 -0.07368627677201739 -0.1728375021192372 -0.05079104294889127 0.3491651905986525 
0 0 0 0 0 
0 0 0 0 0 
0 0 0 0 0 
0 0 0 0 0 
0 0 0 0 0 
0 0 0 0 0 
-0.01186718314913100 -0.06986836485711179 -0.08972028447263299 0.2320648007174007 -0.03542435628088994 
-0.03082741690463626 -0.02799942366036970 -0.1896636852618965 0.2642717139226988 -0.004409011418567853 
-0.03749515351770250 -0.06117055259216884 0.2073975196099752 -0.02907278947938513 -0.07238920474885871 
-0.03272848792682976 0.01086142844494189 0.08730902562002715 -0.02496736003775188 -0.04475387705838444 
0 0 0 0 0 
0 0 0 0 0 
0 0 0 0 0 
0 0 0 0 0 
0 0 0 0 0 
-0.01107492280689709 -0.03866743053464566 0.06447028073537091 -0.004156430119415706 -0.05265733765063808 
0 0 0 0 0 
0 0 0 0 0 
0 0 0 0 0 
0 0 0 0 0 
0 0 0 0 0 
0 0 0 0 0 
0 0 0 0 0 
0 0 0 0 0 
0 0 0 0 0 
0 0 0 0 0 
0 0 0 0 0 
0 0 0 0 0 
0 0 0 0 0 
0 0 0 0 0 
-0.1162622099429322 0.2210862378632081 0.06784549084894410 -0.008170760048826352 -0.05319525642413081 
0 0 0 0 0 
-0.07311343847910796 -0.04340815206006151 0.3502096866527541 -0.01703022389285511 -0.008232419944442893 
-0.005403573940582907 -0.1790408206278592 0.2761397741049602 -0.03040779875455530 -0.003377191176297376 
0 0 0 0 0 
0 0 0 0 0 
0 0 0 0 0 
-0.003685489810731803 -0.07223172564317791 0.1335596387433862 -0.02611057160083962 -0.01142000692597778 
-0.02579950818287346 -0.02809115143863095 -0.5483952032757574 -0.009136254556579819 0.6715496718303310 
0 0 0 0 0 
0 0 0 0 0 
0 0 0 0 0 
0 0 0 0 0 
-0.4032162794547648 -0.0003235617184367515 0.3397165968587991 -0.02983308758331817 -0.004113441326018793 
0 0 0 0 0 
0 0 0 0 0 
0 0 0 0 0 
-0.1607909337114592 0.06470372805871070 0.04348888623998551 -0.02209448299277502 -0.02524948986856742 
-0.01210231651539080 -0.01439279183792714 0.05364651893550254 -0.007723031470766000 -0.06036129630899939 
-0.01277369108255389 -0.1029830778174310 0.09688814180607550 -0.001291373503597912 -0.06364293049438063 
-0.02198821605658648 -0.06669154132619783 0.1354641589586804 -0.01011236293218206 -0.01817001098692824 
-0.08905008026934070 -0.01984992207304021 0.08669790592459369 -0.002041092636570129 -0.005055223833560833 
-0.02709690814071561 -0.03008482512365096 0.1557853418715515 -0.1189813712467160 -0.02590593327806746 
-0.02709690814071561 -0.03008482512365096 0.1557853418715515 -0.1189813712467160 -0.02590593327806746 
-0.01407547836474771 -0.003736741944075776 0.09642356815078841 -0.04031443486528585 -0.03963250712158076 
-0.4737358321086632 -0.05604623502237395 0.5255719132541591 -0.1631765440775146 -0.07082164043148460 
0 0 0 0 0 
0 0 0 0 0 
0 0 0 0 0 
0 0 0 0 0 
-0.006754460825218128 -0.005860898017584741 -0.008490628978152922 0.01361458917645658 -0.007007692956432403 
0 0 0 0 0 
-0.004056082191421605 -0.05792654133131300 0.2873149073410574 -0.1613460244505578 -0.04030645719851571 
-0.1866741949040659 -0.001289019107192831 0.2002584085016433 -0.02039119156631547 -0.02485348103114582 
0 0 0 0 0 
0 0 0 0 0 
0 0 0 0 0 
0 0 0 0 0 
0 0 0 0 0 
-0.01758670108272672 -0.1014335194159507 -0.1446605411582691 -0.06227651487746356 0.2039004956790429 
-0.001008819079545483 -0.07518272689398024 -0.06537963337490540 -0.04785915398145939 0.1168574446799279 
-0.008950468862453265 0.1733858610682900 -0.09938264799157162 -0.03010529548703955 -0.01230781691675232 
0 0 0 0 0 
-0.004852634380520623 0.09003872715090630 -0.04768742584109893 -0.02087553406361440 -0.03829071684616912 
0 0 0 0 0 
-0.01005107558556331 -0.03404993470210745 -0.1641087810700613 -0.009287610028134628 0.1627950750755958 
-0.01005107558556331 -0.03404993470210745 -0.1641087810700613 -0.009287610028134628 0.1627950750755958 
0 0 0 0 0 
-0.2508776801200499 -0.2670184930868336 -0.002326058244102249 0.3730626719945412 0.2196087865375878 
-0.03185818982296406 -0.02085854562358588 -0.1883623289537959 -0.01901716825758918 0.3214037796726113 
-0.02720712689850248 -0.05793993867189779 -0.4439789829513990 0.5227414228754406 -0.06444372647216684 
-0.01215928590339279 -0.1819387730431511 0.5011839344474213 -0.1260149109024056 -0.03146836313122325 
0 0 0 0 0 
0 0 0 0 0 
0.08851344529009583 -0.0003945913445062550 -0.1140208102951003 -0.002905501642173850 -0.0004224356472839375 
0 0 0 0 0 
0 0 0 0 0 
0 0 0 0 0 
0 0 0 0 0 
-0.01580629094365375 -0.02728010998784250 0.1675436342434289 -0.09855608283442281 -0.04056862829072841 
0 0 0 0 0 
-0.2913376077246962 -0.07040449371715640 0.4025959930113781 -0.03774704021774647 -0.05727933325926352 
-0.1026733726749483 -0.04753326327147559 0.1936380623735181 -0.02350508068665318 -0.02587899703989108 
0.1199400929751857 -0.1049423766148098 -0.03756406059131000 -0.05954359292954466 -0.1032075998602855 
0 0 0 0 0 
0 0 0 0 0 
0 0 0 0 0 
0.1834758751705758 -0.08242183954421875 0.02532710573379870 -0.04371926117725402 -0.09669655269596582 
-0.07155727930328270 0.2768422859456088 0.08630711746256357 -0.1491382238214349 -0.2075087083428211 
0 0 0 0 0 
0.2710440228820528 -0.2244987752027291 0.1085677672791157 -0.2394268874094462 -0.08456721253604460 
-0.002009466769302711 -0.03064765403990416 0.4444089300634326 -0.09689738853924351 -0.1606238771233407 
-0.004516089783737146 -0.06536628650698904 0.09203482158977777 -0.05389820880279894 -0.02503027863917247 
0 0 0 0 0 
0 0 0 0 0 
-0.01218666059867261 -0.01586558290004651 0.08629786709054560 -0.02845815215570005 -0.04835363906999114 
-0.06543053597969331 -0.07766840285505756 0.3172199963065914 -0.1202110340537786 -0.06149470609937678 
0 0 0 0 0 
0 0 0 0 0 
0.1617582172636509 -0.003322274905638387 -0.1423034396875976 -0.007697464180279309 -0.001383171388570985 
0 0 0 0 0 
0 0 0 0 0 
0 0 0 0 0 
0.04926936561957396 0.0002594369630935180 -0.1037612148407170 -0.001598193856559975 -0.0003205980439843660 
0 0 0 0 0 
0 0 0 0 0 
0 0 0 0 0 
0 0 0 0 0 
0 0 0 0 0 
0 0 0 0 0 
0.03669058979489498 -0.001544269213091343 -0.08295738296871390 -0.0009071286065725252 -0.0002974156580087580 
0 0 0 0 0 
-0.03038459748302198 0.2422055416962123 -0.1171236563686947 -0.01427397333533411 -0.03283015955384308 
0 0 0 0 0 
-0.03318835339993258 0.2674553415012312 -0.2481089356193650 -0.02786029549745563 -0.07847161372158766 
-0.01819650247014897 -0.2011043528273593 -0.1467809167563757 -0.05366589172048405 0.3226314051599872 
-0.02145775723513472 -0.04308895789037914 0.3077030112665915 -0.1234310409180906 -0.03574252640748072 
