solver_type L2R_LR
nr_class 5
label 3 4 5 2 1
nr_feature 3181
bias 1.000000000000000
w
0.3613292960901686 -0.01574875856466324 0.02608361370400510 -0.6193224047312046 -0.4185137966431327 
-0.7718230478004063 0.7813145888550544 -0.2229524655744143 -0.05636719069693572 -0.01531587062716352 
0.3678274942600536 -0.5697246755025188 -0.09233947136542013 -0.5237310078982037 -0.1710837804699458 
-0.01635068911467938 -0.06886912771081508 0.4011354936473287 -0.1349992202699041 -0.009974905053617165 
-0.1652322877635460 0.1389364857914607 -0.1978249293692601 0.09539997154647553 0.3068766100468408 
-0.06575777262667494 -0.05356979608590107 -0.1980934556166371 0.3621001121024539 -0.01846283752642980 
-0.004464469002497852 -0.08476235466442300 -0.1939836630209404 0.3580624941817842 -0.04736352786164021 
-0.09915326751694706 -0.01968961024583111 0.1321878131556637 -0.01454107884340319 -0.003833850697399339 
-0.1945654705894681 0.6933713227304147 -0.5119138270656989 -0.1020403656126097 -0.1079904078108847 
0.1765261425832407 -0.01613557849502018 -0.1202845268247378 -0.003080441738358220 -0.003620216234278255 
-0.03936795115802976 -0.04810233605743696 -0.07481538959834286 -0.05438834963454535 0.2493615297641105 
0.8561164289611993 -0.1755675996459328 -0.4657247104266915 -0.03141391007185175 -0.002684202282865433 
-0.1767522933671557 -0.1751933222031818 0.7489597468101529 -0.2525399537292665 -0.08959070991392125 
-0.03572482746513887 0.3070948090697180 0.1531806696496092 -0.2895633194159459 -0.08926112895249734 
-0.009725317653662314 -0.05256104706420785 0.1977797810094500 -0.08851272991122720 -0.04563724983284221 
-0.3605375469010556 -0.5592339422551937 -0.9543733158727973 -0.3039044712951429 1.447468981654865 
-0.01070891677876304 -0.3197867200335336 0.2547574172580338 -0.04046315535379700 -0.01079616791866325 
-0.2415435051718249 -0.5486580402550146 -0.6324262905132670 0.9163560918917312 -0.2762918366991189 
-0.05020476513094106 -0.1827424473821884 -0.2272969260056128 0.5809712115176340 -0.1783591081927295 
1.227068030301382 -0.2068665315097633 -1.090580431006937 -0.2093144256936803 -0.09699573525484532 
-0.01210837683364265 -0.01887944695642545 -0.04126982343119207 0.07306487758356174 -0.009127505516835630 
0.05121568776498978 -0.03478867855113917 -0.04706460540445993 -0.02843123661494670 -0.009673485168670472 
-0.02563031562835057 -0.03063063882279179 0.1041154997522062 -0.05196031340372053 -0.03297733156054716 
-0.02880032957551918 -0.01058386828121275 0.05325899527430408 -0.03449342238581955 -0.02526268735243398 
0.09478521858110571 -0.009718410600018147 -0.01969185271431614 -0.01600772922995400 -0.0006715239563627369 
-0.04533977671325610 0.1893624848340803 0.04333727090359566 -0.07389876513700255 -0.09396199751553270 
0.2047355395399242 -0.2416538267733783 0.08530466516387078 -0.006583095487051268 -0.1010321989617723 
-0.2041994569923318 0.02089781356288946 0.3915706733984222 0.2332479861325920 -0.3965071133486416 
-0.1514364058446396 -0.3342174955766161 -0.6716027447791816 0.2432899651600091 0.7455533473220427 
-0.006977912755682359 0.04174076149610707 -0.1616851863500860 -0.003759762349245657 -0.009454922008053620 
-0.1757785204601165 1.099521355541703 -0.2990057400178099 -0.5356922877813300 -0.5651693357852308 
-0.003589732821825179 0.1101715791495432 -0.07513392022410574 -0.04002775259761603 -0.007012359857454410 
-0.08483568091238466 0.5721443770519751 -0.3305518632318765 -0.1117546007459660 -0.2041851098720039 
-0.02880602335405858 0.1905039964239860 -0.1364813976824634 -0.008513200276699742 -0.004894245147876972 
-0.01362427465725127 -0.1237862089669076 0.1197845492123055 -0.01697236904367790 -0.02063826142834201 
0.6870800668678044 -0.5607799192208895 0.4274339445023130 -0.6350991886181815 -0.5843997869526902 
0.1396617724525536 -0.03765833880893221 0.1015737970604142 -0.3911875357655277 -0.07150982769839044 
-0.01394484600357872 0.06559605177369927 -0.06224771680517299 -0.01242203908418967 -0.01164107414091843 
-0.1244428146124994 -0.1073576209176456 -0.1010197253615637 0.01004888591972209 0.5746791541512706 
-0.03485288479808978 -0.03018431035433095 -0.1560273326952506 0.2271176155588485 -0.02821971278718958 
-0.02216957623970820 -0.002288423642371051 -0.1182683762924217 0.2015684294416875 -0.03979961806095483 
-0.02608272685576245 -0.002117069951371486 -0.2257281141031402 0.2712332218498011 -0.02922416902458432 
-0.1175237090973248 -0.3382510771933242 -0.9059215565761283 -0.2469118292930914 1.490518556912255 
-0.01414195051697509 -0.02537733267397668 0.2034048891516215 -0.06421374632688932 -0.01346101977317620 
-0.1481253296919194 0.2036799156282204 -0.01163502401130839 -0.003050838471421241 -0.001195965725944576 
-0.01150811323012881 -0.04512796937262912 0.08395448747341025 -0.01825258055392103 -0.01287627404708471 
-0.4003710965636977 -0.02920195919537582 0.6273662554307378 -0.1354901403763643 -0.009112298342840374 
-0.01117861944539547 -0.1806243712839341 0.1233099251426751 -0.02444056587624291 -0.02169896029858429 
-0.01663883923931785 -0.05371769172572027 0.1600882629758994 -0.02655613661608641 -0.05259226576643281 
-0.05920029990762802 -0.009635652573606454 0.05096643692208772 -0.001214012695853928 -0.002217275453734023 
-0.05395580831844166 -0.01510700269346276 0.2023203914707149 -0.04903978041892326 -0.01574201783982607 
-0.02543967529047946 -0.002234327072854908 0.1935470474970129 -0.07175547556381143 -0.1113068505070431 
-0.01437922642887553 -0.04682042366887244 0.06865273765658268 -0.02846280748928879 -0.03895505452637404 
-0.08130489369736443 -0.02345474848669980 0.1365281504810294 -0.03947770439772021 -0.01551547389283268 
-0.1230130818367468 -0.01655845583343627 0.1442539394458885 -0.0006790474846668054 -0.001667683145296452 
-0.1256964072793894 -0.01875343726021329 0.3127330448859506 -0.06063517061293205 -0.004352845818637605 
-0.04043324932060042 -0.001494542626432782 0.2190218724144500 -0.09045014722360968 -0.1163498831275292 
-0.002960809696109371 -0.05871989786705836 0.2614282308132767 -0.1690449533277197 -0.02101006276469991 
-0.007842082402597615 -0.03214500140789585 0.1756929576405749 -0.06522159631196360 -0.05671044730736956 
-0.05729938476769970 0.1225335725037301 -0.1675579695080692 0.2078012821230790 -0.07854046730661308 
0.08716846267055310 -0.07653793211767747 0.06447839268239738 -0.02572382143308246 -0.05516931856310219 
-0.1033932469282111 -0.2308743829276801 -0.3565071930623339 0.7537299649163537 -0.05131543380550237 
-0.1032102730689570 -0.2648578613715470 -0.6611137415871479 0.8593570787515925 -0.07942107345268963 
0.3101932796057787 -0.08396443841276141 -0.1211509582578638 -0.01581378879686518 -0.02202552566520432 
-0.08629745398226187 -0.01201642166577963 0.1857942864494778 -0.006199192886302499 -0.04509873099852818 
-0.1331245725643918 -0.008063877184891050 -0.5077795411410816 -0.4609564073137141 0.7403041731624429 
-0.01095275450048383 0.3225045539754743 -0.1809985068404514 -0.06821458919256526 -0.05032816825695630 
-0.02986476325326495 -0.04818988968865854 0.08589794534150823 -0.02330194995043749 -0.004469199650364005 
-0.02364497560624805 0.1561894862434122 -0.1627557357063414 -0.009502959603188834 -0.03200986784447396 
-0.01055441746695538 -0.01174284433533141 0.08973400769234058 -0.05518703892312305 -0.03392182067910157 
-0.05463361905068920 -0.4897407173610455 -0.2807312124466890 0.6490363662510760 0.02031987084705776 
-0.09561265844100705 -0.1252174148395767 0.03069718833484248 0.3278698520042206 -0.01235505218719835 
-0.02603277443687727 -0.001442082600055132 0.04503106275356099 -0.03234592494509164 -0.04529332788964521 
-0.004785394124859759 -0.04023629666432951 0.1123667584797418 -0.06886593787162254 -0.01265461640186164 
-0.04081411108473550 -0.006593751901885800 -0.1081558766467370 0.1524153865364292 -0.01113196172983391 
-0.01901870021005619 -0.009285441837732729 -0.07748432060329329 0.1048294420851973 -0.007210820047008971 
-0.1817036912092607 0.3684395923869741 -0.03853808853803616 -0.01481813475384586 -0.002246947782568240 
-0.01413880137308082 -0.06310014827057330 0.04586275687492981 -0.01035520976877813 -0.02126578358181302 
-0.03967341782850489 -0.07727824709039582 0.1328007930472653 -0.03249037979274653 -0.01638109596963187 
-0.02256257694619339 -0.01876655982520292 0.03058429121168371 -0.01446064516669100 -0.01725905362221829 
-0.005003827452161947 -0.02134157927885804 0.1009743063818262 -0.06619707082409294 -0.01829452977697280 
0.2653879774511679 -0.03236606657368456 -0.1477122347986381 -0.01600416556825400 -0.01033402767469050 
-0.01811557202594835 -0.01792052284680876 0.07504104916418651 -0.02116702769098142 -0.05650507025667036 
-0.03725614387305593 -0.006252852369527867 0.1647205991213285 -0.09497039535744158 -0.03975443615734323 
-0.3928201029310833 -0.01580772774584378 0.4474550916658890 -0.08565657669444180 -0.02260184063032483 
-0.08067653898482528 -0.02205517804294013 0.2765314884830882 -0.03841650565763465 -0.02449479703230224 
-0.1141278369885257 -0.01087521845158813 0.3215133024425235 -0.08065833514058965 -0.02866945630347198 
-0.01316183714066870 -0.006343700586612383 0.01842443684700743 -0.01245045642098840 -0.003848624201925709 
-0.02008027536834125 -0.05042495512674911 -0.08475310267868091 0.3739525159193314 -0.07575913829970414 
0.2567180167938790 -0.04422157267700715 -0.1405777468696132 -0.02036582104761212 -0.003229955783464055 
-0.07602886218287887 -0.1082261728266959 -0.2136669464979145 0.3655961214245044 -0.07228687251478037 
-0.01542231257932617 -0.02309571603879305 0.07700259476691394 -0.03749538515420238 -0.03199774889190746 
-0.03904068052670873 -0.01687511736309960 0.05955100125601442 -0.009141591696358720 -0.006656306227832936 
-0.02377745402876592 -0.06961361232932634 0.1727107100471417 -0.03479491917086919 -0.03337470595274950 
0.3893995567961086 -0.03241349131781292 -0.1211848592395679 -0.06984681894094241 -0.01086617416862643 
0.4242646607721435 -0.2155080330007289 0.1191481191939083 -0.06888024496254992 -0.009970576331222190 
-0.03558655279204696 0.2507406451071244 -0.1239573758732267 -0.09821833517540157 -0.01742423182393664 
-0.03786133514562876 -0.01681760935861751 0.1235380569171095 -0.05366897612823729 -0.06578247706981022 
-0.03145193127947077 -0.02552592561916466 0.1377820362420118 -0.06271692478936829 -0.06981588309240752 
-0.008256582532484768 0.1819519005781076 -0.04675370406841523 -0.07883913153236972 -0.01765533802730229 
-0.01726405937740489 -0.03258937775592574 -0.1057769298985066 0.2497167554832157 -0.01639157538858063 
0.2896912454772970 -0.2014210941933175 0.1267567245639709 -0.01911892785028624 -0.01388780841966253 
-0.01465650254368742 0.1805542456080133 -0.1777276431117974 -0.03952884906264310 -0.02090645609940824 
-0.04022948463100013 -0.01056793970798251 0.08168017404223432 -0.06316345263552146 -0.06225900239038116 
-0.06970996363817444 -0.01835746579091295 0.07336509834067938 -0.001460959487586795 -0.0008118541601419823 
-0.01092305453981708 -0.04811401709766856 -0.1262224043942132 0.2242767420687414 -0.02301886688387381 
-0.02230582209759311 -0.01399089780410063 0.1590034571577099 -0.1738787686414965 -0.009822671668130983 
-0.01864175202815215 -0.01741847670032018 0.2212863182187849 -0.2203295619395810 -0.01160042172738550 
-0.03244901299721896 -0.001166127511578726 -0.2171661939883352 0.2843849358442855 -0.06514236082710673 
-0.01345237512917776 -0.02399043859847847 -0.04371042314857783 -0.2250997515972528 0.5500204842938264 
-0.06832297250055075 -0.06017235636505777 -0.2081026330746837 0.2375446971885331 -0.07628545582999618 
-0.009570708528197220 -0.03074928860270551 0.1012981452500071 -0.07217959372819249 -0.05500292384085017 
-0.01232559898399652 -0.04908125037647413 0.2157174100932398 -0.1653399009116344 -0.02113325672011176 
-0.2239606768508972 -0.1063266887356307 0.4341016906964049 -0.05113879889917339 -0.1004325220770842 
-0.007102276589202169 -0.009098093364804188 -0.1157265205956466 0.1928456487941127 -0.06840797109029562 
0.4499252909603785 -0.03028908057468784 -0.3262109733219443 -0.02507578881192839 -0.004468695441830950 
-0.01487900954567471 -0.02936484642576442 -0.1172913997283901 -0.1533737734100767 0.4758076178099780 
-0.01531732042630454 0.6028808418021467 -0.2473483288653945 -0.05485263994912656 -0.1398682016806533 
-0.005542653116490807 -0.005487364552028060 -0.05664218193630297 0.07132171724308572 -0.03608256674785371 
-0.01853884745345936 -0.01095995833266440 0.03718994717557250 -0.05697452453376157 -0.002189701310498875 
-0.08844656173960397 -0.01030150602566177 -0.1313434089535355 0.2053860885411915 -0.02509591829612784 
-0.01882542873688782 -0.01979456177989592 0.1694522436840344 -0.1308354929612612 -0.06125889067498706 
-0.01561989566532999 -0.03304280904523270 0.1933274758185982 -0.1152441268926821 -0.03737179090242422 
-0.01136222640613781 -0.01320419386328446 -0.1392987473878943 0.1333955152032021 -0.009723594876345807 
-0.01959155748701193 -0.1130141602502082 -0.3777519490745993 0.2293057985303268 0.3585731438909580 
-0.07436086808689402 -0.01144076268016694 0.3695202374269703 -0.1957597593383487 -0.03888753735965185 
-0.002028209796948061 -0.02074364269359564 0.1533844271263801 -0.3244071509118613 -0.003880678079855609 
-0.09476438715350095 -0.09856677110574703 0.2417291241504534 -0.03801909955582944 -0.01851617704714688 
-0.06315802363060417 0.07105215332634604 0.05198779880369717 -0.07679306411888027 -0.01277366864078584 
-0.03163013094257923 -0.02864469478106295 0.1652624584968652 -0.05291888317886109 -0.05912668229130356 
-0.002042612156913863 -0.04655218183141315 -0.1221258649664514 0.1461677154358834 -0.05374561979986861 
-0.09651886766344339 -0.0003871650969767221 -0.08920834584981546 0.1823606375527941 -0.03060293456307229 
-0.05224334991754905 -0.01482554949309539 0.3865205483006564 -0.3380132256544626 -0.01152193574772296 
-0.01998813269924167 -0.2186422780210106 0.02300554344971538 -0.01021426441575712 -0.01032141861083412 
-0.04449837033978032 -0.002039229265170393 0.08804593509917727 -0.04043862304698964 -0.03494682168672277 
-0.1527214267237895 -0.02327899922118501 0.1360078094915433 -0.0008245984585241685 -0.001902171941214482 
-0.004512720936124163 -0.1431233995706649 0.2564787688060740 -0.03200485953872415 -0.04735054563548533 
-0.002467011396743921 0.4905523850310604 -0.3792241417686528 -0.06857515508533615 -0.02253296480160192 
-0.007413529983423375 -0.04448917056333666 0.08904188890654692 -0.01832895131335008 -0.05698333911588038 
-0.02072722939625995 0.2067838370894826 -0.2558358820707245 -0.006603582895947581 -0.002881716500084376 
-0.01852136617166792 -0.03061445998508339 0.1306223101394937 -0.07125488693942754 -0.05684735275247359 
-0.1085885123426777 -0.03161551587595163 0.3393884852946109 -0.04009604390928055 -0.0009244258956361547 
-0.01753864309997478 -0.007565329881372434 0.02822293555561331 -0.02571402116803893 -0.03684519899852335 
-0.03141948750758628 0.4496325198855236 -0.1994735850449199 -0.08184079222866922 -0.02571905048568752 
-0.04916162424816613 -0.03408978958529083 0.2287851139511685 -0.04861494223785380 -0.06531587896574000 
-0.008951321178973973 -0.02670603773181056 0.08351488975051338 -0.07761907092069510 -0.01008159513038900 
0.3739727395406633 -0.04245297738830010 -0.1249891664601895 -0.01500172555067315 -0.01144893882278015 
-0.02873269695116607 0.3659130655335027 -0.2516523066869736 -0.08023637362981989 -0.1457115643996266 
-0.03910964531397220 -0.2232828474748805 0.06689496951497516 0.3537311459908423 -0.1156124884330520 
0.3051537894721121 0.2249614074799898 -0.08809630581392563 -0.07630370735045813 -0.09812644502095336 
-0.05221223068192859 0.2708034659621008 0.06702563792503138 -0.1380562025026041 -0.2026046350336460 
-0.004430784814318156 -0.08125362095705009 -0.1376167237118366 0.2961794727503281 -0.03804837596752211 
-0.04769985863747558 -0.03025255628016223 0.08102520067364066 -0.01953405314653916 -0.008591539632222957 
-0.007818208558612370 -0.03018222891350429 0.1453244652914726 -0.08869093037113818 -0.004532292092879897 
-0.01360063217580122 -0.02615146535759380 0.1095001253134737 -0.05262767923799862 -0.03151479669214213 
0.1599724657392690 -0.004674295549137610 -0.1505648706134082 -0.005132773564167056 -0.001798176951102459 
-0.03585156183627907 -0.01349883983653687 -0.2825495506500028 0.3120057930889445 -0.003571000845701514 
0.1951544094960827 -0.004370724029997031 -0.1464516325318792 -0.04842015988818908 -0.0007316419842513034 
-0.02963156439895272 0.3797454121250621 -0.1799042011786618 -0.06999854700358955 -0.03586270408760744 
-0.007916902604031516 -0.07249540927990049 -0.2093195261103389 0.1644745392065357 -0.009682308533133068 
-0.06419515666413232 -0.03503604525051845 0.3246248540549430 -0.08228195647491612 -0.01542693642378036 
-0.009596462331096595 -0.1125353019845744 -0.1592220796655780 -0.1093644544311580 0.5218671853363305 
-0.001938124838182689 -0.03545487211353311 -0.1459772625797779 0.08897912909775116 -0.006080772238538961 
-0.03364499725745909 -0.02751654112705023 -0.02704852443707131 0.02792632381151153 -0.08292929968077044 
-0.04535259621565552 -0.07944991724459886 0.6427887060915982 -0.2692888748805820 -0.01064056295911695 
-0.008764052678746734 -0.01465802154504469 0.05979996992466768 -0.07850076922140048 -0.02590873237700977 
-0.01130902762330143 -0.002283451009659876 -0.08458100822832888 0.06380240252175688 -0.03104940712696774 
-0.1083074367642080 0.2081973436437315 0.08401851343513836 -0.05847326179932384 -0.01376921403464355 
0.0002981907955804230 -0.1411659729472096 0.3559831349477542 -0.3817708698941730 -0.02519240563182841 
0.1461236138966555 -0.08700302838507323 -0.04348575610274310 -0.004320688083782190 -0.0009701463516684600 
0.1233707747456518 -0.003638492501632755 -0.1765855329964057 -0.008673366440779512 -0.003473406213031290 
-0.01875258341670870 -0.03489626086915206 0.1012154409478304 -0.02982793292897606 -0.03086251692178409 
-0.02815871353108083 -0.02338093049558724 0.03822431249215091 -0.01735203572417005 -0.01815525265129075 
-0.04507205462971947 -0.03539843828547312 0.07782206400668794 -0.001292245561605308 -0.002113673097075241 
-0.02415610219968507 -0.03578982056728325 0.1027281810221529 -0.02833580281518365 -0.01745585390094167 
-0.01973210268941668 -0.02278230260588255 0.1175953748218138 -0.02395620899569220 -0.06336340134985134 
-0.009456415332324428 -0.01041723247381065 -0.09454961969525745 0.1380950733319064 -0.01533047595886364 
-0.1306478818695686 -0.02251582328074661 0.2128653299718367 -0.05280866210210047 -0.01129236470710651 
-0.01637498234751661 -0.04390473505997521 -0.07516756103370786 0.1519762826858922 -0.02438039760709873 
-0.03988465545860335 -0.02862701770715645 -0.1467632323940002 0.3208613096345391 -0.05537363316489791 
-0.004417955282759793 -0.02849700777967259 -0.1046555785711568 0.08358548173511589 -0.02570017839328758 
-0.09549329107642043 -0.01674388235698426 0.1424613835704569 -0.007753681579636869 -0.0009292929193677962 
-0.03220593465706847 -0.03436615951910096 0.2905530225084298 -0.1023087663360114 -0.01929372592365792 
-0.01288002892784749 -0.02433897770355190 -0.02432182001217683 0.03986411501003034 -0.006956302757224829 
-0.02059752032503773 0.4390681677857156 -0.2085691259582165 -0.02379275976072995 -0.07425640654354382 
-0.04135277204893402 -0.02244913045883748 -0.1324440378973421 0.2800028379785970 -0.01304565676547906 
0.3849586667719957 0.1505553494208729 -0.1781797651237929 -0.02711247051893559 -0.02392483011519369 
-0.02043739217703157 0.1855794878329701 -0.06545870620405380 -0.04722377296016540 -0.02045494753409417 
-0.01350970426707023 0.06734096993183926 -0.03165576711863987 -0.01280074815043388 -0.04329892370808192 
-0.05145088213954948 0.3010906069157768 -0.2895993657774305 -0.005831334155033564 -0.01078584120797604 
-0.08522668393427879 0.3715725794358240 0.08866174045557007 -0.02292850553897540 -0.07739870611115282 
-0.01662947851614503 -0.1943834535646689 0.3115959778761657 -0.05234322813468077 -0.008506025159225068 
0.3636195629433451 -0.01592860474162423 -0.2018789889625114 -0.01244274775646183 -0.04004886391702749 
-0.007008366167641346 0.1620908889630411 -0.03426526401482483 -0.04522018538810009 -0.07776068012057748 
-0.02319755894787212 -0.06321111275964690 -0.1689291022264606 -0.06196894417897875 0.3547292290146890 
-0.1124189579779238 -0.01676160137235604 0.4177802371316633 -0.04082658513662497 -0.05398338087933056 
-0.03442695053082081 0.2327304555612627 0.08634205075735367 -0.09665468339592798 -0.04835539412827594 
-0.02607254695114590 -0.07877530148308526 0.1138870788935658 -0.01646629268039421 -0.01896815976602092 
-0.02610885268036924 -0.2968830458865359 0.3271128041759688 -0.01022168526748015 -0.005539497798416140 
-0.01498015613672771 -0.01194757969809815 0.04024130066983150 -0.02743574377323388 -0.02907200624909167 
-0.08334264640787159 -0.008344920383657667 0.07351452498667035 -0.005959113998182500 -0.002930606999622861 
-0.03595438376283196 -0.05782122937807801 0.09344400212682863 -0.001459755636194472 -0.005569178790918803 
-0.006428273670052352 -0.2599244785178497 0.1630195966216381 -0.002385033809069198 -0.02918214700519873 
-0.07680831115343685 -0.1654631453836175 0.2644391969361724 -0.003554444511816001 -0.007214347869040644 
-0.02473180525385282 -0.03176511240415281 0.1480794687007423 -0.02782487009171159 -0.05578578085970035 
-0.03474456223079060 -0.03440470822922304 0.08874519514091218 -0.01108112353563199 -0.009811311496344840 
-0.01542286865974372 -0.05430732669811934 0.09076245564465431 -0.01078736772933303 -0.01634570669339230 
-0.04808590426007986 -0.04915895418765633 0.1354567730433467 -0.01762521463197957 -0.03155158543685937 
-0.04865916891858133 -0.03385047042022021 0.08875908018812580 -0.003406690322274483 -0.001989403692801602 
-0.04407151161559431 -0.06400135699871419 0.2142623199020969 -0.03738766710653232 -0.1098922223430017 
-0.06542418174405017 -0.09501969839952590 0.2775316051603152 -0.03947625058309174 -0.006384425715963409 
-0.01079166476723720 -0.03674109229540298 0.1278558882391830 -0.05859460472625178 -0.005968271231490935 
-0.004743962856606256 0.1006454398331291 -0.1419695484120102 -0.006213962363266136 -0.05553111444070646 
0.3613292960901686 -0.01574875856466324 0.02608361370400510 -0.6193224047312046 -0.4185137966431327 
-0.7823302850296066 0.8872123318973112 -0.3532602313433978 -0.07707551366186914 -0.01999804711772529 
0.7555417903475534 -0.6253232280978158 -0.4102534742080262 -0.5603754598156757 -0.1861756588239970 
-0.01635068911467938 -0.06886912771081508 0.4011354936473287 -0.1349992202699041 -0.009974905053617165 
-0.1291677743917153 -0.3557813987812223 0.1514198042390453 -0.07389735574053932 0.5067815057310907 
-0.009498645172652600 -0.02468501278448276 -0.1478991469932323 0.2180107459392857 -0.006320601769670090 
-0.004464469002497852 -0.08476235466442300 -0.1939836630209404 0.3580624941817842 -0.04736352786164021 
-0.09915326751694706 -0.01968961024583111 0.1321878131556637 -0.01454107884340319 -0.003833850697399339 
0.1038295572673783 0.4536680130265173 -0.5370441536844006 -0.1388630880794380 -0.1191772565399880 
-0.1415564530887282 0.1936631192607900 -0.7839379151209264 -0.01221007717017602 0.4921330110266416 
0.4898863744995400 -0.1220637058066275 -0.2302800795851543 -0.02667162491682470 -0.001392007981644699 
-0.1767522933671557 -0.1751933222031818 0.7489597468101529 -0.2525399537292665 -0.08959070991392125 
-0.009741306637595148 -0.04892471015709516 0.06952870502830787 -0.02360449375209075 -0.04056524037843266 
-0.009725317653662314 -0.05256104706420785 0.1977797810094500 -0.08851272991122720 -0.04563724983284221 
-0.01464036224423757 -0.07576535382231445 0.2242333716043704 -0.1081012679951604 -0.02074099376119806 
-0.01070891677876304 -0.3197867200335336 0.2547574172580338 -0.04046315535379700 -0.01079616791866325 
-0.2302874432587814 -0.3444652687334242 -0.8354882441116970 0.9711423493369369 -0.2267727391794372 
-0.02831982625235559 0.03875830024213511 0.05433734211460154 -0.07098094644975980 -0.03138170370934043 
0.3510340138218724 -0.1076762373387075 -0.2472242678031642 -0.08988017195527638 -0.05646215657824634 
-0.02498840576149014 -0.04321842465997734 -0.06559164344336889 0.1129289925935921 -0.01608380827406046 
-0.02563031562835057 -0.03063063882279179 0.1041154997522062 -0.05196031340372053 -0.03297733156054716 
-0.02880032957551918 -0.01058386828121275 0.05325899527430408 -0.03449342238581955 -0.02526268735243398 
0.09478521858110571 -0.009718410600018147 -0.01969185271431614 -0.01600772922995400 -0.0006715239563627369 
-0.04533977671325610 0.1893624848340803 0.04333727090359566 -0.07389876513700255 -0.09396199751553270 
-0.1083166210280711 -0.04197372569439581 0.1328508710933232 -0.08495376124749510 -0.02393684141150106 
-0.007641328229332223 -0.01608993631745679 0.2036178984726261 -0.1484100448985071 -0.05233928910153757 
-0.03190698701843438 -0.09854854675637008 -0.5207070795910462 -0.1176607224700759 0.5832930284103862 
0.5228931714900880 -0.08146212532553981 -0.5656396786667381 -0.04872100670915167 -0.02640314809738272 
-0.07345423314287602 0.1044913388929020 0.1097799120916709 -0.01358351571160254 -0.1742394316820506 
-0.07911233270834746 0.6282933771258256 -0.3200326186333698 -0.2510732496825643 -0.1189230124545639 
-0.1839545446922865 -0.7213296230408414 -0.07851889697654008 -0.3016888890336428 0.8581195995396629 
-0.02880602335405858 0.1905039964239860 -0.1364813976824634 -0.008513200276699742 -0.004894245147876972 
-0.02282278529293263 0.1213635490075319 -0.1173089319412523 0.08649014818854840 -0.1355733809829764 
-0.01362427465725127 -0.1237862089669076 0.1197845492123055 -0.01697236904367790 -0.02063826142834201 
0.6870800668678044 -0.5607799192208895 0.4274339445023130 -0.6350991886181815 -0.5843997869526902 
-0.3889490605903841 0.2129172283282312 0.1384562322712035 -0.1281241677387853 -0.06500797075730348 
-0.02220142853606348 0.2475479523518069 -0.1090014208735882 -0.09126117061655939 -0.02929641216822072 
-0.01094327915404794 0.2660927170121917 -0.1738227767284279 -0.1054043548821187 -0.1192602973970678 
-0.08661300147247185 -0.06849355279632657 0.1050485433914313 0.05929124175772529 0.1142370504478064 
-0.03968367509613665 -0.06354999556100652 0.03109991041963761 -0.02711017656040805 0.03042307710929845 
-0.02216957623970820 -0.002288423642371051 -0.1182683762924217 0.2015684294416875 -0.03979961806095483 
-0.03290055763888961 -0.1176516737926295 -0.3163371796231538 0.3426288850335961 -0.04390869445206764 
-0.02608272685576245 -0.002117069951371486 -0.2257281141031402 0.2712332218498011 -0.02922416902458432 
-0.06217623721996284 -0.01158706986199744 0.06011621430747956 -0.01200197698436547 -0.005702554134165012 
-0.6092273848908731 -0.06662494723881285 0.6366692824009488 -0.02144189374480255 -0.0008978216106416176 
-0.02711986714333925 -0.005864868870993800 0.2596371564801152 -0.1004093543595415 -0.1228472757314062 
-0.01414195051697509 -0.02537733267397668 0.2034048891516215 -0.06421374632688932 -0.01346101977317620 
-0.1481253296919194 0.2036799156282204 -0.01163502401130839 -0.003050838471421241 -0.001195965725944576 
-0.01150811323012881 -0.04512796937262912 0.08395448747341025 -0.01825258055392103 -0.01287627404708471 
-0.01117861944539547 -0.1806243712839341 0.1233099251426751 -0.02444056587624291 -0.02169896029858429 
-0.01663883923931785 -0.05371769172572027 0.1600882629758994 -0.02655613661608641 -0.05259226576643281 
-0.05920029990762802 -0.009635652573606454 0.05096643692208772 -0.001214012695853928 -0.002217275453734023 
-0.05395580831844166 -0.01510700269346276 0.2023203914707149 -0.04903978041892326 -0.01574201783982607 
-0.02543967529047946 -0.002234327072854908 0.1935470474970129 -0.07175547556381143 -0.1113068505070431 
-0.01437922642887553 -0.04682042366887244 0.06865273765658268 -0.02846280748928879 -0.03895505452637404 
-0.05529512018545530 -0.003033933947547883 0.05308439057693285 -0.002971680316365750 -0.0002353305501589052 
-0.1230130818367468 -0.01655845583343627 0.1442539394458885 -0.0006790474846668054 -0.001667683145296452 
-0.1256964072793894 -0.01875343726021329 0.3127330448859506 -0.06063517061293205 -0.004352845818637605 
-0.04043324932060042 -0.001494542626432782 0.2190218724144500 -0.09045014722360968 -0.1163498831275292 
-0.002960809696109371 -0.05871989786705836 0.2614282308132767 -0.1690449533277197 -0.02101006276469991 
-0.007842082402597615 -0.03214500140789585 0.1756929576405749 -0.06522159631196360 -0.05671044730736956 
0.7374671213701132 -0.2131525790937263 -0.04618546218100025 -0.3771116146583043 -0.01471633367328571 
-0.009361146797375150 -0.1052225815317922 -0.1046893585235841 0.2390350338666805 -0.01655539222991841 
0.2378830461882344 0.1924279379903692 0.08942290955499418 -0.08760566127697733 -0.1099517172893179 
-0.03310530475826844 -0.08966506959847399 -0.1771401120395342 0.3168384134812369 -0.02095356446232442 
-0.09834412873390495 -0.5848730531513957 -0.7770350367362805 0.7723469674601119 0.5702307410648956 
-0.1148649250540370 -0.2395466683184069 -0.5910109150874352 0.7874629016913607 -0.09266547551246997 
0.4975806497856399 -0.06703806101128243 -0.3265327862416687 -0.01145796547838388 -0.01607908639706350 
0.09180318798664724 -0.02311027853596019 -0.03869634330582131 -0.1035061088039758 -0.007336122254374270 
-0.08629745398226187 -0.01201642166577963 0.1857942864494778 -0.006199192886302499 -0.04509873099852818 
-0.01854275299721421 0.4043865965476445 -0.05366301076004231 -0.2238389333555087 -0.1201588243490891 
-0.001547137694798198 -0.05854961020048716 0.2759841199561104 -0.1664442534664626 -0.03543960368250197 
-0.05386041391184587 -0.006177930505871950 -0.5351643406511912 -0.1974277455503655 0.5726592041336614 
-0.01095275450048383 0.3225045539754743 -0.1809985068404514 -0.06821458919256526 -0.05032816825695630 
-0.02986476325326495 -0.04818988968865854 0.08589794534150823 -0.02330194995043749 -0.004469199650364005 
0.1197283807724970 -0.06012424159962965 -0.3108726264798339 -0.03170554567202470 0.2728107774486348 
-0.04793823797032455 0.2277561540355223 -0.06286861098448510 -0.03123375174360148 -0.06198507507669468 
0.3657545811898605 0.1237759949255993 -0.2839405949459092 -0.07934977854413125 -0.04287604201310040 
-0.009434600872524188 -0.06127352733311425 0.1088985809348928 -0.03409744395594865 -0.007785290762428052 
-0.03198672222836864 -0.003723429602639973 0.006053219159561375 -0.0009642728650361206 -0.001677728548253088 
-0.02603277443687727 -0.001442082600055132 0.04503106275356099 -0.03234592494509164 -0.04529332788964521 
-0.004785394124859759 -0.04023629666432951 0.1123667584797418 -0.06886593787162254 -0.01265461640186164 
-0.04353554517519504 -0.001238593719171857 0.1554288319753415 -0.03623688789750650 -0.06500304835277414 
-0.04202063847765519 -0.1154738341662277 -0.4504583701204409 0.5375654347631535 -0.02698719879246635 
-0.2015154081253418 -0.03203254963058684 0.03272267327360695 0.2128198645027373 -0.01977619046855163 
-0.01320838907224368 -0.1167254080832920 0.3633718005263333 -0.1702975269199533 -0.03383011585480372 
-0.09951372601987278 -0.04587658350917439 0.03062424088467896 0.3660608880697731 -0.05224038520369358 
-0.03399719380824381 -0.09141208556402214 -0.09623957381111950 0.08402085387969126 0.1694650675650062 
-0.01901870021005619 -0.009285441837732729 -0.07748432060329329 0.1048294420851973 -0.007210820047008971 
0.4326039340155158 0.5683230207232210 -0.8529073901449562 -0.02541552183066132 -0.04653266946306130 
-0.03830726693322761 -0.04791195099253520 0.1266396831478163 -0.05522095684499913 -0.1398352710204165 
-0.01413880137308082 -0.06310014827057330 0.04586275687492981 -0.01035520976877813 -0.02126578358181302 
-0.03967341782850489 -0.07727824709039582 0.1328007930472653 -0.03249037979274653 -0.01638109596963187 
-0.02256257694619339 -0.01876655982520292 0.03058429121168371 -0.01446064516669100 -0.01725905362221829 
-0.01828862233918450 -0.003453738615754271 0.1355318477289438 -0.1334770961277402 -0.01427094260903466 
0.2653879774511679 -0.03236606657368456 -0.1477122347986381 -0.01600416556825400 -0.01033402767469050 
-0.01811557202594835 -0.01792052284680876 0.07504104916418651 -0.02116702769098142 -0.05650507025667036 
-0.03725614387305593 -0.006252852369527867 0.1647205991213285 -0.09497039535744158 -0.03975443615734323 
-0.03470828663721910 -0.02159612863472739 0.07229571206332430 -0.02542528866832628 -0.007585032630971706 
-0.02497694040829086 -0.01044083374551598 0.1302287053601662 -0.07382454139017817 -0.01862083783689858 
-0.08067653898482528 -0.02205517804294013 0.2765314884830882 -0.03841650565763465 -0.02449479703230224 
-0.1141278369885257 -0.01087521845158813 0.3215133024425235 -0.08065833514058965 -0.02866945630347198 
-0.01316183714066870 -0.006343700586612383 0.01842443684700743 -0.01245045642098840 -0.003848624201925709 
-0.02008027536834125 -0.05042495512674911 -0.08475310267868091 0.3739525159193314 -0.07575913829970414 
0.4028416306905344 -0.1312246010620804 -0.1840635029723563 -0.02468650913139431 -0.004200102135132514 
-0.1556608623067310 -0.1706819802014135 -0.5063505878009270 0.6669432211347945 -0.1796217354717443 
-0.01542231257932617 -0.02309571603879305 0.07700259476691394 -0.03749538515420238 -0.03199774889190746 
-0.03904068052670873 -0.01687511736309960 0.05955100125601442 -0.009141591696358720 -0.006656306227832936 
-0.02377745402876592 -0.06961361232932634 0.1727107100471417 -0.03479491917086919 -0.03337470595274950 
-0.03291143712763031 0.2309062511815842 -0.1416553649631817 -0.2239606930863818 -0.03241507198509929 
-0.01627369929376284 -0.09746371442964030 -0.1558843306552952 0.007569899283015609 0.1796099790822151 
0.4242646607721435 -0.2155080330007289 0.1191481191939083 -0.06888024496254992 -0.009970576331222190 
-0.03558655279204696 0.2507406451071244 -0.1239573758732267 -0.09821833517540157 -0.01742423182393664 
-0.03786133514562876 -0.01681760935861751 0.1235380569171095 -0.05366897612823729 -0.06578247706981022 
-0.03145193127947077 -0.02552592561916466 0.1377820362420118 -0.06271692478936829 -0.06981588309240752 
-0.01726405937740489 -0.03258937775592574 -0.1057769298985066 0.2497167554832157 -0.01639157538858063 
0.2896912454772970 -0.2014210941933175 0.1267567245639709 -0.01911892785028624 -0.01388780841966253 
-0.01465650254368742 0.1805542456080133 -0.1777276431117974 -0.03952884906264310 -0.02090645609940824 
-0.04022948463100013 -0.01056793970798251 0.08168017404223432 -0.06316345263552146 -0.06225900239038116 
-0.06970996363817444 -0.01835746579091295 0.07336509834067938 -0.001460959487586795 -0.0008118541601419823 
-0.001313760109567537 -0.1366918477090274 -0.1040968216715552 0.1995328209430002 -0.007197775379966120 
-0.01602172401463414 -0.1246373387240038 -0.2067036760453858 0.4917349950982209 -0.1227004410427828 
-0.1322170725676100 0.2091370538133563 0.09195616583536642 -0.05359111613454264 -0.01737405384715299 
-0.06897418206037512 -0.004517465620178639 -0.07527025935124458 0.2373587304921166 -0.02316409396321183 
-0.02230582209759311 -0.01399089780410063 0.1590034571577099 -0.1738787686414965 -0.009822671668130983 
-0.01864175202815215 -0.01741847670032018 0.2212863182187849 -0.2203295619395810 -0.01160042172738550 
-0.03244901299721896 -0.001166127511578726 -0.2171661939883352 0.2843849358442855 -0.06514236082710673 
-0.001613108061133114 -0.05887078783963309 0.08178175546418574 -0.01657432045929068 -0.005273197094646988 
-0.01134315858330616 0.4317848730491276 -0.1405814069830691 -0.1578575576686947 -0.02795489481286661 
-0.01345237512917776 -0.02399043859847847 -0.04371042314857783 -0.2250997515972528 0.5500204842938264 
-0.009570708528197220 -0.03074928860270551 0.1012981452500071 -0.07217959372819249 -0.05500292384085017 
-0.02600977351190913 -0.02042081453915191 0.08344375990409653 -0.03650602408135446 -0.01528014334267377 
-0.01232559898399652 -0.04908125037647413 0.2157174100932398 -0.1653399009116344 -0.02113325672011176 
-0.05693918889431832 -0.1772547733300282 -0.3229175973008382 -0.1254322856798867 0.8019917631040624 
-0.2200601854877114 -0.02749855838054079 0.3358791384505193 -0.01698543378899352 -0.08444385152031567 
-0.02746593668374601 0.1613596013342556 -0.2436314889678878 0.3183056788588757 -0.1541834626625054 
-0.03782981314002754 -0.03886406812131903 -0.2060682687529950 -0.04924235583800320 0.4604421037034641 
-0.01150679978525203 -0.01726022449152187 0.2675566394045577 -0.1515189778125239 -0.1187548720493770 
-0.04891287712145274 -0.02249080788732718 -0.3635330382204269 0.06228142781190199 0.1896440039723619 
-0.007102276589202169 -0.009098093364804188 -0.1157265205956466 0.1928456487941127 -0.06840797109029562 
0.4499252909603785 -0.03028908057468784 -0.3262109733219443 -0.02507578881192839 -0.004468695441830950 
-0.003900491363185804 -0.07882813035508987 0.09822255224588562 -0.03415336511017987 -0.01598867055676851 
-0.01487900954567471 -0.02936484642576442 -0.1172913997283901 -0.1533737734100767 0.4758076178099780 
-0.01531732042630454 0.6028808418021467 -0.2473483288653945 -0.05485263994912656 -0.1398682016806533 
-0.02191763546400742 -0.04939209961200326 -0.1318097429700108 0.2232979999289780 -0.06046296435495244 
-0.05969969214812834 0.2595869172341194 0.09229557890463642 -0.1867523329058293 -0.2069180115419639 
-0.006821527516841060 -0.1320505024672101 -0.09719076769773116 0.2679786534175081 -0.005631146891575652 
-0.1003772441815353 -0.01941136533832490 0.1418983793214577 -0.04524119491651518 -0.01261562033339586 
-0.01853884745345936 -0.01095995833266440 0.03718994717557250 -0.05697452453376157 -0.002189701310498875 
-0.08844656173960397 -0.01030150602566177 -0.1313434089535355 0.2053860885411915 -0.02509591829612784 
-0.01882542873688782 -0.01979456177989592 0.1694522436840344 -0.1308354929612612 -0.06125889067498706 
-0.01561989566532999 -0.03304280904523270 0.1933274758185982 -0.1152441268926821 -0.03737179090242422 
-0.01136222640613781 -0.01320419386328446 -0.1392987473878943 0.1333955152032021 -0.009723594876345807 
-0.006466227348736607 -0.05864149482139525 -0.1078221144081267 0.2721035476796349 -0.03629509671461131 
-0.07436086808689402 -0.01144076268016694 0.3695202374269703 -0.1957597593383487 -0.03888753735965185 
0.3318278108827420 -0.03856061442856470 -0.09698757291281047 -0.02113598211429294 -0.04542195260213568 
-0.002028209796948061 -0.02074364269359564 0.1533844271263801 -0.3244071509118613 -0.003880678079855609 
-0.07657575918485601 -0.008540805992453252 0.1704281675673713 -0.03091883345414204 -0.004238985489287603 
-0.02155084081680325 -0.007288654666690929 -0.1224900206867291 0.1695146548314945 -0.004557203125788000 
-0.05265078640140389 -0.03484558971591071 0.1822955645726807 -0.05608474115394686 -0.008091492150224070 
-0.03163013094257923 -0.02864469478106295 0.1652624584968652 -0.05291888317886109 -0.05912668229130356 
-0.002042612156913863 -0.04655218183141315 -0.1221258649664514 0.1461677154358834 -0.05374561979986861 
-0.09651886766344339 -0.0003871650969767221 -0.08920834584981546 0.1823606375527941 -0.03060293456307229 
-0.05224334991754905 -0.01482554949309539 0.3865205483006564 -0.3380132256544626 -0.01152193574772296 
-0.01998813269924167 -0.2186422780210106 0.02300554344971538 -0.01021426441575712 -0.01032141861083412 
-0.04449837033978032 -0.002039229265170393 0.08804593509917727 -0.04043862304698964 -0.03494682168672277 
-0.1527214267237895 -0.02327899922118501 0.1360078094915433 -0.0008245984585241685 -0.001902171941214482 
-0.004512720936124163 -0.1431233995706649 0.2564787688060740 -0.03200485953872415 -0.04735054563548533 
-0.002467011396743921 0.4905523850310604 -0.3792241417686528 -0.06857515508533615 -0.02253296480160192 
-0.007413529983423375 -0.04448917056333666 0.08904188890654692 -0.01832895131335008 -0.05698333911588038 
-0.01312533013827532 -0.05437266542881292 -0.2699298346664725 -0.04279774914930817 0.3948682406055693 
-0.02072722939625995 0.2067838370894826 -0.2558358820707245 -0.006603582895947581 -0.002881716500084376 
-0.01852136617166792 -0.03061445998508339 0.1306223101394937 -0.07125488693942754 -0.05684735275247359 
-0.1085885123426777 -0.03161551587595163 0.3393884852946109 -0.04009604390928055 -0.0009244258956361547 
-0.01753864309997478 -0.007565329881372434 0.02822293555561331 -0.02571402116803893 -0.03684519899852335 
-0.03141948750758628 0.4496325198855236 -0.1994735850449199 -0.08184079222866922 -0.02571905048568752 
-0.04916162424816613 -0.03408978958529083 0.2287851139511685 -0.04861494223785380 -0.06531587896574000 
-0.008951321178973973 -0.02670603773181056 0.08351488975051338 -0.07761907092069510 -0.01008159513038900 
0.3739727395406633 -0.04245297738830010 -0.1249891664601895 -0.01500172555067315 -0.01144893882278015 
-0.02873269695116607 0.3659130655335027 -0.2516523066869736 -0.08023637362981989 -0.1457115643996266 
-0.03432160567129614 -0.06768856860953372 -0.2771766858368970 -0.01307507986054127 0.2364073570447665 
-0.03910964531397220 -0.2232828474748805 0.06689496951497516 0.3537311459908423 -0.1156124884330520 
-0.008312411020631879 -0.08265745572068453 0.1440701310039249 -0.02942786892049121 -0.04680053120375566 
-0.004430784814318156 -0.08125362095705009 -0.1376167237118366 0.2961794727503281 -0.03804837596752211 
-0.04769985863747558 -0.03025255628016223 0.08102520067364066 -0.01953405314653916 -0.008591539632222957 
-0.007818208558612370 -0.03018222891350429 0.1453244652914726 -0.08869093037113818 -0.004532292092879897 
-0.01360063217580122 -0.02615146535759380 0.1095001253134737 -0.05262767923799862 -0.03151479669214213 
-0.03585156183627907 -0.01349883983653687 -0.2825495506500028 0.3120057930889445 -0.003571000845701514 
0.1951544094960827 -0.004370724029997031 -0.1464516325318792 -0.04842015988818908 -0.0007316419842513034 
-0.02963156439895272 0.3797454121250621 -0.1799042011786618 -0.06999854700358955 -0.03586270408760744 
-0.005863214863951342 -0.09686340890031975 -0.07493059207482854 0.1602171628691730 -0.02427696344060628 
0.05099043431426391 -0.003835803819691931 -0.04105967915575760 -0.008009936954179614 -0.002077640959371432 
-0.007916902604031516 -0.07249540927990049 -0.2093195261103389 0.1644745392065357 -0.009682308533133068 
-0.02457993643625858 0.3936700226054837 -0.2034821800859021 -0.06839056688737356 -0.05837749834977393 
-0.06419515666413232 -0.03503604525051845 0.3246248540549430 -0.08228195647491612 -0.01542693642378036 
-0.01931988322503813 -0.04020910092269844 0.1264376870070085 -0.04023776669473933 -0.09742660548011635 
-0.009596462331096595 -0.1125353019845744 -0.1592220796655780 -0.1093644544311580 0.5218671853363305 
-0.03364499725745909 -0.02751654112705023 -0.02704852443707131 0.02792632381151153 -0.08292929968077044 
-0.03741123702247102 -0.01205014023847700 0.1647005720749888 -0.1107504647490823 -0.005950874628592335 
-0.008764052678746734 -0.01465802154504469 0.05979996992466768 -0.07850076922140048 -0.02590873237700977 
0.0002981907955804230 -0.1411659729472096 0.3559831349477542 -0.3817708698941730 -0.02519240563182841 
-0.01240941664795729 0.1519235480420213 -0.04442992591014916 -0.005578516191989020 -0.07361317078897929 
-0.05999166053534512 0.2600709062584406 -0.1821148514314386 -0.006828043274319816 -0.007250041221364020 
-0.01875258341670870 -0.03489626086915206 0.1012154409478304 -0.02982793292897606 -0.03086251692178409 
-0.02815871353108083 -0.02338093049558724 0.03822431249215091 -0.01735203572417005 -0.01815525265129075 
-0.04507205462971947 -0.03539843828547312 0.07782206400668794 -0.001292245561605308 -0.002113673097075241 
-0.05636203685675353 -0.07015598008638421 0.3932812035305828 -0.1306445691511950 -0.03674957982459959 
0.2987806092035129 0.08661146191441042 -0.2563811577238431 0.3348548254412336 -0.02849459153996399 
-0.009456415332324428 -0.01041723247381065 -0.09454961969525745 0.1380950733319064 -0.01533047595886364 
-0.1306478818695686 -0.02251582328074661 0.2128653299718367 -0.05280866210210047 -0.01129236470710651 
-0.03988465545860335 -0.02862701770715645 -0.1467632323940002 0.3208613096345391 -0.05537363316489791 
-0.004417955282759793 -0.02849700777967259 -0.1046555785711568 0.08358548173511589 -0.02570017839328758 
-0.09549329107642043 -0.01674388235698426 0.1424613835704569 -0.007753681579636869 -0.0009292929193677962 
-0.02463348764291642 -0.03715975958799370 -0.1525768205426984 0.2360335745153347 -0.01697293400768665 
-0.02059752032503773 0.4390681677857156 -0.2085691259582165 -0.02379275976072995 -0.07425640654354382 
-0.007941359193184507 -0.06739977700612186 0.4780881340166094 -0.1585384101314996 -0.004689688330524610 
-0.01915299415504009 0.3216154389030959 -0.01587923694807701 -0.2041953904949839 -0.07964325370084620 
-0.04135277204893402 -0.02244913045883748 -0.1324440378973421 0.2800028379785970 -0.01304565676547906 
-0.02043739217703157 0.1855794878329701 -0.06545870620405380 -0.04722377296016540 -0.02045494753409417 
-0.08522668393427879 0.3715725794358240 0.08866174045557007 -0.02292850553897540 -0.07739870611115282 
-0.01662947851614503 -0.1943834535646689 0.3115959778761657 -0.05234322813468077 -0.008506025159225068 
-0.01818862796864494 -0.09002596511329379 0.07130095658308214 -0.007100266101687398 -0.01427719155785927 
-0.007008366167641346 0.1620908889630411 -0.03426526401482483 -0.04522018538810009 -0.07776068012057748 
-0.02319755894787212 -0.06321111275964690 -0.1689291022264606 -0.06196894417897875 0.3547292290146890 
-0.1124189579779238 -0.01676160137235604 0.4177802371316633 -0.04082658513662497 -0.05398338087933056 
-0.03442695053082081 0.2327304555612627 0.08634205075735367 -0.09665468339592798 -0.04835539412827594 
-0.02607254695114590 -0.07877530148308526 0.1138870788935658 -0.01646629268039421 -0.01896815976602092 
-0.02610885268036924 -0.2968830458865359 0.3271128041759688 -0.01022168526748015 -0.005539497798416140 
-0.01498015613672771 -0.01194757969809815 0.04024130066983150 -0.02743574377323388 -0.02907200624909167 
-0.08334264640787159 -0.008344920383657667 0.07351452498667035 -0.005959113998182500 -0.002930606999622861 
-0.03595438376283196 -0.05782122937807801 0.09344400212682863 -0.001459755636194472 -0.005569178790918803 
-0.006428273670052352 -0.2599244785178497 0.1630195966216381 -0.002385033809069198 -0.02918214700519873 
-0.07680831115343685 -0.1654631453836175 0.2644391969361724 -0.003554444511816001 -0.007214347869040644 
-0.02473180525385282 -0.03176511240415281 0.1480794687007423 -0.02782487009171159 -0.05578578085970035 
-0.03474456223079060 -0.03440470822922304 0.08874519514091218 -0.01108112353563199 -0.009811311496344840 
-0.01542286865974372 -0.05430732669811934 0.09076245564465431 -0.01078736772933303 -0.01634570669339230 
-0.1135100860041300 -0.1441786525871822 0.4129883782036620 -0.05710146521507131 -0.03793601115282278 
-0.04865916891858133 -0.03385047042022021 0.08875908018812580 -0.003406690322274483 -0.001989403692801602 
-0.04407151161559431 -0.06400135699871419 0.2142623199020969 -0.03738766710653232 -0.1098922223430017 
-0.01079166476723720 -0.03674109229540298 0.1278558882391830 -0.05859460472625178 -0.005968271231490935 
-0.004743962856606256 0.1006454398331291 -0.1419695484120102 -0.006213962363266136 -0.05553111444070646 
-0.2282382128278872 0.1160066649531242 -1.327299177040874 0.8614776858447578 0.3455012237163450 
-0.3501108335283724 0.1853245084423696 0.3389598277058634 -0.5564918708986132 -0.2817232397642709 
0.6392266379952685 -0.4020712390159294 -0.1430655821821208 -0.8174893970998032 -0.6132300109569677 
-0.4171060675471834 0.3232777270276254 -0.03230786189954709 -0.3314193431365995 -0.1116719288986079 
-0.5333283590576571 0.4110860666652782 -1.092331753346714 0.5547465589440821 0.4843814160404985 
0.2958174820955913 -0.1770504838650031 0.2307295823657678 -0.2267367758493619 -0.03391539066001732 
-0.2520286333527063 -0.1775594321984500 0.4983825160196516 -0.09791520635733839 -0.1447647412349077 
-0.5702577968738567 -0.8117151363199058 1.241160813749479 -0.5257288766016864 -0.1663706714826540 
-0.05886222946613735 -0.1569025421551168 -0.1306571275162634 0.2554118803781495 -0.1169162478740199 
-0.09509679985400070 -0.2269444496899828 0.3854326205785940 -0.1128216590203483 -0.1422340972626965 
0.3919452380756279 -0.2269213199628856 -0.4073471031620628 -0.1045621050781943 0.1916246654656979 
-0.02608272685576245 -0.002117069951371486 -0.2257281141031402 0.2712332218498011 -0.02922416902458432 
-0.08920390121421917 -0.06038033928540268 0.1985089743714219 -0.06600223268166133 -0.1327129423480882 
-0.06278699267896483 -0.005492967880924663 0.2235777828281211 -0.1739157191747299 -0.04921776429575742 
-0.1091168711614574 -0.09422348909665437 0.4209409464554412 -0.1872851718106105 -0.2860065612195754 
-0.03123484538484512 0.1321289862621254 0.1250223177738853 -0.1364140091532503 -0.1348720614639664 
-0.008312411020631879 -0.08265745572068453 0.1440701310039249 -0.02942786892049121 -0.04680053120375566 
-0.03433290361859478 0.1422759022156579 -0.2371053350863770 -0.07428709947052411 0.1156581138334027 
0.2111956461970140 -0.3653882132064766 0.05699417981510239 0.03099053971384844 -0.9480203784559749 
0.1960760944892629 -0.3246820725697552 0.08268175104234773 0.1346644203906120 -0.5340440838576120 
-0.05846954836244733 0.003264872972587628 0.1774655467619667 -0.4244913377253589 -0.1284533795371173 
0.1547135137588649 0.08781737252688654 -0.3145705954880900 0.01092420593731103 -0.2159901867706836 
-0.4913696960868887 0.08499859629882904 -0.1295796514463616 0.4464718301293953 -0.1609323910229865 
-0.1299391066269560 -0.2959514085504374 0.4468569599914100 -0.06161116867762104 -0.03000665958770508 
-0.3205724959806163 -0.2042298135880669 0.4597124710541364 0.2596197226115364 -0.2705572311320701 
0.08834432374310937 0.4577334883179663 -0.3226125474042683 0.03089674985323167 -0.3701042010496608 
0.1550634880531361 -0.3570759337408117 0.3356824005015852 -0.2920939491669952 -0.2160799537523868 
-0.1822768249569731 -0.4136185111470787 0.4101328017179165 0.07271243005564285 -0.1518506709522158 
0.05653008573133185 0.08633172687271093 -0.2310520876648135 0.1188605341713591 0.06314330188265203 
-0.2664102144813735 -0.3083153820620252 0.4018762320545353 0.04380312071104398 -0.09644841922902392 
-0.1449355347921007 0.1687846372433146 0.1686234797872218 -0.09159197068564853 -0.07047682237483740 
0.2026922166450794 0.09428972187251743 -0.2491482128591285 -0.4099871596822045 0.003340781187961304 
-0.04031014346217734 -0.4648444953332120 0.3130255998925091 -0.09369223265111332 0.1690125140699975 
-0.3995961132498969 0.3433401656729235 0.04103668631064619 0.2363244288219762 -0.1654253314026439 
0.2937286708745738 0.1629698225430019 -0.3396348355404318 -0.1583326881913119 -0.05560914279021442 
-0.04533977671325610 0.1893624848340803 0.04333727090359566 -0.07389876513700255 -0.09396199751553270 
-0.04533977671325610 0.1893624848340803 0.04333727090359566 -0.07389876513700255 -0.09396199751553270 
-0.1604286938982549 0.1542651055803302 0.1748467562934845 -0.1086093345269961 -0.03393269427100352 
-0.1410190488490649 0.01303613764521732 0.2812982227337491 -0.3084731439762037 -0.2503316633128319 
-0.3158886066614247 -0.4037977111372134 0.1362624080611892 0.2499954019263409 -0.05397319240041466 
-0.1949084158735637 0.07669263209376471 0.1366094489115946 -0.03278232445081751 -0.01984152345605920 
0.2245168741271197 0.2166911779912841 -0.2399284536903283 -0.07876743923565946 -0.1260790640958355 
-0.1334197804626147 -0.1071475495446533 0.4464835183981274 -0.4454447804641628 0.1705914369604120 
-0.1544725850752500 -0.2173020398503427 0.2863004361976154 -0.03574993867260782 -0.02245632149778410 
-0.03465229125296295 -0.01769470654167764 0.1153779009511441 -0.04172423926720358 -0.01823937549803116 
-0.1218594779315001 -0.01896699829763661 -0.1360450232832222 0.2768624295419120 -0.02034899768464130 
-0.05092786531366111 -0.05249814845376800 0.06727887961827297 -0.003547658981254221 -0.002430984798396397 
-0.01286640807787904 -0.04379186327954446 0.08998286465315670 -0.006917123952678616 -0.06067332572511842 
-0.1393454895404366 -0.4637049346106980 0.4378476329729197 0.02137993179339890 0.1537610411243015 
1.151356997952350 -0.3621733506551829 -0.8972863829720032 0.3550896501988680 -0.03279709629051067 
0.2124674855200967 -0.2272663474478964 -0.3364293957235890 0.4531715571140246 -0.4877131842356481 
-0.1401570694557034 0.06206687971973770 0.3296797160423911 -0.4638485404420750 -0.2840622553493981 
0.7321663184496557 -0.3601418605495522 -0.4383260077783244 0.08206639643021078 -0.4628586825067417 
0.1431995326419941 0.7715060455077382 0.1138631710365658 -0.3112028068616894 -0.2658241583290639 
-1.252607826279170 0.5299267940875109 -0.003789083479299668 0.4590830900055239 -0.3855303785264407 
1.001854714544965 0.05231623971001222 -0.6187600044044091 -0.8762347822075577 -0.6683199100163920 
-0.4014993054268978 -0.5646135984525471 0.7953125272661873 -0.1741458629887926 -0.1040847011002168 
-0.5157335989956845 0.7478200843566815 -0.1533656724263025 -0.1998933878389787 -0.3597994668447800 
-0.06529977958033786 -0.03849295074932489 0.1038178623530872 0.2484199931263239 -0.3467491972381642 
0.03515902909938396 0.1064621052563066 -0.2601941557340450 0.1179581353745037 0.05836003879879807 
-0.05322932665768305 0.1154549112284459 -0.1496962336599150 0.1253649673128492 0.05992166573502117 
-0.004628845985934011 0.2104737721680920 -0.1326299246292221 0.1697840293584407 -0.1539979988466242 
-0.3668008098273803 -0.05124884981700561 -0.2891156676927168 0.09329809898365633 0.6774392993143327 
-0.3252696574562624 0.4371352579004319 -0.09928643556714402 0.08933135242885931 -0.1055685535320095 
-0.1260593927067077 -0.4021571810424304 0.3455269470245839 -0.08915410698709131 0.2303751366955633 
0.5377208798008318 -0.3585278137757259 -0.6876573364917415 0.4317223062284483 -0.1662543679269362 
-0.2372927265578123 -0.1853256052890556 0.4103621762744693 -0.2197164044879284 -0.09116823416876327 
-0.3013305530614420 -0.2824450072213708 0.1020422523953842 0.2650912667832656 -0.04758941223811916 
-0.6744305752484914 0.09002476953383846 0.8569866157522850 -0.2225233723455863 -0.02784525095908727 
-0.1604286938982549 0.1542651055803302 0.1748467562934845 -0.1086093345269961 -0.03393269427100352 
-0.4390168195002919 -0.1947821308440721 0.3104245418274472 -0.1898842759851869 -0.03512974701111616 
-0.2688234654299199 -0.6292023977675114 0.6400418939540424 -0.1971124228301448 -0.03701746057893163 
-0.03969682160839717 -0.2025615104499929 0.2336716281058712 -0.03343866172407212 -0.03960642119436292 
-0.1768539160057726 -0.1145694366869697 0.4858481711598379 -0.2070568766643407 0.02480457979968620 
-0.009553785121739856 -0.009222330731268265 0.02256884684440631 -0.008229073198556938 -0.003364905022500423 
-0.1218594779315001 -0.01896699829763661 -0.1360450232832222 0.2768624295419120 -0.02034899768464130 
0.2943364055039423 -0.1140718009769713 -0.1439416494605436 -0.05633270714043966 -0.06461898417702588 
-0.01753864309997478 -0.007565329881372434 0.02822293555561331 -0.02571402116803893 -0.03684519899852335 
-0.01286640807787904 -0.04379186327954446 0.08998286465315670 -0.006917123952678616 -0.06067332572511842 
-0.2530386810178421 -0.005086156187507871 0.1935994956409400 -0.004363915415963001 0.0001027052792424621 
-0.2544698050530562 -0.2647823878825266 0.4770259863532333 -0.2568934273927848 -0.1861101984663770 
-0.2653063195743486 0.5128082279052577 -0.1789521564661923 -0.6547786984771485 -0.05810645984689801 
-0.1399594626059434 0.1173592474976211 -0.06051082788082541 -0.01522892322083689 -0.008860911336378289 
-0.2493793594857373 0.3644323021815459 0.0004683183259245362 -0.2179830602251525 0.02899639932419092 
0.3351141130488600 -0.7035276395478840 0.4221511663056526 -0.4546559806364818 -0.2847376239792641 
-0.3736781029585434 -0.2007215751573298 0.04293898657582319 0.3108012653315100 -1.069432028166972 
0.05922713496006216 0.1157043339734880 -0.4588889005871637 -0.3237034170229529 0.6942695567227768 
-0.3052380447509598 0.04809885331708943 -0.1654390831240147 0.3188284724401336 -0.3819681301402916 
0.02620292223490907 0.1762354937755998 0.3250111465843288 -0.4764494315061036 -0.2723205161139362 
0.4283329450018731 0.02197053818187775 -0.5046193939146131 0.2080265805374775 -0.1021965565622570 
-0.2627760995418541 -0.4497011953642173 0.2416059625701925 -0.06752084335545301 0.2262249236253726 
-0.1287238377612425 -0.6613713617650270 0.5869410740701013 -0.6263139521189371 0.6425997621747870 
-0.3154853878062292 -0.2513552631387317 -0.4309357007908545 0.9142791819517161 -0.3265812972885511 
-0.01542231257932617 -0.02309571603879305 0.07700259476691394 -0.03749538515420238 -0.03199774889190746 
-0.04321570578565630 -0.05826582972975573 0.07424962081293582 -0.04425326991668099 -0.1379322235216206 
-0.1224284459980058 0.2100846163838898 -0.009661845540299998 -0.03835489818587978 -0.02180955913558227 
-0.003196212788322307 0.2995092059757514 -0.2049868997301991 -0.02972955786099047 -0.01583036429928835 
0 0 0 0 0 
-0.03114417730575683 -0.1520092147827870 0.1618815588475146 -0.04625560516629017 -0.007365353201970466 
-0.03114417730575683 -0.1520092147827870 0.1618815588475146 -0.04625560516629017 -0.007365353201970466 
-0.05010198760685158 -0.2864998403939619 0.2163889854709399 -0.04921262132974803 -0.01374359208533462 
-0.3886285387742245 -0.04606092360881720 0.1862741754534810 0.4219183371338621 -0.009035589143213356 
0 0 0 0 0 
0 0 0 0 0 
0 0 0 0 0 
-0.5543864122459374 -0.06855481685041304 0.3928092573949171 -0.1768023788785513 0.03786927215937109 
-0.01447252251410103 -0.01174233950752010 -0.09593813636886392 -0.03745057251455239 0.1036539412605305 
-0.009468495079369017 -0.02866859497690659 0.1204457336559877 -0.06312462612379677 -0.02882427437473222 
0 0 0 0 0 
-0.1131163816920975 -0.1291369776947369 -0.2096949968585090 0.5615321612776666 -0.05751798032870964 
0.5931153099015322 -0.2871275405938452 -0.03748096442481187 -0.09632503541669972 -0.08972480812065997 
0 0 0 0 0 
0 0 0 0 0 
0 0 0 0 0 
0 0 0 0 0 
-0.4406905056970216 -0.1417018618057569 0.3821143081656758 -0.4427083987775994 0.3211908804842616 
0 0 0 0 0 
0 0 0 0 0 
0 0 0 0 0 
0 0 0 0 0 
0 0 0 0 0 
-0.09111706975982595 0.2544080128692293 0.04828247660555449 -0.1021030542497420 -0.1001523296058935 
-0.09189592282761185 0.2809591444268746 -0.4397714097625409 -0.2001040253924282 0.4493135609813944 
-0.03936795115802976 -0.04810233605743696 -0.07481538959834286 -0.05438834963454535 0.2493615297641105 
0.2056139074730530 -0.07092983523347246 -0.2563720791833741 -0.06093734757840871 0.2443281732280858 
-0.01946662429125746 -0.1014857572213030 0.2673084860377578 -0.1121172236633179 -0.08620249021127488 
-0.01464036224423757 -0.07576535382231445 0.2242333716043704 -0.1081012679951604 -0.02074099376119806 
-0.01998189565855668 -0.08560539368821829 0.2255006723519498 -0.08225700345243582 -0.01873349696101691 
-0.003174791962844007 0.2347379686765909 -0.05544453933760526 -0.05550377122608044 -0.08725361014324512 
-0.02005237753862739 0.3627227461993360 0.1110451681469066 -0.1444776616830880 -0.3193262790916409 
-0.4426061476884898 -0.7074160281993571 -0.7908992667480422 1.322711566633864 0.09291075594632055 
0.4645386824463757 -0.02210616087917285 0.06385660544957211 -0.3019087984937245 -0.2472448564870969 
-0.3130176521976938 -1.278566098840157e-05 0.3707170468422778 -0.07420527499758137 -0.03816649221086447 
-0.02831982625235559 0.03875830024213511 0.05433734211460154 -0.07098094644975980 -0.03138170370934043 
0.4460247995971928 -0.1091172109297777 -0.2279884210760586 -0.05922915392210826 -0.02045736599859946 
0 0 0 0 0 
0 0 0 0 0 
0 0 0 0 0 
0 0 0 0 0 
-0.08796374323589662 -0.04417111709819770 0.3244959369766141 -0.04100619926886901 -0.007751478820444727 
0 0 0 0 0 
-0.06651022875275066 -0.01060428126916840 0.2242096842612155 -0.1729708626829509 -0.04502090574483175 
0 0 0 0 0 
0 0 0 0 0 
-0.4924989049054236 -0.1065088149955965 0.5243048265419563 -0.06246586339659248 -0.1712644986238496 
-0.004153607675046972 -0.06501696289596715 0.3233063018113035 -0.04532270529500719 -0.1625653703720763 
0 0 0 0 0 
0 0 0 0 0 
0 0 0 0 0 
-0.03071767114939965 -0.07762543276916434 -0.02138385179726110 0.3282133670207467 -0.2123055504999180 
-0.003888745101668447 -0.04962422059523427 0.04958424426825656 -0.1067320230250324 -0.06124965904850457 
-0.4284261054020902 -0.1079487900512626 0.4503851318724053 0.3042767136239407 -0.2244221581626485 
-0.02880032957551918 -0.01058386828121275 0.05325899527430408 -0.03449342238581955 -0.02526268735243398 
0 0 0 0 0 
0 0 0 0 0 
0 0 0 0 0 
0 0 0 0 0 
0 0 0 0 0 
-0.04043324932060042 -0.001494542626432782 0.2190218724144500 -0.09045014722360968 -0.1163498831275292 
0 0 0 0 0 
0 0 0 0 0 
-0.01090595558343135 -0.01305478465925762 0.1184197343172168 -0.09465968602972245 -0.08505268583394279 
0 0 0 0 0 
0 0 0 0 0 
0 0 0 0 0 
0 0 0 0 0 
0 0 0 0 0 
0 0 0 0 0 
0.1169354279989070 -0.005978254612941578 -0.1092977429448365 -0.001726880292828670 -0.003477192649543293 
0 0 0 0 0 
0 0 0 0 0 
-0.01123119795345924 -0.05032434958508324 -0.07624241235342703 -0.1373904726809163 0.2606800691563912 
0 0 0 0 0 
-0.03558655279204696 0.2507406451071244 -0.1239573758732267 -0.09821833517540157 -0.01742423182393664 
0.2040634052284223 -0.02202341808140763 -0.2140373955960808 -0.004236662218697007 -0.006777400558471335 
0 0 0 0 0 
0 0 0 0 0 
-0.2065185967704175 -0.03964189024399801 0.1850292390495452 -0.03489715229768304 0.08980263811292422 
-0.01768547028983240 -0.01860667273101756 -0.09375272819450288 -0.02790971745952482 0.09847754565863003 
0 0 0 0 0 
0 0 0 0 0 
0 0 0 0 0 
0.06159668657785649 -0.002273831994950138 -0.08483530204341658 -0.003072089469396785 -0.001209781403898480 
0 0 0 0 0 
0.04659248153072108 -0.006344759127853793 -0.03169505763337972 -0.003092810143650857 -0.0008921616985340388 
0 0 0 0 0 
0 0 0 0 0 
0.4802992570761315 -0.04402504791653159 -0.4251882634635443 -0.006461272235654614 -0.008012480826336132 
-0.04774622177922912 -0.05062692057142616 0.2602195221460741 -0.02211180883628520 -0.1697273410913959 
0.09784838641261781 -0.006640746944353220 -0.09122302270638091 -0.001192856543213171 -0.003068019819590556 
0 0 0 0 0 
0 0 0 0 0 
0 0 0 0 0 
0 0 0 0 0 
0 0 0 0 0 
0 0 0 0 0 
0 0 0 0 0 
0 0 0 0 0 
0 0 0 0 0 
-0.1991228508566698 -0.02599920639744099 0.3738746862849622 -0.1277096874007644 -0.1731568310579460 
0 0 0 0 0 
0 0 0 0 0 
0 0 0 0 0 
-0.1753690473574470 -0.07955313857345805 0.3233889567982607 -0.005873832110200846 -0.06350877121295270 
0 0 0 0 0 
0 0 0 0 0 
0.1181274372731794 -0.002139916884194752 -0.09883530194203818 -0.005544359483492499 -0.0008360660356401086 
0 0 0 0 0 
-0.5516346787233298 0.1869999081067968 0.5628437517363120 -0.09002634462612627 -0.09523222912094371 
-0.04533977671325610 0.1893624848340803 0.04333727090359566 -0.07389876513700255 -0.09396199751553270 
-0.005644072486724092 -0.005240811502607768 -0.2148798061526531 -0.009256258717412410 0.1311735916469608 
-0.02115908632839616 -0.04172509307216758 -0.3115046423438392 -0.02310631832270033 0.4950111482854819 
-0.001548763300438930 -0.07982821689045834 0.2271956870631706 -0.1240409608994062 -0.03025253536161642 
0 0 0 0 0 
0 0 0 0 0 
0 0 0 0 0 
0 0 0 0 0 
-0.01453542788189644 -0.1469554838004994 -0.06262948726895103 0.4153498688001056 -0.06436766045370018 
0 0 0 0 0 
0 0 0 0 0 
0 0 0 0 0 
0 0 0 0 0 
0 0 0 0 0 
0 0 0 0 0 
0 0 0 0 0 
0 0 0 0 0 
-0.6841829586745103 0.1460617017978867 0.5284636845722408 -0.1548631785111757 -0.2195138789519376 
-0.02886450515594131 -0.2111718631757255 0.1228374805885857 -0.1523561000587085 0.06529204842432065 
-0.1450122474304805 0.4615460362137185 -0.09540084821796302 0.03627112205360750 -0.2686988649624042 
-0.5010818596312755 -0.4044988205071352 1.096179937426563 0.1846147402495156 -0.2063103367161594 
0 0 0 0 0 
0 0 0 0 0 
-0.6941695576719182 1.582592412529008 -0.5632611661375858 -0.8443341132308821 0.009831389377268074 
-0.01186484569044305 0.1185959981140670 0.2380697761947973 -0.1566365940161703 -0.3786406086136022 
-0.003589732821825179 0.1101715791495432 -0.07513392022410574 -0.04002775259761603 -0.007012359857454410 
0 0 0 0 0 
-0.3837164168804000 -0.09772462104446052 0.06605905520212907 0.1880792370850742 0.3088822913932898 
-0.03655021534011693 -0.1739636612427364 -0.1490197714669241 -0.1484531429461164 0.4046483509987143 
-0.01603025279450598 -0.01939766163713422 -0.3282533186614340 0.4261936321618062 -0.03064009986430956 
-0.02880602335405858 0.1905039964239860 -0.1364813976824634 -0.008513200276699742 -0.004894245147876972 
0 0 0 0 0 
-0.02460939720319017 -0.1300419685976453 0.3763153959623511 -0.06296940108814124 -0.1012827577619612 
0 0 0 0 0 
0 0 0 0 0 
-0.01394484600357872 0.06559605177369927 -0.06224771680517299 -0.01242203908418967 -0.01164107414091843 
0 0 0 0 0 
0 0 0 0 0 
0.1887550035389543 -0.007548326023510260 -0.1437215101546269 -0.002601309892271661 -0.001242445301641189 
0 0 0 0 0 
0 0 0 0 0 
-0.0009339378541928500 -0.01408998062098841 -0.05875111374149518 0.04736604968670428 -0.01219775722729501 
0 0 0 0 0 
0 0 0 0 0 
0 0 0 0 0 
-0.007842082402597615 -0.03214500140789585 0.1756929576405749 -0.06522159631196360 -0.05671044730736956 
0 0 0 0 0 
-0.006428818607819745 -0.03076314261275180 -0.02087901691155565 -0.04415261971273771 0.06654497509838597 
0.1171698053652219 -0.03552720416113352 -0.1903128162235894 -0.04916987158073768 0.06531943278876888 
0 0 0 0 0 
0 0 0 0 0 
-0.002752392741246921 -0.02459934965577457 -0.08186391173489360 -0.06583665921110732 0.1553519772156022 
0 0 0 0 0 
-0.01414195051697509 -0.02537733267397668 0.2034048891516215 -0.06421374632688932 -0.01346101977317620 
-0.2291756740321129 -0.2052510975451673 0.6050558187385152 -0.01086214370356493 -0.1624473181742178 
-0.02711986714333925 -0.005864868870993800 0.2596371564801152 -0.1004093543595415 -0.1228472757314062 
-0.01740734997770865 -0.01106828241342086 -0.04591837078747776 0.09060213360996153 -0.006845366795315427 
-0.01740734997770865 -0.01106828241342086 -0.04591837078747776 0.09060213360996153 -0.006845366795315427 
0 0 0 0 0 
-0.2305707483120545 -0.01564957723669889 0.1601478278102151 0.06505594166641818 -0.03368405561008073 
-0.02543967529047946 -0.002234327072854908 0.1935470474970129 -0.07175547556381143 -0.1113068505070431 
-0.01437922642887553 -0.04682042366887244 0.06865273765658268 -0.02846280748928879 -0.03895505452637404 
-0.1879442314112744 0.1546251648864931 0.2505647611422872 -0.1032691215245215 -0.1514578707593617 
-0.01663883923931785 -0.05371769172572027 0.1600882629758994 -0.02655613661608641 -0.05259226576643281 
0 0 0 0 0 
0.1099874287167120 -0.001203061312762337 -0.1634572405405295 -0.003821255034550421 -0.0003002257312373494 
0 0 0 0 0 
0 0 0 0 0 
0.2148386969711889 0.02899143774444919 -0.01219551332762340 -0.1899615537278011 0.2727799337535251 
0 0 0 0 0 
0 0 0 0 0 
0 0 0 0 0 
0 0 0 0 0 
-0.1230130818367468 -0.01655845583343627 0.1442539394458885 -0.0006790474846668054 -0.001667683145296452 
-0.002960809696109371 -0.05871989786705836 0.2614282308132767 -0.1690449533277197 -0.02101006276469991 
-0.3144281077991286 -0.04593131838583672 0.3613223099982696 -0.06956614244771225 -0.06156499685005067 
-0.1661296565999899 -0.02024797988664607 0.5317549173004007 -0.1510853178365418 -0.1207027289461668 
0 0 0 0 0 
-0.03581575304321139 -0.1161931775018078 -0.09300079544912067 -0.06207198853198097 0.2369123145748443 
0 0 0 0 0 
0 0 0 0 0 
0 0 0 0 0 
-0.01205639276010322 0.3195547936531782 -0.06998016001039907 -0.04254335632529886 -0.05658700511119174 
0.06929243345938380 0.3072216089482299 -0.2035312143091849 -0.04543131002691443 -0.05708383051400993 
-0.2347881177465567 -0.04028774267571837 0.3136880859420100 -0.05799024997368784 -0.02059824331088409 
-0.06915395031933610 -0.04858922123616474 0.2112620378045224 -0.04649287703494896 -0.03081051241234595 
0.4100627074109025 -0.01281389630219428 -0.09753164040050737 -0.04332298103834419 -0.02541956267876561 
-0.2332876533426821 -0.09380163416112307 0.4004180172417413 -0.04227041611667151 -0.01342945533869645 
-0.01457221539995839 -0.02180573824270259 -0.08191145742676811 -0.04444386695923207 0.1499327895520239 
0 0 0 0 0 
0 0 0 0 0 
0.3175405243731601 -0.05903785020893717 -0.4320956590468327 -0.07174500910679746 0.1454118795171149 
0 0 0 0 0 
-0.02405966882451834 -0.04196373717360048 -0.09093396934851024 -0.05731390808067490 0.1528153927416475 
0 0 0 0 0 
0 0 0 0 0 
0 0 0 0 0 
0 0 0 0 0 
0 0 0 0 0 
0 0 0 0 0 
-0.07663189008125303 -0.1377560510214128 0.07282985684533576 0.2277330799401613 -0.02838066449828294 
-0.02287085106444538 -0.03788161159995296 -0.1363451256422240 0.2262342857162466 -0.05985431593800034 
-0.1187606875485656 -0.1692382255441405 -0.5610029609020333 1.001288042829489 -0.1150730327859890 
-0.03220593465706847 -0.03436615951910096 0.2905530225084298 -0.1023087663360114 -0.01929372592365792 
0 0 0 0 0 
0.1028307086954032 -0.9489546380974895 -0.3000412585191595 0.9859377637080703 0.5448532085208039 
0.4428756955499272 -0.3160096602997819 0.06141027668787065 -0.3886625945477855 0.09108314471782417 
-0.3994439259348213 -0.5503596387768406 -0.1986613114143202 0.8876224091996050 -0.2697304986208132 
0 0 0 0 0 
0 0 0 0 0 
0 0 0 0 0 
0 0 0 0 0 
0 0 0 0 0 
0.1326206342953056 -0.003032875063761448 -0.2052680266656128 -0.003485768102178160 -0.001420895794386572 
0 0 0 0 0 
0 0 0 0 0 
0 0 0 0 0 
0 0 0 0 0 
0 0 0 0 0 
0 0 0 0 0 
0.1355669196502824 -0.003658242245573500 -0.1385463572269410 -0.002720369327096552 -0.001687440399637234 
0 0 0 0 0 
0 0 0 0 0 
0 0 0 0 0 
-0.1835450200885507 0.09066244725815338 0.1413886651097653 -0.4865849956743054 0.1651922638200241 
-0.01366048052522003 0.3479918511005720 0.04961585944210724 -0.2716218706279506 -0.1739417032996517 
-0.06000964080292816 -0.01833067972641203 0.07601439020813493 -0.2174642142331681 0.2677858676509532 
-0.08655013491655052 -0.05175049556925434 0.3305193674053370 -0.1349333970606690 -0.08240452412960476 
0 0 0 0 0 
-0.02253173600305806 -0.05890371893769684 0.3625053347475596 -0.08368290952970736 -0.03120687096510492 
-0.04756625418111267 -0.1958406644817788 0.2847065147142355 0.2204330677704709 -0.07723427596518187 
-0.001564156646673576 -0.08710844432979273 -0.2079924426195431 0.3595779017653751 -0.03950747984751297 
0 0 0 0 0 
0 0 0 0 0 
0 0 0 0 0 
0 0 0 0 0 
-0.01095275450048383 0.3225045539754743 -0.1809985068404514 -0.06821458919256526 -0.05032816825695630 
-0.01095275450048383 0.3225045539754743 -0.1809985068404514 -0.06821458919256526 -0.05032816825695630 
0 0 0 0 0 
-0.01561989566532999 -0.03304280904523270 0.1933274758185982 -0.1152441268926821 -0.03737179090242422 
-0.01882542873688782 -0.01979456177989592 0.1694522436840344 -0.1308354929612612 -0.06125889067498706 
-0.01084665341530795 0.1772742928864836 -0.1277426586926569 -0.02545139242580309 -0.03671275000324575 
-0.3611205595251437 0.1096006702350022 0.2367611993554880 -0.05215812818796613 0.07873461462250034 
-0.01288532283288333 -0.05842996314747852 -0.06182454159442108 -0.02264703616763533 0.1190848297300090 
0 0 0 0 0 
0 0 0 0 0 
0 0 0 0 0 
-0.03937692325029668 0.2324493404021560 -0.2556018759964407 -0.07558902761870336 0.07067763231939567 
0 0 0 0 0 
-0.001414775302198807 -0.07361301191830234 0.4137971176178704 -0.2727385411068402 -0.03225237712838733 
0.1065009679841064 0.1837516914074655 -0.1759094336710076 -0.04565561925016473 -0.1053291213714323 
0.1065009679841064 0.1837516914074655 -0.1759094336710076 -0.04565561925016473 -0.1053291213714323 
0 0 0 0 0 
-0.04793823797032455 0.2277561540355223 -0.06286861098448510 -0.03123375174360148 -0.06198507507669468 
0 0 0 0 0 
0 0 0 0 0 
0 0 0 0 0 
0 0 0 0 0 
0 0 0 0 0 
0 0 0 0 0 
-0.004913559261680803 -0.01040761188335396 -0.1829646235471255 0.2357563107103719 -0.09387042077768193 
0 0 0 0 0 
0 0 0 0 0 
0 0 0 0 0 
0 0 0 0 0 
0 0 0 0 0 
-0.01600793194204443 -0.003436721309503329 -0.2398938835487954 0.2834026233926141 -0.06589272685855366 
0 0 0 0 0 
0 0 0 0 0 
-0.1081459956807434 -0.1993271473776575 0.2664954589100840 0.1129340822555252 -0.08695458079530026 
0 0 0 0 0 
0 0 0 0 0 
-0.07354948418620731 -0.1678398715083104 0.1982330675667504 0.1353268099946521 -0.08268700438476712 
0 0 0 0 0 
0 0 0 0 0 
0 0 0 0 0 
0 0 0 0 0 
0 0 0 0 0 
-0.2657332121506614 -0.02572059923020505 0.3765066867299430 -0.04417325041903671 -0.007477224024148312 
0 0 0 0 0 
0 0 0 0 0 
0 0 0 0 0 
-0.01055441746695538 -0.01174284433533141 0.08973400769234058 -0.05518703892312305 -0.03392182067910157 
-0.004913559261680803 -0.01040761188335396 -0.1829646235471255 0.2357563107103719 -0.09387042077768193 
-0.004785394124859759 -0.04023629666432951 0.1123667584797418 -0.06886593787162254 -0.01265461640186164 
-0.04353554517519504 -0.001238593719171857 0.1554288319753415 -0.03623688789750650 -0.06500304835277414 
-0.1157750368378249 -0.1079139299193107 0.4277784533030984 -0.1725104675352054 -0.1324140119549621 
-0.04353554517519504 -0.001238593719171857 0.1554288319753415 -0.03623688789750650 -0.06500304835277414 
-0.02603277443687727 -0.001442082600055132 0.04503106275356099 -0.03234592494509164 -0.04529332788964521 
0 0 0 0 0 
0 0 0 0 0 
0 0 0 0 0 
-0.002759986212731282 -0.01784903984196885 -0.1374987263514813 -0.1764393137991962 0.2904051352147593 
-0.006735443554973732 -0.01746382874832797 0.1639006027818977 -0.1314567942024938 -0.04929941007215698 
-0.009369642165715150 -0.02169122234914684 0.2198982049791932 -0.1502919755446012 -0.02145683353911058 
0 0 0 0 0 
0 0 0 0 0 
0 0 0 0 0 
0 0 0 0 0 
0 0 0 0 0 
-0.01811557202594835 -0.01792052284680876 0.07504104916418651 -0.02116702769098142 -0.05650507025667036 
-0.009052867329345187 -0.01324930140898610 -0.05623510972837917 -0.1034774464744117 0.1368076637960797 
-0.2036908756450171 -0.03181524417411313 0.2224165165242390 -0.1496030745214283 0.1258217351941715 
-0.03725614387305593 -0.006252852369527867 0.1647205991213285 -0.09497039535744158 -0.03975443615734323 
0 0 0 0 0 
0 0 0 0 0 
0 0 0 0 0 
0 0 0 0 0 
0 0 0 0 0 
0 0 0 0 0 
0 0 0 0 0 
-0.02008027536834125 -0.05042495512674911 -0.08475310267868091 0.3739525159193314 -0.07575913829970414 
-0.02008027536834125 -0.05042495512674911 -0.08475310267868091 0.3739525159193314 -0.07575913829970414 
0 0 0 0 0 
0 0 0 0 0 
0.08393203426542298 -0.007568433859403784 -0.1067771168597120 -0.002419566838506222 -0.0003929349494381732 
-0.06292799640907834 0.07520394607361833 0.3062430089090272 -0.03354157894008012 -0.1981083563093682 
-0.01059409349411057 -0.02452437969702240 0.2874671016156868 -0.002631497616625026 -0.1347747764555721 
-0.01244983630006768 -0.01679076636455739 0.08466930791402631 -0.001843626845708650 -0.05200530818493398 
0 0 0 0 0 
0 0 0 0 0 
0 0 0 0 0 
0 0 0 0 0 
0.1405918401332325 -0.03733014421787384 -0.08809796666086467 -0.003502857911413144 -0.0003991635291751282 
0 0 0 0 0 
0 0 0 0 0 
0 0 0 0 0 
-0.07824044713480083 -0.1095844457312190 0.3092643060700701 -0.08143189602143029 -0.07202876107248989 
-0.02377745402876592 -0.06961361232932634 0.1727107100471417 -0.03479491917086919 -0.03337470595274950 
-0.01310946015907430 0.1790545202677881 -0.1048825842112102 -0.1780717056814208 -0.02522790559696639 
0 0 0 0 0 
-0.01474296516522232 -0.04675681282152474 -0.1448832130532900 0.3527593512519214 -0.08694437301688655 
-0.01123119795345924 -0.05032434958508324 -0.07624241235342703 -0.1373904726809163 0.2606800691563912 
0.3886781079800965 0.03523261210639549 -0.004809256679318481 -0.1670985801379515 -0.02739480815515883 
-0.03145193127947077 -0.02552592561916466 0.1377820362420118 -0.06271692478936829 -0.06981588309240752 
-0.01123119795345924 -0.05032434958508324 -0.07624241235342703 -0.1373904726809163 0.2606800691563912 
-0.02230656071770850 -0.07972874260048280 -0.1854188482003747 0.3946771274471476 -0.09746166546275674 
-0.03786133514562876 -0.01681760935861751 0.1235380569171095 -0.05366897612823729 -0.06578247706981022 
0 0 0 0 0 
0 0 0 0 0 
0 0 0 0 0 
0 0 0 0 0 
0 0 0 0 0 
-0.04289194365106480 0.1034719212954629 -0.03893832907534477 -0.009728894463213351 -0.0005953954876133129 
-0.007008366167641346 0.1620908889630411 -0.03426526401482483 -0.04522018538810009 -0.07776068012057748 
0 0 0 0 0 
-0.04789753979987672 -0.04429846849564225 -0.1738193191227724 -0.07187687758946560 0.3665676273568125 
0.2750347429336096 -0.02086684858530425 -0.05097091854782648 -0.05864777691292934 -0.03479426451907076 
-0.009587207445702167 -0.1240417912257777 0.03753232763900236 0.2080960576656975 -0.09938490677352493 
-0.001313760109567537 -0.1366918477090274 -0.1040968216715552 0.1995328209430002 -0.007197775379966120 
-0.08960773861362210 -0.1351471575233402 0.4308634032821920 -0.1070633953684161 -0.1256718050708374 
0 0 0 0 0 
0 0 0 0 0 
0 0 0 0 0 
0 0 0 0 0 
0 0 0 0 0 
0 0 0 0 0 
0 0 0 0 0 
0 0 0 0 0 
-0.03877022322054742 -0.1035100631925712 -0.1912652937686351 0.4769778510259762 -0.1245968328876254 
-0.04633193407448087 0.3011694993197677 -0.1258092755465698 -0.1174818443642274 -0.04972886766214823 
0 0 0 0 0 
-0.08390129633874709 0.2610106164280654 -0.1741771990312106 -0.001945897609538621 -0.01085488103387346 
0.08741290954853650 -0.004212628424263370 -0.08821957457359672 -0.005907049961986363 -0.0009395649712670708 
0 0 0 0 0 
0 0 0 0 0 
0 0 0 0 0 
-0.03421359668503447 0.7441512824177431 -0.2847915045494434 -0.2657392391226257 -0.06588343692508165 
-0.1029695439499678 -0.02303062932319833 0.07448292024890404 -0.1453449831997023 0.1892179542718330 
-0.01918162847645265 -0.05290733472201840 -0.1646097010856037 0.3946970291019891 -0.06519427420765693 
-0.1099217561861204 -0.03592684012459945 0.3050195160252502 -0.1568496000889610 -0.04458718735872831 
-0.01864175202815215 -0.01741847670032018 0.2212863182187849 -0.2203295619395810 -0.01160042172738550 
-0.01345237512917776 -0.02399043859847847 -0.04371042314857783 -0.2250997515972528 0.5500204842938264 
-0.009570708528197220 -0.03074928860270551 0.1012981452500071 -0.07217959372819249 -0.05500292384085017 
-0.3150497104988330 -0.1052611303763791 0.5017167301005150 -0.08437671950533811 -0.05352220462057927 
0 0 0 0 0 
0 0 0 0 0 
0 0 0 0 0 
-0.2355176212582470 -0.05767323928708797 0.2718712158232579 -0.05444014627339943 0.02817987995015508 
-0.2355176212582470 -0.05767323928708797 0.2718712158232579 -0.05444014627339943 0.02817987995015508 
0 0 0 0 0 
-0.01571514025237902 0.3809863821367263 -0.1218147603842410 -0.06089231950449672 -0.003756215463397207 
0 0 0 0 0 
0 0 0 0 0 
0 0 0 0 0 
0 0 0 0 0 
-0.007076203478074115 0.05493251606712427 -0.03030086598839184 -0.01919502400369194 -0.01445339868438983 
0 0 0 0 0 
0 0 0 0 0 
0 0 0 0 0 
0 0 0 0 0 
0 0 0 0 0 
0 0 0 0 0 
0 0 0 0 0 
0 0 0 0 0 
0 0 0 0 0 
0 0 0 0 0 
0 0 0 0 0 
0 0 0 0 0 
0 0 0 0 0 
0.01597408785920034 -0.002274786157006584 -0.02796201015937029 -0.0006547692685964282 -0.0008026602281653475 
0 0 0 0 0 
0 0 0 0 0 
0 0 0 0 0 
-0.05441441046108100 0.2569811321661030 -0.3046361168846752 -0.1052513825595118 0.2916180162496377 
0 0 0 0 0 
0 0 0 0 0 
0 0 0 0 0 
-0.008951321178973973 -0.02670603773181056 0.08351488975051338 -0.07761907092069510 -0.01008159513038900 
-0.004197850404614734 -0.1362846673136908 -0.1343548078670610 0.2001695440151331 -0.02940024116236374 
-0.01150679978525203 -0.01726022449152187 0.2675566394045577 -0.1515189778125239 -0.1187548720493770 
-0.01205557911905989 -0.02065571100003490 0.2058688536259655 -0.1342368614231016 -0.05574579344209609 
0.1849676154105598 -0.05945141348255694 -0.1605411415366830 -0.06025115257201175 0.2301856160400970 
-0.02113532278047017 -0.04556372436592552 -0.07188852325952645 -0.05073525533645706 0.2313533824110626 
0 0 0 0 0 
0 0 0 0 0 
0 0 0 0 0 
0 0 0 0 0 
0 0 0 0 0 
0 0 0 0 0 
0 0 0 0 0 
0 0 0 0 0 
-0.02024707792133877 -0.008182740241620908 -0.04775205908563582 -0.2087709655092991 0.1972406192039236 
-0.03227457189119204 -0.06543204009016737 0.04720773262563684 0.1633486372408614 -0.1550546745769207 
0 0 0 0 0 
-0.01029396199411382 -0.007477350819644099 -0.2962029553295628 0.09625703378933889 -0.005732543642615069 
0 0 0 0 0 
-0.02263572114678558 -0.01743468526259686 -0.04388743500544882 0.05270457360761075 -0.01363674947100233 
0 0 0 0 0 
0 0 0 0 0 
0 0 0 0 0 
0 0 0 0 0 
0 0 0 0 0 
-0.005542653116490807 -0.005487364552028060 -0.05664218193630297 0.07132171724308572 -0.03608256674785371 
-0.008343398406039593 -0.1302260902660941 -0.1610931539997725 -0.04267809380615042 0.2492842411893129 
-0.02411746020457718 0.3513046784276572 -0.1985764319436818 -0.1471063543874884 -0.09847737322452615 
-0.006821527516841060 -0.1320505024672101 -0.09719076769773116 0.2679786534175081 -0.005631146891575652 
-0.01853884745345936 -0.01095995833266440 0.03718994717557250 -0.05697452453376157 -0.002189701310498875 
-0.1257376191518357 -0.1624218261381994 0.08189755879929897 0.1657629339672314 -0.02043646853547039 
-0.1146470572931818 -0.1134579098820983 0.5199739661949246 -0.2567565969284062 -0.08443640083922695 
-0.07638907788384207 -0.03218440537376258 0.5229046645533504 -0.5201669102502100 -0.04276821543950746 
-0.006466227348736607 -0.05864149482139525 -0.1078221144081267 0.2721035476796349 -0.03629509671461131 
-0.1146470572931818 -0.1134579098820983 0.5199739661949246 -0.2567565969284062 -0.08443640083922695 
-0.1913625391673549 -0.1280760442779446 0.6720356314189716 -0.2752448381489913 -0.1033016295751785 
0 0 0 0 0 
-0.07420162721820713 -0.04213424438260163 0.05980554388595163 0.1134299136775477 -0.01264869527601207 
0.3835370115443535 -0.05588229858014175 0.06482297894208926 -0.4671247111619729 0.1289598774992324 
0 0 0 0 0 
0 0 0 0 0 
-0.0008073374188491359 -0.03896737767703482 -0.09604743915057484 0.1792480283157032 -0.09043109885353473 
0 0 0 0 0 
-0.002042612156913863 -0.04655218183141315 -0.1221258649664514 0.1461677154358834 -0.05374561979986861 
0 0 0 0 0 
0 0 0 0 0 
-0.002042612156913863 -0.04655218183141315 -0.1221258649664514 0.1461677154358834 -0.05374561979986861 
-0.002042612156913863 -0.04655218183141315 -0.1221258649664514 0.1461677154358834 -0.05374561979986861 
-0.002042612156913863 -0.04655218183141315 -0.1221258649664514 0.1461677154358834 -0.05374561979986861 
0 0 0 0 0 
0 0 0 0 0 
-0.004512720936124163 -0.1431233995706649 0.2564787688060740 -0.03200485953872415 -0.04735054563548533 
0 0 0 0 0 
0 0 0 0 0 
-0.001265968013021109 -0.008756247644044203 -0.04437329851580139 0.03206014653009101 -0.01089359039724054 
0 0 0 0 0 
-0.2087519956382492 -0.01097049947450341 0.1508020803581623 -0.002348406701135809 -0.006506749683355379 
0 0 0 0 0 
0 0 0 0 0 
-0.002467011396743921 0.4905523850310604 -0.3792241417686528 -0.06857515508533615 -0.02253296480160192 
0.4121597927200501 -0.01220672877827064 -0.4419297687824404 -0.01171012641248020 -0.01820333019323659 
-0.007413529983423375 -0.04448917056333666 0.08904188890654692 -0.01832895131335008 -0.05698333911588038 
-0.01312533013827532 -0.05437266542881292 -0.2699298346664725 -0.04279774914930817 0.3948682406055693 
0 0 0 0 0 
0 0 0 0 0 
0 0 0 0 0 
0 0 0 0 0 
0 0 0 0 0 
0 0 0 0 0 
0 0 0 0 0 
-0.002542773387801308 -0.002344978256473483 -0.1706357358842061 -0.03328207235838188 0.1158639567893772 
-0.01852136617166792 -0.03061445998508339 0.1306223101394937 -0.07125488693942754 -0.05684735275247359 
-0.009866224391668647 -0.001518313062274341 0.1940754879010526 -0.2029297448852402 -0.03382382440816940 
-0.01753864309997478 -0.007565329881372434 0.02822293555561331 -0.02571402116803893 -0.03684519899852335 
-0.002542773387801308 -0.002344978256473483 -0.1706357358842061 -0.03328207235838188 0.1158639567893772 
0 0 0 0 0 
0 0 0 0 0 
0 0 0 0 0 
0 0 0 0 0 
0 0 0 0 0 
0 0 0 0 0 
-0.03141948750758628 0.4496325198855236 -0.1994735850449199 -0.08184079222866922 -0.02571905048568752 
0 0 0 0 0 
0 0 0 0 0 
0 0 0 0 0 
0 0 0 0 0 
0 0 0 0 0 
-0.01286640807787904 -0.04379186327954446 0.08998286465315670 -0.006917123952678616 -0.06067332572511842 
0 0 0 0 0 
0 0 0 0 0 
0 0 0 0 0 
0 0 0 0 0 
0 0 0 0 0 
0 0 0 0 0 
0 0 0 0 0 
0 0 0 0 0 
0 0 0 0 0 
0 0 0 0 0 
0 0 0 0 0 
0 0 0 0 0 
0 0 0 0 0 
0 0 0 0 0 
-0.09926006913686045 0.1682924261794596 0.04965392467959466 -0.02225082996252601 -0.03198255462843238 
0 0 0 0 0 
-0.03878968087985165 -0.02984178392817127 0.3335696449342632 -0.01757504724510745 -0.006470240092301437 
-0.004532274636800351 -0.1224953365541164 0.1703655743101659 -0.02040611714657057 -0.004548528380995208 
0 0 0 0 0 
0 0 0 0 0 
0 0 0 0 0 
-0.002297963175857279 -0.06595211794226553 0.1421943683443760 -0.04127490342022678 -0.01163522699836994 
-0.02874169454642418 -0.02775979451329761 -0.5066366421714162 -0.01176359091140128 0.6072063347774076 
0 0 0 0 0 
0 0 0 0 0 
0 0 0 0 0 
0 0 0 0 0 
0 0 0 0 0 
0 0 0 0 0 
0 0 0 0 0 
0 0 0 0 0 
-0.09131813642719122 0.06098558821921099 -0.01160413008867613 -0.02399859956389760 -0.02585459484079026 
-0.01477612142938839 -0.01465953440739374 0.06125412442012670 -0.01171859769800952 -0.05500479242842651 
-0.01770104506821590 -0.1357620896630974 0.1711720223689610 -0.004130926418055659 -0.04873219958946283 
-0.01708035724580341 -0.07499493204230628 0.1100618840662424 -0.007456545668334654 -0.01182148333701447 
-0.1115828359401375 -0.02499179977043285 0.09395723528645512 -0.0009376828092484376 -0.006467840567645353 
-0.02623079421238301 -0.03682004011545158 0.1775375921157905 -0.1401465171932356 -0.02272928898460264 
-0.02623079421238301 -0.03682004011545158 0.1775375921157905 -0.1401465171932356 -0.02272928898460264 
-0.007618452060406148 -0.001478973514268749 0.09764277188416266 -0.05031440878665372 -0.04521462026407377 
-0.3984707632307687 -0.06837696958766105 0.5627370949273482 -0.1957625242051007 -0.07430904453707930 
0 0 0 0 0 
0 0 0 0 0 
0 0 0 0 0 
0 0 0 0 0 
-0.007677786767614644 -0.003693245468989981 -0.008917714865912092 0.01658723161413053 -0.01147273485228877 
0 0 0 0 0 
-0.003647438688324622 -0.03599056447090763 0.3431179402152065 -0.1913386598047810 -0.07676569127146149 
-0.1236013596061699 -0.001010909048488127 0.1722073536314971 -0.04080423688254924 -0.02081636357381323 
0 0 0 0 0 
0 0 0 0 0 
0 0 0 0 0 
0 0 0 0 0 
0 0 0 0 0 
-0.02707674697602430 -0.06810016920844020 -0.1478381998063234 -0.05693945405278370 0.1723937948367258 
-0.0009127328562347509 -0.05311138351406995 -0.06475346489284797 -0.04537240137079931 0.1103221954406174 
-0.01141303083002314 0.1573736013708986 -0.06744915053324996 -0.04438014963408496 -0.01469375992338148 
0 0 0 0 0 
-0.006435292820244265 0.08919899436157958 -0.03620403438683623 -0.02079205899479667 -0.05979821494003871 
0 0 0 0 0 
-0.01551778679667201 -0.04982312246524755 -0.1539046410624340 -0.009795363665089213 0.1645254285265824 
-0.01551778679667201 -0.04982312246524755 -0.1539046410624340 -0.009795363665089213 0.1645254285265824 
0 0 0 0 0 
-0.2517324056092875 -0.2466292992873922 -0.01516448467296969 0.3316468582680491 0.1931196460402908 
-0.03471082518193399 -0.01611977897157276 -0.1978318037933114 -0.01728367816546145 0.3161548237433724 
-0.02723522969264370 -0.04350966110482957 -0.4398477787529200 0.4735023523398121 -0.06756478777536383 
-0.01187441562132850 -0.1797731863700509 0.5067427482678951 -0.1197712063489697 -0.04804770065768818 
0.1222885751269727 -0.1534865597725939 -0.005585374349322524 -0.06702438246889222 -0.1134515282955212 
0 0 0 0 0 
0 0 0 0 0 
0 0 0 0 0 
0.07827472385762659 -0.1332979782713506 0.1235969379828900 -0.04132394147683785 -0.1037329991369079 
-0.008312411020631879 -0.08265745572068453 0.1440701310039249 -0.02942786892049121 -0.04680053120375566 
0 0 0 0 0 
-0.01360063217580122 -0.02615146535759380 0.1095001253134737 -0.05262767923799862 -0.03151479669214213 
-0.06911869937188916 -0.08658625055126032 0.3358497912785869 -0.1608526627556760 -0.04463862841724500 
0 0 0 0 0 
0 0 0 0 0 
0.1599724657392690 -0.004674295549137610 -0.1505648706134082 -0.005132773564167056 -0.001798176951102459 
0 0 0 0 0 
0 0 0 0 0 
0 0 0 0 0 
-0.009784889643554225 -0.002061748825030436 -0.05593111981669118 0.04619729716488476 -0.03181259794934466 
0 0 0 0 0 
0 0 0 0 0 
0 0 0 0 0 
0 0 0 0 0 
-0.2914186624617566 -0.1504820165380681 0.2412268158166837 0.3999058037077946 -0.06575667311555115 
0 0 0 0 0 
-0.006244961467185026 -0.1014722186697946 -0.2248966760360465 -0.1122377384315540 0.5447944010019472 
-0.007273719049523274 -0.01193412246355441 0.1036425249250947 -0.08650260718187962 -0.1187050921052694 
-0.4285327584175744 -0.1161197858241138 0.2964621923767236 -0.2109950749651473 0.4238291009282200 
-0.02963156439895272 0.3797454121250621 -0.1799042011786618 -0.06999854700358955 -0.03586270408760744 
-0.005863214863951342 -0.09686340890031975 -0.07493059207482854 0.1602171628691730 -0.02427696344060628 
0 0 0 0 0 
0 0 0 0 0 
0 0 0 0 0 
-0.002390239594680100 -0.04880554725392924 -0.1050972892835067 0.08391532790706258 -0.004911782468756364 
-0.01065043534972847 -0.2893488774062890 0.6094720986344767 -0.09092860753976780 -0.03370232614176036 
-0.01326643702065454 -0.001565895726284236 -0.3377995915980941 0.3584200048878954 -0.1343319606658480 
-0.02095208747909997 -0.03816777445187847 -0.1668691675406591 0.2892980685421069 -0.009933549036028992 
-0.01366188206148309 -0.01210827033670264 -0.1439609219023648 0.1452626155694117 -0.03562555362041240 
0.01811711214012012 -0.2121347626870227 0.1781460595884395 -0.1745348204137271 0.3957669317534263 
-0.01366188206148309 -0.01210827033670264 -0.1439609219023648 0.1452626155694117 -0.03562555362041240 
-0.005526663009351417 -0.02368986202597125 -0.1042222368268322 0.08055921129947316 -0.004770526064376704 
-0.0006773178368343793 -0.04877523396367444 -0.1792501390558973 0.3984123299401469 -0.1868579021206174 
-0.06419515666413232 -0.03503604525051845 0.3246248540549430 -0.08228195647491612 -0.01542693642378036 
-0.008510605179068246 0.6276887524307966 -0.1053013767147366 0.1489489719715014 -0.2753423783142874 
0.06796111698317003 0.5324055849620433 -0.2095305869813975 -0.1973460195999011 0.04273036691060200 
0 0 0 0 0 
0 0 0 0 0 
0 0 0 0 0 
0 0 0 0 0 
0 0 0 0 0 
0 0 0 0 0 
0 0 0 0 0 
0 0 0 0 0 
0 0 0 0 0 
0 0 0 0 0 
0 0 0 0 0 
-0.02891634555613473 -0.1527444029072728 -0.03278439265856947 -0.1496022211258973 0.4244405798562141 
-0.08175841179685951 -0.08967957502410503 0.05147475498280740 -0.07234578106122020 -0.1208696789249115 
-0.03364499725745909 -0.02751654112705023 -0.02704852443707131 0.02792632381151153 -0.08292929968077044 
-0.07105623427993010 -0.03956668136552723 0.1376520476379176 -0.08282414093757087 -0.08888017430936278 
0 0 0 0 0 
-0.04801758543328247 -0.1930395355619187 0.6221164998143311 -0.4334160884191770 -0.03171157844510794 
0.0002981907955804230 -0.1411659729472096 0.3559831349477542 -0.3817708698941730 -0.02519240563182841 
0 0 0 0 0 
0 0 0 0 0 
0 0 0 0 0 
0 0 0 0 0 
0.1236985478215949 -0.001050802110467645 -0.1061591795180744 -0.01640532399661512 -0.0006893957860237885 
0 0 0 0 0 
-0.01342989239830623 -0.2366832701480620 -0.07515637505259819 -0.09263454621474523 0.2617313946756437 
-0.002083855386541618 0.1310407922482715 -0.05325934300627988 -0.07159279751542678 -0.05310305220555949 
0 0 0 0 0 
0 0 0 0 0 
0 0 0 0 0 
0 0 0 0 0 
0 0 0 0 0 
0 0 0 0 0 
0 0 0 0 0 
0 0 0 0 0 
0 0 0 0 0 
0 0 0 0 0 
-0.02306075022534744 0.1188047157696524 -0.04407724694344466 -0.03783387576585465 -0.03773447484532359 
0 0 0 0 0 
0 0 0 0 0 
0 0 0 0 0 
-0.02568883194863575 -0.006423900237409776 -0.02933873638637322 0.1065397067557473 -0.01354629257569927 
-0.02568883194863575 -0.006423900237409776 -0.02933873638637322 0.1065397067557473 -0.01354629257569927 
0 0 0 0 0 
0 0 0 0 0 
0 0 0 0 0 
-0.01875258341670870 -0.03489626086915206 0.1012154409478304 -0.02982793292897606 -0.03086251692178409 
0 0 0 0 0 
-0.03558223194355115 -0.09171776119353775 0.2908720108483182 -0.03964597851834092 -0.1084406383174378 
0.07948256985655006 -0.06221061567479855 0.04373802284756109 -0.06096537825165536 -0.08429266146382430 
-0.02815871353108083 -0.02338093049558724 0.03822431249215091 -0.01735203572417005 -0.01815525265129075 
0 0 0 0 0 
0 0 0 0 0 
0 0 0 0 0 
0 0 0 0 0 
0 0 0 0 0 
0 0 0 0 0 
0 0 0 0 0 
0 0 0 0 0 
0 0 0 0 0 
-0.08617805756848286 -0.06394388750646249 -0.07820139260005027 0.3619672959601692 -0.004569761424770298 
0 0 0 0 0 
-0.1401042972018931 -0.03293305575455726 0.1183157102765793 0.08528641122980593 -0.02662284066597015 
-0.009456415332324428 -0.01041723247381065 -0.09454961969525745 0.1380950733319064 -0.01533047595886364 
0 0 0 0 0 
0 0 0 0 0 
0 0 0 0 0 
0 0 0 0 0 
0 0 0 0 0 
0 0 0 0 0 
-0.03572861347735086 -0.0006473529598472423 -0.1280440324652319 -0.2272917738658421 0.2326480173815557 
-0.02463348764291642 -0.03715975958799370 -0.1525768205426984 0.2360335745153347 -0.01697293400768665 
0.1442655450897409 -0.04192668842253804 -0.3497480624702121 -0.02394003474032600 0.2120862064682145 
0 0 0 0 0 
0 0 0 0 0 
0.07092888376894159 -0.009960398133539480 -0.05240619211051562 -0.005525119768445682 -0.0006127507326293728 
0.05922977983880994 -0.004855263892770320 -0.04767004260643280 -0.009126504481848636 -0.0003699922351739949 
0 0 0 0 0 
0 0 0 0 0 
0 0 0 0 0 
0 0 0 0 0 
-0.02059752032503773 0.4390681677857156 -0.2085691259582165 -0.02379275976072995 -0.07425640654354382 
-0.007941359193184507 -0.06739977700612186 0.4780881340166094 -0.1585384101314996 -0.004689688330524610 
-0.01841153113550189 -0.06254477123209082 0.2749598896552457 -0.06862839133153790 -0.05795550741219693 
-0.03174555768413354 -0.03775262057558283 0.2916265513424566 -0.01607832406672780 -0.1808664473380331 
-0.1247951278839173 -0.1432841352235040 0.7635884788522740 -0.09193639918590828 -0.2410870967248759 
0 0 0 0 0 
0.1045706188181314 -0.01886810366548878 -0.2283515310305112 -0.01413794130950772 0.06150581433246403 
0 0 0 0 0 
0.3645212745949641 0.3361348372538430 -0.2436384713278467 -0.07433624347910099 -0.04437977764928786 
-0.01350970426707023 0.06734096993183926 -0.03165576711863987 -0.01280074815043388 -0.04329892370808192 
0 0 0 0 0 
-0.01350970426707023 0.06734096993183926 -0.03165576711863987 -0.01280074815043388 -0.04329892370808192 
0 0 0 0 0 
0 0 0 0 0 
0 0 0 0 0 
0 0 0 0 0 
0 0 0 0 0 
0 0 0 0 0 
-0.08960773861362210 -0.1351471575233402 0.4308634032821920 -0.1070633953684161 -0.1256718050708374 
0 0 0 0 0 
0 0 0 0 0 
0 0 0 0 0 
-0.1018561624504238 0.1771891258711551 0.4002577183317357 -0.07527173367365617 -0.08590473127037790 
-0.1238835373255973 -0.007871024976283800 0.6150322704619580 -0.1023775511506956 -0.1125552051439303 
-0.005165981830485826 -0.005301798966821548 -0.2294773776088821 -0.06330358035546980 0.3323888423895494 
0 0 0 0 0 
0 0 0 0 0 
0 0 0 0 0 
0 0 0 0 0 
0.2209946798499078 0.06618957008941388 0.01270688192786649 -0.1604584624601656 0.1829363040977534 
-0.02319755894787212 -0.06321111275964690 -0.1689291022264606 -0.06196894417897875 0.3547292290146890 
0 0 0 0 0 
-0.1586691122659626 -0.2885009529294034 0.3369248068342807 -0.05249312544131044 -0.06826071185469608 
-0.03442695053082081 0.2327304555612627 0.08634205075735367 -0.09665468339592798 -0.04835539412827594 
-0.06889819218803869 -0.02023155402789607 0.1003906852259723 -0.04414897763405875 -0.03614795784987449 
-0.02607254695114590 -0.07877530148308526 0.1138870788935658 -0.01646629268039421 -0.01896815976602092 
-0.05391803605131098 -0.008283974329797918 0.06014938455614075 -0.01671323386082486 -0.007075951600782820 
-0.04808590426007986 -0.04915895418765633 0.1354567730433467 -0.01762521463197957 -0.03155158543685937 
-0.04808590426007986 -0.04915895418765633 0.1354567730433467 -0.01762521463197957 -0.03155158543685937 
-0.02473180525385282 -0.03176511240415281 0.1480794687007423 -0.02782487009171159 -0.05578578085970035 
-0.06542418174405017 -0.09501969839952590 0.2775316051603152 -0.03947625058309174 -0.006384425715963409 
0 0 0 0 0 
-0.01880381887462413 -0.01786544614428617 -0.1232720447744630 -0.003279716195452060 0.07188192851818409 
0 0 0 0 0 
0 0 0 0 0 
0 0 0 0 0 
0.1401678549235218 -0.005773658563514869 -0.1703532032546794 -0.001562594378525026 -0.002961460268611746 
-0.02401225710277012 -0.05095086336446682 0.1931405339498877 -0.07360823729305194 -0.02331790285072466 
0 0 0 0 0 
0 0 0 0 0 
0.1236710276137219 -0.003960100170470520 -0.1427334034676449 -0.002495846422791274 -0.001399864702471193 
0 0 0 0 0 
-0.01795515203549491 0.08920958630101797 0.1664930522382844 -0.07948112691475177 -0.1451937225911993 
-0.02158806444369251 0.01063616175196115 -0.1259363395175852 0.05498043246548588 0.01569254266608450 
0 0 0 0 0 
0 0 0 0 0 
-0.1468096400801780 0.2133805117396215 -0.2730888741277043 -0.1346351548189355 0.1008009087226743 
0.1311299737378327 -0.05651342754980378 -0.03330309497608710 -0.08755573428546722 -0.2459677926789226 
-0.3527308373328008 0.6297096600930194 -0.6797636586226703 0.3426870586588792 -0.05529290120052785 
-0.02438458103561926 -0.1274778688854031 0.05569171806466517 0.08896227592974541 -0.08112431619307986 
-0.005042501340303610 -0.04713936484455706 -0.07964191830186816 0.1449603719639319 -0.08107009007417611 
-0.03141948750758628 0.4496325198855236 -0.1994735850449199 -0.08184079222866922 -0.02571905048568752 
-0.05617743412296016 -0.02911614680753358 -0.1405770832476234 -0.1076712365555975 0.1126504799290705 
-0.05617743412296016 -0.02911614680753358 -0.1405770832476234 -0.1076712365555975 0.1126504799290705 
-0.06906275695584349 -0.08754610995501211 -0.2024016248420445 -0.1303182727232329 0.2317353096590795 
0 0 0 0 0 
0 0 0 0 0 
-0.02475403419839522 -0.1304307566200378 -0.01483610744936371 0.1166645002809135 -0.05514974270246451 
0 0 0 0 0 
0 0 0 0 0 
0 0 0 0 0 
0 0 0 0 0 
-0.01922737118904380 -0.1067408945940666 0.08938612937746850 0.03610528898144030 -0.05037921663808780 
-0.01852136617166792 -0.03061445998508339 0.1306223101394937 -0.07125488693942754 -0.05684735275247359 
0 0 0 0 0 
-0.01922737118904380 -0.1067408945940666 0.08938612937746850 0.03610528898144030 -0.05037921663808780 
-0.1201935016730131 -0.1656567390194247 0.2457429806596953 -0.03025184474065168 0.04702969037975303 
0 0 0 0 0 
0 0 0 0 0 
0 0 0 0 0 
0 0 0 0 0 
0 0 0 0 0 
0 0 0 0 0 
0 0 0 0 0 
0 0 0 0 0 
0 0 0 0 0 
-0.005526663009351417 -0.02368986202597125 -0.1042222368268322 0.08055921129947316 -0.004770526064376704 
-0.04868056273428991 -0.1308240645459247 -0.03270762651019382 0.1333860332439543 -0.003562162816525171 
0.1832644471966251 0.05754298563654550 -0.2077014155606695 -0.1217628802831866 -0.1541384305688144 
-0.1392584280179251 -0.05411247858637670 0.2354490509061421 -0.04226238324462780 -0.07589893807224425 
-0.01663883923931785 -0.05371769172572027 0.1600882629758994 -0.02655613661608641 -0.05259226576643281 
-0.04411916615528445 0.07422080060664772 0.08340831732480895 -0.09104817959673617 -0.08312212319509081 
0 0 0 0 0 
0 0 0 0 0 
0 0 0 0 0 
0 0 0 0 0 
0 0 0 0 0 
0 0 0 0 0 
0 0 0 0 0 
0 0 0 0 0 
-0.02364497560624805 0.1561894862434122 -0.1627557357063414 -0.009502959603188834 -0.03200986784447396 
-0.08653471268289487 0.2613390930676605 -0.06762389533892864 -0.03870860777244845 -0.1042452042075272 
-0.02364497560624805 0.1561894862434122 -0.1627557357063414 -0.009502959603188834 -0.03200986784447396 
-0.05752898269153521 -0.1486862533147890 -0.3498778188608447 0.2883806267110717 -0.05693003854309327 
0 0 0 0 0 
0 0 0 0 0 
-0.05537171589900428 -0.02417337521633663 0.2397616482855150 -0.1161374230484230 -0.09625950641401360 
-0.01999677621292169 -0.01366593747804754 -0.02754413619240486 -0.04081432906939237 0.06214752978042627 
-0.03904068052670873 -0.01687511736309960 0.05955100125601442 -0.009141591696358720 -0.006656306227832936 
-0.1205368040671929 -0.04656202406386847 0.4148301785980582 -0.1334178116200087 -0.04082307479813242 
0.1754223647940273 0.02539798422864977 -0.03200845792009420 -0.1869844765951501 -0.2108488778761840 
0 0 0 0 0 
0 0 0 0 0 
0 0 0 0 0 
-0.03829490357276589 -0.09888996883785654 0.1485909378970827 -0.03869101258396178 -0.03872163748275469 
0 0 0 0 0 
0 0 0 0 0 
-0.08617805756848286 -0.06394388750646249 -0.07820139260005027 0.3619672959601692 -0.004569761424770298 
-0.08617805756848286 -0.06394388750646249 -0.07820139260005027 0.3619672959601692 -0.004569761424770298 
