solver_type L2R_LR
nr_class 5
label 3 4 5 2 1
nr_feature 3332
bias 1.000000000000000
w
0.5173592915138948 0.2376273851050642 -0.2838840978562163 -0.3353851977168360 -0.2846894295342784 
-0.6979206978974226 1.051828219000113 -0.5961148573177180 -0.08447223643707243 -0.01620363074244103 
0.5400343945348305 -0.5894189097705064 -0.3230201294683755 -0.5146859007949486 -0.1625695109199197 
-0.02615115973783508 -0.05070531151224004 0.3453696261894239 -0.1180056279637593 -0.01158825723086743 
-0.1524553356563945 0.2911711602953969 -0.2700395209445515 0.1119027731375996 0.3293895978839254 
0.3810331162538634 -0.04550508391554512 -0.5358254399357405 0.2090155684396992 -0.02056400258300027 
-0.003682273719299802 -0.07089402722807720 -0.2295797011640422 0.3297172242084334 -0.03495075270668690 
-0.1255648509618875 -0.01611682721294449 0.1552878368638450 -0.01071845110443515 -0.003551538488802664 
-0.3655166678064795 0.5572248936201971 -0.4442538968054087 -0.08436546999893003 -0.09030689578837620 
0.1524965403632469 -0.02088478436996012 -0.09568702019678356 -0.003326601496926878 -0.004192335656930669 
-0.01926121190369782 -0.04943765950077785 -0.1043361935934261 -0.04303938870915842 0.2474249677737007 
0.9279192202738564 -0.1468867854967435 -0.5355323406692813 -0.02509736418074754 -0.003037261171314216 
-0.2071066287069671 -0.1906148559259110 0.8184971043519431 -0.3277054023632732 -0.03732786639149910 
-0.03572032508824487 0.3527545336718624 0.1011313818880328 -0.2849360432027199 -0.08898519707995917 
-0.006564584338076317 -0.05581871123656230 0.1643340606868385 -0.06721074916112484 -0.04231450984612147 
-0.3183526088936153 -0.2234339541471650 -0.9774840230570403 -0.2497930084765512 1.179549973359594 
-0.007117397079567185 -0.2358459813295084 0.2042162107331436 -0.03783146984469944 -0.01569936919017255 
-0.2611904285463100 -0.5267532815707876 -0.6013046477385543 1.007561906898431 -0.2799361858689788 
-0.04880945060842127 -0.1347939427824304 -0.1466462994440203 0.5686452407015987 -0.1898426230393957 
1.228645081100006 0.08341000045681582 -1.267776962549742 -0.1807650263504563 -0.07918290592024371 
-0.01456843378858376 -0.01553578902253786 -0.06401890785700265 0.1218812194559433 -0.007783034333086412 
0.3064390210544488 -0.05662225119445705 -0.2186267241629439 -0.02850820605653038 -0.01219380444968737 
-0.04568419529286906 -0.01793664850880545 0.09969806086223457 -0.03498243006158635 -0.03692652577737438 
-0.09234969169353983 -0.05523038135850570 0.1733728830953853 -0.03106552669253082 -0.04105980054986508 
0.08897415808342643 -0.003242216945078346 -0.03585831518651447 -0.01197616577309269 -0.0002066524179543183 
-0.04111725127602003 0.2249494938727894 -0.01248167716474684 -0.06997809886625085 -0.08226364505754388 
-0.02892673983530048 -0.3343342139608235 0.3599528329673761 -0.2050074513099462 -0.08162083893980256 
-0.1989843969378749 0.1028538843457653 0.4963506240361887 0.07468400884772196 -0.5172838504708230 
-0.1290216312138529 -0.2976457883006210 -0.5223064951791473 0.2250389599331238 0.7699622327030623 
-0.007692200379098161 0.03285701183670314 -0.1231834831608499 -0.002675032063493011 -0.005900082336927379 
-0.1829379702405645 1.266039604071690 -0.4762182384472683 -0.4496392669279181 -0.5922788311703627 
-0.006341521915688922 0.05942019853214842 -0.04025578955354259 -0.04295891028408798 -0.003424653619673832 
-0.1109785571949096 0.3447054332322859 0.02147115887601372 -0.04994288488235082 -0.2204984608613062 
-0.1497823577760165 0.2133610272938800 -0.1073441313976607 -0.008942301362417446 -0.003401666311002232 
-0.01387053153423460 -0.1078656331910124 0.09021458357722403 -0.01377234283439685 -0.01766209726165853 
0.5701537318963323 -0.6047389355885218 0.5003530846345136 -0.6252482554142439 -0.4974216232161895 
-0.006740191138344742 -0.03673801545716451 0.1232376907618254 -0.3111830621493316 -0.07481875534542340 
-0.008985454030160288 0.04584102284140029 -0.03698500705238868 -0.01656882137653895 -0.007675467772069273 
-0.1086046379011240 -0.05753090579617354 -0.1652785713739980 0.09501702270123977 0.3029007440635981 
-0.03690606504561837 -0.04316435209185413 -0.1603178864797961 0.1907437190187899 -0.02224199848249228 
-0.03376872477820877 -0.004461695310272344 -0.09873417586697633 0.1921559506586759 -0.03616679810794327 
-0.03908377229665501 -0.005036663270915976 -0.1926010778120477 0.2750608838919753 -0.02926001051218472 
-0.06176099378132180 -0.3905092822681127 -0.7403464476805772 -0.1922330464906943 1.089517294517663 
-0.02222030292679648 -0.01285700318988225 0.1792508508838269 -0.08828446688469738 -0.01586888476170723 
-0.1115228994493010 0.1851319912497129 -0.1240237310856575 -0.002095994242659677 -0.0009722052866355035 
-0.01904663596211608 -0.03303255270621074 0.08341136223201706 -0.01275119506700435 -0.01027168842954938 
-0.3893900742768623 -0.04122856749082750 0.6365915840527715 -0.1117608244121910 -0.004001257511679335 
-0.01661186471066124 -0.1676396889803783 0.1399721580853537 -0.02370921440575637 -0.01497220537813082 
-0.01116271273218400 -0.05137222974870048 0.1449088982561688 -0.02669405779567911 -0.04569221579681386 
-0.09215909099067648 -0.006741611689862374 0.06437835635398143 -0.0008185546730093984 -0.002413257650271305 
-0.03727753981447070 -0.01559013211210269 0.1851675799279944 -0.06540516377023081 -0.008658697964943127 
-0.02625481058089543 -0.01135311154456695 0.2234606409725172 -0.04591256886787174 -0.1009328528647857 
-0.01653196210625624 -0.03232236017372417 0.04564842296903996 -0.01394801031406408 -0.03057470543583330 
-0.09682483707575995 -0.02473488684797296 0.1246328293900819 -0.03012743358475650 -0.01476584256418645 
-0.1322224883967634 -0.01481843808553357 0.1108851620445741 -0.001307124246348478 -0.001425892769009899 
-0.1129035209861983 -0.01437890061263911 0.2932325374277610 -0.06034115365671333 -0.005220499253036991 
-0.05127578422576468 -0.005474101026447611 0.2351763670316157 -0.07055903891514044 -0.09003305670925749 
-0.003788441854453772 -0.04428776225701894 0.2375543203895735 -0.1317330163806283 -0.02775193945462978 
-0.007288241409917681 -0.03488695673954340 0.1236011833630254 -0.04394948351350838 -0.03804498844048432 
-0.04618595030894487 0.1415840831925782 -0.04330692228149518 0.02682457170991991 -0.07794679791143583 
0.08744584360274595 -0.05035309759652400 -0.07015866048027619 -0.01513837492279156 -0.03428982047629437 
-0.08706692134949490 -0.2048667648883458 -0.3050465871560120 0.7230643468918978 -0.08293169829635244 
-0.1062627426418212 -0.1458288520284239 -0.7284778931259580 0.8894031476335905 -0.04149016771337795 
0.2430504615905915 -0.09540705588000370 -0.04687377147314326 -0.02636123816681017 -0.02600120704464682 
-0.1117670443558555 -0.04203998746971331 0.2412012181835886 -0.03442523798317216 -0.05436650536619234 
-0.1568991693802082 -0.01560997992436858 -0.3065189875582040 -0.4419000641189680 0.6432174635320377 
-0.009915687409359726 0.2840233833858361 -0.2019761985912562 -0.05423349547178075 -0.02792506498698896 
0.08220186031628093 -0.03495465700524893 -0.03492320260466276 -0.004818107956466381 -0.0008942966011974567 
-0.03086968591290933 0.06835073566405223 -0.1104113713442471 -0.005932323103518972 -0.01014896198765901 
-0.01087592604644945 -0.008872648357661155 0.08392165629083563 -0.05327305794781140 -0.02616886620471517 
-0.01679932885983176 -0.3890790087113101 -0.3184548138010284 0.3478473219395424 0.3098653974694615 
-0.08547402659590875 -0.08602546045968508 -0.02972415388905094 0.3190888927063066 -0.007751189910128097 
-0.06157174391699474 -0.03073489132322548 0.1050716970210404 -0.04868129056685944 -0.05790676442405360 
-0.007779866226298799 -0.04688228922826583 0.1593774542288766 -0.08439289557299791 -0.01347840384904662 
-0.02709690734888551 -0.006394971858770777 -0.1695813530035963 0.1807827366692738 -0.007020645881074744 
-0.01878887347869123 -0.008824846043994332 -0.1006078381045947 0.1473475845163628 -0.005576350041186495 
-0.1211530695048083 0.3916972092669937 -0.1002609505847612 -0.008736403866494056 -0.002157718735064088 
-0.01465884734055298 -0.05646793318721882 0.05527455905887867 -0.01187573126458936 -0.01507670141895151 
-0.06739775265922314 -0.07910109283140333 0.1456153651635296 -0.01482536278664070 -0.01214062808414512 
-0.01475129464338336 -0.01749160039649953 0.02253581914601239 -0.01819637384083170 -0.01138807729226419 
-0.005181029642091860 -0.01618740171754303 0.07389225606645228 -0.07391905715762201 -0.01674662048364306 
0.2907223769278761 -0.02443130317063613 -0.08969122907177586 -0.02388607574106816 -0.01136613114260461 
-0.01490477774982616 -0.01812005772476972 0.06484634844116441 -0.02257596967248736 -0.05230348659526730 
-0.02148847992359528 -0.008573437274885133 0.1466154503434232 -0.1064145127091153 -0.02649951971407190 
-0.2247096840014650 -0.06119131893509124 0.2993184501935918 -0.03023267700540941 -0.02363382936447734 
-0.06975330000871008 -0.01792692786823383 0.2303139837041634 -0.1322197958696109 -0.01143241405194918 
-0.08689221561977338 -0.01289224268637053 0.2626803456307603 -0.06783940797835183 -0.008823195676726276 
-0.01127807014636970 -0.005463373114417565 0.01386701086367715 -0.009793649679984699 -0.004903282440356127 
-0.01256788132194806 -0.05111626922683306 -0.09414792491230964 0.2796846097531161 -0.06160941439838442 
0.1521203409428747 -0.02811518876677407 -0.07609236687620098 -0.02126886814110906 -0.0005981863538839414 
-0.1127387888759655 -0.09335187258194046 -0.2519917338454716 0.3788347223672128 -0.1040839422688425 
-0.01548451261094536 -0.01919008579834626 0.02662586479146951 -0.02059103691654523 -0.01253354467614850 
-0.03306954119063569 -0.01480005493949435 0.05276364505585003 -0.008499826895927905 -0.004939789813800485 
-0.009648874969718727 -0.08051564612230575 0.1524666497394007 -0.05594215962622432 -0.01134928851292117 
0.3266549314342002 -0.02242045081116626 -0.1470882959651298 -0.05021306713585123 -0.005336418379896846 
0.4408328435393137 -0.1341147673736000 0.008079510694766834 -0.06472763401592845 -0.006516137428211756 
-0.02409790943317803 0.2290521944314717 -0.1109891261019603 -0.1096477566218049 -0.01236446194051815 
-0.03607055741544980 -0.01868643441721878 0.1216503056245852 -0.07379820144778823 -0.04756846648001505 
-0.03059955393571923 -0.02556250127811731 0.1166190919918727 -0.06426761101798226 -0.04751707740029219 
-0.006177752721274657 0.1237697009599108 -0.05812770819532895 -0.02792200254529504 -0.01313187392837807 
-0.01676738331047364 -0.03118317762161183 -0.1114251783854415 0.2573257464725482 -0.03109679581262505 
0.3042979236931994 -0.1201060849002723 0.03512542905291530 -0.01343900381344176 -0.009786884838092013 
-0.01957438333846077 0.1492658832360393 -0.1710022996878544 -0.03245027511689858 -0.008776304388108589 
-0.05455363337419877 -0.01704762953186468 0.1010518313675457 -0.05535678651970691 -0.05381404729826592 
-0.09903785773484745 -0.01219668545456265 0.07613760870787825 -0.003206243898561839 -0.0009535111438478109 
-0.01051519101718989 -0.03885194581348005 -0.1357148195261330 0.1953853824579547 -0.01819684732766419 
-0.01655939438798108 -0.01023111057659332 0.1100705472557311 -0.1497614362735440 -0.007956502823383461 
-0.01219146331394361 -0.02648680140500474 0.2836404648775191 -0.2738138874539968 -0.006762890178452378 
-0.03544700013817681 -0.002968318642532688 -0.1567253284801602 0.2781987496850555 -0.07578775571834023 
-0.01754570023438244 -0.07368708684585153 -0.02403563808242708 -0.1959062602308695 0.4308868898383898 
-0.07134011546179972 -0.04063066646918122 -0.2085040222623847 0.2083084991558838 -0.07217754579644908 
-0.005091094642731873 -0.04381133300534414 0.09325599677267993 -0.05341705790956222 -0.05585779749923876 
-0.01460676413513145 -0.03933781215593793 0.2040517576696484 -0.1670360122674604 -0.01813393295254348 
-0.007627868861269986 -0.05243087052372441 -0.1742445057501832 -0.04931738386362615 0.3023642112417799 
-0.1308932163581173 0.2751144906475384 -0.06157190265689765 -0.03415192963994387 -0.02710020264228211 
-0.004249960058772138 0.09490790240511762 -0.06129326865821815 -0.02150372223670659 -0.01211432693145409 
-0.005608491268324294 -0.05751911339240768 -0.1252768764700701 0.2404627694491401 -0.03456417978074897 
-0.01833726658215898 -0.02863170753351297 -0.1739624715605952 0.2439577930535266 -0.003928238716053809 
-0.008728277701590703 0.08744331048004937 -0.03887703581214883 -0.03366281556672463 -0.005304212091872475 
-0.09415416240043455 -0.2524271791690577 0.4071315519090639 -0.03514494429769622 -0.005107782629128031 
-0.02956991500484893 -0.09008857264251947 0.1856141547017738 -0.009860958623029813 -0.02655909869985349 
-0.02323493558449801 -0.05301772514372265 0.1956710447349340 -0.03991235735267790 -0.07430395737708342 
-0.01385846735415685 0.2085141807604821 -0.1224729346116615 -0.04094499452228848 -0.02129334314232685 
-0.08655557106521564 -0.004486579457102532 0.07802244910151414 -0.002029761240504386 -0.001631127560976836 
-0.05688089275415995 -0.07680461955876362 0.1485217997859805 -0.01544460427382985 -0.01196894291171505 
-0.02001060914332409 -0.1048064876884725 0.2712673201025593 -0.05560972324328947 -0.02271789436849303 
-0.08302615301334378 -0.01118521602015649 0.08262562826385411 -0.01035320566042055 -0.02081773513519553 
0.1646901042089232 0.1762205369145355 0.005086717834216041 -0.05915237559394272 -0.04390026207371555 
-0.1090711642802680 -0.04531899171603862 0.1821513462555976 -0.02002933450949259 -0.03069210478790067 
0.2277525021536026 -0.1078715883157362 -0.1039543096267890 -0.005143644174739660 -0.008036764992121389 
-0.003728935714578681 -0.05552583826928255 0.09102980690747514 -0.05228002295224886 -0.02342873690992625 
-0.02932995358274050 -0.02394356312712632 -0.3027552265616562 -0.03988340146816050 0.4535607472627857 
0.1123532932757560 -0.003364364356652878 -0.1666742971145848 -0.006226897709696222 -0.001984956590007344 
-0.03634009382942401 -0.01403474774768036 -0.2606096550821243 0.3084119041005913 -0.004013264239910144 
0.2245588882959922 -0.003080392389943401 -0.1629480891942914 -0.03743298552045941 -0.0008247660457023009 
-0.02418115191984167 0.3452496002727374 -0.1369447660475140 -0.08760753369688959 -0.02705709714403040 
-0.01623630322270412 -0.08644559204162078 -0.1901566079712805 0.1783983000004471 -0.006273178047838756 
-0.03042056243025489 0.2828287287487954 -0.07610333002935246 -0.09625307053863597 -0.1246980083795792 
-0.06127632647497903 -0.01191819603793282 0.2676995109403752 -0.1334279577938165 -0.01713223178156056 
-0.008193651137435680 0.03048308209839387 -0.2960851331572189 -0.1620957764987643 0.5092330614040337 
-0.002764393831118961 -0.03509113884724158 -0.1410337512475910 0.1105362231008900 -0.005108202906355629 
-0.02354650392724422 -0.02740234112248699 -0.04679421031481851 0.02060670141455536 -0.07057607627890404 
-0.04040776882896811 -0.07194375207826190 0.6761876853293896 -0.2650526760451120 -0.009566009376272961 
-0.006594642031040093 -0.01115597391634017 0.05379252559539584 -0.09493187037563242 -0.03065090198086455 
-0.01691232071899570 -0.004510031327021932 -0.05591930402175781 0.04881669352584674 -0.02793924820681026 
-0.1132195700967301 0.1942447493404705 0.1217433613505957 -0.06414687308813236 -0.01025287775892345 
0.0001289606326224119 -0.1318031652886040 0.3579782166254271 -0.3451388753554500 -0.03509125917112418 
0.1880176320705152 -0.05393551032416725 -0.08521803445802100 -0.004048378137754252 -0.003429556191631762 
-0.01400135616832522 0.1339509391243574 -0.1637091244539740 -0.009008886438170528 -0.002921882841176416 
0.1110179990470867 -0.003300945591067830 -0.1446879095372066 -0.006921462357249194 -0.001821693055916524 
-0.01064430235334247 -0.03331378167573411 0.07217116468502324 -0.02761087461185175 -0.02079260411980897 
-0.02099542531127300 -0.02144439575425554 0.02799106955252712 -0.01835171054361091 -0.01184065725614979 
-0.05610974160613218 -0.03786468630635727 0.08285987583555757 -0.0005930797910130856 -0.001873424196275954 
-0.01147295604515712 -0.04439215428413921 0.09691480309820330 -0.03264115994166687 -0.009749961597267499 
-0.01937233405620266 -0.01501159380690900 0.09344176716784909 -0.02485905054409041 -0.05681627947268789 
-0.02423911364893749 0.2026922632889960 -0.1644209204724233 -0.006484237805100900 -0.03222645485486968 
-0.1446515465705585 -0.02813818012815895 0.2107834405077506 -0.005610835738088215 -0.006833326304981094 
-0.01664030491820584 -0.04650322923911036 0.2777602701080881 -0.09681047989614684 -0.02685169931044614 
-0.04736112178282225 -0.01575081133163352 0.05421792088631081 -0.01355017194696531 -0.03112267943181041 
-0.02667508745068460 -0.03118995109198995 0.04414477017026891 -0.01239125585490085 -0.01976180083522469 
0.3555258145909136 -0.05673013174776838 -0.2233169258875859 -0.006188843344898306 -0.02970012751895176 
0.07512486188364385 -0.03241458052898401 0.1652832527275193 -0.03775259119917380 -0.02726173157337435 
0.09645264460520585 -0.09242867214712745 -0.1318302960901507 -0.009315799181755968 -0.01864907883452250 
-0.04942920639100679 -0.2584113798920785 0.4688317192782887 -0.06243547289987957 -0.1497563167152135 
-0.01597635848882747 -0.01543778114597616 -0.08741252957407374 0.1382829838255296 -0.01684398877954960 
-0.1369411365328143 -0.01949235121473419 0.1914880691225796 -0.02793806842633741 -0.008525317998014018 
-0.009074186398143391 -0.04406757672502751 -0.07233014000617537 0.1256674870682700 -0.01673436255660516 
-0.05812738812794529 -0.02056911533511661 -0.1350908890011036 0.3208519870391932 -0.04086377106512885 
-0.004489620662042571 -0.02285815126856399 -0.1298766063059195 0.09498285809083706 -0.02154463698992000 
-0.1049156781118293 -0.007903814747555396 0.1469792629588013 -0.003756499547556876 -0.001092050994124586 
-0.01879554568092442 -0.02652269348483705 0.2450480485713437 -0.1146855444545012 -0.009881488205797264 
-0.01819936083655491 -0.01409541614459492 -0.02229801596615543 0.02930491393355885 -0.003656728681998125 
-0.01505923473408414 -0.09838800671378221 -0.1610658614014152 0.4055354337273188 -0.03078501291669823 
-0.005465199323927070 -0.01616981908093219 -0.1288926580161271 0.1001390357264238 -0.01037526153507585 
-0.07033395989127623 -0.005450803534623972 0.1047816247259313 -0.01958675716476554 -0.0002236124603415811 
-0.01836453448853464 -0.02222102052399539 0.05148168477508090 -0.04085174747373131 -0.02036409340535845 
-0.01660610080729021 -0.01422475689888478 0.2445549031943338 -0.1660439722432449 -0.03286901870694479 
-0.01704710164983292 -0.02112334948839999 0.03411397847517828 -0.02963424159723491 -0.01856472180811924 
-0.01955386712489199 -0.006712130099063489 0.01343463524215012 -0.007619564064465213 -0.005464004122195692 
-0.01615391010684126 -0.05434757849784094 0.1489179850336600 -0.08965512072534369 -0.002481871148929986 
-0.01567361003874037 -0.03010470045057469 0.1413591417249092 -0.1052166907418357 -0.01340071629373124 
-0.03438561551655488 -0.01619219339631207 0.08485477597339632 -0.04788059096651932 -0.01068732914792914 
-0.001020386351251657 -0.04285273668179838 -0.1047163017634909 0.06823713002380635 -0.004476662363281262 
-0.006309965663153224 -0.01751858909312037 -0.07690395408315528 0.07701259369715181 -0.004442779785558996 
-0.02957472352265893 -0.02164669925726016 -0.03596965730102539 0.1952600359124929 -0.02235153592392153 
-0.1144352136681492 -0.03256302411040201 0.03645317296777863 0.2172349608507583 -0.01160067066527663 
-0.04883738375172979 -0.02345069440412100 0.1094292140946568 -0.04877139857086530 -0.03372838504905597 
-0.05663289812420133 -0.07532558683935392 0.1925176086169790 -0.08557745404169353 -0.01339611426115554 
-0.04947543418097333 -0.06760793102785334 0.1642968424432432 -0.04573324622588643 -0.002220218383614496 
-0.008008490262795726 -0.04684514717961926 0.1522643043123508 -0.07941003840167435 -0.02689925167930608 
-0.004828227751869399 -0.08599106015514525 0.2654620145660445 -0.1151997005519357 -0.01679844464622506 
-0.01433391980956004 -0.02597301381677205 0.05118684960573219 -0.02861842770988095 -0.01258581575937211 
-0.09928062137789574 0.2039684742814414 -0.07303101893370041 -0.001330377895893105 -0.0002964099184737765 
-0.008924557525000841 0.1279250786973349 -0.07292226813224310 -0.02963999316713644 -0.08260277634004895 
-0.01498814424823435 -0.06492283753145914 0.2244448059505803 -0.09982772845970547 -0.02744135546543723 
-0.03571044503334617 -0.1162858484186005 0.2921418339466880 -0.1216114916347015 -0.05142611450438026 
-0.01603032268514693 -0.06330718262716185 0.07996007678957447 -0.01343685463903300 -0.02612557120938434 
-0.02587247709967861 -0.1349784735480914 0.1523006792277619 -0.003487765486712999 -0.009635999810048845 
-0.02338639102604912 -0.05336293208097328 0.06342072270680489 -0.01577358476389010 -0.03792857255286637 
-0.02557867586822471 -0.0003321651714632053 0.03608860274456938 -0.005320060641460301 -0.003766449019956045 
-0.02262015484195947 -0.08610414455450789 0.1949324416585475 -0.003319737726560741 -0.001357649023600928 
-0.002268383598367546 0.1095355517395119 -0.2270869855371515 -0.003811761861073588 -0.005132385521131550 
-0.004270885434029880 -0.02378312905978536 0.06053982558175269 -0.03865389738896232 -0.007963315091646191 
-0.006454940085252976 0.03638941028283824 -0.1624048128849326 -0.001563696067960926 -0.005019632154959083 
-0.01231766330463423 0.1290443734004610 -0.08142017264349550 -0.007248778822513529 -0.02559712510613968 
-0.04236873082012234 -0.003972355175256893 -0.05790840809700935 0.1341729601710818 -0.01863537512706433 
-0.04806167322857599 -0.01424617229895639 -0.3697550499767696 0.4436414493086237 -0.04858986770687339 
-0.01137707746005233 -0.03226119835472930 0.1281540253192622 -0.1683910850239524 -0.07410661420666947 
-0.04594483267166652 -0.01464164676367503 0.1048625127914472 -0.01375021808954067 -0.02597372460336639 
0.2243325400626607 -0.007403595125509609 -0.2117299974692869 -0.007037504818384885 -0.002344013080913675 
0.2204164146074376 -0.006687898313214827 -0.2283925877875030 -0.007566918828382930 -0.001126244299244847 
-0.03146330449705741 0.2961700072604712 -0.09160786561189310 -0.06066666801135823 -0.008385593687912174 
-0.07977346982609519 -0.01588237753577238 0.1105978529571916 -0.02181770758592199 -0.03248061726700999 
-0.04377035367655599 -0.007227296574377949 0.08333805968738629 -0.01408788760230184 -0.004583525742099562 
-0.02387906396130803 -0.009632049077702596 0.08323435378520891 -0.05453678060524572 -0.03727157988263529 
-0.01580457772794955 0.1378731984504892 -0.1037292643377898 -0.04096781588175235 -0.01456209907486207 
-0.04754982603238978 -0.08118578232939504 0.1631766024297950 -0.005936769325967458 -0.01824620740527533 
-0.03108345260610715 -0.02818600201523454 0.2436281593760081 -0.1093751932095482 -0.007031015045470131 
-0.01139161765318634 0.1657758127498953 -0.1221549425730750 -0.02951933258354614 -0.03766299355427245 
-0.02386916715126154 0.4783131735570904 -0.2456484386378618 -0.01520845800047221 -0.09049528744529711 
-0.02932765656403343 -0.02078615676513852 -0.1414694478404657 0.2595801786728008 -0.007653018296574732 
0.3967223732224408 0.1456984879433733 -0.1790554781115036 -0.02657741218071748 -0.01279560684514918 
-0.01936144247120250 0.1515241435594951 -0.02518308744547857 -0.06373462268114806 -0.02346188692796346 
-0.01546044665941851 0.07269120064187992 -0.03165428760368859 -0.01681904220337861 -0.03496740211333363 
-0.03764282463129498 0.2221614492464446 0.05844103609091723 -0.01872996772737510 -0.07887915679790088 
-0.01942259570796737 -0.1901273276167976 0.3512748669773315 -0.05390499053011903 -0.005866144195211678 
0.3441988077016492 -0.02263128199098416 -0.1949851052743589 -0.01480308580288639 -0.01802021987135312 
-0.006043865656842208 0.1618691380525900 -0.03753000850190655 -0.03388581088456841 -0.07972894082786945 
-0.02489628839963893 -0.02642236098750599 -0.1846054452842186 -0.1283193272354452 0.3840870716102892 
-0.1048551942695568 -0.02200601080897952 0.4117290151162762 -0.03233249214426715 -0.03484981698868825 
-0.03057743811506487 0.2333615790732678 0.07236914521374740 -0.1018555067351839 -0.04724060896373765 
-0.01845754953278561 -0.07368856909127154 0.08523619837923130 -0.01233640854772740 -0.01196462270028982 
-0.03245299807082008 -0.2543103988400955 0.3198262100644661 -0.007216732689108586 -0.003645814815736996 
-0.01729281178315276 -0.01398532103418087 0.02888626942417504 -0.01846718843652883 -0.02019032102236627 
-0.1156658001693495 -0.01254422266762526 0.1026841493972859 -0.004255449003878665 -0.002768584515100528 
-0.05048362033731974 -0.02360723524350379 0.07322783010712153 -0.0009966778227412775 -0.005676508545608472 
-0.005798506983032044 -0.3100808703561416 0.2329874878771351 -0.005003085434258642 -0.01167624666078238 
-0.01810182208259914 -0.1497824368707210 0.1387307552686041 -0.002448974140254373 -0.004559511902770028 
-0.01461237110944655 -0.02438864473354507 0.1079664501310312 -0.03442939750558653 -0.05233276466233821 
-0.02499623600006286 -0.03928318587490975 0.05320437111098315 -0.007684242303247618 -0.005694294517240403 
-0.02021221307136278 -0.03896282832300749 0.07353066672162571 -0.01458028726156940 -0.008397657807271760 
-0.01120926043793712 -0.06603491130173263 0.1124239942599387 -0.03083591026188456 -0.02276444037972480 
-0.07285267482182053 -0.01388458275502155 0.09140096384109535 -0.002820516278060933 -0.003946235076456603 
-0.05753704038842363 -0.06307188959119395 0.2175869992637758 -0.03497234468600768 -0.07302485333744390 
-0.06005651347632145 -0.08155435843625154 0.3088161305843537 -0.05135765158613687 -0.004783574091501773 
-0.005372218873855804 -0.05517943533085454 0.1184471160377058 -0.04452416259692432 -0.004433828239199652 
-0.003332582140097699 0.09404104469212152 -0.1071542120742112 -0.009761220642953369 -0.05516983169037463 
0.5173592915138948 0.2376273851050642 -0.2838840978562163 -0.3353851977168360 -0.2846894295342784 
-0.8318729098179616 1.250850348974390 -0.7663842567421473 -0.09487939856039516 -0.01966930566350086 
1.019071695023712 -0.5182496421608558 -0.8436171026760182 -0.5435668489460099 -0.1783116116657157 
-0.02615115973783508 -0.05070531151224004 0.3453696261894239 -0.1180056279637593 -0.01158825723086743 
-0.1303877545601031 -0.3588827441606791 0.04985285400562230 0.01605478919093482 0.5889988278727165 
0.04731940133422832 -0.02028528510947461 -0.2190040675407667 0.2300530880420665 -0.007948764296937727 
-0.003682273719299802 -0.07089402722807720 -0.2295797011640422 0.3297172242084334 -0.03495075270668690 
-0.1255648509618875 -0.01611682721294449 0.1552878368638450 -0.01071845110443515 -0.003551538488802664 
-0.2118079878555395 0.3820632858237997 -0.4625805768814382 -0.1007096152525081 -0.1131833004403492 
-0.08791410422850682 0.3385867291859952 -0.7144290080756982 -0.2011248774438522 0.3964667253603346 
0.5048789697904708 -0.09760307548168920 -0.2383557253081171 -0.01212050521841228 -0.002102740840084882 
-0.2414922442235220 -0.2068070493222231 0.9033518803253394 -0.3755859933297925 -0.04801519553942824 
-0.007406708382858512 -0.04077424157902908 0.06909996424016393 -0.02032213818996510 -0.04567518595688420 
-0.006564584338076317 -0.05581871123656230 0.1643340606868385 -0.06721074916112484 -0.04231450984612147 
-0.01776231506043890 -0.05928318806156203 0.2152732530023759 -0.1176129758356674 -0.01803430881590088 
-0.007117397079567185 -0.2358459813295084 0.2042162107331436 -0.03783146984469944 -0.01569936919017255 
-0.2593737394188803 -0.2633313781001724 -0.8799843671823103 1.011418470549879 -0.2301682043491766 
-0.01802628919773345 0.01206711374729427 0.1429263741533682 -0.09217014160079212 -0.02854138304541755 
0.3694219560838396 -0.1241118912306162 -0.2769276680783454 -0.07702123755639421 -0.03381702830045269 
-0.03823299394906573 -0.04580102424806496 -0.2152095818392852 0.2513251691159260 -0.02181502455016039 
-0.04568419529286906 -0.01793664850880545 0.09969806086223457 -0.03498243006158635 -0.03692652577737438 
-0.03099127669845541 -0.01162437384219912 0.03770869539219339 -0.01495188668548801 -0.02985844388366148 
0.08897415808342643 -0.003242216945078346 -0.03585831518651447 -0.01197616577309269 -0.0002066524179543183 
-0.04111725127602003 0.2249494938727894 -0.01248167716474684 -0.06997809886625085 -0.08226364505754388 
0.1342894382646740 -0.1129151344870668 -0.05991789293504827 -0.05746322543689806 -0.05392299285957653 
-0.006283033075707923 -0.02166599000999881 0.1564948917184841 -0.09852218460187020 -0.06273236774618676 
-0.02685088220779154 -0.1068040345069992 -0.3943508335209000 -0.1380208081123417 0.5538872144589455 
0.3718082473258556 -0.09360456083394862 -0.3607111812529141 -0.06756933694455311 -0.01233213449582024 
-0.05189489840844222 0.03903949148165035 0.1279033564791437 0.02545461813101078 -0.1570066281407090 
-0.1951323710525711 0.7825098814827793 -0.3311619610461703 -0.01323567870573437 -0.1905211369307718 
-0.2135818133856088 -0.5097731915577546 -0.3054648727116963 -0.07492436867694276 0.9572064136375237 
-0.02983150202380286 0.1482898364439602 -0.1007838564272054 -0.007544025677265244 -0.002857874231118811 
-0.01285619423625636 0.02055473803986891 -0.1105161097175001 0.2178258135977563 -0.1330222318792996 
-0.01387053153423460 -0.1078656331910124 0.09021458357722403 -0.01377234283439685 -0.01766209726165853 
0.5701537318963323 -0.6047389355885218 0.5003530846345136 -0.6252482554142439 -0.4974216232161895 
-0.6592364444274972 0.06001460057659271 0.5501963792157214 -0.1159113665188764 -0.09178977503529487 
-0.01516320675143494 0.1696107238013112 -0.09511271524771764 -0.04449082392183399 -0.02080734170044735 
-0.01514349423091136 0.2138856059426384 -0.1529648240346876 -0.06417185640035000 -0.06378596914368326 
-0.1086046379011240 -0.05753090579617354 -0.1652785713739980 0.09501702270123977 0.3029007440635981 
-0.03611790318319758 -0.1016851512761836 -0.06192633586307191 -0.01678315106491463 0.07330180213543594 
-0.03376872477820877 -0.004461695310272344 -0.09873417586697633 0.1921559506586759 -0.03616679810794327 
-0.02952431010790682 -0.1133222449532639 -0.2628334676261381 0.3458568809328532 -0.03622606997284358 
-0.03908377229665501 -0.005036663270915976 -0.1926010778120477 0.2750608838919753 -0.02926001051218472 
-0.07044524403532197 -0.02656759406651695 0.05012832306370238 -0.001552247866815925 -0.006515801115335071 
-0.6336539120563158 -0.01722664540065396 0.5695542382063790 -0.02888326186718558 0.0005543046134414429 
-0.01778140372753725 -0.007651277384854435 0.2641665328028987 -0.1065063312225487 -0.08907490349002568 
-0.02222030292679648 -0.01285700318988225 0.1792508508838269 -0.08828446688469738 -0.01586888476170723 
-0.1115228994493010 0.1851319912497129 -0.1240237310856575 -0.002095994242659677 -0.0009722052866355035 
-0.01904663596211608 -0.03303255270621074 0.08341136223201706 -0.01275119506700435 -0.01027168842954938 
-0.01661186471066124 -0.1676396889803783 0.1399721580853537 -0.02370921440575637 -0.01497220537813082 
-0.01116271273218400 -0.05137222974870048 0.1449088982561688 -0.02669405779567911 -0.04569221579681386 
-0.09215909099067648 -0.006741611689862374 0.06437835635398143 -0.0008185546730093984 -0.002413257650271305 
-0.03727753981447070 -0.01559013211210269 0.1851675799279944 -0.06540516377023081 -0.008658697964943127 
-0.02625481058089543 -0.01135311154456695 0.2234606409725172 -0.04591256886787174 -0.1009328528647857 
-0.01653196210625624 -0.03232236017372417 0.04564842296903996 -0.01394801031406408 -0.03057470543583330 
-0.07141716987682575 -0.0008822012133902764 0.04648583715624508 -0.005466244182754191 -0.0004132477216463939 
-0.1322224883967634 -0.01481843808553357 0.1108851620445741 -0.001307124246348478 -0.001425892769009899 
-0.1129035209861983 -0.01437890061263911 0.2932325374277610 -0.06034115365671333 -0.005220499253036991 
-0.05127578422576468 -0.005474101026447611 0.2351763670316157 -0.07055903891514044 -0.09003305670925749 
-0.003788441854453772 -0.04428776225701894 0.2375543203895735 -0.1317330163806283 -0.02775193945462978 
-0.007288241409917681 -0.03488695673954340 0.1236011833630254 -0.04394948351350838 -0.03804498844048432 
0.8401271929444045 -0.1960801249632847 -0.1674037339905244 -0.3637267122171540 -0.0009806566964048122 
-0.05424392544699359 -0.1146255854761768 -0.3307305044089527 0.4972553541132798 -0.06594273871329580 
0.1055364128694150 0.2160762033786590 0.1313184672764108 -0.07299833700557759 -0.06814537329510693 
-0.04798889459696692 -0.09444136481009685 -0.2761361657325411 0.4011702178912647 -0.03096524242924921 
-0.07051146682183560 -0.4638385546976177 -0.6079158845458009 0.7077097575269500 0.5541382924098649 
-0.1146201944884114 -0.1145062395689919 -0.7027043541364667 0.7831320790375108 -0.04973859283060382 
0.4536640007215650 -0.07532945137171419 -0.2632931173384892 -0.01908491814743459 -0.01963330743118626 
-0.06868884619374788 -0.04128715688452328 0.1182858059015119 -0.06232268583820686 -0.004188117084414815 
-0.08807094619431792 -0.01395214574281910 0.2007054331861725 -0.01421520157045030 -0.03995312066128900 
-0.01635969092220086 0.3951570420870005 -0.06724695592984903 -0.2025855972104872 -0.1805759998628442 
-0.001968869984716325 -0.06293703526130771 0.2140264041121723 -0.1188964480836356 -0.04666828745542935 
-0.08776236983097795 -0.009584891326032954 -0.3723580320150162 -0.2286743798157550 0.4784316106389696 
-0.009915687409359726 0.2840233833858361 -0.2019761985912562 -0.05423349547178075 -0.02792506498698896 
0.08220186031628093 -0.03495465700524893 -0.03492320260466276 -0.004818107956466381 -0.0008942966011974567 
0.1078682261013365 -0.02012905546161741 -0.1430540081241539 -0.008626027237626326 -0.02528691467739541 
-0.04000369809052726 0.2419634963697986 -0.08233146784931206 -0.02678933309473619 -0.06059392690501343 
0.2957852455212909 0.04593028485288596 -0.2574996673093769 -0.05614539023937021 -0.01548538036755586 
-0.009242123330389054 -0.03539452700435881 0.05815202576101654 -0.02124514189282408 -0.004444338545008989 
-0.01868064426696518 -0.01114650612568664 0.0006729487748674406 -0.002210772923988864 -0.0008911329405127171 
-0.04200661997626995 -0.003852626405391327 0.06038886959055092 -0.02628477961973715 -0.04176806107858878 
-0.007779866226298799 -0.04688228922826583 0.1593774542288766 -0.08439289557299791 -0.01347840384904662 
-0.03760728781736643 -0.003976741940778336 0.2005034860485767 -0.05195262237265044 -0.04197235557567338 
-0.03201904035060417 -0.1116606689789245 -0.4721034627668116 0.5929754108241981 -0.02207727099786869 
-0.06899302462410688 -0.06963028348555750 0.1864343743976382 -0.06563351514307168 -0.02585494159777751 
-0.009198444065141158 -0.1932640106092054 0.3811953005900979 -0.1589697255655119 -0.03578391002945092 
-0.1143334645158150 -0.07068403240984623 -0.1603012265227995 0.4761529272158909 -0.1064588315483361 
-0.01945936755779750 -0.08256887717251600 -0.3252799031019082 -0.02584409543494760 0.3921755352096580 
-0.01878887347869123 -0.008824846043994332 -0.1006078381045947 0.1473475845163628 -0.005576350041186495 
0.1905482224950367 0.4134765893004858 -0.5287330699763554 -0.04787588947553401 -0.03549191441348355 
-0.02378783695809067 -0.03819148972773832 0.3751545821840106 -0.1817386237433020 -0.1306746151665599 
-0.01465884734055298 -0.05646793318721882 0.05527455905887867 -0.01187573126458936 -0.01507670141895151 
-0.06739775265922314 -0.07910109283140333 0.1456153651635296 -0.01482536278664070 -0.01214062808414512 
-0.01475129464338336 -0.01749160039649953 0.02253581914601239 -0.01819637384083170 -0.01138807729226419 
-0.03167063484921050 -0.01035015535854243 0.1417318845210339 -0.09765868453432044 -0.01479547694401247 
0.2907223769278761 -0.02443130317063613 -0.08969122907177586 -0.02388607574106816 -0.01136613114260461 
-0.01490477774982616 -0.01812005772476972 0.06484634844116441 -0.02257596967248736 -0.05230348659526730 
-0.02148847992359528 -0.008573437274885133 0.1466154503434232 -0.1064145127091153 -0.02649951971407190 
0.3337137149196351 -0.02521979880607051 -0.3168213723949737 -0.02103751960236731 -0.01261523828606255 
0.1785641058279526 -0.04095817891393879 -0.1210167663413188 -0.01710271111074480 -0.02180234983859092 
-0.06975330000871008 -0.01792692786823383 0.2303139837041634 -0.1322197958696109 -0.01143241405194918 
-0.08689221561977338 -0.01289224268637053 0.2626803456307603 -0.06783940797835183 -0.008823195676726276 
-0.01127807014636970 -0.005463373114417565 0.01386701086367715 -0.009793649679984699 -0.004903282440356127 
-0.01256788132194806 -0.05111626922683306 -0.09414792491230964 0.2796846097531161 -0.06160941439838442 
0.3401379730133900 -0.08205069909094133 -0.1613104013342220 -0.02531724627886331 -0.004027742545515703 
-0.2009912250567609 -0.1384925703781436 -0.5164150601296141 0.6359599150489432 -0.2042007362721019 
-0.01548451261094536 -0.01919008579834626 0.02662586479146951 -0.02059103691654523 -0.01253354467614850 
-0.03306954119063569 -0.01480005493949435 0.05276364505585003 -0.008499826895927905 -0.004939789813800485 
-0.009648874969718727 -0.08051564612230575 0.1524666497394007 -0.05594215962622432 -0.01134928851292117 
-0.03048893145970205 0.2758900651795649 -0.1396853095335413 -0.2382444981828252 -0.02923364789128507 
-0.01347395825053802 -0.09628804591654610 -0.1878568286485827 0.06101128547537039 0.1499693189941223 
0.4408328435393137 -0.1341147673736000 0.008079510694766834 -0.06472763401592845 -0.006516137428211756 
-0.02409790943317803 0.2290521944314717 -0.1109891261019603 -0.1096477566218049 -0.01236446194051815 
-0.03607055741544980 -0.01868643441721878 0.1216503056245852 -0.07379820144778823 -0.04756846648001505 
-0.03059955393571923 -0.02556250127811731 0.1166190919918727 -0.06426761101798226 -0.04751707740029219 
-0.01676738331047364 -0.03118317762161183 -0.1114251783854415 0.2573257464725482 -0.03109679581262505 
0.3042979236931994 -0.1201060849002723 0.03512542905291530 -0.01343900381344176 -0.009786884838092013 
-0.01957438333846077 0.1492658832360393 -0.1710022996878544 -0.03245027511689858 -0.008776304388108589 
-0.05455363337419877 -0.01704762953186468 0.1010518313675457 -0.05535678651970691 -0.05381404729826592 
-0.09903785773484745 -0.01219668545456265 0.07613760870787825 -0.003206243898561839 -0.0009535111438478109 
-0.002285926088682370 -0.07766154681516130 -0.1556890778883818 0.2570831118782709 -0.009769845473988710 
-0.01700178635954927 -0.1111162285476972 -0.1759635605571877 0.4842618337019912 -0.1471356676791251 
-0.09507317921241837 0.1505857763645154 0.08776062951517617 -0.06026587770874818 -0.01063355391486159 
-0.03679210066384560 -0.03276385326308762 0.1267786564649109 0.06481101712236209 -0.04219661039311452 
-0.06032974806453707 -0.01745840715097127 0.1934086069431174 -0.1638493238758458 -0.01254002856548302 
-0.01219146331394361 -0.02648680140500474 0.2836404648775191 -0.2738138874539968 -0.006762890178452378 
-0.03544700013817681 -0.002968318642532688 -0.1567253284801602 0.2781987496850555 -0.07578775571834023 
0.01976646065396805 -0.06951685003620674 0.1231586011737463 -0.02610682485699987 -0.002765999857115751 
-0.01055130164494746 0.4528119633124536 -0.1832418353545070 -0.1470009291770874 -0.02527570230717410 
-0.01754570023438244 -0.07368708684585153 -0.02403563808242708 -0.1959062602308695 0.4308868898383898 
-0.005091094642731873 -0.04381133300534414 0.09325599677267993 -0.05341705790956222 -0.05585779749923876 
-0.02540766719893419 -0.02385268563458268 0.07814699223383684 -0.02466118940200230 -0.01435259484254006 
-0.01460676413513145 -0.03933781215593793 0.2040517576696484 -0.1670360122674604 -0.01813393295254348 
-0.007627868861269986 -0.05243087052372441 -0.1742445057501832 -0.04931738386362615 0.3023642112417799 
-0.005608491268324294 -0.05751911339240768 -0.1252768764700701 0.2404627694491401 -0.03456417978074897 
-0.01833726658215898 -0.02863170753351297 -0.1739624715605952 0.2439577930535266 -0.003928238716053809 
-0.008728277701590703 0.08744331048004937 -0.03887703581214883 -0.03366281556672463 -0.005304212091872475 
-0.1122559844830337 -0.4022096160397786 0.5458623071776679 -0.03759391843795059 -0.009667294531898058 
-0.02956991500484893 -0.09008857264251947 0.1856141547017738 -0.009860958623029813 -0.02655909869985349 
-0.02323493558449801 -0.05301772514372265 0.1956710447349340 -0.03991235735267790 -0.07430395737708342 
-0.03386907649748094 0.1037076930720096 0.1487943854908979 -0.09655471776557795 -0.04401123751081988 
-0.08655557106521564 -0.004486579457102532 0.07802244910151414 -0.002029761240504386 -0.001631127560976836 
-0.05688089275415995 -0.07680461955876362 0.1485217997859805 -0.01544460427382985 -0.01196894291171505 
-0.1090711642802680 -0.04531899171603862 0.1821513462555976 -0.02002933450949259 -0.03069210478790067 
0.2277525021536026 -0.1078715883157362 -0.1039543096267890 -0.005143644174739660 -0.008036764992121389 
-0.003728935714578681 -0.05552583826928255 0.09102980690747514 -0.05228002295224886 -0.02342873690992625 
-0.01613493010307178 0.2979828917438485 0.1054438946845134 -0.2662516315471069 -0.1267504635420990 
-0.02932995358274050 -0.02394356312712632 -0.3027552265616562 -0.03988340146816050 0.4535607472627857 
0.04177893265231912 -0.001202610717494871 -0.04780570297722436 -0.003395702039482346 -0.0008302235528256498 
-0.03634009382942401 -0.01403474774768036 -0.2606096550821243 0.3084119041005913 -0.004013264239910144 
-0.01114798144419046 0.02444993144665541 -0.1492285557506781 0.3655868181222962 -0.1366159416528472 
0.2245588882959922 -0.003080392389943401 -0.1629480891942914 -0.03743298552045941 -0.0008247660457023009 
-0.02418115191984167 0.3452496002727374 -0.1369447660475140 -0.08760753369688959 -0.02705709714403040 
-0.01378137505113855 -0.03574482798202752 -0.1136091130402008 0.1765535486003997 -0.01416557231485308 
-0.1810540940598529 0.1847870277654948 0.07271793054449063 -0.03236767570186692 -0.03047557188004010 
-0.01623630322270412 -0.08644559204162078 -0.1901566079712805 0.1783983000004471 -0.006273178047838756 
-0.01023580029830640 0.3207216325235299 -0.1858315063292994 -0.06469058669670663 -0.04732350204363904 
-0.06127632647497903 -0.01191819603793282 0.2676995109403752 -0.1334279577938165 -0.01713223178156056 
-0.02018476213194849 -0.03789290377473443 0.1097281762999469 -0.03156248384192933 -0.07737450633594020 
-0.005353155687944216 -0.1360118052698112 -0.1592460901208842 -0.09207880069317347 0.5184126704892248 
-0.02354650392724422 -0.02740234112248699 -0.04679421031481851 0.02060670141455536 -0.07057607627890404 
-0.03019836614534202 -0.009030232548391330 0.1536532820566209 -0.1163937165939732 -0.005831411735291460 
-0.006594642031040093 -0.01115597391634017 0.05379252559539584 -0.09493187037563242 -0.03065090198086455 
0.0001289606326224119 -0.1318031652886040 0.3579782166254271 -0.3451388753554500 -0.03509125917112418 
-0.01476660096849709 0.1870686848570861 -0.03078748362013623 -0.008283154999295645 -0.08595291729111247 
-0.06493607008613994 0.2235570667082398 -0.1330769354931216 -0.005705632713508606 -0.005686579555832669 
-0.01064430235334247 -0.03331378167573411 0.07217116468502324 -0.02761087461185175 -0.02079260411980897 
-0.02099542531127300 -0.02144439575425554 0.02799106955252712 -0.01835171054361091 -0.01184065725614979 
-0.05610974160613218 -0.03786468630635727 0.08285987583555757 -0.0005930797910130856 -0.001873424196275954 
-0.05815872376947705 -0.1651159188277697 0.5502974151936011 -0.1583619145404558 -0.02806632964451410 
-0.05673782364057683 0.1710480330246595 0.1291804554465667 -0.1354189571357296 -0.1435585869799832 
-0.02423911364893749 0.2026922632889960 -0.1644209204724233 -0.006484237805100900 -0.03222645485486968 
-0.008467776348328447 0.1561052108035853 -0.2169299237581764 -0.02491293650428805 -0.1045724846089186 
-0.02293529218848139 -0.2404836490415821 -0.3648423312110358 -0.06658275489437303 0.5687149833100322 
-0.1446515465705585 -0.02813818012815895 0.2107834405077506 -0.005610835738088215 -0.006833326304981094 
-0.01664030491820584 -0.04650322923911036 0.2777602701080881 -0.09681047989614684 -0.02685169931044614 
-0.04736112178282225 -0.01575081133163352 0.05421792088631081 -0.01355017194696531 -0.03112267943181041 
-0.02031949263756542 0.1516758883902783 -0.07122304281455480 -0.01105667106312280 -0.03728707323881128 
-0.04624021139140939 -0.05807221600982411 0.08882759760075844 -0.03478776680202313 -0.03590050418068952 
-0.003897030276819811 -0.03825216027785645 0.1583853722021269 -0.02305268620884911 -0.09186749190099441 
0.3555258145909136 -0.05673013174776838 -0.2233169258875859 -0.006188843344898306 -0.02970012751895176 
0.07512486188364385 -0.03241458052898401 0.1652832527275193 -0.03775259119917380 -0.02726173157337435 
0.1112730807847109 -0.006555026553975666 -0.2198607932518119 -0.002085572473174742 -0.004299345752849577 
-0.04942920639100679 -0.2584113798920785 0.4688317192782887 -0.06243547289987957 -0.1497563167152135 
0.3204904699569211 0.09506755448804703 -0.2669316577615711 0.3137566224184133 -0.01610245821026829 
-0.01597635848882747 -0.01543778114597616 -0.08741252957407374 0.1382829838255296 -0.01684398877954960 
-0.1369411365328143 -0.01949235121473419 0.1914880691225796 -0.02793806842633741 -0.008525317998014018 
-0.009074186398143391 -0.04406757672502751 -0.07233014000617537 0.1256674870682700 -0.01673436255660516 
-0.05812738812794529 -0.02056911533511661 -0.1350908890011036 0.3208519870391932 -0.04086377106512885 
-0.004489620662042571 -0.02285815126856399 -0.1298766063059195 0.09498285809083706 -0.02154463698992000 
-0.1304943539800540 -0.008235979919018600 0.1830678657033708 -0.009076560189017178 -0.004858500014080631 
-0.01425318287696923 -0.04834682610602692 -0.1178863994244446 0.2061487013304165 -0.01982269557964525 
-0.03152951173186384 -0.002048346657557288 -0.1346644415917645 -0.1612730619305626 0.2067582084687415 
-0.07033395989127623 -0.005450803534623972 0.1047816247259313 -0.01958675716476554 -0.0002236124603415811 
-0.01836453448853464 -0.02222102052399539 0.05148168477508090 -0.04085174747373131 -0.02036409340535845 
-0.01660610080729021 -0.01422475689888478 0.2445549031943338 -0.1660439722432449 -0.03286901870694479 
-0.01704710164983292 -0.02112334948839999 0.03411397847517828 -0.02963424159723491 -0.01856472180811924 
-0.01955386712489199 -0.006712130099063489 0.01343463524215012 -0.007619564064465213 -0.005464004122195692 
-0.01615391010684126 -0.05434757849784094 0.1489179850336600 -0.08965512072534369 -0.002481871148929986 
-0.01567361003874037 -0.03010470045057469 0.1413591417249092 -0.1052166907418357 -0.01340071629373124 
-0.001020386351251657 -0.04285273668179838 -0.1047163017634909 0.06823713002380635 -0.004476662363281262 
-0.006309965663153224 -0.01751858909312037 -0.07690395408315528 0.07701259369715181 -0.004442779785558996 
-0.06135841499508441 -0.04360600751630658 0.1356641877031919 -0.01611364000704281 -0.01120135666620361 
-0.02957472352265893 -0.02164669925726016 -0.03596965730102539 0.1952600359124929 -0.02235153592392153 
-0.1144352136681492 -0.03256302411040201 0.03645317296777863 0.2172349608507583 -0.01160067066527663 
-0.02294862423578535 -0.007293621841377621 0.05065996633730018 -0.02326367135192107 -0.02117970444844317 
-0.04708248918758670 -0.08145077380786749 0.1039165077042210 -0.03598362117661196 -0.05234195725776970 
-0.01684981309758769 -0.01997824605804836 0.04993603447717257 -0.02335696217861502 -0.02511986697115293 
-0.04947543418097333 -0.06760793102785334 0.1642968424432432 -0.04573324622588643 -0.002220218383614496 
-0.008008490262795726 -0.04684514717961926 0.1522643043123508 -0.07941003840167435 -0.02689925167930608 
-0.004828227751869399 -0.08599106015514525 0.2654620145660445 -0.1151997005519357 -0.01679844464622506 
-0.01433391980956004 -0.02597301381677205 0.05118684960573219 -0.02861842770988095 -0.01258581575937211 
-0.09928062137789574 0.2039684742814414 -0.07303101893370041 -0.001330377895893105 -0.0002964099184737765 
-0.008924557525000841 0.1279250786973349 -0.07292226813224310 -0.02963999316713644 -0.08260277634004895 
-0.01498814424823435 -0.06492283753145914 0.2244448059505803 -0.09982772845970547 -0.02744135546543723 
-0.03571044503334617 -0.1162858484186005 0.2921418339466880 -0.1216114916347015 -0.05142611450438026 
-0.002840495449491461 0.1664948873682051 -0.1368390430363346 -0.07001697580559085 -0.009179609085191123 
-0.007213523830748886 -0.08472135536270503 0.05152611099313020 -0.006416604363071028 -0.01073151918087396 
-0.02010173907118605 -0.1486763031740675 0.2062832288479158 -0.002953859402395980 -0.0006440393608220645 
-0.01603032268514693 -0.06330718262716185 0.07996007678957447 -0.01343685463903300 -0.02612557120938434 
-0.005660595595478544 0.3187484329079109 -0.1921860575931736 -0.05676026057633580 -0.02241169099856005 
-0.002268383598367546 0.1095355517395119 -0.2270869855371515 -0.003811761861073588 -0.005132385521131550 
-0.004270885434029880 -0.02378312905978536 0.06053982558175269 -0.03865389738896232 -0.007963315091646191 
-0.01231766330463423 0.1290443734004610 -0.08142017264349550 -0.007248778822513529 -0.02559712510613968 
-0.04236873082012234 -0.003972355175256893 -0.05790840809700935 0.1341729601710818 -0.01863537512706433 
0.07057436062343687 -0.002161753639158007 -0.1188685941373604 -0.002831195670213876 -0.001154733037181694 
-0.01137707746005233 -0.03226119835472930 0.1281540253192622 -0.1683910850239524 -0.07410661420666947 
0.2243325400626607 -0.007403595125509609 -0.2117299974692869 -0.007037504818384885 -0.002344013080913675 
0.2204164146074376 -0.006687898313214827 -0.2283925877875030 -0.007566918828382930 -0.001126244299244847 
-0.03146330449705741 0.2961700072604712 -0.09160786561189310 -0.06066666801135823 -0.008385593687912174 
-0.07977346982609519 -0.01588237753577238 0.1105978529571916 -0.02181770758592199 -0.03248061726700999 
-0.02387906396130803 -0.009632049077702596 0.08323435378520891 -0.05453678060524572 -0.03727157988263529 
-0.04754982603238978 -0.08118578232939504 0.1631766024297950 -0.005936769325967458 -0.01824620740527533 
-0.03108345260610715 -0.02818600201523454 0.2436281593760081 -0.1093751932095482 -0.007031015045470131 
-0.02061869231450839 -0.008060146058457835 0.04536712589185012 -0.01779225480121724 -0.005471449782764403 
-0.01139161765318634 0.1657758127498953 -0.1221549425730750 -0.02951933258354614 -0.03766299355427245 
-0.02386916715126154 0.4783131735570904 -0.2456484386378618 -0.01520845800047221 -0.09049528744529711 
-0.01020940268362609 -0.06291351952987055 0.5225344032727688 -0.1486589594511387 -0.003734597640981501 
-0.02932765656403343 -0.02078615676513852 -0.1414694478404657 0.2595801786728008 -0.007653018296574732 
-0.01936144247120250 0.1515241435594951 -0.02518308744547857 -0.06373462268114806 -0.02346188692796346 
-0.03764282463129498 0.2221614492464446 0.05844103609091723 -0.01872996772737510 -0.07887915679790088 
-0.01942259570796737 -0.1901273276167976 0.3512748669773315 -0.05390499053011903 -0.005866144195211678 
-0.01482043617950504 -0.08587364559315179 0.08803049716166118 -0.007230226708581227 -0.01434973308167292 
0.3441988077016492 -0.02263128199098416 -0.1949851052743589 -0.01480308580288639 -0.01802021987135312 
-0.006043865656842208 0.1618691380525900 -0.03753000850190655 -0.03388581088456841 -0.07972894082786945 
-0.02489628839963893 -0.02642236098750599 -0.1846054452842186 -0.1283193272354452 0.3840870716102892 
-0.1048551942695568 -0.02200601080897952 0.4117290151162762 -0.03233249214426715 -0.03484981698868825 
-0.03057743811506487 0.2333615790732678 0.07236914521374740 -0.1018555067351839 -0.04724060896373765 
-0.01845754953278561 -0.07368856909127154 0.08523619837923130 -0.01233640854772740 -0.01196462270028982 
-0.03245299807082008 -0.2543103988400955 0.3198262100644661 -0.007216732689108586 -0.003645814815736996 
-0.01729281178315276 -0.01398532103418087 0.02888626942417504 -0.01846718843652883 -0.02019032102236627 
-0.1156658001693495 -0.01254422266762526 0.1026841493972859 -0.004255449003878665 -0.002768584515100528 
-0.05048362033731974 -0.02360723524350379 0.07322783010712153 -0.0009966778227412775 -0.005676508545608472 
-0.005798506983032044 -0.3100808703561416 0.2329874878771351 -0.005003085434258642 -0.01167624666078238 
-0.01461237110944655 -0.02438864473354507 0.1079664501310312 -0.03442939750558653 -0.05233276466233821 
-0.02499623600006286 -0.03928318587490975 0.05320437111098315 -0.007684242303247618 -0.005694294517240403 
-0.02021221307136278 -0.03896282832300749 0.07353066672162571 -0.01458028726156940 -0.008397657807271760 
-0.07126577391425858 -0.1475892697379842 0.4212401248442924 -0.08219356184802143 -0.02754801447122658 
-0.07285267482182053 -0.01388458275502155 0.09140096384109535 -0.002820516278060933 -0.003946235076456603 
-0.05753704038842363 -0.06307188959119395 0.2175869992637758 -0.03497234468600768 -0.07302485333744390 
-0.005372218873855804 -0.05517943533085454 0.1184471160377058 -0.04452416259692432 -0.004433828239199652 
-0.01582273972661760 -0.02136923422402341 -0.1733499151147235 -0.004704169568673379 0.1565218426697363 
-0.003332582140097699 0.09404104469212152 -0.1071542120742112 -0.009761220642953369 -0.05516983169037463 
-0.2268507654689476 -0.01680207042279976 -1.254599573105625 0.9808334438315903 0.2440397667681202 
-0.003591809755611766 -0.03229906334001453 0.1214548018229234 -0.3904619996563984 -0.2713955715905099 
0.5460774244021320 -0.4400130078222505 -0.09482364680546206 -0.7220123907427742 -0.5059845530107351 
0.05104262784514886 0.4012983854586391 -0.3255108965959231 -0.3572483740522106 -0.3332176810947333 
-0.8620480914754585 0.4393469976669325 -0.9618978054067288 0.3668633891748785 0.6017130755286225 
0.2927779327884882 -0.1566904749784609 0.1983672533470704 -0.1887330437051904 -0.03627606953812611 
-0.2303929746101175 -0.2243508819444304 0.5567246685556276 -0.1518567418610334 -0.1952371039565763 
-0.6023156327909126 -0.7847091166749193 1.288197977026858 -0.3585611051482563 -0.1929288983490939 
-0.1768922451706909 -0.07822344810590783 0.2716610614382363 -0.1950172690298455 -0.1829255443400511 
-0.1726406530194522 -0.2927960675898998 0.4998408082533318 -0.1289017290507076 -0.1202868087854889 
0.4017233578117498 -0.1983838368719212 -0.4985693683162845 -0.04057223878102259 0.2101903373739860 
-0.03908377229665501 -0.005036663270915976 -0.1926010778120477 0.2750608838919753 -0.02926001051218472 
-0.1239935513223357 -0.1008608385659705 0.1997433558898489 -0.09762063080620288 -0.1008972998076923 
-0.1274744273604526 -0.08953971552147666 0.3322898142678000 -0.1329132467592754 -0.07340166542040680 
-0.1541396419391133 -0.1397246878559345 0.4762954610528806 -0.2267540548279558 -0.2746937064090377 
-0.01476660096849709 0.1870686848570861 -0.03078748362013623 -0.008283154999295645 -0.08595291729111247 
-0.02031949263756542 0.1516758883902783 -0.07122304281455480 -0.01105667106312280 -0.03728707323881128 
-0.02387906396130803 -0.009632049077702596 0.08323435378520891 -0.05453678060524572 -0.03727157988263529 
-0.4116254284368719 0.2919175656235398 0.06191146239376522 -0.1521965299400032 0.09775701837274747 
0.06605135278318790 -0.3898006910981416 -0.02123397651408543 0.01738479462459518 -0.9301052218100074 
0.1444678542961581 -0.4897686630844227 0.2736154784324861 0.02064514582049790 -0.6630699303077827 
0.06424189393481330 -0.2317887588924545 0.1405695637995507 -0.4048654426997214 -0.1445784912209469 
0.5599193003968757 0.04689286352993232 -0.5623116132884927 -0.1449490186968855 -0.2455363662090400 
-0.4367562929709986 -0.1639444649733403 0.04409549019080501 0.3289632048621425 -0.002429200915950480 
-0.4147275220201386 -0.2517633007935638 0.6838340270007676 -0.06114822678023608 -0.04519983827989800 
-0.03642559278901381 0.2554244886451996 0.05942165038080209 0.2682630618364449 -0.3460584396353832 
0.03867020408251621 0.1755861498462385 -0.1460859239551579 -0.01309213865007561 -0.2928158453455646 
0.3213740657727793 -0.2928255431234153 0.1902118190269812 -0.1531751936726176 -0.3017577214766346 
-0.1047650628721546 -0.1132926419250762 0.3409440423852032 -0.2381188381309899 -0.1063824571588231 
0.2262489582957406 0.08129370355860616 -0.5010069711334538 0.1767327427721482 0.1527511899478443 
-0.4069311946052449 -0.2404091351903622 0.5814180879063026 0.06855291777521283 -0.05162750867824130 
-0.1353904999992543 0.1176174937984802 -0.001761945273782370 -0.02263327858569759 0.1535180685492026 
0.2579538517058294 0.5573892277846085 -0.5299344799798638 -0.4896393162616656 0.06388662219706366 
-0.1201831299671986 -0.2494117337630847 0.2353565735018376 -0.1968298270449886 0.1678372743993599 
-0.4143089584279332 -0.1048487233374611 0.5106690521762212 -7.940170111078769e-05 -0.2050592953750211 
0.1851255770281603 0.1634489696295085 -0.1265293416873088 -0.1480309925602542 -0.05686234797440360 
-0.04111725127602003 0.2249494938727894 -0.01248167716474684 -0.06997809886625085 -0.08226364505754388 
-0.04111725127602003 0.2249494938727894 -0.01248167716474684 -0.06997809886625085 -0.08226364505754388 
-0.2304179629998728 0.08165705201165695 0.2885056832143524 -0.1023886608954227 -0.03066467189977353 
-0.04163558922469736 0.1263162369086590 0.3149359508924584 -0.4305351215259675 -0.2169146357088762 
-0.3813717123474886 -0.1576208507945375 0.1502301956261125 0.2829943368023759 -0.07964677644573467 
-0.008223223820114882 0.05401033732316158 -0.05961410114240861 -0.01006179375308208 -0.006575296151409543 
0.3022122670796117 0.06525977357348602 -0.2428901969146505 0.06789000034840922 -0.1289917808838560 
-0.1352126304450969 -0.3132074203127058 0.3901673819384090 -0.09793077568555651 0.1185913365578164 
-0.3791994458961069 0.06560315544815692 0.3304390146563921 -0.04623960426584529 -0.04438600547520351 
-0.04259723558324354 -0.01772898997120724 0.1158714243955514 -0.04344251948484253 -0.005321001324877314 
-0.04998993363323771 -0.02029938918831556 0.1223935981562220 -0.01318072901664301 -0.01856041846459555 
0.1560427048063098 -0.03652795408165169 -0.1772072976788318 -0.008418519294685230 -0.006242119989323075 
-0.1090711642802680 -0.04531899171603862 0.1821513462555976 -0.02002933450949259 -0.03069210478790067 
0.03423462603363814 0.0001666455128284334 -0.03628740606027529 -0.009981577381203830 0.0003758067057730759 
-0.1109821371688515 -0.2976537399879939 0.2416473460367991 -0.09484465494969727 0.2527557257122607 
1.159304291007775 -0.4138900075523745 -0.6111248504370878 0.2147715737967542 -0.01101824375334973 
0.2736664252856309 -0.1160417168819506 -0.5409108893814182 0.4928982559501393 -0.6159462449692115 
-0.2052557619113017 -0.003046568292807405 0.4903627886352940 -0.6459856056726236 -0.08691892918200796 
0.5667967651971543 0.05183664347342392 -0.4435691437216584 -0.1465406661592886 -0.4980487311611631 
-0.01035622814529582 1.041068083503558 -0.4038982567685207 0.1019736513962311 -0.2950407765980496 
-0.7803683532838013 0.4922298655091512 -0.1459047132735587 0.3008884553723846 -0.2158356058139620 
0.9829407451792557 -0.1586430597542809 -0.4823272367008750 -1.074131346514253 -0.6003396467409665 
-0.4851667277862814 -0.5173551844601466 0.8093045882572137 -0.1410857643246594 -0.09224552292964744 
-0.5564721345451925 0.7907522703902045 -0.1253080467444492 -0.3015329111405699 -0.2980942949989371 
0.05624192584816989 0.007848522166782355 -0.02410491624370368 -0.2110277008720826 -0.2285976620729362 
0.07651643620509978 -0.1452344604724839 -0.03428557635988754 0.1273407849204894 0.1175300558325081 
0.02464604937334976 -0.1377511680689663 0.06068087004149685 0.1317314802855506 0.1187226268671879 
-0.1682389504387987 0.4222762273571227 -0.1741423903514784 0.1658371026075326 -0.2317907690719845 
-0.3120517532349467 -0.1188542472681378 0.4808834755359546 0.06716956139150132 -0.1494387243738612 
-0.3564149700369819 -0.02877705238821428 -0.07108808139499004 0.04748654866577090 0.5173136042559627 
-0.1174743300624094 -0.2393855427286885 0.2465977541960720 -0.2039154767674564 0.1704482899372768 
0.4726779073935430 -0.2396551328969162 -0.4799653996990357 0.3849303258096490 -0.3310501202299919 
0.04402394212931332 0.07113499118786426 -0.02051427298510175 -0.1596487659773946 -0.08700570678464730 
-0.3923288603802910 -0.2187718966672408 0.3379407738963083 0.2168085460610051 -0.04944093695304550 
-0.5845551789479795 -0.01511432154481750 0.8903941479938812 -0.2177199709312424 -0.03194480789969961 
-0.2304179629998728 0.08165705201165695 0.2885056832143524 -0.1023886608954227 -0.03066467189977353 
-0.4714123018018719 -0.1995729068692537 0.4729173574209445 -0.2168841842563975 -0.02008618422461074 
-0.2543261739346471 -0.4309781453821678 0.4649629810317200 -0.02104618595312461 -0.03367866230358516 
-0.07968920284984246 -0.1973050136139174 0.2296687028427661 -0.03965892332908955 -0.06074939939375876 
-0.1786023971006407 -0.3258572492264535 0.4868969628944009 0.1074559999568689 -0.04275808836162018 
-0.01442101460853685 -0.005237508795940129 0.02053542414271321 -0.007331140595641947 -0.005049461790147898 
-0.04998993363323771 -0.02029938918831556 0.1223935981562220 -0.01318072901664301 -0.01856041846459555 
-0.02627199487066077 -0.2035571393683995 0.1451366512871511 -0.03949515409266553 -0.02007239270072865 
-0.05688089275415995 -0.07680461955876362 0.1485217997859805 -0.01544460427382985 -0.01196894291171505 
0.1350782490191057 -0.03270482752475148 -0.09204712463291977 -0.02359647550042552 -9.078271331884700e-05 
-0.02587247709967861 -0.1349784735480914 0.1523006792277619 -0.003487765486712999 -0.009635999810048845 
-0.1659480091283906 -0.4068632504728074 0.4808494385678796 -0.3513884239711262 -0.1875291496627495 
-0.3587181960538977 0.6115458710124211 -0.2340510811082566 -0.4898815549616117 -0.1979178177222517 
-0.09436849660787909 -0.07900219264526667 0.1401040226766753 -0.01187548296378345 -0.006509649729767013 
-0.1645199474669833 0.3305013938441759 0.2638000760011753 -0.4006192325024481 -0.5022305796277942 
0.8891154596358263 -0.6837915918206858 -0.07389964783823055 -0.6119343841966509 -0.2406905036269085 
-0.2817177769126147 -0.1052457116495683 -0.1249310535568068 0.3691313286135979 -0.9075667371655278 
0.09505910065866530 0.3914140973178554 -0.3350704296014800 -0.5403444432851450 0.4799550060576198 
-0.3042184261096991 0.07335529929836948 -0.06891580132887265 0.2649289755818847 -0.3972155998404461 
-0.3113720848340690 -0.1478770537029940 0.4760436664516534 -0.4127671956926426 0.1059533753374752 
0.2364936903728690 0.04979826188349663 -0.2890289102590626 0.1884676740802739 -0.09761170293392135 
-0.2514601621898639 -0.3900747738585246 -0.2710306765449302 0.1548138960196037 0.6651006417910675 
-0.1579496499699865 -0.5313453223130961 0.6329976247627507 -0.5972799082277451 0.4140605981694522 
-0.4672951741129962 -0.3628880590898469 -0.2625355064849906 1.140451176962991 -0.3707513384746016 
-0.01548451261094536 -0.01919008579834626 0.02662586479146951 -0.02059103691654523 -0.01253354467614850 
-0.1343831945996199 -0.1200088476748505 0.2368390744340520 -0.1228831027307385 -0.1655863014519621 
-0.09806185125494492 0.1957355163679267 -0.03642228398797579 -0.05078238648136110 -0.02659022964695120 
-0.003693354647065824 0.2747377090131934 -0.1765263066646511 -0.03890690351757765 -0.02008057991718419 
0 0 0 0 0 
-0.04706872590824586 -0.1699209496272473 0.1722375172902835 -0.02823425632485382 -0.005921203250552789 
-0.05131868596701800 -0.07501304722212965 0.1109442486320654 -0.04973797856156040 -0.01803553018200688 
-0.09230710413202958 -0.2416578352607855 0.2355395694912179 -0.03213456932070797 -0.01263466602280345 
-0.4926554026416247 -0.08496757212692863 0.3128991102385825 0.4464508260606045 -0.006989663338403134 
0 0 0 0 0 
0 0 0 0 0 
0 0 0 0 0 
-0.8090046645572178 -0.1174685590150755 0.7207314246228724 -0.2822188633670761 0.3559123373046719 
-0.02932995358274050 -0.02394356312712632 -0.3027552265616562 -0.03988340146816050 0.4535607472627857 
-0.007570762448955504 -0.02188304904005941 0.1199705838256543 -0.06930102515952037 -0.02636154830846414 
-0.005187198711995380 -0.05233158763886409 0.2390490278086369 -0.09923941771601660 -0.04149438853611737 
-0.1436090988635799 -0.1009232006532458 -0.2777934850843782 0.6177509812715081 -0.04665124259454870 
-0.1235130850611751 -0.1702306967126597 0.4185430743812639 -0.1219315991157220 -0.06643701601458722 
0 0 0 0 0 
-0.002346168437139760 -0.005324863656689881 -0.02951516019763308 0.01569581211223083 -0.006901133050839196 
0 0 0 0 0 
0 0 0 0 0 
-0.4764017386803802 0.2697805963527377 0.4533633159952072 -0.5134195516754366 -0.2723464551833290 
0 0 0 0 0 
0 0 0 0 0 
0 0 0 0 0 
0 0 0 0 0 
0 0 0 0 0 
-0.06621141903409550 -0.1613509340397656 0.3841204638990711 -0.1644430618403718 -0.05572187468217624 
0.09976915026843258 0.5359774383409603 -0.5921942569442872 -0.1144391140246048 -0.02201121380920391 
-0.01926121190369782 -0.04943765950077785 -0.1043361935934261 -0.04303938870915842 0.2474249677737007 
0.2592089427742066 -0.08768849408210033 -0.2990835932590695 -0.05206545469042482 0.2367610249531960 
-0.01397129272093483 -0.09659295281559138 0.2334340249270024 -0.08753288735108994 -0.08798969580300567 
-0.01776231506043890 -0.05928318806156203 0.2152732530023759 -0.1176129758356674 -0.01803430881590088 
-0.01547670132921725 -0.08075710045880803 0.1929905190008979 -0.08821089439519156 -0.008634966692621567 
-0.002954450271640008 0.2071881984052789 -0.06118318861881537 -0.03973961741929556 -0.06982768418692309 
-0.06549068581550739 0.1678596821032451 0.4124141622585440 -0.1659949426863320 -0.3958719572259045 
-0.2871133719951154 -0.5312500224770879 -1.030915112478602 1.390135625024356 -0.1667224687161195 
0.2403979682197169 -0.06346843029580307 0.2065578446306852 -0.2186386584031796 -0.2280972418419123 
-0.3088471573559617 -0.03467613503157621 0.4604828222280871 -0.09463303166022946 -0.03478426584632564 
-0.01802628919773345 0.01206711374729427 0.1429263741533682 -0.09217014160079212 -0.02854138304541755 
0 0 0 0 0 
0 0 0 0 0 
0 0 0 0 0 
0 0 0 0 0 
0 0 0 0 0 
-0.06186666774098504 -0.1486344034199083 0.3783326561661962 -0.1659369903991163 -0.03744712352919806 
0 0 0 0 0 
-0.09124647770499263 -0.01978364158718541 0.2325511294357741 -0.1337531814661082 -0.03712143320573124 
0 0 0 0 0 
0 0 0 0 0 
-0.4964193169069446 -0.2527750362589412 0.5686750702338775 -0.04898442453786881 -0.1648228198255132 
-0.004341758432411862 -0.2165739937779853 0.3633841150850644 -0.03002588258997098 -0.1542321938320539 
0 0 0 0 0 
0 0 0 0 0 
0 0 0 0 0 
-0.03099127669845541 -0.01162437384219912 0.03770869539219339 -0.01495188668548801 -0.02985844388366148 
-0.3249907213863436 -0.03035381539310491 0.3277385281314569 -0.05746023589957593 -0.06787914987001803 
-0.04568419529286906 -0.01793664850880545 0.09969806086223457 -0.03498243006158635 -0.03692652577737438 
-0.03099127669845541 -0.01162437384219912 0.03770869539219339 -0.01495188668548801 -0.02985844388366148 
0 0 0 0 0 
0 0 0 0 0 
0 0 0 0 0 
0 0 0 0 0 
0 0 0 0 0 
-0.05127578422576468 -0.005474101026447611 0.2351763670316157 -0.07055903891514044 -0.09003305670925749 
0 0 0 0 0 
0 0 0 0 0 
-0.007673525878825558 -0.01192673690713419 0.1063477241599642 -0.1115371002650208 -0.07332308682929582 
0 0 0 0 0 
0 0 0 0 0 
0 0 0 0 0 
0 0 0 0 0 
0 0 0 0 0 
0 0 0 0 0 
0.1076734619581032 -0.009266894268128817 -0.08865877705085726 -0.001760973176613972 -0.003972826396032007 
0 0 0 0 0 
0 0 0 0 0 
-0.007632674432519593 -0.05569598857063389 -0.09145306479318578 -0.1281713577971368 0.2357412440762507 
0 0 0 0 0 
-0.02409790943317803 0.2290521944314717 -0.1109891261019603 -0.1096477566218049 -0.01236446194051815 
0.1929448551772073 -0.03571770460394103 -0.1851754568621310 -0.005606660562583602 -0.006224217777728144 
0 0 0 0 0 
0 0 0 0 0 
-0.2168661588986032 -0.06406172709345380 0.1655027649655071 -0.02246270850750318 0.1286763604314935 
-0.009946352777690006 -0.03984053744372752 -0.1082485593747826 -0.01792138016932023 0.1391579403970296 
0 0 0 0 0 
0 0 0 0 0 
0 0 0 0 0 
0.05677991880591464 -0.002104989067507232 -0.08057932144743522 -0.003432996348240886 -0.001237395036628028 
0 0 0 0 0 
0.09589765956154087 -0.01649083755811145 -0.07458786282822207 -0.006168305730913103 -0.001418019601018898 
0 0 0 0 0 
0 0 0 0 0 
-0.03762984939590888 -0.01488314545277317 0.1002927941563011 -0.01672120834813965 -0.01297955079412817 
-0.02542882013319276 -0.02107117910734351 0.1249374641951812 -0.04595325335670370 -0.01874454007753328 
0.2784017654667682 -0.01861040671195568 -0.2568744939334834 -0.008373931676739140 -0.005835012922175171 
0 0 0 0 0 
0 0 0 0 0 
0 0 0 0 0 
0 0 0 0 0 
0 0 0 0 0 
0 0 0 0 0 
0 0 0 0 0 
0 0 0 0 0 
0 0 0 0 0 
-0.1709215368471139 -0.02618316944895651 0.2850574909412534 -0.08566578783035186 -0.1474519689653853 
0 0 0 0 0 
0 0 0 0 0 
0 0 0 0 0 
-0.2721242177543536 -0.06652112215819950 0.4463965555792160 -0.03698932984301443 -0.04554984668769263 
0 0 0 0 0 
0 0 0 0 0 
0.1137776723050446 -0.0008135757635793636 -0.1021585098158361 -0.003625010954185048 -0.0007627842408865906 
0 0 0 0 0 
-0.4861446391293278 0.2256048958164528 0.4170306796967455 -0.08051520495074464 -0.08315993542168411 
-0.04111725127602003 0.2249494938727894 -0.01248167716474684 -0.06997809886625085 -0.08226364505754388 
-0.007744950618388544 -0.01639979578234846 -0.03381125996395510 -0.04012737229354287 0.09773925402005722 
-0.01545064579550529 -0.03603852019912828 -0.3055296781616260 -0.03229438767369475 0.5068108149370659 
-0.001791746472964133 -0.07798102059531663 0.1847645911625174 -0.08065732328446229 -0.03503456439763895 
0 0 0 0 0 
0 0 0 0 0 
0 0 0 0 0 
0 0 0 0 0 
-0.007635836802585345 -0.1143554181797045 -0.09346356375898654 0.4162651953248787 -0.07139019488996846 
0 0 0 0 0 
0 0 0 0 0 
0 0 0 0 0 
0 0 0 0 0 
0 0 0 0 0 
0 0 0 0 0 
0 0 0 0 0 
0 0 0 0 0 
-0.7380359534418699 0.2505943802354934 0.5259945275254985 -0.2985359806009684 0.004250769730676767 
-0.02618219350255555 -0.2408587795700822 0.07427730071872714 -0.1427549469488952 0.1195567460977003 
-0.04191005536381612 0.5614898470374365 -0.3344592567667832 -0.1251931877138991 -0.1037182245332884 
0.06112069600603705 -0.4131625420881146 0.5455863165634804 0.2212124548847118 -0.2128523558869302 
0 0 0 0 0 
0 0 0 0 0 
-0.6972555389886458 2.337518734204892 -1.095969119023508 -1.018973664935307 -0.09297978735815488 
-0.02138479879783152 0.1582053844076871 0.2718983258238144 -0.1081283582618813 -0.3314642010579597 
-0.006341521915688922 0.05942019853214842 -0.04025578955354259 -0.04295891028408798 -0.003424653619673832 
0 0 0 0 0 
-0.4261158821913391 -0.08143233169273176 0.05882805951921662 0.1709972094866357 0.3974457544324562 
-0.04269062745761305 -0.1729451160409121 -0.2035578586178846 -0.1688993907316923 0.4888271249483209 
-0.01548415591847867 -0.02240823731645221 -0.3273967395716361 0.4044988153983458 -0.01702857551799144 
-0.02983150202380286 0.1482898364439602 -0.1007838564272054 -0.007544025677265244 -0.002857874231118811 
0 0 0 0 0 
-0.05289675065770877 -0.1457331454774619 0.5872976523893843 -0.1959595100865751 -0.1102547815082250 
0 0 0 0 0 
0 0 0 0 0 
-0.008985454030160288 0.04584102284140029 -0.03698500705238868 -0.01656882137653895 -0.007675467772069273 
0 0 0 0 0 
0.01678245807321268 -0.3541933086881637 0.1707912179093781 -0.08661011486101014 0.07013593964270934 
0.5484549674588914 -0.4203660610344462 -0.2256313421936030 -0.09817020730363092 0.03704612929222006 
0 0 0 0 0 
0 0 0 0 0 
-0.004770109559719425 0.09749157914039842 -0.2698919404203106 0.03995917738960125 -0.01678639666843424 
0 0 0 0 0 
0 0 0 0 0 
0 0 0 0 0 
-0.007288241409917681 -0.03488695673954340 0.1236011833630254 -0.04394948351350838 -0.03804498844048432 
0 0 0 0 0 
-0.009865189673291773 -0.03077672120658607 -0.03305999620605961 -0.03603319155059345 0.07266690680927292 
0.1344643554570159 -0.03150341655228747 -0.1974310595928238 -0.04172706564304572 0.07167537093792860 
0 0 0 0 0 
0 0 0 0 0 
-0.003178947974307276 -0.02887133930560275 -0.08044086820498243 -0.04891159815233988 0.1346319589884671 
0 0 0 0 0 
-0.02222030292679648 -0.01285700318988225 0.1792508508838269 -0.08828446688469738 -0.01586888476170723 
-0.1104469506896557 -0.04707587464125364 0.4935457067504279 -0.1963430459740621 -0.1114595893670680 
-0.01778140372753725 -0.007651277384854435 0.2641665328028987 -0.1065063312225487 -0.08907490349002568 
-0.01918099343812283 -0.01208064067658104 -0.02511866477370888 0.05539867807373565 -0.005038853884145773 
-0.01918099343812283 -0.01208064067658104 -0.02511866477370888 0.05539867807373565 -0.005038853884145773 
0 0 0 0 0 
-0.2158000419777668 -0.01789843733988607 0.1778176134192046 0.04116702899422072 -0.02661946029320013 
-0.02625481058089543 -0.01135311154456695 0.2234606409725172 -0.04591256886787174 -0.1009328528647857 
-0.01653196210625624 -0.03232236017372417 0.04564842296903996 -0.01394801031406408 -0.03057470543583330 
-0.1543096721364526 0.1414565195314218 0.1450853328558997 -0.06195657342459550 -0.1324797635872545 
-0.01116271273218400 -0.05137222974870048 0.1449088982561688 -0.02669405779567911 -0.04569221579681386 
0 0 0 0 0 
0.08933844460473242 0.0004198899517563188 -0.1073159513425072 -0.003390323035021623 -0.0004028283367578498 
0 0 0 0 0 
0 0 0 0 0 
0.2042257580957335 0.008920903355937787 -0.04714181061053809 -0.2255370881620692 0.3451077702677345 
0 0 0 0 0 
0 0 0 0 0 
0 0 0 0 0 
0 0 0 0 0 
-0.1322224883967634 -0.01481843808553357 0.1108851620445741 -0.001307124246348478 -0.001425892769009899 
-0.003788441854453772 -0.04428776225701894 0.2375543203895735 -0.1317330163806283 -0.02775193945462978 
-0.2884499895687208 -0.04951361109653098 0.2899994044804716 -0.04783537693275293 -0.04428374339625232 
-0.1641793052119629 -0.01985300163908672 0.5284089044593767 -0.1309001925718538 -0.09525355596229448 
0 0 0 0 0 
-0.04882141393597200 -0.07327205657894159 -0.09308413686699918 -0.06067311026928129 0.2519133225291005 
0 0 0 0 0 
0 0 0 0 0 
0 0 0 0 0 
-0.05175471935171225 0.4519137785513500 -0.1248440895804958 -0.04544159419588087 -0.1113583245664302 
0.5370650219988781 0.08417780581485863 -0.1066973652182313 -0.1586648594940622 -0.3240638176495707 
-0.3177206474358443 -0.05030251125836360 0.4053506398167593 -0.08064931749177061 -0.01892399298021562 
-0.1902117639856825 -0.08515013802767459 0.3124436077029031 -0.05919850204058467 -0.02976256925074867 
0.3344271896428352 -0.05181840578073760 -0.05253181628277711 -0.05518686859716124 -0.02313885271402335 
-0.1895829976535202 -0.1132115618197553 0.4277096965122183 -0.05803163605038073 -0.01890304455907116 
0 0 0 0 0 
0 0 0 0 0 
0 0 0 0 0 
0.2003527857185047 -0.03294043765684992 -0.3468372515862965 -0.03785452335155743 0.1330375562774196 
0 0 0 0 0 
-0.004906956697572846 -0.03167438449228419 -0.09882949136480525 -0.02914507308668960 0.1353623311054642 
0 0 0 0 0 
0 0 0 0 0 
0 0 0 0 0 
0 0 0 0 0 
0 0 0 0 0 
0 0 0 0 0 
-0.5799220840881214 -0.3952680485326848 0.7672266715082401 0.1372057355252106 -0.3365906328024734 
-0.07137085167922594 -0.06486248258074380 -0.01551858965896509 0.3965308074335601 -0.2682271022777096 
-0.1399335599509882 -0.1586547881789160 -0.6825731088800299 1.076585241694096 -0.1010266687808728 
-0.01879554568092442 -0.02652269348483705 0.2450480485713437 -0.1146855444545012 -0.009881488205797264 
0 0 0 0 0 
0.05395682304043592 -0.7123735209409547 -0.6593840054376504 1.147104275489197 0.9278233566005983 
0.6766399180394321 -0.2423357550712764 -0.1523546174746272 -0.3947508848365406 -0.1560100320528385 
-0.3653166017212544 -0.5216853012816620 -0.5272706027027094 1.054745142846596 -0.2372395695914004 
0 0 0 0 0 
0 0 0 0 0 
0 0 0 0 0 
0 0 0 0 0 
0 0 0 0 0 
0.1556577648029074 -0.002951389642236957 -0.1725748782891071 -0.005379894392645201 -0.001514569956940826 
0 0 0 0 0 
0 0 0 0 0 
0 0 0 0 0 
0 0 0 0 0 
0 0 0 0 0 
0 0 0 0 0 
0.1338763243416341 -0.003158790278678034 -0.1309261183288761 -0.002904584729573106 -0.001893076805109946 
0 0 0 0 0 
0 0 0 0 0 
0 0 0 0 0 
-0.2613920239601658 0.1124452495657636 0.1419051790615030 -0.4069434278057559 0.07125514506907912 
-0.01006043996823544 0.2473444733505805 0.006055963152692873 -0.1595773348927283 -0.1915251304752947 
-0.07447006010058464 -0.007323670211940343 -0.2613102956183168 -0.1208000827663430 0.3226042844012858 
-0.08885711461526710 -0.04085202915771054 0.3159110903380831 -0.1150058558369720 -0.1017872460528711 
0 0 0 0 0 
-0.02283789143223436 -0.03982639057479873 0.3340312758399414 -0.08010986855858970 -0.02564752442886540 
-0.07608375063307997 -0.1550231611378320 0.2017491839634070 0.3015799393418522 -0.09136698489808627 
-0.002553377848576753 -0.09134686301210396 -0.2272659346642657 0.4401535244887362 -0.05871090217072904 
0 0 0 0 0 
-0.05688089275415995 -0.07680461955876362 0.1485217997859805 -0.01544460427382985 -0.01196894291171505 
0 0 0 0 0 
0 0 0 0 0 
-0.009915687409359726 0.2840233833858361 -0.2019761985912562 -0.05423349547178075 -0.02792506498698896 
-0.009915687409359726 0.2840233833858361 -0.2019761985912562 -0.05423349547178075 -0.02792506498698896 
0 0 0 0 0 
0 0 0 0 0 
0 0 0 0 0 
0 0 0 0 0 
0 0 0 0 0 
0 0 0 0 0 
0 0 0 0 0 
0 0 0 0 0 
0 0 0 0 0 
-0.02465010976246630 0.1959578537849413 -0.2402239411184265 -0.07980101529082761 0.1076291536721398 
0 0 0 0 0 
-0.002669131776852574 -0.07762271878864556 0.3977441862235523 -0.2381564915079898 -0.04377061079558494 
0.06786452801080924 0.2218344409081812 -0.2253854759734660 -0.03541536033236251 -0.08588084158240884 
0.06786452801080924 0.2218344409081812 -0.2253854759734660 -0.03541536033236251 -0.08588084158240884 
0 0 0 0 0 
-0.04000369809052726 0.2419634963697986 -0.08233146784931206 -0.02678933309473619 -0.06059392690501343 
0 0 0 0 0 
0 0 0 0 0 
0 0 0 0 0 
0 0 0 0 0 
0 0 0 0 0 
0 0 0 0 0 
-0.003698817854642814 -0.01428747885952464 -0.1996233602129374 0.2272409006727872 -0.1069180608884483 
0 0 0 0 0 
0 0 0 0 0 
0 0 0 0 0 
0 0 0 0 0 
0 0 0 0 0 
-0.03544700013817681 -0.002968318642532688 -0.1567253284801602 0.2781987496850555 -0.07578775571834023 
0 0 0 0 0 
0 0 0 0 0 
0.1171323542150214 -0.01243249410486839 -0.09325395598880935 -0.005729207012644249 -0.0009400694307965297 
0 0 0 0 0 
0 0 0 0 0 
0 0 0 0 0 
0 0 0 0 0 
0 0 0 0 0 
0 0 0 0 0 
0 0 0 0 0 
0 0 0 0 0 
-0.3294922169351677 -0.02645054412539906 0.4235655214818008 -0.03864496399618037 -0.007253784911811490 
0 0 0 0 0 
0 0 0 0 0 
0 0 0 0 0 
-0.01087592604644945 -0.008872648357661155 0.08392165629083563 -0.05327305794781140 -0.02616886620471517 
-0.003698817854642814 -0.01428747885952464 -0.1996233602129374 0.2272409006727872 -0.1069180608884483 
-0.007779866226298799 -0.04688228922826583 0.1593774542288766 -0.08439289557299791 -0.01347840384904662 
-0.03760728781736643 -0.003976741940778336 0.2005034860485767 -0.05195262237265044 -0.04197235557567338 
-0.1153165416172894 -0.1012526907044810 0.4790947844038882 -0.1860862123821985 -0.1025542919888305 
-0.03760728781736643 -0.003976741940778336 0.2005034860485767 -0.05195262237265044 -0.04197235557567338 
-0.04200661997626995 -0.003852626405391327 0.06038886959055092 -0.02628477961973715 -0.04176806107858878 
0 0 0 0 0 
0 0 0 0 0 
0 0 0 0 0 
-0.003137669505575311 -0.01576352767796478 -0.1026985500048804 -0.1870338164412434 0.1868107481802388 
-0.005185238320407521 -0.01451048153656600 0.1522844273023458 -0.1245021476606795 -0.07182388320931171 
-0.007597696334356230 -0.02107566269311076 0.1963563947895040 -0.1446655205169994 -0.02204001908212478 
0 0 0 0 0 
0 0 0 0 0 
0 0 0 0 0 
0 0 0 0 0 
0 0 0 0 0 
-0.01490477774982616 -0.01812005772476972 0.06484634844116441 -0.02257596967248736 -0.05230348659526730 
-0.005966882765541506 -0.01741463811679665 -0.1085412613928727 -0.08076119050031046 0.1383184670179020 
-0.2709657565448710 -0.04723880396406986 0.2648554108487870 -0.09814387019864018 0.1273532391140743 
-0.02148847992359528 -0.008573437274885133 0.1466154503434232 -0.1064145127091153 -0.02649951971407190 
0 0 0 0 0 
0 0 0 0 0 
0 0 0 0 0 
0 0 0 0 0 
0 0 0 0 0 
0 0 0 0 0 
0 0 0 0 0 
-0.01256788132194806 -0.05111626922683306 -0.09414792491230964 0.2796846097531161 -0.06160941439838442 
-0.01256788132194806 -0.05111626922683306 -0.09414792491230964 0.2796846097531161 -0.06160941439838442 
0 0 0 0 0 
-0.05820292877129978 -0.1145057868601464 0.2318561595867203 -0.08503302343869745 -0.02882262300287016 
-0.009648874969718727 -0.08051564612230575 0.1524666497394007 -0.05594215962622432 -0.01134928851292117 
-0.01574595382282745 0.2172265296074928 -0.1122738700318012 -0.1704939914107369 -0.02350416517083178 
0 0 0 0 0 
-0.01422747316887781 -0.03804919727476672 -0.1147431461523088 0.3195363827490185 -0.09866224583105054 
-0.007632674432519593 -0.05569598857063389 -0.09145306479318578 -0.1281713577971368 0.2357412440762507 
0.4167349341061357 0.09493742705787164 -0.1029096154071934 -0.1743753906377333 -0.01888059936872991 
-0.03059955393571923 -0.02556250127811731 0.1166190919918727 -0.06426761101798226 -0.04751707740029219 
-0.007632674432519593 -0.05569598857063389 -0.09145306479318578 -0.1281713577971368 0.2357412440762507 
-0.02260866712849207 -0.07177523496752405 -0.2078289422408384 0.4465083897450555 -0.1168687208947535 
-0.03607055741544980 -0.01868643441721878 0.1216503056245852 -0.07379820144778823 -0.04756846648001505 
0 0 0 0 0 
0 0 0 0 0 
0 0 0 0 0 
0 0 0 0 0 
0 0 0 0 0 
-0.01229687151207267 0.09096547784279400 -0.04611864404856246 -0.004699326093466441 -0.0003418743035828086 
-0.006043865656842208 0.1618691380525900 -0.03753000850190655 -0.03388581088456841 -0.07972894082786945 
0 0 0 0 0 
-0.04972963608029826 -0.03725697273814025 -0.1760453497721097 -0.09448115944685125 0.3955509783326093 
0.2847235403547386 0.02915979833576698 -0.1358768706349391 -0.04588927893034034 -0.01856318922620060 
-0.01033792635431417 -0.1157900190012617 0.006480577702003504 0.2741703220417902 -0.1037573703329244 
-0.002285926088682370 -0.07766154681516130 -0.1556890778883818 0.2570831118782709 -0.009769845473988710 
-0.08790549526234229 -0.1575345107969582 0.3892384864124647 -0.08718074958617962 -0.08315297609388396 
0 0 0 0 0 
0 0 0 0 0 
0 0 0 0 0 
0 0 0 0 0 
0 0 0 0 0 
0 0 0 0 0 
0 0 0 0 0 
0 0 0 0 0 
-0.05350574462279507 -0.1176903429590556 -0.1990416483175716 0.5416127888635363 -0.09577218934645370 
-0.03859570671082088 0.2665027097168851 -0.08086422639125196 -0.1493499907706442 -0.05688917299696456 
0 0 0 0 0 
-0.04678967920182826 0.1798980937322847 -0.1670596673285411 -0.001824637334124427 -0.006067255711770806 
0.08380851972536807 -0.005404371553654421 -0.06380377085475539 -0.004793176361215902 -0.0009867425738647939 
0 0 0 0 0 
0 0 0 0 0 
0 0 0 0 0 
-0.03315035554835313 0.7419628285099756 -0.2730058336338703 -0.2793344564471351 -0.06405672514634800 
-0.07966578197053537 -0.02270871251172663 0.03462323537204694 -0.1672227492252603 0.1489629330583348 
-0.01111851286183569 -0.05571102484887879 -0.1059818104179544 0.3571930430099029 -0.08985216448199510 
-0.06264253458107222 -0.04704840983750304 0.2662798671524591 -0.1741401920557965 -0.02829804882530718 
-0.01219146331394361 -0.02648680140500474 0.2836404648775191 -0.2738138874539968 -0.006762890178452378 
-0.01754570023438244 -0.07368708684585153 -0.02403563808242708 -0.1959062602308695 0.4308868898383898 
-0.005091094642731873 -0.04381133300534414 0.09325599677267993 -0.05341705790956222 -0.05585779749923876 
-0.2949267366772831 -0.09237595158145351 0.4981687703650744 -0.1223767487000593 -0.04232783560049976 
-0.02541813825177728 0.2840326726859372 -0.06279649564165006 -0.09941616777015343 -0.002753507771959905 
0 0 0 0 0 
0 0 0 0 0 
0 0 0 0 0 
0 0 0 0 0 
-0.02617396165224523 0.06394649429469473 -0.01603835190873212 -0.01935870933852926 -0.01885279229919348 
0 0 0 0 0 
-0.02423911364893749 0.2026922632889960 -0.1644209204724233 -0.006484237805100900 -0.03222645485486968 
0 0 0 0 0 
0 0 0 0 0 
-0.007627868861269986 -0.05243087052372441 -0.1742445057501832 -0.04931738386362615 0.3023642112417799 
0 0 0 0 0 
0 0 0 0 0 
0 0 0 0 0 
0 0 0 0 0 
0 0 0 0 0 
0 0 0 0 0 
-0.005608491268324294 -0.05751911339240768 -0.1252768764700701 0.2404627694491401 -0.03456417978074897 
-0.01833726658215898 -0.02863170753351297 -0.1739624715605952 0.2439577930535266 -0.003928238716053809 
-0.02323493558449801 -0.05301772514372265 0.1956710447349340 -0.03991235735267790 -0.07430395737708342 
-0.04238811426895033 -0.05749794903670995 0.05111989366181210 0.05322077184927594 -0.03512539089351953 
0 0 0 0 0 
0 0 0 0 0 
0 0 0 0 0 
0 0 0 0 0 
0 0 0 0 0 
0 0 0 0 0 
0.09802970013081498 -0.0001090161352082953 -0.1546626736305750 -0.001857947499463649 -0.0003868194811308337 
0 0 0 0 0 
0 0 0 0 0 
0 0 0 0 0 
0 0 0 0 0 
-0.01346358812760181 -0.01847575533965102 0.1814985249091029 -0.1392757335485203 -0.04854589659332162 
0 0 0 0 0 
-0.3366604825907454 -0.09087081750933516 0.4456805236051488 -0.03440601064724178 -0.06069494032858957 
-0.1090711642802680 -0.04531899171603862 0.1821513462555976 -0.02002933450949259 -0.03069210478790067 
0.2126464889789716 -0.1956586249397480 0.1152295225999484 -0.2258147521509409 -0.1055721161087171 
-0.001666479572813835 -0.02292809774644690 0.3468662023536762 -0.08390550447634108 -0.1673169614510802 
-0.003728935714578681 -0.05552583826928255 0.09102980690747514 -0.05228002295224886 -0.02342873690992625 
0 0 0 0 0 
0 0 0 0 0 
0 0 0 0 0 
0.04431766714876875 0.0005144893723786903 -0.08056035224081423 -0.003367748206912615 -0.0004511918348987566 
0 0 0 0 0 
0 0 0 0 0 
-0.007448302998849614 -0.2931118636305537 0.5871676105751870 -0.1069446930478313 -0.02431747154469150 
-0.02807711510163928 -0.003263220569902709 -0.2184005286261461 0.3045803750560728 -0.1038533917146803 
0 0 0 0 0 
0 0 0 0 0 
0 0 0 0 0 
-0.1339102682369597 0.06068619579543987 -0.05274945947423733 0.04744137375358514 -0.03027554902671150 
0 0 0 0 0 
0 0 0 0 0 
0 0 0 0 0 
0 0 0 0 0 
-0.2592113933226615 -0.1137244311860066 0.1486467956815724 0.4004073605513074 -0.07237692257589295 
0 0 0 0 0 
-0.005146135482667226 -0.1013714136620889 -0.2372705297979329 -0.1208602098653828 0.5644979689921912 
-0.006048114057184324 -0.01105889873218743 0.1031650309045960 -0.1013326701703379 -0.1029428091920217 
-0.2484186773147870 -0.1155466114313886 0.1451974187716267 -0.2378614383667942 0.4547736605253977 
-0.02418115191984167 0.3452496002727374 -0.1369447660475140 -0.08760753369688959 -0.02705709714403040 
-0.01378137505113855 -0.03574482798202752 -0.1136091130402008 0.1765535486003997 -0.01416557231485308 
0 0 0 0 0 
0 0 0 0 0 
0 0 0 0 0 
-0.01361760559000047 -0.04057551955987739 -0.2001640804163700 0.2738574829763440 -0.01170004331425402 
-0.01560086824602291 -0.01312037013501894 -0.1159713005663946 0.1408967378062304 -0.03593472691549134 
0.08910340814357103 -0.2205080764206460 0.02264361384898226 -0.1477619229155177 0.4280873134097286 
-0.01560086824602291 -0.01312037013501894 -0.1159713005663946 0.1408967378062304 -0.03593472691549134 
-0.01214638166019343 -0.03159290516738092 -0.09453938274346767 0.08165375396141669 -0.003011097946045197 
0 0 0 0 0 
0 0 0 0 0 
-0.001244213625240181 -0.07357522154402786 -0.1755307036956193 0.4092005873623600 -0.1682101713332314 
-0.06127632647497903 -0.01191819603793282 0.2676995109403752 -0.1334279577938165 -0.01713223178156056 
0.03295273834367272 0.5631081407650118 -0.1552351756801347 0.1364338509504298 -0.2469848293922365 
0.1158990311358966 0.5259515271734895 -0.2720289000925821 -0.2378206354577723 0.07946413014678709 
0 0 0 0 0 
0 0 0 0 0 
0 0 0 0 0 
0 0 0 0 0 
0 0 0 0 0 
0 0 0 0 0 
0 0 0 0 0 
0 0 0 0 0 
-0.004828227751869399 -0.08599106015514525 0.2654620145660445 -0.1151997005519357 -0.01679844464622506 
0 0 0 0 0 
-0.02553791781989271 -0.1739047090445456 -0.04951791382093731 -0.1236412845351028 0.4410381641532845 
-0.06310390593474530 -0.08267968643446008 0.01961784608960714 -0.08018266245416032 -0.1121665929014157 
-0.02354650392724422 -0.02740234112248699 -0.04679421031481851 0.02060670141455536 -0.07057607627890404 
-0.05374487007258624 -0.03643257367087833 0.1068590717418024 -0.09578701517941784 -0.07640748801419550 
0 0 0 0 0 
-0.04815453937796770 -0.1611154826563733 0.6127985134691444 -0.4035801157300737 -0.03965755737421498 
0.0001289606326224119 -0.1318031652886040 0.3579782166254271 -0.3451388753554500 -0.03509125917112418 
0 0 0 0 0 
0 0 0 0 0 
0 0 0 0 0 
0 0 0 0 0 
0.09606355105680311 0.0009545336696933642 -0.09636338988143883 -0.01137007303158068 -0.0005423272190987905 
0 0 0 0 0 
-0.01494990647789178 -0.2539172589324035 -0.1330407509698060 -0.05270306845402890 0.2763016683752792 
-0.003512144641605114 0.1388053496263599 -0.05576499199169151 -0.05067837720258244 -0.06522574676287873 
0 0 0 0 0 
0 0 0 0 0 
0 0 0 0 0 
0 0 0 0 0 
0 0 0 0 0 
0 0 0 0 0 
0 0 0 0 0 
0 0 0 0 0 
0 0 0 0 0 
-0.01979291428709560 0.2363157062925298 -0.07340908880038752 -0.02673990607566129 -0.1084567724432495 
0 0 0 0 0 
-0.01617809352612770 0.1558032015750135 -0.05251858205947677 -0.03539699304190807 -0.06217128495773949 
0 0 0 0 0 
0 0 0 0 0 
0 0 0 0 0 
-0.03294648125206012 -0.01770961092099372 -0.01188571174019628 0.07798599270511017 -0.01192714867265118 
-0.03294648125206012 -0.01770961092099372 -0.01188571174019628 0.07798599270511017 -0.01192714867265118 
0 0 0 0 0 
0 0 0 0 0 
0 0 0 0 0 
-0.01064430235334247 -0.03331378167573411 0.07217116468502324 -0.02761087461185175 -0.02079260411980897 
0 0 0 0 0 
-0.03485994543585738 -0.06360014256874083 0.2514524384437072 -0.04251944207061006 -0.09604776839579136 
0.08017270894572687 -0.06270469368211605 0.04566866072884578 -0.06442167284300647 -0.06838793412587191 
-0.02099542531127300 -0.02144439575425554 0.02799106955252712 -0.01835171054361091 -0.01184065725614979 
0 0 0 0 0 
0 0 0 0 0 
0 0 0 0 0 
0 0 0 0 0 
-0.01660610080729021 -0.01422475689888478 0.2445549031943338 -0.1660439722432449 -0.03286901870694479 
0 0 0 0 0 
0 0 0 0 0 
0 0 0 0 0 
0.02140992813066833 -0.003387207517303898 -0.04685932723493188 -0.002200971273679526 -4.840720651909527e-05 
0 0 0 0 0 
0 0 0 0 0 
0.06597353544277240 0.002882784363205744 -0.02429370364610532 -0.009807732607639699 -0.0003128032021753484 
-0.02423911364893749 0.2026922632889960 -0.1644209204724233 -0.006484237805100900 -0.03222645485486968 
0 0 0 0 0 
-0.02878726898589387 0.3077810991938635 -0.2881529665727313 -0.03596960756741085 -0.1418595578477299 
-0.01594093565045813 -0.1997445795220388 -0.2143575452055418 -0.04595394290535008 0.4348332116232413 
-0.01664030491820584 -0.04650322923911036 0.2777602701080881 -0.09681047989614684 -0.02685169931044614 
-0.5004754422609029 -0.08030426923133645 0.6637928985132722 -0.1545869910145526 -0.04667572369939819 
0.6282916769447638 -0.04060470396546591 -0.5141016035779250 -0.007263554855422138 -0.01244702882742665 
0 0 0 0 0 
0 0 0 0 0 
-0.005111627692638323 -0.02544078099231656 -0.07872352230222683 -0.006475933688737071 0.07255435710176038 
0 0 0 0 0 
0 0 0 0 0 
-0.006994356538023256 -0.04073906951954326 -0.1504847860054940 -0.02062881198902295 0.1338817716867910 
-0.02187787820471944 0.2346481755934003 -0.1222719829971405 -0.09289951506511958 -0.04751081858419182 
-0.005111627692638323 -0.02544078099231656 -0.07872352230222683 -0.006475933688737071 0.07255435710176038 
0 0 0 0 0 
0 0 0 0 0 
0 0 0 0 0 
0.06453511222058803 -0.005218070676351041 -0.06013935118616307 -0.002477868272446396 -0.0006029378296368768 
-0.04736112178282225 -0.01575081133163352 0.05421792088631081 -0.01355017194696531 -0.03112267943181041 
0 0 0 0 0 
0 0 0 0 0 
0 0 0 0 0 
0 0 0 0 0 
0 0 0 0 0 
0 0 0 0 0 
-0.003897030276819811 -0.03825216027785645 0.1583853722021269 -0.02305268620884911 -0.09186749190099441 
-0.02667508745068460 -0.03118995109198995 0.04414477017026891 -0.01239125585490085 -0.01976180083522469 
0.07512486188364385 -0.03241458052898401 0.1652832527275193 -0.03775259119917380 -0.02726173157337435 
0.07512486188364385 -0.03241458052898401 0.1652832527275193 -0.03775259119917380 -0.02726173157337435 
0.06184387439370409 -0.2649664064460541 0.2489709260264768 -0.06452104537305431 -0.1540556624680630 
0 0 0 0 0 
-0.005949806442250183 -0.04755916493956924 0.1241087320973035 -0.05690865994702361 -0.02103108155716656 
0 0 0 0 0 
0 0 0 0 0 
0 0 0 0 0 
0 0 0 0 0 
0 0 0 0 0 
-0.07623190326551970 -0.05063093345532626 -0.08787617965006748 0.3403340345991307 -0.003306851365119108 
-0.004331818457903229 -0.04765550437168775 0.04309563765420323 -0.01874957833097414 -0.01165049286968043 
-0.008305511910329529 -0.03560032648304306 0.1164779449589894 -0.05486024269400268 -0.01720211300625887 
-0.1529174950216418 -0.03493013236071034 0.1040755395485059 0.1103449153991922 -0.02536930677756362 
-0.01597635848882747 -0.01543778114597616 -0.08741252957407374 0.1382829838255296 -0.01684398877954960 
0 0 0 0 0 
0 0 0 0 0 
0 0 0 0 0 
0 0 0 0 0 
0 0 0 0 0 
0 0 0 0 0 
-0.03152951173186384 -0.002048346657557288 -0.1346644415917645 -0.1612730619305626 0.2067582084687415 
-0.01425318287696923 -0.04834682610602692 -0.1178863994244446 0.2061487013304165 -0.01982269557964525 
0.1460737595992572 -0.06548584533849995 -0.2552603122770780 0.02095787652729917 0.1836316287569534 
0 0 0 0 0 
0 0 0 0 0 
0.08441764510712876 -0.008142398426601530 -0.06590973510900644 -0.005317964034144000 -0.0003132913126493646 
0.05307256673120696 -0.005402149711843530 -0.05361239592323241 -0.008399312897934575 -4.162236113215749e-05 
0 0 0 0 0 
0 0 0 0 0 
0 0 0 0 0 
0 0 0 0 0 
-0.01505923473408414 -0.09838800671378221 -0.1610658614014152 0.4055354337273188 -0.03078501291669823 
-0.01567361003874037 -0.03010470045057469 0.1413591417249092 -0.1052166907418357 -0.01340071629373124 
-0.01836453448853464 -0.02222102052399539 0.05148168477508090 -0.04085174747373131 -0.02036409340535845 
-0.1756654973344629 -0.1576132013475686 0.6296897511112817 -0.3578783377125203 -0.08860253110107183 
0 0 0 0 0 
0 0 0 0 0 
0 0 0 0 0 
-0.06874341491510393 0.3138220869480302 -0.001472466189402040 -0.1173832930533140 -0.1457454209756714 
-0.3659717483401260 0.3129717571067029 0.2505955371440084 -0.1213091550053986 -0.1465103573661662 
-0.06874341491510393 0.3138220869480302 -0.001472466189402040 -0.1173832930533140 -0.1457454209756714 
0 0 0 0 0 
0 0 0 0 0 
0 0 0 0 0 
-0.01639326831847920 -0.005011568008753215 -0.05086306730105807 0.05151591994037403 -0.01756790016442478 
-0.1144352136681492 -0.03256302411040201 0.03645317296777863 0.2172349608507583 -0.01160067066527663 
0 0 0 0 0 
-0.02369609816153758 -0.02808784172689421 0.04049578499741610 -0.02021003641272185 -0.01441338470490333 
0.01986365721316427 -0.1303166484439118 0.06490401113094535 -0.09158721552982474 -0.06814379164012635 
-0.01956512394072479 -0.02688226491783415 0.04468282743048953 -0.02239651094712228 -0.01613870334546482 
-0.01684981309758769 -0.01997824605804836 0.04993603447717257 -0.02335696217861502 -0.02511986697115293 
-0.1228239447812701 -0.1275494533401329 0.2377161948427639 -0.08861321063568185 -0.06669756292021445 
0 0 0 0 0 
0.07783822282495942 -0.001594314378789649 -0.07425126347002682 -0.01033614501904560 -0.0002676548705801536 
0 0 0 0 0 
0 0 0 0 0 
0 0 0 0 0 
0 0 0 0 0 
0 0 0 0 0 
0 0 0 0 0 
0 0 0 0 0 
-0.004225035392950833 -0.02749427909371365 -0.1795093353136011 0.4061410158541348 -0.1171026435647264 
0 0 0 0 0 
0 0 0 0 0 
0 0 0 0 0 
0 0 0 0 0 
-0.4019577241709244 -0.0008113786426549848 0.4566014267088577 -0.05472020725937497 -0.005041184779214749 
-0.009477545603518467 -0.06619005736007219 0.1810674324199361 -0.06819105999772034 -0.04792982838067393 
-0.02954295386259710 -0.05269159973863095 0.2411069896046545 -0.01144569224114500 -0.1451954001929599 
-0.1248604766995387 -0.1416325111895390 0.6752915910537948 -0.08801025449743399 -0.1966756543788475 
0 0 0 0 0 
0 0 0 0 0 
0 0 0 0 0 
0 0 0 0 0 
0 0 0 0 0 
-0.2390280708378234 -0.009165402034215165 0.1188185559554595 -0.01200874728323309 -0.01448013420945195 
-0.2337580036363874 -0.001068475529929620 0.1054164340899531 -0.004293274865506101 -0.007402903391603538 
0 0 0 0 0 
0 0 0 0 0 
0 0 0 0 0 
0 0 0 0 0 
0 0 0 0 0 
0 0 0 0 0 
0 0 0 0 0 
0 0 0 0 0 
0 0 0 0 0 
0 0 0 0 0 
0 0 0 0 0 
0 0 0 0 0 
0 0 0 0 0 
-0.02695862599718693 -0.01353560078835743 0.01632650541940264 -0.002135234933367967 -0.006472195898330921 
-0.008924557525000841 0.1279250786973349 -0.07292226813224310 -0.02963999316713644 -0.08260277634004895 
-0.007433209096711116 -0.2468101956836477 0.4539480537962548 -0.06699729687126170 -0.01848958733333187 
-0.002840495449491461 0.1664948873682051 -0.1368390430363346 -0.07001697580559085 -0.009179609085191123 
-0.007433209096711116 -0.2468101956836477 0.4539480537962548 -0.06699729687126170 -0.01848958733333187 
-0.01603032268514693 -0.06330718262716185 0.07996007678957447 -0.01343685463903300 -0.02612557120938434 
-0.02338639102604912 -0.05336293208097328 0.06342072270680489 -0.01577358476389010 -0.03792857255286637 
0 0 0 0 0 
-0.02338639102604912 -0.05336293208097328 0.06342072270680489 -0.01577358476389010 -0.03792857255286637 
0 0 0 0 0 
0 0 0 0 0 
0 0 0 0 0 
0 0 0 0 0 
0 0 0 0 0 
0 0 0 0 0 
0 0 0 0 0 
0 0 0 0 0 
0 0 0 0 0 
-0.005660595595478544 0.3187484329079109 -0.1921860575931736 -0.05676026057633580 -0.02241169099856005 
0 0 0 0 0 
0 0 0 0 0 
0 0 0 0 0 
-0.005660595595478544 0.3187484329079109 -0.1921860575931736 -0.05676026057633580 -0.02241169099856005 
0 0 0 0 0 
0 0 0 0 0 
0 0 0 0 0 
0 0 0 0 0 
0 0 0 0 0 
0 0 0 0 0 
-0.006454940085252976 0.03638941028283824 -0.1624048128849326 -0.001563696067960926 -0.005019632154959083 
0 0 0 0 0 
0 0 0 0 0 
0 0 0 0 0 
0 0 0 0 0 
0 0 0 0 0 
-0.01161171137319387 -0.01926752132036086 0.1001375475750117 -0.02936391676481288 -0.01052955173165720 
-0.006682632337904823 -0.02932251104841607 0.1079668609915908 -0.04496748576570280 -0.01023924245917836 
0 0 0 0 0 
0 0 0 0 0 
0.07583288520044203 0.0007267821103638613 -0.1371857659313992 -0.002569777697854556 -0.0005045430990333902 
0 0 0 0 0 
0 0 0 0 0 
0 0 0 0 0 
0 0 0 0 0 
0 0 0 0 0 
0 0 0 0 0 
0 0 0 0 0 
-0.1937456561033290 -0.1366765651868560 -0.1115349519800271 0.1049681045007427 0.1908894810931048 
-0.1248378957130063 -0.1249080045138843 -0.3032647116290071 0.1319338506203397 0.1985046466281772 
-0.002727566608239074 -0.01031719335048672 -0.03974841143079774 0.02414755664590227 -0.0009909723594714510 
0 0 0 0 0 
0.1889531101103802 0.2894821089472564 -0.3200004533993961 -0.06823358683974116 -0.009511837987157020 
0 0 0 0 0 
0 0 0 0 0 
0 0 0 0 0 
0 0 0 0 0 
-0.005203185190386503 -0.01109432464567243 -0.1165995426790734 -0.1960033220036071 0.2952169515114143 
-0.02068882242785435 -0.01648197524240947 -0.2252414836184569 0.2518363603349097 -0.03021012506954498 
-0.07054984142256208 -0.03929270105926319 0.4207822149182972 -0.2532487827569297 -0.07047306019437803 
-0.02387906396130803 -0.009632049077702596 0.08323435378520891 -0.05453678060524572 -0.03727157988263529 
0 0 0 0 0 
0 0 0 0 0 
0 0 0 0 0 
-0.05191071164977705 -0.002061360664623257 0.08418335296407241 -0.03331135787711802 -0.04799908390483156 
0 0 0 0 0 
-0.006527328842767933 0.0004235629667907584 -0.003166605487675205 0.02891388059659013 -0.07531745566125822 
0 0 0 0 0 
0 0 0 0 0 
0 0 0 0 0 
0 0 0 0 0 
0 0 0 0 0 
0 0 0 0 0 
0 0 0 0 0 
0 0 0 0 0 
0 0 0 0 0 
0 0 0 0 0 
0 0 0 0 0 
0 0 0 0 0 
0 0 0 0 0 
0 0 0 0 0 
0 0 0 0 0 
-0.02386916715126154 0.4783131735570904 -0.2456484386378618 -0.01520845800047221 -0.09049528744529711 
-0.01020940268362609 -0.06291351952987055 0.5225344032727688 -0.1486589594511387 -0.003734597640981501 
-0.01385518879720689 -0.02021020953927459 -0.1261717864669993 -0.02349408781953618 0.1144382502464761 
0 0 0 0 0 
0.09322190553566070 -0.02276642961231614 -0.2215331701138753 -0.02513483693082151 0.1137326490018521 
0 0 0 0 0 
0.3773609307512383 0.2972226315028684 -0.2042385655569821 -0.09031203486186554 -0.03625749377311265 
-0.01546044665941851 0.07269120064187992 -0.03165428760368859 -0.01681904220337861 -0.03496740211333363 
0 0 0 0 0 
-0.01546044665941851 0.07269120064187992 -0.03165428760368859 -0.01681904220337861 -0.03496740211333363 
0 0 0 0 0 
0 0 0 0 0 
0 0 0 0 0 
0 0 0 0 0 
0 0 0 0 0 
-0.08790549526234229 -0.1575345107969582 0.3892384864124647 -0.08718074958617962 -0.08315297609388396 
0 0 0 0 0 
0 0 0 0 0 
0 0 0 0 0 
